{"learner":{"attributes":{"scikit_learn":"{\"_estimator_type\": \"classifier\"}"},"feature_names":[],"feature_types":[],"gradient_booster":{"model":{"cats":{"enc":[],"feature_segments":[],"sorted_idx":[]},"gbtree_model_param":{"num_parallel_tree":"1","num_trees":"100"},"iteration_indptr":[0,1,2,3,4,5,6,7,8,9,10,11,12,13,14,15,16,17,18,19,20,21,22,23,24,25,26,27,28,29,30,31,32,33,34,35,36,37,38,39,40,41,42,43,44,45,46,47,48,49,50,51,52,53,54,55,56,57,58,59,60,61,62,63,64,65,66,67,68,69,70,71,72,73,74,75,76,77,78,79,80,81,82,83,84,85,86,87,88,89,90,91,92,93,94,95,96,97,98,99,100],"tree_info":[0,0,0,0,0,0,0,0,0,0,0,0,0,0,0,0,0,0,0,0,0,0,0,0,0,0,0,0,0,0,0,0,0,0,0,0,0,0,0,0,0,0,0,0,0,0,0,0,0,0,0,0,0,0,0,0,0,0,0,0,0,0,0,0,0,0,0,0,0,0,0,0,0,0,0,0,0,0,0,0,0,0,0,0,0,0,0,0,0,0,0,0,0,0,0,0,0,0,0,0],"trees":[{"base_weights":[9.985372E-8,7.51066E-2,-4.1899016E-1,-2.3112237E-2,2.975794E-1,-6.070714E-1,6.333975E-1,1.6517367E-2,-7.1846116E-1,5.794415E-1,9.1660656E-2,-8.109391E-1,-4.2909693E-2,8.5818094E-1,2.1124417E-1,-1.0324642E-3,6.0825158E-2,-5.0612736E-2,-1.857049E-2,3.5882927E-2,-2.3892226E-2,8.623361E-3,-4.217079E-2,1.6882677E-2,-4.5127448E-2,1.4197446E-2,-4.8875783E-2,5.6948733E-2,8.211463E-3,-1.4044735E-2,3.046766E-2],"categories":[],"categories_nodes":[],"categories_segments":[],"categories_sizes":[],"default_left":[0,0,0,0,0,0,0,0,0,0,0,0,0,0,0,0,0,0,0,0,0,0,0,0,0,0,0,0,0,0,0],"id":0,"left_children":[1,3,5,7,9,11,13,15,17,19,21,23,25,27,29,-1,-1,-1,-1,-1,-1,-1,-1,-1,-1,-1,-1,-1,-1,-1,-1],"loss_changes":[7.845779E0,4.626625E0,7.8858995E0,4.0790844E0,3.7093263E0,3.7218885E0,4.1042733E-1,6.2964864E0,4.3776894E-1,4.3145657E0,3.0655854E0,2.8234358E0,3.248689E0,5.4218936E-1,8.555553E-1,0E0,0E0,0E0,0E0,0E0,0E0,0E0,0E0,0E0,0E0,0E0,0E0,0E0,0E0,0E0,0E0],"parents":[2147483647,0,0,1,1,2,2,3,3,4,4,5,5,6,6,7,7,8,8,9,9,10,10,11,11,12,12,13,13,14,14],"right_children":[2,4,6,8,10,12,14,16,18,20,22,24,26,28,30,-1,-1,-1,-1,-1,-1,-1,-1,-1,-1,-1,-1,-1,-1,-1,-1],"split_conditions":[6.395756E1,5.5508915E1,5.778511E0,7.530562E0,5.9182175E1,1.6610608E-1,6.9151773E0,7.043244E0,3.890214E1,5.655422E0,3.5254928E-1,2.7582142E0,7.11234E1,7.377898E1,7.231598E1,-1.0324642E-3,6.0825158E-2,-5.0612736E-2,-1.857049E-2,3.5882927E-2,-2.3892226E-2,8.623361E-3,-4.217079E-2,1.6882677E-2,-4.5127448E-2,1.4197446E-2,-4.8875783E-2,5.6948733E-2,8.211463E-3,-1.4044735E-2,3.046766E-2],"split_indices":[0,0,1,1,0,2,1,1,0,1,2,1,0,0,0,0,0,0,0,0,0,0,0,0,0,0,0,0,0,0,0],"split_type":[0,0,0,0,0,0,0,0,0,0,0,0,0,0,0,0,0,0,0,0,0,0,0,0,0,0,0,0,0,0,0],"sum_hessian":[2.4731856E2,2.1042023E2,3.689833E1,1.4659608E2,6.3824142E1,3.1662758E1,5.2355742E0,1.3961531E2,6.9807653E0,2.6177872E1,3.764627E1,2.2936802E1,8.725957E0,2.7424436E0,2.4931307E0,1.3637424E2,3.2410698E0,2.7424436E0,4.238322E0,2.3435427E1,2.7424436E0,3.5402454E1,2.2438176E0,1.4958783E0,2.1440924E1,6.9807653E0,1.7451913E0,1.4958783E0,1.2465653E0,1.2465653E0,1.2465653E0],"tree_param":{"num_deleted":"0","num_feature":"3","num_nodes":"31","size_leaf_vector":"1"}},{"base_weights":[-3.7418096E-5,7.123221E-2,-3.972129E-1,-2.201583E-2,2.8265128E-1,-5.7796705E-1,6.155962E-1,1.6120164E-2,-6.903793E-1,5.519292E-1,8.6242095E-2,-7.702938E-1,-4.432596E-2,8.341101E-1,2.0547831E-1,-9.811593E-4,5.8689352E-2,-4.868431E-2,-1.7806096E-2,3.4236215E-2,-2.2997595E-2,8.207892E-3,-4.0661134E-2,1.6386371E-2,-4.289324E-2,1.3586198E-2,-4.726139E-2,5.5370785E-2,7.9856785E-3,-1.36497365E-2,2.9653167E-2],"categories":[],"categories_nodes":[],"categories_segments":[],"categories_sizes":[],"default_left":[0,0,0,0,0,0,0,0,0,0,0,0,0,0,0,0,0,0,0,0,0,0,0,0,0,0,0,0,0,0,0],"id":1,"left_children":[1,3,5,7,9,11,13,15,17,19,21,23,25,27,29,-1,-1,-1,-1,-1,-1,-1,-1,-1,-1,-1,-1,-1,-1,-1,-1],"loss_changes":[7.0565104E0,4.1731086E0,7.299072E0,3.773247E0,3.3776255E0,3.3218746E0,3.8673377E-1,5.841293E0,4.0988684E-1,3.960392E0,2.8410337E0,2.5864801E0,3.0255117E0,5.117779E-1,8.0943716E-1,0E0,0E0,0E0,0E0,0E0,0E0,0E0,0E0,0E0,0E0,0E0,0E0,0E0,0E0,0E0,0E0],"parents":[2147483647,0,0,1,1,2,2,3,3,4,4,5,5,6,6,7,7,8,8,9,9,10,10,11,11,12,12,13,13,14,14],"right_children":[2,4,6,8,10,12,14,16,18,20,22,24,26,28,30,-1,-1,-1,-1,-1,-1,-1,-1,-1,-1,-1,-1,-1,-1,-1,-1],"split_conditions":[6.395756E1,5.5508915E1,5.778511E0,7.530562E0,5.9182175E1,1.6610608E-1,6.9151773E0,7.043244E0,3.890214E1,5.655422E0,3.5254928E-1,2.7582142E0,7.11234E1,7.377898E1,7.231598E1,-9.811593E-4,5.8689352E-2,-4.868431E-2,-1.7806096E-2,3.4236215E-2,-2.2997595E-2,8.207892E-3,-4.0661134E-2,1.6386371E-2,-4.289324E-2,1.3586198E-2,-4.726139E-2,5.5370785E-2,7.9856785E-3,-1.36497365E-2,2.9653167E-2],"split_indices":[0,0,1,1,0,2,1,1,0,1,2,1,0,0,0,0,0,0,0,0,0,0,0,0,0,0,0,0,0,0,0],"split_type":[0,0,0,0,0,0,0,0,0,0,0,0,0,0,0,0,0,0,0,0,0,0,0,0,0,0,0,0,0,0,0],"sum_hessian":[2.472894E2,2.1036238E2,3.6927013E1,1.4659943E2,6.376296E1,3.1699081E1,5.2279334E0,1.3960936E2,6.990057E0,2.6129374E1,3.7633583E1,2.2975235E1,8.723847E0,2.7362232E0,2.4917102E0,1.3638159E2,3.2277775E0,2.7479722E0,4.242085E0,2.3383884E1,2.7454894E0,3.53858E1,2.2477856E0,1.4944489E0,2.1480785E1,6.9752216E0,1.7486259E0,1.4902154E0,1.2460079E0,1.247422E0,1.2442882E0],"tree_param":{"num_deleted":"0","num_feature":"3","num_nodes":"31","size_leaf_vector":"1"}},{"base_weights":[-6.8785674E-5,6.756345E-2,-3.7681514E-1,9.3285546E-2,-6.204465E-1,-5.506995E-1,5.985997E-1,5.9998404E-2,5.966547E-2,-1.627019E-1,-8.396455E-1,-7.3237395E-1,-4.5586318E-2,8.112324E-1,1.9991763E-1,1.1853616E-2,-1.0767854E-3,-2.0803018E-2,9.561872E-3,-6.0490943E-2,-1.6747305E-2,1.59059E-2,-4.0810887E-2,1.3002026E-2,-4.5735035E-2,5.388642E-2,7.7662305E-3,-1.3266596E-2,2.886757E-2],"categories":[],"categories_nodes":[],"categories_segments":[],"categories_sizes":[],"default_left":[0,0,0,0,0,0,0,0,0,0,0,0,0,0,0,0,0,0,0,0,0,0,0,0,0,0,0,0,0],"id":2,"left_children":[1,3,5,7,9,11,13,15,-1,17,19,21,23,25,27,-1,-1,-1,-1,-1,-1,-1,-1,-1,-1,-1,-1,-1,-1],"loss_changes":[6.349848E0,3.7969115E0,6.7626057E0,7.4177885E0,6.4049816E-1,2.968337E0,3.6489773E-1,2.8865595E0,0E0,4.1568315E-1,5.2830243E-1,2.3727407E0,2.819527E0,4.8422098E-1,7.659776E-1,0E0,0E0,0E0,0E0,0E0,0E0,0E0,0E0,0E0,0E0,0E0,0E0,0E0,0E0],"parents":[2147483647,0,0,1,1,2,2,3,3,4,4,5,5,6,6,7,7,9,9,10,10,11,11,12,12,13,13,14,14],"right_children":[2,4,6,8,10,12,14,16,-1,18,20,22,24,26,28,-1,-1,-1,-1,-1,-1,-1,-1,-1,-1,-1,-1,-1,-1],"split_conditions":[6.395756E1,7.6082973E0,5.778511E0,7.043244E0,-1.10272974E-1,1.6610608E-1,6.9151773E0,3.6409783E0,5.966547E-2,-1.9318677E-1,4.1781773E1,2.7582142E0,7.11234E1,7.377898E1,7.231598E1,1.1853616E-2,-1.0767854E-3,-2.0803018E-2,9.561872E-3,-6.0490943E-2,-1.6747305E-2,1.59059E-2,-4.0810887E-2,1.3002026E-2,-4.5735035E-2,5.388642E-2,7.7662305E-3,-1.3266596E-2,2.886757E-2],"split_indices":[0,1,1,1,2,2,1,1,0,2,0,1,0,0,0,0,0,0,0,0,0,0,0,0,0,0,0,0,0],"split_type":[0,0,0,0,0,0,0,0,0,0,0,0,0,0,0,0,0,0,0,0,0,0,0,0,0,0,0,0,0],"sum_hessian":[2.4720801E2,2.1027992E2,3.692808E1,2.0353493E2,6.74499E0,3.1710554E1,5.217527E0,1.9858035E2,4.954575E0,2.7482288E0,3.996761E0,2.2991322E1,8.719232E0,2.7278643E0,2.4896624E0,6.2007107E1,1.3657324E2,1.499405E0,1.2488239E0,1.4996965E0,2.4970646E0,1.4928601E0,2.1498463E1,6.9692655E0,1.7499661E0,1.4824386E0,1.2454258E0,1.2481375E0,1.2415249E0],"tree_param":{"num_deleted":"0","num_feature":"3","num_nodes":"29","size_leaf_vector":"1"}},{"base_weights":[-5.2733725E-5,6.4126395E-2,-3.576642E-1,-2.305536E-2,2.6209646E-1,-5.250866E-1,5.823513E-1,2.7431035E-3,-5.0766118E-2,5.2087915E-1,7.39171E-2,-6.968863E-1,-4.6704266E-2,7.894534E-1,1.945525E-1,2.0197355E-3,-3.2330986E-2,3.2425743E-2,-2.230754E-2,7.4417368E-3,-3.9343126E-2,1.5440625E-2,-3.8863618E-2,1.2443582E-2,-4.4289004E-2,5.2487027E-2,7.5529353E-3,-1.2894879E-2,2.81093E-2],"categories":[],"categories_nodes":[],"categories_segments":[],"categories_sizes":[],"default_left":[0,0,0,0,0,0,0,0,0,0,0,0,0,0,0,0,0,0,0,0,0,0,0,0,0,0,0,0,0],"id":3,"left_children":[1,3,5,7,9,11,13,15,-1,17,19,21,23,25,27,-1,-1,-1,-1,-1,-1,-1,-1,-1,-1,-1,-1,-1,-1],"loss_changes":[5.7174954E0,3.6514125E0,6.2712708E0,3.7800374E0,3.1100922E0,2.6549692E0,3.4472823E-1,3.5667346E0,0E0,3.6287956E0,2.6063356E0,2.179325E0,2.629217E0,4.591639E-1,7.250066E-1,0E0,0E0,0E0,0E0,0E0,0E0,0E0,0E0,0E0,0E0,0E0,0E0,0E0,0E0],"parents":[2147483647,0,0,1,1,2,2,3,3,4,4,5,5,6,6,7,7,9,9,10,10,11,11,12,12,13,13,14,14],"right_children":[2,4,6,8,10,12,14,16,-1,18,20,22,24,26,28,-1,-1,-1,-1,-1,-1,-1,-1,-1,-1,-1,-1,-1,-1],"split_conditions":[6.395756E1,5.5508915E1,5.778511E0,5.5235233E1,5.9182175E1,1.6610608E-1,6.9151773E0,7.530562E0,-5.0766118E-2,5.655422E0,3.5254928E-1,2.7582142E0,7.11234E1,7.377898E1,7.231598E1,2.0197355E-3,-3.2330986E-2,3.2425743E-2,-2.230754E-2,7.4417368E-3,-3.9343126E-2,1.5440625E-2,-3.8863618E-2,1.2443582E-2,-4.4289004E-2,5.2487027E-2,7.5529353E-3,-1.2894879E-2,2.81093E-2],"split_indices":[0,0,1,0,0,2,1,1,0,1,2,1,0,0,0,0,0,0,0,0,0,0,0,0,0,0,0,0,0],"split_type":[0,0,0,0,0,0,0,0,0,0,0,0,0,0,0,0,0,0,0,0,0,0,0,0,0,0,0,0,0],"sum_hessian":[2.4711606E2,2.10211E2,3.6905064E1,1.4655492E2,6.3656086E1,3.1700434E1,5.204631E0,1.4381308E2,2.741835E0,2.605604E1,3.7600048E1,2.298806E1,8.712374E0,2.7175875E0,2.4870434E0,1.3681784E2,6.9952316E0,2.3308931E1,2.7471087E0,3.535043E1,2.249618E0,1.4911289E0,2.1496931E1,6.9629707E0,1.7494034E0,1.4727653E0,1.2448223E0,1.248722E0,1.2383213E0],"tree_param":{"num_deleted":"0","num_feature":"3","num_nodes":"29","size_leaf_vector":"1"}},{"base_weights":[-3.7832742E-4,6.0467973E-2,-3.396459E-1,-2.2452185E-2,2.4901986E-1,-5.009725E-1,5.6679994E-1,2.3969347E-3,-4.8828125E-2,4.9658352E-1,6.942777E-2,-5.622215E-1,2.904953E-2,7.6868844E-1,1.8937345E-1,1.919687E-3,-3.0912919E-2,3.0967904E-2,-2.1480566E-2,7.083385E-3,-3.7978232E-2,-8.05362E-3,-3.4877427E-2,5.1165015E-2,7.3456103E-3,-1.2534201E-2,2.7376896E-2],"categories":[],"categories_nodes":[],"categories_segments":[],"categories_sizes":[],"default_left":[0,0,0,0,0,0,0,0,0,0,0,0,0,0,0,0,0,0,0,0,0,0,0,0,0,0,0],"id":4,"left_children":[1,3,5,7,9,11,13,15,-1,17,19,21,-1,23,25,-1,-1,-1,-1,-1,-1,-1,-1,-1,-1,-1,-1],"loss_changes":[5.1395082E0,3.3062882E0,5.820533E0,3.500491E0,2.8361745E0,2.491767E0,3.2605922E-1,3.258776E0,0E0,3.334468E0,2.418189E0,1.593832E0,0E0,4.3630385E-1,6.863675E-1,0E0,0E0,0E0,0E0,0E0,0E0,0E0,0E0,0E0,0E0,0E0,0E0],"parents":[2147483647,0,0,1,1,2,2,3,3,4,4,5,5,6,6,7,7,9,9,10,10,11,11,13,13,14,14],"right_children":[2,4,6,8,10,12,14,16,-1,18,20,22,-1,24,26,-1,-1,-1,-1,-1,-1,-1,-1,-1,-1,-1,-1],"split_conditions":[6.395756E1,5.5508915E1,5.778511E0,5.5235233E1,5.9182175E1,3.6238566E-1,6.9151773E0,7.530562E0,-4.8828125E-2,5.655422E0,3.5254928E-1,3.2149453E0,2.904953E-2,7.377898E1,7.231598E1,1.919687E-3,-3.0912919E-2,3.0967904E-2,-2.1480566E-2,7.083385E-3,-3.7978232E-2,-8.05362E-3,-3.4877427E-2,5.1165015E-2,7.3456103E-3,-1.2534201E-2,2.7376896E-2],"split_indices":[0,0,1,0,0,2,1,1,0,1,2,1,0,0,0,0,0,0,0,0,0,0,0,0,0,0,0],"split_type":[0,0,0,0,0,0,0,0,0,0,0,0,0,0,0,0,0,0,0,0,0,0,0,0,0,0,0],"sum_hessian":[2.4697398E2,2.1011284E2,3.686114E1,1.4654648E2,6.3566364E1,3.1671637E1,5.1895046E0,1.4379883E2,2.7476497E0,2.5983553E1,3.758281E1,3.042942E1,1.242215E0,2.7055995E0,2.4839048E0,1.3680267E2,6.99615E0,2.3234873E1,2.7486813E0,3.5332943E1,2.2498689E0,8.228364E0,2.2201056E1,1.4614E0,1.2441995E0,1.2491851E0,1.2347199E0],"tree_param":{"num_deleted":"0","num_feature":"3","num_nodes":"27","size_leaf_vector":"1"}},{"base_weights":[-5.1357783E-4,5.7955597E-2,-3.1677088E-1,-2.1858772E-2,2.4256085E-1,-4.666918E-1,5.518986E-1,2.0770938E-3,-4.7008883E-2,4.7357166E-1,7.068E-2,-5.2361363E-1,2.8284982E-2,7.488607E-1,1.8437205E-1,1.824604E-3,-2.9570142E-2,2.9585749E-2,-2.0688104E-2,-8.120569E-3,1.6762497E-2,-2.0168703E-2,-5.2001227E-2,4.9913574E-2,7.1440735E-3,-1.21841775E-2,2.6669025E-2],"categories":[],"categories_nodes":[],"categories_segments":[],"categories_sizes":[],"default_left":[0,0,0,0,0,0,0,0,0,0,0,0,0,0,0,0,0,0,0,0,0,0,0,0,0,0,0],"id":5,"left_children":[1,3,5,7,9,11,13,15,-1,17,19,21,-1,23,25,-1,-1,-1,-1,-1,-1,-1,-1,-1,-1,-1,-1],"loss_changes":[4.600994E0,3.0995193E0,5.313609E0,3.2448075E0,2.4867501E0,2.2737336E0,3.0874312E-1,2.9786887E0,0E0,3.065106E0,2.3712823E0,1.5930367E0,0E0,4.1538E-1,6.49915E-1,0E0,0E0,0E0,0E0,0E0,0E0,0E0,0E0,0E0,0E0,0E0,0E0],"parents":[2147483647,0,0,1,1,2,2,3,3,4,4,5,5,6,6,7,7,9,9,10,10,11,11,13,13,14,14],"right_children":[2,4,6,8,10,12,14,16,-1,18,20,22,-1,24,26,-1,-1,-1,-1,-1,-1,-1,-1,-1,-1,-1,-1],"split_conditions":[6.3869244E1,5.5508915E1,5.778511E0,5.5235233E1,5.9182175E1,3.6238566E-1,6.9151773E0,7.530562E0,-4.7008883E-2,5.655422E0,3.8946174E-2,7.1775055E1,2.8284982E-2,7.377898E1,7.231598E1,1.824604E-3,-2.9570142E-2,2.9585749E-2,-2.0688104E-2,-8.120569E-3,1.6762497E-2,-2.0168703E-2,-5.2001227E-2,4.9913574E-2,7.1440735E-3,-1.21841775E-2,2.6669025E-2],"split_indices":[0,0,1,0,0,2,1,1,0,1,2,0,0,0,0,0,0,0,0,0,0,0,0,0,0,0,0],"split_type":[0,0,0,0,0,0,0,0,0,0,0,0,0,0,0,0,0,0,0,0,0,0,0,0,0,0,0],"sum_hessian":[2.4682652E2,2.0900308E2,3.7823433E1,1.4653154E2,6.2471546E1,3.2651043E1,5.17239E0,1.4378163E2,2.749912E0,2.5902676E1,3.656887E1,3.1411932E1,1.239111E0,2.6920936E0,2.4802966E0,1.3678801E2,6.9936147E0,2.3153124E1,2.74955E0,1.9646257E1,1.6922613E1,2.692411E1,4.4878206E0,1.448533E0,1.2435604E0,1.2495358E0,1.2307607E0],"tree_param":{"num_deleted":"0","num_feature":"3","num_nodes":"27","size_leaf_vector":"1"}},{"base_weights":[-6.013919E-4,5.398762E-2,-3.0526403E-1,-2.1275923E-2,2.2561419E-1,-4.5485848E-1,5.376046E-1,-4.7127385E-2,8.127199E-1,5.1101625E-1,9.317396E-2,-6.155916E-1,-1.1993993E-2,7.29901E-1,1.7954007E-1,-1.0174493E-3,-5.5835623E-2,1.3002413E-2,5.750165E-2,5.1200308E-2,8.483321E-3,-7.8034103E-3,1.5646271E-2,1.6126024E-2,-3.462216E-2,1.3296308E-2,-4.0797878E-2,4.8726656E-2,6.948152E-3,-1.1844444E-2,2.5984442E-2],"categories":[],"categories_nodes":[],"categories_segments":[],"categories_sizes":[],"default_left":[0,0,0,0,0,0,0,0,0,0,0,0,0,0,0,0,0,0,0,0,0,0,0,0,0,0,0,0,0,0,0],"id":6,"left_children":[1,3,5,7,9,11,13,15,17,19,21,23,25,27,29,-1,-1,-1,-1,-1,-1,-1,-1,-1,-1,-1,-1,-1,-1,-1,-1],"loss_changes":[4.1355114E0,2.7288415E0,5.0086594E0,3.2186377E0,2.3856227E0,2.315352E0,2.9265082E-1,4.1022973E0,5.379305E-1,3.3601327E0,2.5240924E0,1.9479494E0,2.386363E0,3.9616752E-1,6.155136E-1,0E0,0E0,0E0,0E0,0E0,0E0,0E0,0E0,0E0,0E0,0E0,0E0,0E0,0E0,0E0,0E0],"parents":[2147483647,0,0,1,1,2,2,3,3,4,4,5,5,6,6,7,7,8,8,9,9,10,10,11,11,12,12,13,13,14,14],"right_children":[2,4,6,8,10,12,14,16,18,20,22,24,26,28,30,-1,-1,-1,-1,-1,-1,-1,-1,-1,-1,-1,-1,-1,-1,-1,-1],"split_conditions":[6.395756E1,5.5508915E1,5.778511E0,3.6949527E-1,5.828235E1,1.6610608E-1,6.9151773E0,5.5235233E1,5.1997402E1,3.3552043E0,3.5706646E0,2.7582142E0,7.11234E1,7.377898E1,7.231598E1,-1.0174493E-3,-5.5835623E-2,1.3002413E-2,5.750165E-2,5.1200308E-2,8.483321E-3,-7.8034103E-3,1.5646271E-2,1.6126024E-2,-3.462216E-2,1.3296308E-2,-4.0797878E-2,4.8726656E-2,6.948152E-3,-1.1844444E-2,2.5984442E-2],"split_indices":[0,0,1,2,0,2,1,0,0,1,1,1,0,0,0,0,0,0,0,0,0,0,0,0,0,0,0,0,0,0,0],"split_type":[0,0,0,0,0,0,0,0,0,0,0,0,0,0,0,0,0,0,0,0,0,0,0,0,0,0,0,0,0,0,0],"sum_hessian":[2.4666841E2,2.0988441E2,3.678399E1,1.4651091E2,6.3373512E1,3.1630478E1,5.153513E0,1.4302115E2,3.4897501E0,1.9180986E1,4.4192528E1,2.292138E1,8.7091E0,2.677249E0,2.4762638E0,1.4052203E2,2.4991195E0,1.9938542E0,1.495896E0,6.8646812E0,1.2316306E1,2.084262E1,2.3349907E1,1.4935275E0,2.142785E1,6.9691744E0,1.7399254E0,1.4343419E0,1.2429072E0,1.2497829E0,1.2264808E0],"tree_param":{"num_deleted":"0","num_feature":"3","num_nodes":"31","size_leaf_vector":"1"}},{"base_weights":[-1.4259E-4,5.2543893E-2,-2.8579313E-1,7.408734E-2,-5.1961803E-1,-4.2522913E-1,5.238791E-1,4.1641057E-2,5.7391275E-2,-8.8811845E-2,-7.388525E-1,-4.7904572E-1,2.7201554E-2,7.117471E-1,1.7486982E-1,1.4760377E-2,-4.898075E-4,-1.7383993E-2,1.1899234E-2,-5.6025703E-2,-1.2789239E-2,-1.8213382E-2,-4.883183E-2,4.759886E-2,6.757696E-3,-1.15146665E-2,2.5321996E-2],"categories":[],"categories_nodes":[],"categories_segments":[],"categories_sizes":[],"default_left":[0,0,0,0,0,0,0,0,0,0,0,0,0,0,0,0,0,0,0,0,0,0,0,0,0,0,0],"id":7,"left_children":[1,3,5,7,9,11,13,15,-1,17,19,21,-1,23,25,-1,-1,-1,-1,-1,-1,-1,-1,-1,-1,-1,-1],"loss_changes":[3.7399065E0,2.62463E0,4.5915413E0,7.0268354E0,6.65205E-1,2.0113764E0,2.7766883E-1,2.5872984E0,0E0,3.9967075E-1,6.3367414E-1,1.4906878E0,0E0,3.7847257E-1,5.830379E-1,0E0,0E0,0E0,0E0,0E0,0E0,0E0,0E0,0E0,0E0,0E0,0E0],"parents":[2147483647,0,0,1,1,2,2,3,3,4,4,5,5,6,6,7,7,9,9,10,10,11,11,13,13,14,14],"right_children":[2,4,6,8,10,12,14,16,-1,18,20,22,-1,24,26,-1,-1,-1,-1,-1,-1,-1,-1,-1,-1,-1,-1],"split_conditions":[6.3869244E1,7.6082973E0,5.778511E0,7.043244E0,-1.10272974E-1,3.6238566E-1,6.9151773E0,3.2609684E0,5.7391275E-2,-1.9318677E-1,4.1781773E1,7.1775055E1,2.7201554E-2,7.377898E1,7.231598E1,1.4760377E-2,-4.898075E-4,-1.7383993E-2,1.1899234E-2,-5.6025703E-2,-1.2789239E-2,-1.8213382E-2,-4.883183E-2,4.759886E-2,6.757696E-3,-1.15146665E-2,2.5321996E-2],"split_indices":[0,1,1,1,2,2,1,1,0,2,0,0,0,0,0,0,0,0,0,0,0,0,0,0,0,0,0],"split_type":[0,0,0,0,0,0,0,0,0,0,0,0,0,0,0,0,0,0,0,0,0,0,0,0,0,0,0],"sum_hessian":[2.4650224E2,2.0880544E2,3.769682E1,2.0206755E2,6.7378774E0,3.2563736E1,5.133082E0,1.9714888E2,4.9186745E0,2.7463229E0,3.9915543E0,3.1329954E1,1.2337832E0,2.661233E0,2.4718492E0,3.2448845E1,1.6470003E2,1.4967705E0,1.2495522E0,1.4926578E0,2.4988966E0,2.6865108E1,4.464846E0,1.418991E0,1.242242E0,1.2499342E0,1.221915E0],"tree_param":{"num_deleted":"0","num_feature":"3","num_nodes":"27","size_leaf_vector":"1"}},{"base_weights":[-2.737907E-5,5.882522E-2,-2.3166424E-1,-2.1794409E-2,2.881629E-1,-3.817618E-1,3.5105705E-1,-4.6901047E-2,7.893134E-1,9.042876E-1,2.2866108E-1,-1.0230472E0,-1.467923E-1,6.1666366E-2,1.7819652E-2,-1.0538285E-3,-5.394843E-2,1.2592037E-2,5.5905122E-2,7.3842234E-3,5.858661E-2,3.3316463E-2,6.3764737E-3,-2.8812943E-2,-7.572924E-2,-4.8033797E-4,-4.3033514E-2,-1.6513804E-2,4.1493397E-2],"categories":[],"categories_nodes":[],"categories_segments":[],"categories_sizes":[],"default_left":[0,0,0,0,0,0,0,0,0,0,0,0,0,0,0,0,0,0,0,0,0,0,0,0,0,0,0,0,0],"id":8,"left_children":[1,3,5,7,9,11,13,15,17,19,21,23,25,-1,27,-1,-1,-1,-1,-1,-1,-1,-1,-1,-1,-1,-1,-1,-1],"loss_changes":[3.3856723E0,3.6678379E0,4.534917E0,3.0398943E0,1.6841736E0,5.950851E0,3.1611595E0,3.8145723E0,5.1070213E-1,6.7766285E-1,2.056238E0,1.4748192E0,3.0080435E0,0E0,2.7822883E0,0E0,0E0,0E0,0E0,0E0,0E0,0E0,0E0,0E0,0E0,0E0,0E0,0E0,0E0],"parents":[2147483647,0,0,1,1,2,2,3,3,4,4,5,5,6,6,7,7,8,8,9,9,10,10,11,11,12,12,14,14],"right_children":[2,4,6,8,10,12,14,16,18,20,22,24,26,-1,28,-1,-1,-1,-1,-1,-1,-1,-1,-1,-1,-1,-1,-1,-1],"split_conditions":[6.2130314E1,5.5508915E1,5.1894746E0,3.6949527E-1,-2.7492628E-1,-5.005245E-2,-4.3631334E-2,5.5235233E1,5.1997402E1,-3.3796883E-1,5.698111E1,3.6217775E0,7.11234E1,6.1666366E-2,2.2825365E-1,-1.0538285E-3,-5.394843E-2,1.2592037E-2,5.5905122E-2,7.3842234E-3,5.858661E-2,3.3316463E-2,6.3764737E-3,-2.8812943E-2,-7.572924E-2,-4.8033797E-4,-4.3033514E-2,-1.6513804E-2,4.1493397E-2],"split_indices":[0,0,1,2,2,2,2,0,0,2,0,1,0,0,2,0,0,0,0,0,0,0,0,0,0,0,0,0,0],"split_type":[0,0,0,0,0,0,0,0,0,0,0,0,0,0,0,0,0,0,0,0,0,0,0,0,0,0,0,0,0],"sum_hessian":[2.4635461E2,1.9703854E2,4.9316067E1,1.4645857E2,5.0579975E1,3.9489273E1,9.8267975E0,1.4297517E2,3.483408E0,3.2041576E0,4.7375816E1,9.689756E0,2.9799515E1,1.9535596E0,7.8732376E0,1.4048048E2,2.4946926E0,1.9923958E0,1.4910123E0,1.242192E0,1.9619657E0,7.8433485E0,3.9532467E1,6.213913E0,3.4758437E0,2.5846134E1,3.95338E0,5.926179E0,1.9470583E0],"tree_param":{"num_deleted":"0","num_feature":"3","num_nodes":"29","size_leaf_vector":"1"}},{"base_weights":[2.111062E-4,4.7455434E-2,-2.6463434E-1,6.808479E-2,-5.029397E-1,-4.0055585E-1,5.0298226E-1,3.7139803E-2,5.5210065E-2,-8.509312E-2,-7.1602756E-1,-5.497507E-1,7.5384895E-3,6.8698907E-1,1.6457263E-1,9.665849E-3,-1.7194719E-3,-1.6840613E-2,1.1597204E-2,-5.447493E-2,-1.2297946E-2,1.7339254E-2,-3.1273138E-2,1.3148083E-2,-3.7199005E-2,4.589705E-2,6.7082527E-3,-1.1058825E-2,2.4124121E-2],"categories":[],"categories_nodes":[],"categories_segments":[],"categories_sizes":[],"default_left":[0,0,0,0,0,0,0,0,0,0,0,0,0,0,0,0,0,0,0,0,0,0,0,0,0,0,0,0,0],"id":9,"left_children":[1,3,5,7,9,11,13,15,-1,17,19,21,23,25,27,-1,-1,-1,-1,-1,-1,-1,-1,-1,-1,-1,-1,-1,-1],"loss_changes":[3.1057384E0,2.4258401E0,4.1218395E0,6.4967136E0,6.2722623E-1,1.9816365E0,2.6652145E-1,2.230019E0,0E0,3.7699988E-1,6.0694146E-1,1.8322258E0,2.054063E0,3.4077644E-1,5.312812E-1,0E0,0E0,0E0,0E0,0E0,0E0,0E0,0E0,0E0,0E0,0E0,0E0,0E0,0E0],"parents":[2147483647,0,0,1,1,2,2,3,3,4,4,5,5,6,6,7,7,9,9,10,10,11,11,12,12,13,13,14,14],"right_children":[2,4,6,8,10,12,14,16,-1,18,20,22,24,26,28,-1,-1,-1,-1,-1,-1,-1,-1,-1,-1,-1,-1,-1,-1],"split_conditions":[6.395756E1,7.6082973E0,5.778511E0,7.043244E0,-1.10272974E-1,1.6610608E-1,6.9151773E0,3.6409783E0,5.5210065E-2,-1.9318677E-1,4.1781773E1,2.7582142E0,7.11234E1,7.377898E1,7.231598E1,9.665849E-3,-1.7194719E-3,-1.6840613E-2,1.1597204E-2,-5.447493E-2,-1.2297946E-2,1.7339254E-2,-3.1273138E-2,1.3148083E-2,-3.7199005E-2,4.589705E-2,6.7082527E-3,-1.1058825E-2,2.4124121E-2],"split_indices":[0,1,1,1,2,2,1,1,0,2,0,1,0,0,0,0,0,0,0,0,0,0,0,0,0,0,0,0,0],"split_type":[0,0,0,0,0,0,0,0,0,0,0,0,0,0,0,0,0,0,0,0,0,0,0,0,0,0,0,0,0],"sum_hessian":[2.4620828E2,2.096337E2,3.657459E1,2.0290492E2,6.72878E0,3.1478828E1,5.095759E0,1.9802644E2,4.8784757E0,2.7451382E0,3.9836414E0,2.2797277E1,8.681552E0,2.6336734E0,2.4620855E0,6.167105E1,1.363554E2,1.4954312E0,1.2497071E0,1.4855909E0,2.4980505E0,1.4964867E0,2.130079E1,6.964558E0,1.7169937E0,1.3917763E0,1.241897E0,1.2498306E0,1.2122549E0],"tree_param":{"num_deleted":"0","num_feature":"3","num_nodes":"29","size_leaf_vector":"1"}},{"base_weights":[2.7900896E-4,5.4336336E-2,-2.1303968E-1,-2.1856505E-2,2.7148655E-1,-3.557039E-1,3.4151897E-1,-4.618333E-2,7.655802E-1,8.7329394E-1,2.1372819E-1,-9.6990305E-1,-1.3128768E-1,5.9877016E-2,1.8734764E-2,-1.0597957E-3,-5.2314516E-2,1.2142984E-2,5.433814E-2,6.8619787E-3,5.6830306E-2,3.178733E-2,5.8350526E-3,-2.69804E-2,-7.2358236E-2,-9.155351E-5,-4.050439E-2,-1.5560597E-2,3.9613005E-2],"categories":[],"categories_nodes":[],"categories_segments":[],"categories_sizes":[],"default_left":[0,0,0,0,0,0,0,0,0,0,0,0,0,0,0,0,0,0,0,0,0,0,0,0,0,0,0,0,0],"id":10,"left_children":[1,3,5,7,9,11,13,15,17,19,21,23,25,-1,27,-1,-1,-1,-1,-1,-1,-1,-1,-1,-1,-1,-1,-1,-1],"loss_changes":[2.859936E0,3.2796779E0,4.0885487E0,2.8588798E0,1.6023519E0,5.437443E0,2.953494E0,3.5744827E0,4.872172E-1,6.547339E-1,1.9029458E0,1.4056492E0,2.6984951E0,0E0,2.5019588E0,0E0,0E0,0E0,0E0,0E0,0E0,0E0,0E0,0E0,0E0,0E0,0E0,0E0,0E0],"parents":[2147483647,0,0,1,1,2,2,3,3,4,4,5,5,6,6,7,7,8,8,9,9,10,10,11,11,12,12,14,14],"right_children":[2,4,6,8,10,12,14,16,18,20,22,24,26,-1,28,-1,-1,-1,-1,-1,-1,-1,-1,-1,-1,-1,-1,-1,-1],"split_conditions":[6.2130314E1,5.5508915E1,5.1894746E0,3.6949527E-1,-2.7492628E-1,-5.005245E-2,-4.3631334E-2,5.5235233E1,5.1997402E1,-3.3796883E-1,5.698111E1,3.6217775E0,7.11234E1,5.9877016E-2,2.2825365E-1,-1.0597957E-3,-5.2314516E-2,1.2142984E-2,5.433814E-2,6.8619787E-3,5.6830306E-2,3.178733E-2,5.8350526E-3,-2.69804E-2,-7.2358236E-2,-9.155351E-5,-4.050439E-2,-1.5560597E-2,3.9613005E-2],"split_indices":[0,0,1,2,2,2,2,0,0,2,0,1,0,0,2,0,0,0,0,0,0,0,0,0,0,0,0,0,0],"split_type":[0,0,0,0,0,0,0,0,0,0,0,0,0,0,0,0,0,0,0,0,0,0,0,0,0,0,0,0,0],"sum_hessian":[2.4600824E2,1.9686559E2,4.9142643E1,1.4639754E2,5.0468056E1,3.9372395E1,9.77025E0,1.4292345E2,3.474083E0,3.183029E0,4.7285027E1,9.647231E0,2.9725163E1,1.9332504E0,7.837E0,1.4043588E2,2.4875607E0,1.9905806E0,1.4835024E0,1.2394673E0,1.9435617E0,7.801266E0,3.948376E1,6.1936884E0,3.4535432E0,2.580625E1,3.9189134E0,5.9126387E0,1.9243613E0],"tree_param":{"num_deleted":"0","num_feature":"3","num_nodes":"29","size_leaf_vector":"1"}},{"base_weights":[5.0411955E-4,5.2229434E-2,-2.0385385E-1,-2.0676851E-2,2.6032487E-1,-3.4188244E-1,3.3316448E-1,-4.424781E-2,7.44021E-1,8.490652E-1,2.0410141E-1,-9.33739E-1,-1.2614699E-1,5.8211632E-2,2.0579956E-2,-1.0071262E-3,-5.06094E-2,1.1745806E-2,5.29145E-2,6.6741193E-3,5.5328604E-2,3.0517107E-2,5.5538923E-3,-2.5853166E-2,-6.993748E-2,-8.714674E-5,-3.9066512E-2,-1.4893589E-2,3.8491286E-2],"categories":[],"categories_nodes":[],"categories_segments":[],"categories_sizes":[],"default_left":[0,0,0,0,0,0,0,0,0,0,0,0,0,0,0,0,0,0,0,0,0,0,0,0,0,0,0,0,0],"id":11,"left_children":[1,3,5,7,9,11,13,15,17,19,21,23,25,-1,27,-1,-1,-1,-1,-1,-1,-1,-1,-1,-1,-1,-1,-1,-1],"loss_changes":[2.6197443E0,3.0058231E0,3.8245418E0,2.6894631E0,1.5275981E0,5.0301433E0,2.7666764E0,3.3376338E0,4.6548867E-1,6.193843E-1,1.7545123E0,1.333313E0,2.5012102E0,0E0,2.3347583E0,0E0,0E0,0E0,0E0,0E0,0E0,0E0,0E0,0E0,0E0,0E0,0E0,0E0,0E0],"parents":[2147483647,0,0,1,1,2,2,3,3,4,4,5,5,6,6,7,7,8,8,9,9,10,10,11,11,12,12,14,14],"right_children":[2,4,6,8,10,12,14,16,18,20,22,24,26,-1,28,-1,-1,-1,-1,-1,-1,-1,-1,-1,-1,-1,-1,-1,-1],"split_conditions":[6.2130314E1,5.5508915E1,5.1894746E0,3.6949527E-1,-2.7492628E-1,-5.005245E-2,-4.3631334E-2,5.5235233E1,5.1997402E1,-3.3796883E-1,5.698111E1,3.6217775E0,7.11234E1,5.8211632E-2,2.2825365E-1,-1.0071262E-3,-5.06094E-2,1.1745806E-2,5.29145E-2,6.6741193E-3,5.5328604E-2,3.0517107E-2,5.5538923E-3,-2.5853166E-2,-6.993748E-2,-8.714674E-5,-3.9066512E-2,-1.4893589E-2,3.8491286E-2],"split_indices":[0,0,1,2,2,2,2,0,0,2,0,1,0,0,2,0,0,0,0,0,0,0,0,0,0,0,0,0,0],"split_type":[0,0,0,0,0,0,0,0,0,0,0,0,0,0,0,0,0,0,0,0,0,0,0,0,0,0,0,0,0],"sum_hessian":[2.4582863E2,1.9676866E2,4.9059956E1,1.4638373E2,5.0384937E1,3.9317608E1,9.742346E0,1.429205E2,3.463229E0,3.1629272E0,4.7222008E1,9.614012E0,2.9703598E1,1.9181161E0,7.8242297E0,1.4044374E2,2.4767587E0,1.9888544E0,1.4743745E0,1.2388011E0,1.924126E0,7.7623043E0,3.9459705E1,6.184389E0,3.4296222E0,2.5806252E1,3.8973463E0,5.9133277E0,1.9109023E0],"tree_param":{"num_deleted":"0","num_feature":"3","num_nodes":"29","size_leaf_vector":"1"}},{"base_weights":[7.159622E-4,5.0212868E-2,-1.9512033E-1,3.2770088E-1,-1.0229985E-3,-2.9116306E-1,5.204608E-1,-2.0970178E-1,5.053718E-1,-7.307796E-1,2.1088501E-2,-5.550463E-2,-2.065263E-1,1.9624537E-1,3.5102863E-2,-2.9527543E-2,3.96417E-2,-2.4289854E-2,2.9743794E-2,5.5940975E-3,-5.192117E-2,-1.811541E-3,1.3128481E-2,-5.5305725E-3,-4.1868277E-2,2.84926E-2,-1.4630863E-2],"categories":[],"categories_nodes":[],"categories_segments":[],"categories_sizes":[],"default_left":[0,0,0,0,0,0,0,0,0,0,0,0,0,0,0,0,0,0,0,0,0,0,0,0,0,0,0],"id":12,"left_children":[1,3,5,7,9,11,13,15,17,19,21,-1,23,25,-1,-1,-1,-1,-1,-1,-1,-1,-1,-1,-1,-1,-1],"loss_changes":[2.4004116E0,2.8105817E0,3.5852668E0,3.0478845E0,2.7238696E0,2.8683622E0,2.314372E-1,3.6610687E0,2.3692498E0,1.4031398E0,2.2779665E0,0E0,2.4325519E0,8.314549E-1,0E0,0E0,0E0,0E0,0E0,0E0,0E0,0E0,0E0,0E0,0E0,0E0,0E0],"parents":[2147483647,0,0,1,1,2,2,3,3,4,4,5,5,6,6,7,7,8,8,9,9,10,10,12,12,13,13],"right_children":[2,4,6,8,10,12,14,16,18,20,22,-1,24,26,-1,-1,-1,-1,-1,-1,-1,-1,-1,-1,-1,-1,-1],"split_conditions":[6.2130314E1,3.2609684E0,5.778511E0,2.9606028E0,3.3194015E0,-1.96377E-1,9.9364564E-2,1.3326934E-1,3.7993626E1,-1.6097912E-1,5.650221E1,-5.550463E-2,7.1775055E1,4.877943E-2,3.5102863E-2,-2.9527543E-2,3.96417E-2,-2.4289854E-2,2.9743794E-2,5.5940975E-3,-5.192117E-2,-1.811541E-3,1.3128481E-2,-5.5305725E-3,-4.1868277E-2,2.84926E-2,-1.4630863E-2],"split_indices":[0,1,1,1,1,2,2,2,0,2,0,0,0,2,0,0,0,0,0,0,0,0,0,0,0,0,0],"split_type":[0,0,0,0,0,0,0,0,0,0,0,0,0,0,0,0,0,0,0,0,0,0,0,0,0,0,0],"sum_hessian":[2.4562563E2,1.966633E2,4.8962326E1,2.9811491E1,1.668518E2,4.3691345E1,5.270984E0,7.3623257E0,2.2449165E1,3.9643595E0,1.6288744E2,2.9576545E0,4.073369E1,2.6393878E0,2.6315963E0,5.6332693E0,1.729056E0,1.4925874E0,2.095658E1,1.2304323E0,2.7339275E0,1.3232742E2,3.0560022E1,3.6378E1,4.3556895E0,1.4021469E0,1.2372409E0],"tree_param":{"num_deleted":"0","num_feature":"3","num_nodes":"27","size_leaf_vector":"1"}},{"base_weights":[3.877967E-4,3.3664194E-1,-2.656938E-2,5.387622E-1,-4.442629E-2,-4.579307E-2,5.011862E-1,-2.1316545E-1,8.6029285E-1,1.6460456E-1,-9.310052E-2,9.906949E-1,-2.7350698E-2,1.9277034E-2,-3.5585333E-2,-5.5672405E-3,6.425985E-2,-5.049564E-3,2.6428167E-2,-1.1124644E-2,5.899335E-4,5.2208533E-3,6.006942E-2],"categories":[],"categories_nodes":[],"categories_segments":[],"categories_sizes":[],"default_left":[0,0,0,0,0,0,0,0,0,0,0,0,0,0,0,0,0,0,0,0,0,0,0],"id":13,"left_children":[1,3,5,7,-1,9,11,13,15,17,19,21,-1,-1,-1,-1,-1,-1,-1,-1,-1,-1,-1],"loss_changes":[2.2430406E0,5.0266333E0,2.3472836E0,4.145344E0,0E0,2.224639E0,4.716299E0,1.9786874E0,4.964204E0,4.0271316E0,2.471015E0,9.765477E-1,0E0,0E0,0E0,0E0,0E0,0E0,0E0,0E0,0E0,0E0,0E0],"parents":[2147483647,0,0,1,1,2,2,3,3,5,5,6,6,7,7,8,8,9,9,10,10,11,11],"right_children":[2,4,6,8,-1,10,12,14,16,18,20,22,-1,-1,-1,-1,-1,-1,-1,-1,-1,-1,-1],"split_conditions":[3.4054016E1,7.2777205E0,3.6949527E-1,-1.3338944E-1,-4.442629E-2,3.2609684E0,4.5611274E-1,5.099682E0,2.863392E1,3.073547E0,4.699405E0,3.6409783E0,-2.7350698E-2,1.9277034E-2,-3.5585333E-2,-5.5672405E-3,6.425985E-2,-5.049564E-3,2.6428167E-2,-1.1124644E-2,5.899335E-4,5.2208533E-3,6.006942E-2],"split_indices":[0,1,2,2,0,1,2,1,0,1,1,1,0,0,0,0,0,0,0,0,0,0,0],"split_type":[0,0,0,0,0,0,0,0,0,0,0,0,0,0,0,0,0,0,0,0,0,0,0],"sum_hessian":[2.4546762E2,1.736573E1,2.2810188E2,1.538746E1,1.9782697E0,2.2096634E2,7.135549E0,4.7099223E0,1.0677538E1,4.010808E1,1.8085826E2,4.9014406E0,2.2341082E0,2.242968E0,2.466954E0,3.4732141E0,7.2043233E0,2.360503E1,1.6503052E1,8.0473625E1,1.00384636E2,1.2286664E0,3.6727743E0],"tree_param":{"num_deleted":"0","num_feature":"3","num_nodes":"23","size_leaf_vector":"1"}},{"base_weights":[5.687252E-4,4.078845E-2,-2.1972615E-1,6.0884602E-2,-4.5934814E-1,-3.7297168E-1,3.028116E-1,3.0539067E-2,5.8752786E-2,-7.9202986E-1,-1.5035045E-1,-5.263751E-1,3.487022E-2,4.5612805E-2,6.7802005E-2,8.757777E-3,-1.7603167E-3,-5.3644992E-2,-6.4034606E-3,9.0650385E-3,-2.7439311E-2,-4.9272176E-2,-1.1833712E-2,4.1920654E-2,-1.3411623E-2,-5.0180193E-2,2.1249278E-2],"categories":[],"categories_nodes":[],"categories_segments":[],"categories_sizes":[],"default_left":[0,0,0,0,0,0,0,0,0,0,0,0,0,0,0,0,0,0,0,0,0,0,0,0,0,0,0],"id":14,"left_children":[1,3,5,7,9,11,13,15,-1,17,19,21,23,-1,25,-1,-1,-1,-1,-1,-1,-1,-1,-1,-1,-1,-1],"loss_changes":[2.1921964E0,2.1307054E0,3.1717544E0,6.79416E0,7.237232E-1,1.8943157E0,1.2578402E0,1.8857048E0,0E0,5.551529E-1,8.2428503E-1,2.6727996E0,2.4493945E0,0E0,3.38475E0,0E0,0E0,0E0,0E0,0E0,0E0,0E0,0E0,0E0,0E0,0E0,0E0],"parents":[2147483647,0,0,1,1,2,2,3,3,4,4,5,5,6,6,7,7,9,9,10,10,11,11,12,12,14,14],"right_children":[2,4,6,8,10,12,14,16,-1,18,20,22,24,-1,26,-1,-1,-1,-1,-1,-1,-1,-1,-1,-1,-1,-1],"split_conditions":[6.3869244E1,7.530562E0,5.1894746E0,7.043244E0,3.890214E1,1.6610608E-1,5.3358493E0,3.6409783E0,5.8752786E-2,8.007366E0,5.0536747E1,6.626655E1,2.0034456E-1,4.5612805E-2,5.5441794E0,8.757777E-3,-1.7603167E-3,-5.3644992E-2,-6.4034606E-3,9.0650385E-3,-2.7439311E-2,-4.9272176E-2,-1.1833712E-2,4.1920654E-2,-1.3411623E-2,-5.0180193E-2,2.1249278E-2],"split_indices":[0,1,1,1,0,2,1,1,0,1,0,0,2,0,1,0,0,0,0,0,0,0,0,0,0,0,0],"split_type":[0,0,0,0,0,0,0,0,0,0,0,0,0,0,0,0,0,0,0,0,0,0,0,0,0,0,0],"sum_hessian":[2.4540915E2,2.0821054E2,3.7198612E1,2.0101187E2,7.1986613E0,2.8984507E1,8.214106E0,1.9668245E2,4.329428E0,2.7137187E0,4.4849424E0,2.0851065E1,8.133443E0,1.483973E0,6.730133E0,6.0950005E1,1.3573244E2,1.4741938E0,1.239525E0,2.7450109E0,1.7399318E0,7.1381526E0,1.3712912E1,1.7439712E0,6.3894715E0,1.2302151E0,5.499918E0],"tree_param":{"num_deleted":"0","num_feature":"3","num_nodes":"27","size_leaf_vector":"1"}},{"base_weights":[4.261257E-4,1.8011356E-2,-4.685284E-1,-1.3991155E-2,5.6163818E-2,-6.0660166E-1,1.0893772E-2,3.762192E-2,-2.1665363E-1,-2.884119E-1,-5.772529E-2,1.0979572E-2,-1.9604086E-3,-5.284488E-2,-6.8768198E-3,-3.0426318E-2,2.1507123E-2],"categories":[],"categories_nodes":[],"categories_segments":[],"categories_sizes":[],"default_left":[0,0,0,0,0,0,0,0,0,0,0,0,0,0,0,0,0],"id":15,"left_children":[1,3,5,7,-1,9,-1,11,13,15,-1,-1,-1,-1,-1,-1,-1],"loss_changes":[2.0389762E0,8.444284E0,9.791064E-1,2.4408507E0,0E0,1.0101471E0,0E0,2.6120393E0,3.0027199E0,1.6894293E0,0E0,0E0,0E0,0E0,0E0,0E0,0E0],"parents":[2147483647,0,0,1,1,2,2,3,3,5,5,7,7,8,8,9,9],"right_children":[2,4,6,8,-1,10,-1,12,14,16,-1,-1,-1,-1,-1,-1,-1],"split_conditions":[7.530562E0,7.043244E0,1.4048147E-1,6.2130314E1,5.6163818E-2,5.0536747E1,1.0893772E-2,3.6409783E0,-1.96377E-1,4.4734455E1,-5.772529E-2,1.0979572E-2,-1.9604086E-3,-5.284488E-2,-6.8768198E-3,-3.0426318E-2,2.1507123E-2],"split_indices":[1,1,2,0,0,0,0,1,2,0,0,0,0,0,0,0,0],"split_type":[0,0,0,0,0,0,0,0,0,0,0,0,0,0,0,0,0],"sum_hessian":[2.4522507E2,2.3728862E2,7.9364448E0,2.3157092E2,5.7177024E0,6.7041383E0,1.2323065E0,1.8521552E2,4.6355404E1,5.206758E0,1.4973804E0,5.443348E1,1.3078203E2,2.925653E0,4.3429752E1,3.707983E0,1.4987748E0],"tree_param":{"num_deleted":"0","num_feature":"3","num_nodes":"17","size_leaf_vector":"1"}},{"base_weights":[2.0619786E-4,3.1709203E-1,-2.508258E-2,5.039137E-1,-4.109672E-2,-4.3564685E-2,4.8328865E-1,-2.2178568E-1,8.1660444E-1,1.5049613E-1,-8.708343E-2,9.578604E-1,-2.6351286E-2,1.8401591E-2,-3.551006E-2,-5.9166932E-3,6.142599E-2,-2.0061936E-3,3.0645529E-2,-2.4089746E-3,-2.1204336E-2,4.758869E-3,5.8256447E-2],"categories":[],"categories_nodes":[],"categories_segments":[],"categories_sizes":[],"default_left":[0,0,0,0,0,0,0,0,0,0,0,0,0,0,0,0,0,0,0,0,0,0,0],"id":16,"left_children":[1,3,5,7,-1,9,11,13,15,17,19,21,-1,-1,-1,-1,-1,-1,-1,-1,-1,-1,-1],"loss_changes":[1.9798148E0,4.299567E0,2.1708426E0,3.8812494E0,0E0,1.8853799E0,4.392891E0,1.9024391E0,4.616306E0,3.6364012E0,2.3620422E0,9.391308E-1,0E0,0E0,0E0,0E0,0E0,0E0,0E0,0E0,0E0,0E0,0E0],"parents":[2147483647,0,0,1,1,2,2,3,3,5,5,6,6,7,7,8,8,9,9,10,10,11,11],"right_children":[2,4,6,8,-1,10,12,14,16,18,20,22,-1,-1,-1,-1,-1,-1,-1,-1,-1,-1,-1],"split_conditions":[3.4054016E1,7.2777205E0,3.6949527E-1,-1.3338944E-1,-4.109672E-2,3.2609684E0,4.5611274E-1,5.099682E0,2.863392E1,3.1513498E0,6.666686E1,3.6409783E0,-2.6351286E-2,1.8401591E-2,-3.551006E-2,-5.9166932E-3,6.142599E-2,-2.0061936E-3,3.0645529E-2,-2.4089746E-3,-2.1204336E-2,4.758869E-3,5.8256447E-2],"split_indices":[0,1,2,2,0,1,2,1,0,1,0,1,0,0,0,0,0,0,0,0,0,0,0],"split_type":[0,0,0,0,0,0,0,0,0,0,0,0,0,0,0,0,0,0,0,0,0,0,0],"sum_hessian":[2.4506264E2,1.7258823E1,2.2780382E2,1.5305954E1,1.9528704E0,2.2069464E2,7.109165E0,4.6966305E0,1.06093235E1,3.9975563E1,1.8071909E2,4.8723907E0,2.2367742E0,2.2391179E0,2.4575126E0,3.4626813E0,7.1466417E0,2.8953402E1,1.1022162E1,1.6304051E2,1.767857E1,1.2265408E0,3.6458502E0],"tree_param":{"num_deleted":"0","num_feature":"3","num_nodes":"23","size_leaf_vector":"1"}},{"base_weights":[3.6565878E-4,-1.5367584E-2,4.655691E-1,2.3138532E-2,-2.3404567E-1,9.2617476E-1,-2.542231E-2,-4.618005E-2,1.851256E-1,-3.895648E-1,2.7472323E-1,4.6292283E-3,5.638162E-2,-1.1506126E-3,-4.889201E-2,5.968355E-3,3.4295913E-2,1.0746442E-3,-2.7933413E-2,4.4654656E-2,1.6400764E-3],"categories":[],"categories_nodes":[],"categories_segments":[],"categories_sizes":[],"default_left":[0,0,0,0,0,0,0,0,0,0,0,0,0,0,0,0,0,0,0,0,0],"id":17,"left_children":[1,3,5,7,9,11,-1,13,15,17,19,-1,-1,-1,-1,-1,-1,-1,-1,-1,-1],"loss_changes":[1.807266E0,2.0167851E0,4.0948834E0,2.2993612E0,2.943882E0,8.761058E-1,0E0,3.078641E0,1.9381108E0,1.949522E0,1.3141296E0,0E0,0E0,0E0,0E0,0E0,0E0,0E0,0E0,0E0,0E0],"parents":[2147483647,0,0,1,1,2,2,3,3,4,4,5,5,7,7,8,8,9,9,10,10],"right_children":[2,4,6,8,10,12,-1,14,16,18,20,-1,-1,-1,-1,-1,-1,-1,-1,-1,-1],"split_conditions":[3.6949527E-1,6.395756E1,4.5611274E-1,5.5508915E1,5.1894746E0,3.6409783E0,-2.542231E-2,5.5235233E1,2.3690379E-1,3.2149453E0,5.3358493E0,4.6292283E-3,5.638162E-2,-1.1506126E-3,-4.889201E-2,5.968355E-3,3.4295913E-2,1.0746442E-3,-2.7933413E-2,4.4654656E-2,1.6400764E-3],"split_indices":[2,0,2,0,1,1,0,0,2,1,1,0,0,0,0,0,0,0,0,0,0],"split_type":[0,0,0,0,0,0,0,0,0,0,0,0,0,0,0,0,0,0,0,0,0],"sum_hessian":[2.4494513E2,2.378674E2,7.077741E0,2.0301373E2,3.4853657E1,4.838678E0,2.2390633E0,1.4267445E2,6.0339283E1,2.6873375E1,7.980283E0,1.2258672E0,3.6128109E0,1.4021246E2,2.4619937E0,5.4430443E1,5.908842E0,8.087394E0,1.878598E1,1.4872078E0,6.4930754E0],"tree_param":{"num_deleted":"0","num_feature":"3","num_nodes":"21","size_leaf_vector":"1"}},{"base_weights":[5.325589E-4,3.031861E-1,-2.3571236E-2,4.8354873E-1,-3.9873723E-2,-4.061276E-2,4.4884768E-1,-3.3944842E-1,7.329713E-1,1.5398346E-1,-7.9837844E-2,8.963041E-1,-2.4532089E-2,4.1909963E-3,-3.201006E-2,-1.447271E-3,5.5440355E-2,1.4490038E-3,6.474998E-2,-9.751728E-3,8.6846435E-4,4.5031407E-3,5.462529E-2],"categories":[],"categories_nodes":[],"categories_segments":[],"categories_sizes":[],"default_left":[0,0,0,0,0,0,0,0,0,0,0,0,0,0,0,0,0,0,0,0,0,0,0],"id":18,"left_children":[1,3,5,7,-1,9,11,13,15,17,19,21,-1,-1,-1,-1,-1,-1,-1,-1,-1,-1,-1],"loss_changes":[1.800138E0,3.999148E0,1.8584491E0,3.587018E0,0E0,1.703293E0,3.8201947E0,6.2214494E-1,3.6964407E0,5.311935E0,2.0753515E0,8.1921244E-1,0E0,0E0,0E0,0E0,0E0,0E0,0E0,0E0,0E0,0E0,0E0],"parents":[2147483647,0,0,1,1,2,2,3,3,5,5,6,6,7,7,8,8,9,9,10,10,11,11],"right_children":[2,4,6,8,-1,10,12,14,16,18,20,22,-1,-1,-1,-1,-1,-1,-1,-1,-1,-1,-1],"split_conditions":[3.4054016E1,7.2777205E0,3.6949527E-1,-1.568769E-1,-3.9873723E-2,3.2215111E0,4.5611274E-1,4.9529095E0,2.863392E1,3.1990597E0,4.699405E0,3.6409783E0,-2.4532089E-2,4.1909963E-3,-3.201006E-2,-1.447271E-3,5.5440355E-2,1.4490038E-3,6.474998E-2,-9.751728E-3,8.6846435E-4,4.5031407E-3,5.462529E-2],"split_indices":[0,1,2,2,0,1,2,1,0,1,1,1,0,0,0,0,0,0,0,0,0,0,0],"split_type":[0,0,0,0,0,0,0,0,0,0,0,0,0,0,0,0,0,0,0,0,0,0,0],"sum_hessian":[2.4478032E2,1.720253E1,2.2757779E2,1.5262219E1,1.9403099E0,2.2053642E2,7.0413585E0,3.465729E0,1.1796491E1,3.650566E1,1.8403076E2,4.8008127E0,2.2405453E0,1.739259E0,1.72647E0,4.2016463E0,7.5948443E0,3.382534E1,2.6803184E0,8.376155E1,1.0026922E2,1.2251993E0,3.5756135E0],"tree_param":{"num_deleted":"0","num_feature":"3","num_nodes":"23","size_leaf_vector":"1"}},{"base_weights":[8.3830114E-4,1.7069625E-2,-4.3310943E-1,-1.35841975E-2,5.433255E-2,-5.673234E-1,1.11488225E-2,3.2131754E-2,-1.9343016E-1,-2.5275978E-1,-5.595128E-2,1.020405E-2,-2.016045E-3,-5.0799627E-2,-5.83888E-3,-2.7884051E-2,2.0937933E-2],"categories":[],"categories_nodes":[],"categories_segments":[],"categories_sizes":[],"default_left":[0,0,0,0,0,0,0,0,0,0,0,0,0,0,0,0,0],"id":19,"left_children":[1,3,5,7,-1,9,-1,11,13,15,-1,-1,-1,-1,-1,-1,-1],"loss_changes":[1.7377511E0,7.810478E0,9.097973E-1,1.9147763E0,0E0,1.0477135E0,0E0,2.3247414E0,2.8567739E0,1.4978547E0,0E0,0E0,0E0,0E0,0E0,0E0,0E0],"parents":[2147483647,0,0,1,1,2,2,3,3,5,5,7,7,8,8,9,9],"right_children":[2,4,6,8,-1,10,-1,12,14,16,-1,-1,-1,-1,-1,-1,-1],"split_conditions":[7.530562E0,7.043244E0,1.4048147E-1,6.2130314E1,5.433255E-2,5.0536747E1,1.11488225E-2,3.6409783E0,-1.96377E-1,4.4734455E1,-5.595128E-2,1.020405E-2,-2.016045E-3,-5.0799627E-2,-5.83888E-3,-2.7884051E-2,2.0937933E-2],"split_indices":[1,1,2,0,0,0,0,1,2,0,0,0,0,0,0,0,0],"split_type":[0,0,0,0,0,0,0,0,0,0,0,0,0,0,0,0,0],"sum_hessian":[2.4466576E2,2.367703E2,7.8954606E0,2.3113339E2,5.6369014E0,6.666916E0,1.2285445E0,1.8494312E2,4.6190285E1,5.174641E0,1.4922752E0,5.4287594E1,1.3065552E2,2.8928163E0,4.329747E1,3.675295E0,1.4993458E0],"tree_param":{"num_deleted":"0","num_feature":"3","num_nodes":"17","size_leaf_vector":"1"}},{"base_weights":[6.1520765E-4,1.6258368E-2,-4.1822773E-1,-1.3119942E-2,5.262519E-2,-5.4859716E-1,1.0841834E-2,3.057858E-2,-1.8511803E-1,-2.4176082E-1,-5.4433167E-2,9.7142635E-3,-1.9157659E-3,-4.9262173E-2,-5.554789E-3,-2.6862983E-2,2.030719E-2],"categories":[],"categories_nodes":[],"categories_segments":[],"categories_sizes":[],"default_left":[0,0,0,0,0,0,0,0,0,0,0,0,0,0,0,0,0],"id":20,"left_children":[1,3,5,7,-1,9,-1,11,13,15,-1,-1,-1,-1,-1,-1,-1],"loss_changes":[1.6152551E0,7.247518E0,8.5382545E-1,1.7497677E0,0E0,1.0040872E0,0E0,2.104065E0,2.6833072E0,1.3979982E0,0E0,0E0,0E0,0E0,0E0,0E0,0E0],"parents":[2147483647,0,0,1,1,2,2,3,3,5,5,7,7,8,8,9,9],"right_children":[2,4,6,8,-1,10,-1,12,14,16,-1,-1,-1,-1,-1,-1,-1],"split_conditions":[7.530562E0,7.043244E0,1.4048147E-1,6.2130314E1,5.262519E-2,5.0536747E1,1.0841834E-2,3.6409783E0,-1.96377E-1,4.4734455E1,-5.4433167E-2,9.7142635E-3,-1.9157659E-3,-4.9262173E-2,-5.554789E-3,-2.6862983E-2,2.030719E-2],"split_indices":[1,1,2,0,0,0,0,1,2,0,0,0,0,0,0,0,0],"split_type":[0,0,0,0,0,0,0,0,0,0,0,0,0,0,0,0,0],"sum_hessian":[2.4448975E2,2.3661375E2,7.8759885E0,2.3105064E2,5.563114E0,6.6475077E0,1.2284808E0,1.8489716E2,4.6153492E1,5.1622486E0,1.4852593E0,5.4225548E1,1.306716E2,2.8658361E0,4.328766E1,3.662579E0,1.4996694E0],"tree_param":{"num_deleted":"0","num_feature":"3","num_nodes":"17","size_leaf_vector":"1"}},{"base_weights":[4.0813265E-4,2.838826E-1,-2.20251E-2,4.5250922E-1,-3.746718E-2,-3.840381E-2,4.3354598E-1,-2.2420019E-1,7.484073E-1,-1.6911177E-2,-3.5986295E-1,8.683767E-1,-2.3674697E-2,1.7292801E-2,-3.4666166E-2,-6.0918303E-3,5.6916457E-2,-2.0780405E-3,5.299097E-2,-3.977673E-2,4.7738305E-3,4.0095197E-3,5.3148307E-2],"categories":[],"categories_nodes":[],"categories_segments":[],"categories_sizes":[],"default_left":[0,0,0,0,0,0,0,0,0,0,0,0,0,0,0,0,0,0,0,0,0,0,0],"id":21,"left_children":[1,3,5,7,-1,9,11,13,15,17,19,21,-1,-1,-1,-1,-1,-1,-1,-1,-1,-1,-1],"loss_changes":[1.5662003E0,3.4858344E0,1.719722E0,3.4016976E0,0E0,1.5224655E0,3.5673847E0,1.7595601E0,4.029903E0,5.57585E0,2.816699E0,7.9850864E-1,0E0,0E0,0E0,0E0,0E0,0E0,0E0,0E0,0E0,0E0,0E0],"parents":[2147483647,0,0,1,1,2,2,3,3,5,5,6,6,7,7,8,8,9,9,10,10,11,11],"right_children":[2,4,6,8,-1,10,12,14,16,18,20,22,-1,-1,-1,-1,-1,-1,-1,-1,-1,-1,-1],"split_conditions":[3.4054016E1,7.2777205E0,3.6949527E-1,-1.3338944E-1,-3.746718E-2,2.6610643E-1,4.5611274E-1,5.099682E0,2.863392E1,2.5577116E-1,3.128741E-1,3.6409783E0,-2.3674697E-2,1.7292801E-2,-3.4666166E-2,-6.0918303E-3,5.6916457E-2,-2.0780405E-3,5.299097E-2,-3.977673E-2,4.7738305E-3,4.0095197E-3,5.3148307E-2],"split_indices":[0,1,2,2,0,2,2,1,0,2,2,1,0,0,0,0,0,0,0,0,0,0,0],"split_type":[0,0,0,0,0,0,0,0,0,0,0,0,0,0,0,0,0,0,0,0,0,0,0],"sum_hessian":[2.443038E2,1.7060946E1,2.2724284E2,1.5150386E1,1.910561E0,2.2024046E2,7.002392E0,4.6829453E0,1.0467441E1,2.0742473E2,1.2815729E1,4.762093E0,2.2402992E0,2.2326703E0,2.450275E0,3.4515848E0,7.0158553E0,2.037223E2,3.7024212E0,6.1675024E0,6.648227E0,1.2224894E0,3.5396035E0],"tree_param":{"num_deleted":"0","num_feature":"3","num_nodes":"23","size_leaf_vector":"1"}},{"base_weights":[5.86861E-4,-1.3376753E-2,4.1849393E-1,2.0706574E-2,-2.0758018E-1,8.415066E-1,-2.2855647E-2,-4.6000395E-2,1.7663758E-1,-3.5067186E-1,2.5844085E-1,3.9003808E-3,5.158205E-2,-1.1821534E-3,-4.7356796E-2,1.1488393E-2,-1.8142795E-2,1.9503419E-3,-2.5617907E-2,4.36405E-2,9.3852804E-4],"categories":[],"categories_nodes":[],"categories_segments":[],"categories_sizes":[],"default_left":[0,0,0,0,0,0,0,0,0,0,0,0,0,0,0,0,0,0,0,0,0],"id":22,"left_children":[1,3,5,7,9,11,-1,13,15,17,19,-1,-1,-1,-1,-1,-1,-1,-1,-1,-1],"loss_changes":[1.4363607E0,1.581129E0,3.3324103E0,2.1255617E0,2.4684176E0,7.495985E-1,0E0,2.8660243E0,1.8375589E0,1.7655811E0,1.3018162E0,0E0,0E0,0E0,0E0,0E0,0E0,0E0,0E0,0E0,0E0],"parents":[2147483647,0,0,1,1,2,2,3,3,4,4,5,5,7,7,8,8,9,9,10,10],"right_children":[2,4,6,8,10,12,-1,14,16,18,20,-1,-1,-1,-1,-1,-1,-1,-1,-1,-1],"split_conditions":[3.6949527E-1,6.395756E1,4.5611274E-1,5.5508915E1,5.1894746E0,3.6409783E0,-2.2855647E-2,5.5235233E1,5.655422E0,3.2149453E0,5.3358493E0,3.9003808E-3,5.158205E-2,-1.1821534E-3,-4.7356796E-2,1.1488393E-2,-1.8142795E-2,1.9503419E-3,-2.5617907E-2,4.36405E-2,9.3852804E-4],"split_indices":[2,0,2,0,1,1,0,0,1,1,1,0,0,0,0,0,0,0,0,0,0],"split_type":[0,0,0,0,0,0,0,0,0,0,0,0,0,0,0,0,0,0,0,0,0],"sum_hessian":[2.4418283E2,2.3722438E2,6.9584355E0,2.0256667E2,3.4657726E1,4.718052E0,2.2403836E0,1.4236723E2,6.0199425E1,2.6705366E1,7.952359E0,1.2218596E0,3.4961925E0,1.3992198E2,2.4452517E0,5.532502E1,4.874403E0,8.053776E0,1.865159E1,1.4903346E0,6.4620247E0],"tree_param":{"num_deleted":"0","num_feature":"3","num_nodes":"21","size_leaf_vector":"1"}},{"base_weights":[5.5260863E-4,2.718651E-1,-2.084693E-2,4.3489227E-1,-3.639953E-2,-3.596199E-2,4.042052E-1,-3.3451223E-1,6.71957E-1,-1.5478499E-2,-3.424386E-1,8.159815E-1,-2.2069057E-2,3.3539687E-3,-3.0758372E-2,-1.668167E-3,5.128139E-2,-1.9563704E-3,5.10375E-2,-3.7845578E-2,4.544349E-3,3.794221E-3,5.0101336E-2],"categories":[],"categories_nodes":[],"categories_segments":[],"categories_sizes":[],"default_left":[0,0,0,0,0,0,0,0,0,0,0,0,0,0,0,0,0,0,0,0,0,0,0],"id":23,"left_children":[1,3,5,7,-1,9,11,13,15,17,19,21,-1,-1,-1,-1,-1,-1,-1,-1,-1,-1,-1],"loss_changes":[1.428075E0,3.2477233E0,1.479422E0,3.159035E0,0E0,1.3826859E0,3.1148415E0,5.4358536E-1,3.1848512E0,5.1443114E0,2.5480227E0,7.048793E-1,0E0,0E0,0E0,0E0,0E0,0E0,0E0,0E0,0E0,0E0,0E0],"parents":[2147483647,0,0,1,1,2,2,3,3,5,5,6,6,7,7,8,8,9,9,10,10,11,11],"right_children":[2,4,6,8,-1,10,12,14,16,18,20,22,-1,-1,-1,-1,-1,-1,-1,-1,-1,-1,-1],"split_conditions":[3.4054016E1,7.2777205E0,3.6949527E-1,-1.568769E-1,-3.639953E-2,2.6610643E-1,4.5611274E-1,4.9529095E0,2.863392E1,2.5577116E-1,3.128741E-1,3.6409783E0,-2.2069057E-2,3.3539687E-3,-3.0758372E-2,-1.668167E-3,5.128139E-2,-1.9563704E-3,5.10375E-2,-3.7845578E-2,4.544349E-3,3.794221E-3,5.0101336E-2],"split_indices":[0,1,2,2,0,2,2,1,0,2,2,1,0,0,0,0,0,0,0,0,0,0,0],"split_type":[0,0,0,0,0,0,0,0,0,0,0,0,0,0,0,0,0,0,0,0,0,0,0],"sum_hessian":[2.4399083E2,1.6981966E1,2.2700887E2,1.5087055E1,1.8949099E0,2.2009749E2,6.9113803E0,3.456798E0,1.1630258E1,2.0729346E2,1.2804039E1,4.671503E0,2.2398772E0,1.7350675E0,1.7217307E0,4.1866164E0,7.4436407E0,2.036089E2,3.6845422E0,6.162705E0,6.641334E0,1.221238E0,3.450265E0],"tree_param":{"num_deleted":"0","num_feature":"3","num_nodes":"23","size_leaf_vector":"1"}},{"base_weights":[6.749555E-4,1.497004E-2,-3.8356435E-1,-1.3307858E-2,5.1161405E-2,-5.131032E-1,1.155998E-2,2.6599683E-2,-1.7065915E-1,-2.0906153E-1,-5.287763E-2,9.175311E-3,-1.968451E-3,-4.7681507E-2,-4.942805E-3,-2.4586925E-2,1.9854274E-2],"categories":[],"categories_nodes":[],"categories_segments":[],"categories_sizes":[],"default_left":[0,0,0,0,0,0,0,0,0,0,0,0,0,0,0,0,0],"id":24,"left_children":[1,3,5,7,-1,9,-1,11,13,15,-1,-1,-1,-1,-1,-1,-1],"loss_changes":[1.3506233E0,6.771602E0,8.2101893E-1,1.4585465E0,0E0,1.036248E0,0E0,1.9280307E0,2.5468998E0,1.2439291E0,0E0,0E0,0E0,0E0,0E0,0E0,0E0],"parents":[2147483647,0,0,1,1,2,2,3,3,5,5,7,7,8,8,9,9],"right_children":[2,4,6,8,-1,10,-1,12,14,16,-1,-1,-1,-1,-1,-1,-1],"split_conditions":[7.530562E0,7.043244E0,1.4048147E-1,6.2130314E1,5.1161405E-2,5.0536747E1,1.155998E-2,3.6409783E0,-1.96377E-1,4.4734455E1,-5.287763E-2,9.175311E-3,-1.968451E-3,-4.7681507E-2,-4.942805E-3,-2.4586925E-2,1.9854274E-2],"split_indices":[1,1,2,0,0,0,0,1,2,0,0,0,0,0,0,0,0],"split_type":[0,0,0,0,0,0,0,0,0,0,0,0,0,0,0,0,0],"sum_hessian":[2.4384735E2,2.3602733E2,7.820026E0,2.305481E2,5.4792185E0,6.5956097E0,1.2244161E0,1.8456863E2,4.597947E1,5.12025E0,1.4753593E0,5.4102985E1,1.3046565E2,2.8307352E0,4.314873E1,3.6205513E0,1.499699E0],"tree_param":{"num_deleted":"0","num_feature":"3","num_nodes":"17","size_leaf_vector":"1"}},{"base_weights":[4.8145588E-4,-3.30648E-1,1.672996E-2,2.9118827E-2,-5.8238924E-1,3.1756854E-1,-2.2844074E-2,-7.816932E-1,3.0914105E-3,1.6733003E-1,6.234118E-2,-4.9809203E-2,3.685847E-1,-6.6943294E-3,-6.169614E-2,2.040369E-2,-8.958455E-3,-6.9552957E-4,-2.095866E-2,2.8206084E-2,-2.1311339E-2],"categories":[],"categories_nodes":[],"categories_segments":[],"categories_sizes":[],"default_left":[0,0,0,0,0,0,0,0,0,0,0,0,0,0,0,0,0,0,0,0,0],"id":25,"left_children":[1,3,5,-1,7,9,11,13,-1,15,-1,17,19,-1,-1,-1,-1,-1,-1,-1,-1],"loss_changes":[1.3218615E0,2.980516E0,2.795056E0,0E0,1.2691209E0,3.601222E0,2.2124496E0,1.9835906E0,0E0,2.1290472E0,0E0,2.584539E0,2.341084E0,0E0,0E0,0E0,0E0,0E0,0E0,0E0,0E0],"parents":[2147483647,0,0,1,1,2,2,4,4,5,5,6,6,7,7,9,9,11,11,12,12],"right_children":[2,4,6,-1,8,10,12,14,-1,16,-1,18,20,-1,-1,-1,-1,-1,-1,-1,-1],"split_conditions":[2.9345527E0,2.7062435E0,3.2215111E0,2.9118827E-2,1.3326934E-1,3.1990597E0,3.128741E-1,-1.7953526E-2,3.0914105E-3,5.9182175E1,6.234118E-2,6.666686E1,4.5611274E-1,-6.6943294E-3,-6.169614E-2,2.040369E-2,-8.958455E-3,-6.9552957E-4,-2.095866E-2,2.8206084E-2,-2.1311339E-2],"split_indices":[1,1,1,0,2,1,2,2,0,0,0,0,2,0,0,0,0,0,0,0,0],"split_type":[0,0,0,0,0,0,0,0,0,0,0,0,0,0,0,0,0,0,0,0,0],"sum_hessian":[2.4365468E2,1.0491813E1,2.3316287E2,1.9837345E0,8.508078E0,2.6289276E1,2.068736E2,6.3348436E0,2.1732342E0,2.36463E1,2.642977E0,1.9435727E2,1.2516324E1,3.1370964E0,3.1977472E0,1.3847502E1,9.798797E0,1.7808662E2,1.627064E1,1.0278006E1,2.2383177E0],"tree_param":{"num_deleted":"0","num_feature":"3","num_nodes":"21","size_leaf_vector":"1"}},{"base_weights":[5.6045654E-4,2.5703883E-1,-1.9557877E-2,4.1219634E-1,-3.4847524E-2,-3.373251E-2,3.8277638E-1,-2.1761629E-1,6.917701E-1,-1.3397919E-2,-3.3819562E-1,7.741722E-1,-2.0584682E-2,1.6413333E-2,-3.325722E-2,-5.9504225E-3,5.3114124E-2,-1.8073776E-3,4.9338568E-2,-3.609985E-2,3.3065178E-3,2.8895007E-3,4.799599E-2],"categories":[],"categories_nodes":[],"categories_segments":[],"categories_sizes":[],"default_left":[0,0,0,0,0,0,0,0,0,0,0,0,0,0,0,0,0,0,0,0,0,0,0],"id":26,"left_children":[1,3,5,7,-1,9,11,13,15,17,19,21,-1,-1,-1,-1,-1,-1,-1,-1,-1,-1,-1],"loss_changes":[1.2667562E0,2.930345E0,1.3112932E0,2.9654753E0,0E0,1.3627168E0,2.7531705E0,1.6048651E0,3.5243554E0,4.769642E0,2.1868906E0,6.886604E-1,0E0,0E0,0E0,0E0,0E0,0E0,0E0,0E0,0E0,0E0,0E0],"parents":[2147483647,0,0,1,1,2,2,3,3,5,5,6,6,7,7,8,8,9,9,10,10,11,11],"right_children":[2,4,6,8,-1,10,12,14,16,18,20,22,-1,-1,-1,-1,-1,-1,-1,-1,-1,-1,-1],"split_conditions":[3.4054016E1,7.2777205E0,3.6949527E-1,-1.3338944E-1,-3.4847524E-2,2.6610643E-1,4.5611274E-1,5.099682E0,2.863392E1,2.5577116E-1,3.128741E-1,3.6409783E0,-2.0584682E-2,1.6413333E-2,-3.325722E-2,-5.9504225E-3,5.3114124E-2,-1.8073776E-3,4.9338568E-2,-3.609985E-2,3.3065178E-3,2.8895007E-3,4.799599E-2],"split_indices":[0,1,2,2,0,2,2,1,0,2,2,1,0,0,0,0,0,0,0,0,0,0,0],"split_type":[0,0,0,0,0,0,0,0,0,0,0,0,0,0,0,0,0,0,0,0,0,0,0],"sum_hessian":[2.4352502E2,1.68563E1,2.2666873E2,1.4986766E1,1.869535E0,2.1983972E2,6.8290124E0,4.67553E0,1.0311235E1,2.0705487E2,1.2784849E1,4.592209E0,2.2368035E0,2.226362E0,2.4491682E0,3.4470296E0,6.864206E0,2.0339241E2,3.6624608E0,6.1558266E0,6.6290226E0,1.2154895E0,3.3767192E0],"tree_param":{"num_deleted":"0","num_feature":"3","num_nodes":"23","size_leaf_vector":"1"}},{"base_weights":[7.132934E-4,-3.1714806E-1,1.6339537E-2,2.8248584E-2,-5.599689E-1,3.059205E-1,-2.1692246E-2,-4.595023E-2,-8.100863E-1,1.6025476E-1,6.0649257E-2,-4.665056E-2,3.430512E-1,-3.1857766E-2,3.1342607E-2,-5.658839E-3,-5.7233978E-2,4.032804E-2,1.7666537E-3,-6.248566E-4,-1.9936984E-2,2.6332295E-2,-1.988562E-2],"categories":[],"categories_nodes":[],"categories_segments":[],"categories_sizes":[],"default_left":[0,0,0,0,0,0,0,0,0,0,0,0,0,0,0,0,0,0,0,0,0,0,0],"id":27,"left_children":[1,3,5,-1,7,9,11,13,15,17,-1,19,21,-1,-1,-1,-1,-1,-1,-1,-1,-1,-1],"loss_changes":[1.2189089E0,2.7794065E0,2.5822048E0,0E0,1.1865993E0,3.4014165E0,1.9062817E0,2.0604374E0,1.3495569E0,1.9577336E0,0E0,2.3426368E0,2.034347E0,0E0,0E0,0E0,0E0,0E0,0E0,0E0,0E0,0E0,0E0],"parents":[2147483647,0,0,1,1,2,2,4,4,5,5,6,6,7,7,8,8,9,9,11,11,12,12],"right_children":[2,4,6,-1,8,10,12,14,16,18,-1,20,22,-1,-1,-1,-1,-1,-1,-1,-1,-1,-1],"split_conditions":[2.9345527E0,2.7062435E0,3.2215111E0,2.8248584E-2,5.721289E1,3.1990597E0,3.128741E-1,7.66391E-2,-1.7953526E-2,4.0428528E1,6.0649257E-2,6.666686E1,4.5611274E-1,-3.1857766E-2,3.1342607E-2,-5.658839E-3,-5.7233978E-2,4.032804E-2,1.7666537E-3,-6.248566E-4,-1.9936984E-2,2.6332295E-2,-1.988562E-2],"split_indices":[1,1,1,0,0,1,2,2,2,0,0,0,2,0,0,0,0,0,0,0,0,0,0],"split_type":[0,0,0,0,0,0,0,0,0,0,0,0,0,0,0,0,0,0,0,0,0,0,0],"sum_hessian":[2.4335919E2,1.0498946E1,2.3286026E2,1.9798483E0,8.519097E0,2.621449E1,2.0664577E2,3.1759298E0,5.343168E0,2.3601065E1,2.6134272E0,1.9422745E2,1.2418308E1,1.7186767E0,1.4572531E0,2.1672826E0,3.1758852E0,2.9390094E0,2.0662054E1,1.7799686E2,1.6230595E1,1.0183441E1,2.234867E0],"tree_param":{"num_deleted":"0","num_feature":"3","num_nodes":"23","size_leaf_vector":"1"}},{"base_weights":[9.0515445E-4,1.4242134E-2,-3.5860944E-1,-1.3188931E-2,5.0054885E-2,-4.868676E-1,1.1924125E-2,-4.3235698E-1,-2.8377716E-4,-1.8898211E-1,-5.1291663E-2,6.2072994E-3,-5.497203E-2,1.83108E-2,-8.883807E-4,-2.3075901E-2,1.9353824E-2],"categories":[],"categories_nodes":[],"categories_segments":[],"categories_sizes":[],"default_left":[0,0,0,0,0,0,0,0,0,0,0,0,0,0,0,0,0],"id":28,"left_children":[1,3,5,7,-1,9,-1,11,13,15,-1,-1,-1,-1,-1,-1,-1],"loss_changes":[1.1761475E0,6.414157E0,7.880645E-1,1.2497101E0,0E0,1.0185481E0,0E0,2.6981E0,1.4492078E0,1.1346532E0,0E0,0E0,0E0,0E0,0E0,0E0,0E0],"parents":[2147483647,0,0,1,1,2,2,3,3,5,5,7,7,8,8,9,9],"right_children":[2,4,6,8,-1,10,-1,12,14,16,-1,-1,-1,-1,-1,-1,-1],"split_conditions":[7.530562E0,7.043244E0,1.4048147E-1,-3.3796883E-1,5.0054885E-2,5.0536747E1,1.1924125E-2,-3.6646605E-1,-2.5876758E-1,4.4734455E1,-5.1291663E-2,6.2072994E-3,-5.497203E-2,1.83108E-2,-8.883807E-4,-2.3075901E-2,1.9353824E-2],"split_indices":[1,1,2,2,0,0,0,2,2,0,0,0,0,0,0,0,0],"split_type":[0,0,0,0,0,0,0,0,0,0,0,0,0,0,0,0,0],"sum_hessian":[2.4322928E2,2.3545496E2,7.774331E0,2.300471E2,5.4078536E0,6.551615E0,1.2227159E0,5.9002533E0,2.2414685E2,5.089368E0,1.4622475E0,3.6604683E0,2.239785E0,9.297831E0,2.1484901E2,3.5898354E0,1.4995323E0],"tree_param":{"num_deleted":"0","num_feature":"3","num_nodes":"17","size_leaf_vector":"1"}},{"base_weights":[7.672039E-4,-3.0393434E-1,1.575914E-2,2.7383065E-2,-5.3810704E-1,2.9485354E-1,-2.085364E-2,-4.310111E-2,-7.7860755E-1,1.5397508E-1,5.899746E-2,-1.2802558E-1,6.307656E-2,-3.0785093E-2,3.0529145E-2,-5.5033052E-3,-5.4945447E-2,1.9077139E-2,-8.581457E-3,2.5152791E-2,-9.466049E-3,-1.4663517E-2,5.812987E-3],"categories":[],"categories_nodes":[],"categories_segments":[],"categories_sizes":[],"default_left":[0,0,0,0,0,0,0,0,0,0,0,0,0,0,0,0,0,0,0,0,0,0,0],"id":29,"left_children":[1,3,5,-1,7,9,11,13,15,17,-1,19,21,-1,-1,-1,-1,-1,-1,-1,-1,-1,-1],"loss_changes":[1.1199348E0,2.5874608E0,2.3933809E0,0E0,1.1000133E0,3.204819E0,1.8741815E0,1.9375628E0,1.2387502E0,1.886786E0,0E0,3.6325507E0,2.251747E0,0E0,0E0,0E0,0E0,0E0,0E0,0E0,0E0,0E0,0E0],"parents":[2147483647,0,0,1,1,2,2,4,4,5,5,6,6,7,7,8,8,9,9,11,11,12,12],"right_children":[2,4,6,-1,8,10,12,14,16,18,-1,20,22,-1,-1,-1,-1,-1,-1,-1,-1,-1,-1],"split_conditions":[2.9345527E0,2.7062435E0,3.2215111E0,2.7383065E-2,5.721289E1,3.1990597E0,4.699405E0,7.66391E-2,-1.7953526E-2,5.9182175E1,5.899746E-2,-2.5876758E-1,-1.8261358E-1,-3.0785093E-2,3.0529145E-2,-5.5033052E-3,-5.4945447E-2,1.9077139E-2,-8.581457E-3,2.5152791E-2,-9.466049E-3,-1.4663517E-2,5.812987E-3],"split_indices":[1,1,1,0,0,1,1,2,2,0,0,2,2,0,0,0,0,0,0,0,0,0,0],"split_type":[0,0,0,0,0,0,0,0,0,0,0,0,0,0,0,0,0,0,0,0,0,0,0],"sum_hessian":[2.4311752E2,1.0497117E1,2.326204E2,1.9752369E0,8.52188E0,2.6159174E1,2.0646124E2,3.1721249E0,5.3497553E0,2.3579973E1,2.5792012E0,9.044502E1,1.1601621E2,1.721908E0,1.4502169E0,2.168091E0,3.1816645E0,1.3778357E1,9.801616E0,7.368969E0,8.307606E1,1.448007E1,1.0153614E2],"tree_param":{"num_deleted":"0","num_feature":"3","num_nodes":"23","size_leaf_vector":"1"}},{"base_weights":[9.1430027E-4,2.4178013E-1,-1.7861424E-2,3.8929245E-1,-3.3352707E-2,-3.1359658E-2,3.6873642E-1,-3.291907E-1,6.1507577E-1,-1.1311752E-2,-3.3205298E-1,7.425458E-1,-1.9146444E-2,2.986966E-3,-2.9713009E-2,-1.9997663E-3,4.7532987E-2,-1.6544693E-3,4.75327E-2,-4.1756734E-2,-2.3703526E-3,3.0923032E-3,4.6030954E-2],"categories":[],"categories_nodes":[],"categories_segments":[],"categories_sizes":[],"default_left":[0,0,0,0,0,0,0,0,0,0,0,0,0,0,0,0,0,0,0,0,0,0,0],"id":30,"left_children":[1,3,5,7,-1,9,11,13,15,17,19,21,-1,-1,-1,-1,-1,-1,-1,-1,-1,-1,-1],"loss_changes":[1.1078587E0,2.6345587E0,1.1977048E0,2.7772956E0,0E0,1.3257998E0,2.4610686E0,4.9391463E-1,2.7695708E0,4.384793E0,1.9294692E0,6.1145616E-1,0E0,0E0,0E0,0E0,0E0,0E0,0E0,0E0,0E0,0E0,0E0],"parents":[2147483647,0,0,1,1,2,2,3,3,5,5,6,6,7,7,8,8,9,9,10,10,11,11],"right_children":[2,4,6,8,-1,10,12,14,16,18,20,22,-1,-1,-1,-1,-1,-1,-1,-1,-1,-1,-1],"split_conditions":[3.4054016E1,7.2777205E0,3.6949527E-1,-1.568769E-1,-3.3352707E-2,2.6610643E-1,4.5611274E-1,2.9835165E1,2.863392E1,2.5577116E-1,3.8799727E0,3.6409783E0,-1.9146444E-2,2.986966E-3,-2.9713009E-2,-1.9997663E-3,4.7532987E-2,-1.6544693E-3,4.75327E-2,-4.1756734E-2,-2.3703526E-3,3.0923032E-3,4.6030954E-2],"split_indices":[0,1,2,2,0,2,2,0,0,2,1,1,0,0,0,0,0,0,0,0,0,0,0],"split_type":[0,0,0,0,0,0,0,0,0,0,0,0,0,0,0,0,0,0,0,0,0,0,0],"sum_hessian":[2.4301485E2,1.6714487E1,2.2630035E2,1.4872241E1,1.8422469E0,2.1955344E2,6.746921E0,3.4465866E0,1.1425654E1,2.0680302E2,1.2750407E1,4.5141363E0,2.232785E0,1.7108805E0,1.7357061E0,4.1688128E0,7.2568417E0,2.0316916E2,3.633879E0,3.9085374E0,8.841869E0,1.2154158E0,3.2987204E0],"tree_param":{"num_deleted":"0","num_feature":"3","num_nodes":"23","size_leaf_vector":"1"}},{"base_weights":[9.5392903E-4,1.357335E-2,-3.4060335E-1,-1.2639594E-2,4.8489224E-2,-4.6502525E-1,1.1662007E-2,-4.2428377E-1,4.309464E-5,-1.7143153E-1,-5.004834E-2,5.419746E-3,-5.2978642E-2,1.737669E-2,-8.255392E-4,-2.1619825E-2,1.8653056E-2],"categories":[],"categories_nodes":[],"categories_segments":[],"categories_sizes":[],"default_left":[0,0,0,0,0,0,0,0,0,0,0,0,0,0,0,0,0],"id":31,"left_children":[1,3,5,7,-1,9,-1,11,13,15,-1,-1,-1,-1,-1,-1,-1],"loss_changes":[1.0556808E0,5.930722E0,7.3154354E-1,1.2050234E0,0E0,1.0094353E0,0E0,2.4494362E0,1.2995017E0,1.0218247E0,0E0,0E0,0E0,0E0,0E0,0E0,0E0],"parents":[2147483647,0,0,1,1,2,2,3,3,5,5,7,7,8,8,9,9],"right_children":[2,4,6,8,-1,10,-1,12,14,16,-1,-1,-1,-1,-1,-1,-1],"split_conditions":[7.530562E0,7.043244E0,1.4048147E-1,-3.3796883E-1,4.8489224E-2,5.0536747E1,1.1662007E-2,-3.6646605E-1,-2.5876758E-1,4.4734455E1,-5.004834E-2,5.419746E-3,-5.2978642E-2,1.737669E-2,-8.255392E-4,-2.1619825E-2,1.8653056E-2],"split_indices":[1,1,2,2,0,0,0,2,2,0,0,0,0,0,0,0,0],"split_type":[0,0,0,0,0,0,0,0,0,0,0,0,0,0,0,0,0],"sum_hessian":[2.428504E2,2.3512363E2,7.726786E0,2.2981053E2,5.3130927E0,6.505813E0,1.2209729E0,5.898788E0,2.2391174E2,5.0559735E0,1.4498394E0,3.6596296E0,2.2391584E0,9.272568E0,2.1463918E2,3.55703E0,1.4989438E0],"tree_param":{"num_deleted":"0","num_feature":"3","num_nodes":"17","size_leaf_vector":"1"}},{"base_weights":[8.150524E-4,-2.8971705E-1,1.5115177E-2,2.6600465E-2,-5.158481E-1,2.8445017E-1,-2.0159164E-2,-6.94872E-1,3.4550205E-3,1.4786692E-1,5.7495214E-2,-4.3962937E-2,3.2947227E-1,-5.312314E-3,-5.5350818E-2,3.8375705E-2,1.4473083E-3,-5.38514E-4,-1.9369705E-2,2.5163908E-2,-1.8473148E-2],"categories":[],"categories_nodes":[],"categories_segments":[],"categories_sizes":[],"default_left":[0,0,0,0,0,0,0,0,0,0,0,0,0,0,0,0,0,0,0,0,0],"id":32,"left_children":[1,3,5,-1,7,9,11,13,-1,15,-1,17,19,-1,-1,-1,-1,-1,-1,-1,-1],"loss_changes":[1.0169889E0,2.4082367E0,2.2217166E0,0E0,1.0442016E0,3.0305905E0,1.7386639E0,1.6713412E0,0E0,1.7856246E0,0E0,2.216958E0,1.8044424E0,0E0,0E0,0E0,0E0,0E0,0E0,0E0,0E0],"parents":[2147483647,0,0,1,1,2,2,4,4,5,5,6,6,7,7,9,9,11,11,12,12],"right_children":[2,4,6,-1,8,10,12,14,-1,16,-1,18,20,-1,-1,-1,-1,-1,-1,-1,-1],"split_conditions":[2.9345527E0,2.7062435E0,3.2215111E0,2.6600465E-2,1.3326934E-1,3.1990597E0,3.128741E-1,-1.7953526E-2,3.4550205E-3,4.0428528E1,5.7495214E-2,6.666686E1,4.5611274E-1,-5.312314E-3,-5.5350818E-2,3.8375705E-2,1.4473083E-3,-5.38514E-4,-1.9369705E-2,2.5163908E-2,-1.8473148E-2],"split_indices":[1,1,1,0,2,1,2,2,0,0,0,0,2,0,0,0,0,0,0,0,0],"split_type":[0,0,0,0,0,0,0,0,0,0,0,0,0,0,0,0,0,0,0,0,0],"sum_hessian":[2.427295E2,1.0483292E1,2.3224622E2,1.9704204E0,8.512872E0,2.6076536E1,2.0616968E2,6.374141E0,2.13873E0,2.353342E1,2.5431159E0,1.9384639E2,1.2323282E1,3.1430364E0,3.2311049E0,2.9110641E0,2.0622356E1,1.7770276E2,1.614363E1,1.0093295E1,2.2299876E0],"tree_param":{"num_deleted":"0","num_feature":"3","num_nodes":"21","size_leaf_vector":"1"}},{"base_weights":[1.0020568E-3,2.8600562E-2,-6.0042758E-3,-5.2227604E-1,6.6713896E-3,-5.5509683E-2,1.6087055E-1,4.9320006E-1,-1.652489E-2,2.8480297E-2,-1.8617554E-2,-3.2717902E-2,4.1113935E-2,-2.7730709E-2,-3.4295712E-4],"categories":[],"categories_nodes":[],"categories_segments":[],"categories_sizes":[],"default_left":[0,0,0,0,0,0,0,0,0,0,0,0,0,0,0],"id":33,"left_children":[1,-1,3,5,7,-1,9,11,13,-1,-1,-1,-1,-1,-1],"loss_changes":[9.779569E-1,0E0,1.5847071E0,2.5092497E0,2.6808553E0,0E0,9.874426E-1,4.620181E0,1.1769016E0,0E0,0E0,0E0,0E0,0E0,0E0],"parents":[2147483647,0,0,2,2,3,3,4,4,6,6,7,7,8,8],"right_children":[2,-1,4,6,8,-1,10,12,14,-1,-1,-1,-1,-1,-1],"split_conditions":[2.3460789E1,2.8600562E-2,2.863392E1,5.655422E0,3.4054016E1,-5.5509683E-2,7.1988697E0,-1.6767953E-1,3.506577E1,2.8480297E-2,-1.8617554E-2,-3.2717902E-2,4.1113935E-2,-2.7730709E-2,-3.4295712E-4],"split_indices":[0,0,0,1,0,0,1,2,0,0,0,0,0,0,0],"split_type":[0,0,0,0,0,0,0,0,0,0,0,0,0,0,0],"sum_hessian":[2.4258917E2,1.9630193E0,2.4062614E2,4.8029275E0,2.3582323E2,2.2454073E0,2.5575204E0,9.809638E0,2.2601358E2,1.409131E0,1.1483893E0,1.965861E0,7.843777E0,2.9933853E0,2.230202E2],"tree_param":{"num_deleted":"0","num_feature":"3","num_nodes":"15","size_leaf_vector":"1"}},{"base_weights":[8.082387E-4,-1.0515463E-2,3.509764E-1,1.6560659E-2,-1.6561732E-1,7.0697635E-1,-1.7840793E-2,-5.0800018E-2,1.7372906E-1,-8.54474E-1,-7.159336E-2,8.974433E-1,3.5028302E-3,-1.4823838E-3,-4.519279E-2,1.1354135E-2,-1.8488867E-2,-5.191633E-2,-1.5609105E-2,3.46898E-2,-7.258513E-3,1.3310174E-2,5.1614195E-2],"categories":[],"categories_nodes":[],"categories_segments":[],"categories_sizes":[],"default_left":[0,0,0,0,0,0,0,0,0,0,0,0,0,0,0,0,0,0,0,0,0,0,0],"id":34,"left_children":[1,3,5,7,9,11,-1,13,15,17,19,21,-1,-1,-1,-1,-1,-1,-1,-1,-1,-1,-1],"loss_changes":[9.692337E-1,9.973969E-1,2.1815846E0,2.1532712E0,2.22467E0,5.95839E-1,0E0,2.5455844E0,1.8526931E0,8.933115E-2,1.9109683E0,7.377553E-2,0E0,0E0,0E0,0E0,0E0,0E0,0E0,0E0,0E0,0E0,0E0],"parents":[2147483647,0,0,1,1,2,2,3,3,4,4,5,5,7,7,8,8,9,9,10,10,11,11],"right_children":[2,4,6,8,10,12,-1,14,16,18,20,22,-1,-1,-1,-1,-1,-1,-1,-1,-1,-1,-1],"split_conditions":[3.6949527E-1,6.395756E1,4.5611274E-1,5.5508915E1,6.4373505E1,6.128956E1,-1.7840793E-2,5.5235233E1,5.655422E0,6.5373E-2,6.4968636E1,3.895144E-1,3.5028302E-3,-1.4823838E-3,-4.519279E-2,1.1354135E-2,-1.8488867E-2,-5.191633E-2,-1.5609105E-2,3.46898E-2,-7.258513E-3,1.3310174E-2,5.1614195E-2],"split_indices":[2,0,2,0,0,0,0,0,1,2,0,2,0,0,0,0,0,0,0,0,0,0,0],"split_type":[0,0,0,0,0,0,0,0,0,0,0,0,0,0,0,0,0,0,0,0,0,0,0],"sum_hessian":[2.4250426E2,2.3584741E2,6.6568384E0,2.0155518E2,3.4292244E1,4.4298825E0,2.2269561E0,1.4156061E2,5.9994564E1,3.1471498E0,3.1145094E1,3.0952349E0,1.3346475E0,1.3914513E2,2.4154828E0,5.5161766E1,4.832799E0,1.6672151E0,1.4799347E0,1.9921422E0,2.9152952E1,1.0683049E0,2.02693E0],"tree_param":{"num_deleted":"0","num_feature":"3","num_nodes":"23","size_leaf_vector":"1"}},{"base_weights":[5.9169653E-4,1.2577549E-2,-3.2441595E-1,-1.2642116E-2,4.7190297E-2,-4.4739527E-1,1.1763423E-2,-2.3077172E-1,1.0619733E-2,-1.6095746E-1,-4.8704494E-2,2.2543136E-3,-7.514873E-2,2.204731E-2,-7.78677E-4,-2.0705376E-2,1.816935E-2],"categories":[],"categories_nodes":[],"categories_segments":[],"categories_sizes":[],"default_left":[0,0,0,0,0,0,0,0,0,0,0,0,0,0,0,0,0],"id":35,"left_children":[1,3,5,7,-1,9,-1,11,13,15,-1,-1,-1,-1,-1,-1,-1],"loss_changes":[9.5200646E-1,5.5461636E0,7.035365E-1,1.1716254E0,0E0,9.703182E-1,0E0,7.8758473E0,2.3645778E0,9.518381E-1,0E0,0E0,0E0,0E0,0E0,0E0,0E0],"parents":[2147483647,0,0,1,1,2,2,3,3,5,5,7,7,8,8,9,9],"right_children":[2,4,6,8,-1,10,-1,12,14,16,-1,-1,-1,-1,-1,-1,-1],"split_conditions":[7.530562E0,7.043244E0,1.4048147E-1,-2.206429E-1,4.7190297E-2,5.0536747E1,1.1763423E-2,5.5787706E0,3.4054016E1,4.4734455E1,-4.8704494E-2,2.2543136E-3,-7.514873E-2,2.204731E-2,-7.78677E-4,-2.0705376E-2,1.816935E-2],"split_indices":[1,1,2,2,0,0,0,1,0,0,0,0,0,0,0,0,0],"split_type":[0,0,0,0,0,0,0,0,0,0,0,0,0,0,0,0,0],"sum_hessian":[2.4233914E2,2.3464697E2,7.6921687E0,2.294202E2,5.2267675E0,6.47094E0,1.2212285E0,2.124859E1,2.0817162E2,5.0371394E0,1.4338008E0,1.825486E1,2.9937303E0,1.10355425E1,1.9713606E2,3.5388458E0,1.4982936E0],"tree_param":{"num_deleted":"0","num_feature":"3","num_nodes":"17","size_leaf_vector":"1"}},{"base_weights":[3.8923149E-4,-2.7732295E-1,1.40688E-2,2.5801867E-2,-4.956362E-1,2.735718E-1,-1.9872723E-2,-2.4219224E-2,-7.2692686E-1,1.4103575E-1,5.608654E-2,-3.421457E-1,5.6407396E-3,-2.87209E-2,2.9961327E-2,-4.841121E-3,-5.147023E-2,3.708302E-2,1.3178452E-3,-4.637737E-3,-5.4972716E-2,2.979106E-2,-4.759951E-4],"categories":[],"categories_nodes":[],"categories_segments":[],"categories_sizes":[],"default_left":[0,0,0,0,0,0,0,0,0,0,0,0,0,0,0,0,0,0,0,0,0,0,0],"id":36,"left_children":[1,3,5,-1,7,9,11,13,15,17,-1,19,21,-1,-1,-1,-1,-1,-1,-1,-1,-1,-1],"loss_changes":[9.277542E-1,2.2414682E0,2.0552127E0,0E0,1.0183058E0,2.8752725E0,1.7017593E0,1.7717053E0,1.1085374E0,1.6667665E0,0E0,2.7654095E0,1.7285331E0,0E0,0E0,0E0,0E0,0E0,0E0,0E0,0E0,0E0,0E0],"parents":[2147483647,0,0,1,1,2,2,4,4,5,5,6,6,7,7,8,8,9,9,11,11,12,12],"right_children":[2,4,6,-1,8,10,12,14,16,18,-1,20,22,-1,-1,-1,-1,-1,-1,-1,-1,-1,-1],"split_conditions":[2.9345527E0,2.7062435E0,3.2215111E0,2.5801867E-2,5.721289E1,3.1990597E0,3.3729122E0,7.66391E-2,-1.7953526E-2,4.0428528E1,5.608654E-2,6.2643814E1,-3.6646605E-1,-2.87209E-2,2.9961327E-2,-4.841121E-3,-5.147023E-2,3.708302E-2,1.3178452E-3,-4.637737E-3,-5.4972716E-2,2.979106E-2,-4.759951E-4],"split_indices":[1,1,1,0,0,1,1,2,2,0,0,0,2,0,0,0,0,0,0,0,0,0,0],"split_type":[0,0,0,0,0,0,0,0,0,0,0,0,0,0,0,0,0,0,0,0,0,0,0],"sum_hessian":[2.421842E2,1.0464717E1,2.3171948E2,1.9639363E0,8.500781E0,2.5985432E1,2.0573405E2,3.1615722E0,5.3392086E0,2.3482298E1,2.5031343E0,1.418214E1,1.9155191E2,1.7212168E0,1.4403555E0,2.1599088E0,3.1793E0,2.8882024E0,2.0594095E1,1.1513186E1,2.6689532E0,3.838149E0,1.8771376E2],"tree_param":{"num_deleted":"0","num_feature":"3","num_nodes":"23","size_leaf_vector":"1"}},{"base_weights":[5.1878084E-4,-1.0577591E-2,3.4494415E-1,8.368377E-2,-5.365721E-2,6.927496E-1,-1.7200878E-2,8.173566E-1,2.7759206E-2,-2.8948027E-1,4.6099126E-2,1.9843464E-3,8.7090147E-1,1.4422631E-3,5.5365164E-2,-2.5786279E-2,5.0685103E-3,-8.071776E-3,-4.6126332E-2,-1.1940975E-2,4.7839326E-3,4.9525674E-2,1.3258426E-2],"categories":[],"categories_nodes":[],"categories_segments":[],"categories_sizes":[],"default_left":[0,0,0,0,0,0,0,0,0,0,0,0,0,0,0,0,0,0,0,0,0,0,0],"id":37,"left_children":[1,3,5,7,9,11,-1,13,15,17,19,-1,21,-1,-1,-1,-1,-1,-1,-1,-1,-1,-1],"loss_changes":[9.327208E-1,9.647603E-1,2.063555E0,3.0367792E0,3.845786E0,5.9294844E-1,0E0,1.167458E0,2.8655298E0,3.787672E0,1.6522324E0,0E0,4.091358E-2,0E0,0E0,0E0,0E0,0E0,0E0,0E0,0E0,0E0,0E0],"parents":[2147483647,0,0,1,1,2,2,3,3,4,4,5,5,7,7,8,8,9,9,10,10,12,12],"right_children":[2,4,6,8,10,12,-1,14,16,18,20,-1,22,-1,-1,-1,-1,-1,-1,-1,-1,-1,-1],"split_conditions":[3.6949527E-1,3.6409783E0,4.5611274E-1,-2.7492628E-1,4.6617117E0,3.6409783E0,-1.7200878E-2,-3.714451E-1,-1.7643383E-1,4.5276117E0,-1.7149314E-1,1.9843464E-3,5.0078435E0,1.4422631E-3,5.5365164E-2,-2.5786279E-2,5.0685103E-3,-8.071776E-3,-4.6126332E-2,-1.1940975E-2,4.7839326E-3,4.9525674E-2,1.3258426E-2],"split_indices":[2,1,2,2,1,1,0,2,2,1,2,0,1,0,0,0,0,0,0,0,0,0,0],"split_type":[0,0,0,0,0,0,0,0,0,0,0,0,0,0,0,0,0,0,0,0,0,0,0],"sum_hessian":[2.4209346E2,2.354764E2,6.6170673E0,7.356602E1,1.6191037E2,4.3935785E0,2.2234888E0,4.2461076E0,6.9319916E1,4.7565083E1,1.1434528E2,1.2037361E0,3.1898425E0,1.4371786E0,2.808929E0,7.552464E0,6.176745E1,4.060668E1,6.958402E0,1.6382586E1,9.79627E1,2.1333468E0,1.0564958E0],"tree_param":{"num_deleted":"0","num_feature":"3","num_nodes":"23","size_leaf_vector":"1"}},{"base_weights":[5.930821E-4,1.2278308E-2,-3.168824E-1,-1.1857849E-2,4.5781195E-2,-4.364609E-1,1.1321289E-2,-2.2099634E-1,1.0432658E-2,5.667213E-3,-7.1632034E-1,2.1794431E-3,-7.2064035E-2,2.1008417E-2,-7.216995E-4,-1.3080868E-2,1.6017808E-2,-4.3739457E-2,-7.877442E-3],"categories":[],"categories_nodes":[],"categories_segments":[],"categories_sizes":[],"default_left":[0,0,0,0,0,0,0,0,0,0,0,0,0,0,0,0,0,0,0],"id":38,"left_children":[1,3,5,7,-1,9,-1,11,13,15,17,-1,-1,-1,-1,-1,-1,-1,-1],"loss_changes":[9.053626E-1,5.1419435E0,6.616948E-1,1.0754452E0,0E0,9.249476E-1,0E0,7.236028E0,2.1353242E0,4.099142E-1,2.6643968E-1,0E0,0E0,0E0,0E0,0E0,0E0,0E0,0E0],"parents":[2147483647,0,0,1,1,2,2,3,3,5,5,7,7,8,8,9,9,10,10],"right_children":[2,4,6,8,-1,10,-1,12,14,16,18,-1,-1,-1,-1,-1,-1,-1,-1],"split_conditions":[7.530562E0,7.043244E0,1.4048147E-1,-2.206429E-1,4.5781195E-2,-1.10272974E-1,1.1321289E-2,5.5787706E0,3.4054016E1,-1.8261358E-1,9.48296E0,2.1794431E-3,-7.2064035E-2,2.1008417E-2,-7.216995E-4,-1.3080868E-2,1.6017808E-2,-4.3739457E-2,-7.877442E-3],"split_indices":[1,1,2,2,0,2,0,1,0,2,1,0,0,0,0,0,0,0,0],"split_type":[0,0,0,0,0,0,0,0,0,0,0,0,0,0,0,0,0,0,0],"sum_hessian":[2.419992E2,2.3433542E2,7.663789E0,2.2919843E2,5.1369944E0,6.442498E0,1.2212905E0,2.1217062E1,2.0798137E2,2.8770382E0,3.5654597E0,1.8228905E1,2.988158E0,1.0990501E1,1.9699086E2,1.6468854E0,1.230153E0,2.3370962E0,1.2283636E0],"tree_param":{"num_deleted":"0","num_feature":"3","num_nodes":"19","size_leaf_vector":"1"}},{"base_weights":[4.000846E-4,-1.0378948E-2,3.3685237E-1,1.5977697E-2,-1.6151628E-1,6.7655784E-1,-1.6601836E-2,-4.846653E-2,1.6634679E-1,-8.351578E-1,-6.968385E-2,8.642422E-1,2.9984806E-3,-1.4088621E-3,-4.3566868E-2,1.0946183E-2,-1.853048E-2,-5.0784834E-2,-1.5256991E-2,3.3810757E-2,-7.0813536E-3,1.2254786E-2,5.000195E-2],"categories":[],"categories_nodes":[],"categories_segments":[],"categories_sizes":[],"default_left":[0,0,0,0,0,0,0,0,0,0,0,0,0,0,0,0,0,0,0,0,0,0,0],"id":39,"left_children":[1,3,5,7,9,11,-1,13,15,17,19,21,-1,-1,-1,-1,-1,-1,-1,-1,-1,-1,-1],"loss_changes":[8.841848E-1,9.4376004E-1,1.9443518E0,1.966461E0,2.1177826E0,5.6711316E-1,0E0,2.350238E0,1.799156E0,8.5151196E-2,1.8154274E0,9.337282E-2,0E0,0E0,0E0,0E0,0E0,0E0,0E0,0E0,0E0,0E0,0E0],"parents":[2147483647,0,0,1,1,2,2,3,3,4,4,5,5,7,7,8,8,9,9,10,10,11,11],"right_children":[2,4,6,8,10,12,-1,14,16,18,20,22,-1,-1,-1,-1,-1,-1,-1,-1,-1,-1,-1],"split_conditions":[3.6949527E-1,6.395756E1,4.5611274E-1,5.5508915E1,6.4373505E1,6.128956E1,-1.6601836E-2,5.5235233E1,5.655422E0,6.5373E-2,6.4968636E1,3.895144E-1,2.9984806E-3,-1.4088621E-3,-4.3566868E-2,1.0946183E-2,-1.853048E-2,-5.0784834E-2,-1.5256991E-2,3.3810757E-2,-7.0813536E-3,1.2254786E-2,5.000195E-2],"split_indices":[2,0,2,0,0,0,0,0,1,2,0,2,0,0,0,0,0,0,0,0,0,0,0],"split_type":[0,0,0,0,0,0,0,0,0,0,0,0,0,0,0,0,0,0,0,0,0,0,0],"sum_hessian":[2.4183936E2,2.3527104E2,6.5683045E0,2.0109639E2,3.417466E1,4.348426E0,2.2198784E0,1.4124162E2,5.985476E1,3.128802E0,3.1045858E1,3.0257578E0,1.3226681E0,1.3885223E2,2.3893967E0,5.505614E1,4.7986155E0,1.6503153E0,1.4784868E0,1.9921534E0,2.9053705E1,1.0487949E0,1.9769629E0],"tree_param":{"num_deleted":"0","num_feature":"3","num_nodes":"23","size_leaf_vector":"1"}},{"base_weights":[2.0334999E-4,2.7293807E-2,-6.4725936E-3,-5.3680074E-1,6.4871847E-3,4.6746906E-2,-6.084143E-2,4.52596E-1,-1.4470822E-2,-3.3451077E-2,3.0109718E-2,-3.0955076E-2,3.833056E-2,-1.1052999E-2,3.931067E-4],"categories":[],"categories_nodes":[],"categories_segments":[],"categories_sizes":[],"default_left":[0,0,0,0,0,0,0,0,0,0,0,0,0,0,0],"id":40,"left_children":[1,-1,3,5,7,9,-1,11,13,-1,-1,-1,-1,-1,-1],"loss_changes":[8.875471E-1,0E0,1.6579638E0,2.3403375E0,2.212762E0,2.0169494E0,0E0,4.048321E0,1.0460621E0,0E0,0E0,0E0,0E0,0E0,0E0],"parents":[2147483647,0,0,2,2,3,3,4,4,5,5,7,7,8,8],"right_children":[2,-1,4,6,8,10,-1,12,14,-1,-1,-1,-1,-1,-1],"split_conditions":[2.3460789E1,2.7293807E-2,2.863392E1,-1.0411429E-1,3.4054016E1,5.655422E0,-6.084143E-2,-1.6767953E-1,3.953787E1,-3.3451077E-2,3.0109718E-2,-3.0955076E-2,3.833056E-2,-1.1052999E-2,3.931067E-4],"split_indices":[0,0,0,2,0,1,0,2,0,0,0,0,0,0,0],"split_type":[0,0,0,0,0,0,0,0,0,0,0,0,0,0,0],"sum_hessian":[2.4166887E2,1.9447271E0,2.3972415E2,4.754258E0,2.349699E2,3.0598161E0,1.6944418E0,9.619314E0,2.2535057E2,1.247619E0,1.8121972E0,1.959659E0,7.659655E0,2.111643E1,2.0423415E2],"tree_param":{"num_deleted":"0","num_feature":"3","num_nodes":"15","size_leaf_vector":"1"}},{"base_weights":[3.3318473E-5,-2.6873106E-1,1.3269905E-2,2.4979407E-2,-4.800249E-1,2.5936705E-1,-1.8844394E-2,-2.4993218E-2,-7.0251E-1,1.3090765E-1,5.458924E-2,-3.3921194E-1,6.5012905E-3,-2.7874196E-2,2.9040331E-2,-4.3113823E-3,-5.0016273E-2,1.7133046E-2,-8.464723E-3,-4.895137E-3,-5.3548962E-2,2.9090082E-2,-4.145767E-4],"categories":[],"categories_nodes":[],"categories_segments":[],"categories_sizes":[],"default_left":[0,0,0,0,0,0,0,0,0,0,0,0,0,0,0,0,0,0,0,0,0,0,0],"id":41,"left_children":[1,3,5,-1,7,9,11,13,15,17,-1,19,21,-1,-1,-1,-1,-1,-1,-1,-1,-1,-1],"loss_changes":[8.665398E-1,2.0958872E0,1.8395766E0,0E0,9.4188404E-1,2.7297382E0,1.677182E0,1.6621912E0,1.0751936E0,1.6096702E0,0E0,2.5689595E0,1.6399754E0,0E0,0E0,0E0,0E0,0E0,0E0,0E0,0E0,0E0,0E0],"parents":[2147483647,0,0,1,1,2,2,4,4,5,5,6,6,7,7,8,8,9,9,11,11,12,12],"right_children":[2,4,6,-1,8,10,12,14,16,18,-1,20,22,-1,-1,-1,-1,-1,-1,-1,-1,-1,-1],"split_conditions":[2.9345527E0,2.7062435E0,3.2215111E0,2.4979407E-2,5.721289E1,3.1990597E0,3.3729122E0,7.66391E-2,-1.7953526E-2,5.9182175E1,5.458924E-2,6.2643814E1,-3.6646605E-1,-2.7874196E-2,2.9040331E-2,-4.3113823E-3,-5.0016273E-2,1.7133046E-2,-8.464723E-3,-4.895137E-3,-5.3548962E-2,2.9090082E-2,-4.145767E-4],"split_indices":[1,1,1,0,0,1,1,2,2,0,0,0,2,0,0,0,0,0,0,0,0,0,0],"split_type":[0,0,0,0,0,0,0,0,0,0,0,0,0,0,0,0,0,0,0,0,0,0,0],"sum_hessian":[2.4157715E2,1.0433164E1,2.3114398E2,1.9560467E0,8.477117E0,2.5864407E1,2.0527957E2,3.149015E0,5.328102E0,2.340915E1,2.455257E0,1.4142024E1,1.9113756E2,1.7183563E0,1.4306587E0,2.1560428E0,3.172059E0,1.3643803E1,9.7653475E0,1.1487628E1,2.6543965E0,3.8306754E0,1.8730687E2],"tree_param":{"num_deleted":"0","num_feature":"3","num_nodes":"23","size_leaf_vector":"1"}},{"base_weights":[5.8343387E-5,-1.04896845E-2,3.3074558E-1,-3.6687283E-3,-2.9569274E-2,6.626743E-1,-1.6004669E-2,9.399911E-2,-4.8320923E-2,1.4579567E-3,8.396593E-1,3.9437406E-2,2.0357713E-3,-1.7692469E-2,1.3453931E-3,4.801323E-2,1.234795E-2],"categories":[],"categories_nodes":[],"categories_segments":[],"categories_sizes":[],"default_left":[0,0,0,0,0,0,0,0,0,0,0,0,0,0,0,0,0],"id":42,"left_children":[1,3,5,7,-1,9,-1,11,13,-1,15,-1,-1,-1,-1,-1,-1],"loss_changes":[8.4917426E-1,9.32644E-1,1.8378294E0,1.0258956E0,0E0,5.708158E-1,0E0,2.700528E0,3.7187538E0,0E0,5.6934357E-2,0E0,0E0,0E0,0E0,0E0,0E0],"parents":[2147483647,0,0,1,1,2,2,3,3,5,5,7,7,8,8,10,10],"right_children":[2,4,6,8,-1,10,-1,12,14,-1,16,-1,-1,-1,-1,-1,-1],"split_conditions":[3.6949527E-1,3.5254928E-1,4.5611274E-1,3.6409783E0,-2.9569274E-2,3.6409783E0,-1.6004669E-2,-2.7492628E-1,4.2929015E0,1.4579567E-3,5.0078435E0,3.9437406E-2,2.0357713E-3,-1.7692469E-2,1.3453931E-3,4.801323E-2,1.234795E-2],"split_indices":[2,2,2,1,0,1,0,2,1,0,1,0,0,0,0,0,0],"split_type":[0,0,0,0,0,0,0,0,0,0,0,0,0,0,0,0,0],"sum_hessian":[2.4145444E2,2.3492911E2,6.5253234E0,2.3319719E2,1.7319169E0,4.3093596E0,2.2159638E0,7.281771E1,1.6037947E2,1.1953557E0,3.114004E0,4.203736E0,6.8613976E1,3.0955503E1,1.2942397E2,2.072193E0,1.041811E0],"tree_param":{"num_deleted":"0","num_feature":"3","num_nodes":"17","size_leaf_vector":"1"}},{"base_weights":[2.3187016E-4,1.1538878E-2,-3.0690488E-1,-1.14972545E-2,4.433065E-2,-4.2603454E-1,1.1503863E-2,-4.0540463E-1,6.508799E-4,-1.5207882E-1,-4.671907E-2,3.9072796E-3,-4.8851065E-2,1.7205704E-2,-7.811446E-4,-2.0055383E-2,1.797963E-2],"categories":[],"categories_nodes":[],"categories_segments":[],"categories_sizes":[],"default_left":[0,0,0,0,0,0,0,0,0,0,0,0,0,0,0,0,0],"id":43,"left_children":[1,3,5,7,-1,9,-1,11,13,15,-1,-1,-1,-1,-1,-1,-1],"loss_changes":[8.452516E-1,4.7419615E0,6.5086484E-1,1.0994176E0,0E0,8.91757E-1,0E0,1.976232E0,1.2564225E0,9.1110224E-1,0E0,0E0,0E0,0E0,0E0,0E0,0E0],"parents":[2147483647,0,0,1,1,2,2,3,3,5,5,7,7,8,8,9,9],"right_children":[2,4,6,8,-1,10,-1,12,14,16,-1,-1,-1,-1,-1,-1,-1],"split_conditions":[7.530562E0,7.043244E0,1.4048147E-1,-3.3796883E-1,4.433065E-2,5.0536747E1,1.1503863E-2,-3.6646605E-1,-2.5876758E-1,4.4734455E1,-4.671907E-2,3.9072796E-3,-4.8851065E-2,1.7205704E-2,-7.811446E-4,-2.0055383E-2,1.797963E-2],"split_indices":[1,1,2,2,0,0,0,2,2,0,0,0,0,0,0,0,0],"split_type":[0,0,0,0,0,0,0,0,0,0,0,0,0,0,0,0,0],"sum_hessian":[2.4137239E2,2.3373022E2,7.642171E0,2.286967E2,5.033529E0,6.4236875E0,1.2184837E0,5.873536E0,2.2282317E2,5.018374E0,1.4053133E0,3.6495478E0,2.2239883E0,9.168735E0,2.1365442E2,3.5208642E0,1.49751E0],"tree_param":{"num_deleted":"0","num_feature":"3","num_nodes":"17","size_leaf_vector":"1"}},{"base_weights":[1.3681287E-4,-2.604818E-1,1.2965746E-2,2.4169855E-2,-4.647792E-1,2.458051E-1,-1.7328527E-2,-2.443468E-2,-6.796191E-1,1.2124082E-1,5.319208E-2,-4.2289478E-1,2.3985833E-3,-2.7033431E-2,2.8251916E-2,-4.4041253E-3,-4.826301E-2,3.5427812E-2,5.1259715E-4,-4.0839002E-3,-4.190823E-2,-7.7830086E-4,2.4761178E-2],"categories":[],"categories_nodes":[],"categories_segments":[],"categories_sizes":[],"default_left":[0,0,0,0,0,0,0,0,0,0,0,0,0,0,0,0,0,0,0,0,0,0,0],"id":44,"left_children":[1,3,5,-1,7,9,11,13,15,17,-1,19,21,-1,-1,-1,-1,-1,-1,-1,-1,-1,-1],"loss_changes":[8.1329256E-1,1.9590094E0,1.6394941E0,0E0,8.786347E-1,2.5973825E0,1.6497145E0,1.5654193E0,9.833183E-1,1.5799136E0,0E0,1.2867548E0,1.7563142E0,0E0,0E0,0E0,0E0,0E0,0E0,0E0,0E0,0E0,0E0],"parents":[2147483647,0,0,1,1,2,2,4,4,5,5,6,6,7,7,8,8,9,9,11,11,12,12],"right_children":[2,4,6,-1,8,10,12,14,16,18,-1,20,22,-1,-1,-1,-1,-1,-1,-1,-1,-1,-1],"split_conditions":[2.9345527E0,2.7062435E0,3.2215111E0,2.4169855E-2,5.721289E1,3.1990597E0,3.3194015E0,7.66391E-2,-1.7953526E-2,4.0428528E1,5.319208E-2,3.3793833E-2,3.6949527E-1,-2.7033431E-2,2.8251916E-2,-4.4041253E-3,-4.826301E-2,3.5427812E-2,5.1259715E-4,-4.0839002E-3,-4.190823E-2,-7.7830086E-4,2.4761178E-2],"split_indices":[1,1,1,0,0,1,1,2,2,0,0,2,2,0,0,0,0,0,0,0,0,0,0],"split_type":[0,0,0,0,0,0,0,0,0,0,0,0,0,0,0,0,0,0,0,0,0,0,0],"sum_hessian":[2.4123871E2,1.041217E1,2.3082654E2,1.9490886E0,8.463081E0,2.575578E1,2.0507077E2,3.1403098E0,5.322772E0,2.3348639E1,2.407141E0,8.564173E0,1.9650659E2,1.7182965E0,1.4220133E0,2.159341E0,3.1634307E0,2.855305E0,2.0493332E1,5.358178E0,3.2059944E0,1.9052975E2,5.9768314E0],"tree_param":{"num_deleted":"0","num_feature":"3","num_nodes":"23","size_leaf_vector":"1"}},{"base_weights":[3.0220055E-4,2.61256E-2,-6.0804016E-3,-5.2736664E-1,6.6210404E-3,-5.322835E-2,1.2562262E-1,4.3306234E-1,-1.3278316E-2,2.503871E-2,-1.7394545E-2,-3.0165076E-2,3.701234E-2,-2.5462354E-2,-2.1738657E-4],"categories":[],"categories_nodes":[],"categories_segments":[],"categories_sizes":[],"default_left":[0,0,0,0,0,0,0,0,0,0,0,0,0,0,0],"id":45,"left_children":[1,-1,3,5,7,-1,9,11,13,-1,-1,-1,-1,-1,-1],"loss_changes":[8.1017643E-1,0E0,1.5937762E0,2.1421382E0,2.0038369E0,0E0,7.921633E-1,3.7980134E0,9.985047E-1,0E0,0E0,0E0,0E0,0E0,0E0],"parents":[2147483647,0,0,2,2,3,3,4,4,6,6,7,7,8,8],"right_children":[2,-1,4,6,8,-1,10,12,14,-1,-1,-1,-1,-1,-1],"split_conditions":[2.3460789E1,2.61256E-2,2.863392E1,5.655422E0,3.4054016E1,-5.322835E-2,7.1988697E0,-1.6767953E-1,3.506577E1,2.503871E-2,-1.7394545E-2,-3.0165076E-2,3.701234E-2,-2.5462354E-2,-2.1738657E-4],"split_indices":[0,0,0,1,0,0,1,2,0,0,0,0,0,0,0],"split_type":[0,0,0,0,0,0,0,0,0,0,0,0,0,0,0],"sum_hessian":[2.4111986E2,1.9350309E0,2.3918481E2,4.7254405E0,2.3445938E2,2.2467716E0,2.478669E0,9.527314E0,2.2493207E2,1.3508538E0,1.1278152E0,1.9578942E0,7.5694203E0,2.9876416E0,2.2194443E2],"tree_param":{"num_deleted":"0","num_feature":"3","num_nodes":"15","size_leaf_vector":"1"}},{"base_weights":[1.3489024E-4,1.0976278E-2,-2.952263E-1,-1.0961861E-2,4.291599E-2,-4.117746E-1,1.13103315E-2,-2.1966442E-1,1.1248233E-2,1.8504025E-2,-6.882389E-1,1.6628029E-3,-6.925988E-2,4.034009E-2,3.3353583E-5,-1.21393455E-2,1.5950404E-2,-4.2012665E-2,-7.670442E-3],"categories":[],"categories_nodes":[],"categories_segments":[],"categories_sizes":[],"default_left":[0,0,0,0,0,0,0,0,0,0,0,0,0,0,0,0,0,0,0],"id":46,"left_children":[1,3,5,7,-1,9,-1,11,13,15,17,-1,-1,-1,-1,-1,-1,-1,-1],"loss_changes":[7.782148E-1,4.366964E0,6.1607504E-1,1.0662057E0,0E0,8.915125E-1,0E0,6.567212E0,1.7534444E0,3.8081822E-1,2.3888755E-1,0E0,0E0,0E0,0E0,0E0,0E0,0E0,0E0],"parents":[2147483647,0,0,1,1,2,2,3,3,5,5,7,7,8,8,9,9,10,10],"right_children":[2,4,6,8,-1,10,-1,12,14,16,18,-1,-1,-1,-1,-1,-1,-1,-1],"split_conditions":[7.530562E0,7.043244E0,1.4048147E-1,-2.206429E-1,4.291599E-2,-1.10272974E-1,1.13103315E-2,5.5787706E0,2.5238949E1,-1.8261358E-1,9.48296E0,1.6628029E-3,-6.925988E-2,4.034009E-2,3.3353583E-5,-1.21393455E-2,1.5950404E-2,-4.2012665E-2,-7.670442E-3],"split_indices":[1,1,2,2,0,2,0,1,0,2,1,0,0,0,0,0,0,0,0],"split_type":[0,0,0,0,0,0,0,0,0,0,0,0,0,0,0,0,0,0,0],"sum_hessian":[2.4101875E2,2.3341402E2,7.604747E0,2.2848547E2,4.928538E0,6.387372E0,1.2173743E0,2.1121534E1,2.0736394E2,2.8636167E0,3.5237556E0,1.8153662E1,2.9678738E0,1.7341157E0,2.0562982E2,1.6344851E0,1.2291315E0,2.299192E0,1.2245636E0],"tree_param":{"num_deleted":"0","num_feature":"3","num_nodes":"19","size_leaf_vector":"1"}},{"base_weights":[5.330508E-5,-2.5044772E-1,1.2371488E-2,2.3433482E-2,-4.4801438E-1,2.3729253E-1,-1.6852727E-2,-1.8847033E-1,-4.3302197E-2,1.1653606E-1,5.2002084E-2,-4.0630317E-1,2.1139658E-3,-2.3700014E-2,2.8099716E-2,3.4251038E-2,4.900448E-4,-3.9973143E-3,-4.0153824E-2,-7.5578387E-4,2.381489E-2],"categories":[],"categories_nodes":[],"categories_segments":[],"categories_sizes":[],"default_left":[0,0,0,0,0,0,0,0,0,0,0,0,0,0,0,0,0,0,0,0,0],"id":47,"left_children":[1,3,5,-1,7,9,11,13,-1,15,-1,17,19,-1,-1,-1,-1,-1,-1,-1,-1],"loss_changes":[7.494617E-1,1.8272933E0,1.5256354E0,0E0,8.6115265E-1,2.4656377E0,1.5210724E0,1.7884388E0,0E0,1.4691123E0,0E0,1.1740769E0,1.6186912E0,0E0,0E0,0E0,0E0,0E0,0E0,0E0,0E0],"parents":[2147483647,0,0,1,1,2,2,4,4,5,5,6,6,7,7,9,9,11,11,12,12],"right_children":[2,4,6,-1,8,10,12,14,-1,16,-1,18,20,-1,-1,-1,-1,-1,-1,-1,-1],"split_conditions":[2.9345527E0,2.7062435E0,3.2215111E0,2.3433482E-2,6.316475E1,3.1990597E0,3.3194015E0,1.3326934E-1,-4.3302197E-2,4.0428528E1,5.2002084E-2,3.3793833E-2,3.6949527E-1,-2.3700014E-2,2.8099716E-2,3.4251038E-2,4.900448E-4,-3.9973143E-3,-4.0153824E-2,-7.5578387E-4,2.381489E-2],"split_indices":[1,1,1,0,0,1,1,2,0,0,0,2,2,0,0,0,0,0,0,0,0],"split_type":[0,0,0,0,0,0,0,0,0,0,0,0,0,0,0,0,0,0,0,0,0],"sum_hessian":[2.4087674E2,1.0383694E1,2.3049304E2,1.9421836E0,8.44151E0,2.5685745E1,2.0480731E2,6.1031017E0,2.3384085E0,2.3322538E1,2.3632064E0,8.562767E0,1.9624454E2,4.6878877E0,1.4152138E0,2.8302622E0,2.0492275E1,5.3575373E0,3.20523E0,1.9029811E2,5.946429E0],"tree_param":{"num_deleted":"0","num_feature":"3","num_nodes":"21","size_leaf_vector":"1"}},{"base_weights":[2.6485752E-4,1.0704808E-2,-2.8482538E-1,-1.0360107E-2,4.1769236E-2,-3.983568E-1,1.10209E-2,-2.1039653E-1,1.0911728E-2,-1.3408796E-1,-4.4855323E-2,1.6745785E-3,-6.700092E-2,1.8874852E-2,-5.5219897E-4,-1.8925698E-2,1.7955577E-2],"categories":[],"categories_nodes":[],"categories_segments":[],"categories_sizes":[],"default_left":[0,0,0,0,0,0,0,0,0,0,0,0,0,0,0,0,0],"id":48,"left_children":[1,3,5,7,-1,9,-1,11,13,15,-1,-1,-1,-1,-1,-1,-1],"loss_changes":[7.225611E-1,4.076591E0,5.797411E-1,9.781024E-1,0E0,8.49632E-1,0E0,6.131148E0,1.6801573E0,8.5752857E-1,0E0,0E0,0E0,0E0,0E0,0E0,0E0],"parents":[2147483647,0,0,1,1,2,2,3,3,5,5,7,7,8,8,9,9],"right_children":[2,4,6,8,-1,10,-1,12,14,16,-1,-1,-1,-1,-1,-1,-1],"split_conditions":[7.530562E0,7.043244E0,1.4048147E-1,-2.206429E-1,4.1769236E-2,5.0536747E1,1.10209E-2,5.5787706E0,3.4054016E1,4.4734455E1,-4.4855323E-2,1.6745785E-3,-6.700092E-2,1.8874852E-2,-5.5219897E-4,-1.8925698E-2,1.7955577E-2],"split_indices":[1,1,2,2,0,0,0,1,0,0,0,0,0,0,0,0,0],"split_type":[0,0,0,0,0,0,0,0,0,0,0,0,0,0,0,0,0],"sum_hessian":[2.4074493E2,2.331688E2,7.5761447E0,2.2832411E2,4.8446774E0,6.35883E0,1.217315E0,2.1091614E1,2.072325E2,4.985858E0,1.3729719E0,1.814452E1,2.9470944E0,1.0795243E1,1.9643726E2,3.4891798E0,1.496678E0],"tree_param":{"num_deleted":"0","num_feature":"3","num_nodes":"17","size_leaf_vector":"1"}},{"base_weights":[8.9143505E-5,2.453818E-2,-5.8678617E-3,-5.321754E-1,6.8559046E-3,2.4039371E-2,-5.811285E-2,4.0825865E-1,-1.1617098E-2,-3.1777572E-2,2.7746765E-2,-2.8801052E-2,3.5202216E-2,-1.02368165E-2,4.6378185E-4],"categories":[],"categories_nodes":[],"categories_segments":[],"categories_sizes":[],"default_left":[0,0,0,0,0,0,0,0,0,0,0,0,0,0,0],"id":49,"left_children":[1,-1,3,5,7,9,-1,11,13,-1,-1,-1,-1,-1,-1],"loss_changes":[7.089529E-1,0E0,1.608509E0,2.0149422E0,1.7471672E0,1.750268E0,0E0,3.4234748E0,9.122151E-1,0E0,0E0,0E0,0E0,0E0,0E0],"parents":[2147483647,0,0,2,2,3,3,4,4,5,5,7,7,8,8],"right_children":[2,-1,4,6,8,10,-1,12,14,-1,-1,-1,-1,-1,-1],"split_conditions":[2.3460789E1,2.453818E-2,2.863392E1,-1.0411429E-1,3.4054016E1,5.655422E0,-5.811285E-2,-1.6767953E-1,3.953787E1,-3.1777572E-2,2.7746765E-2,-2.8801052E-2,3.5202216E-2,-1.02368165E-2,4.6378185E-4],"split_indices":[0,0,0,2,0,1,0,2,0,0,0,0,0,0,0],"split_type":[0,0,0,0,0,0,0,0,0,0,0,0,0,0,0],"sum_hessian":[2.4056183E2,1.9093059E0,2.3865251E2,4.6696863E0,2.3398283E2,2.9910953E0,1.6785911E0,9.366056E0,2.2461678E2,1.2459649E0,1.7451304E0,1.945299E0,7.4207573E0,2.1068987E1,2.0354779E2],"tree_param":{"num_deleted":"0","num_feature":"3","num_nodes":"15","size_leaf_vector":"1"}},{"base_weights":[-8.033382E-5,-2.4018504E-1,1.1708637E-2,2.2720061E-2,-4.312603E-1,2.2960982E-1,-1.6571794E-2,-1.7866175E-1,-4.2087793E-2,1.1257989E-1,5.0869234E-2,-3.117302E-1,6.8131206E-3,-2.2723032E-2,2.7378468E-2,1.5564607E-2,-8.3062155E-3,-4.0324978E-3,-5.0994705E-2,1.1871705E-2,-1.4374027E-3],"categories":[],"categories_nodes":[],"categories_segments":[],"categories_sizes":[],"default_left":[0,0,0,0,0,0,0,0,0,0,0,0,0,0,0,0,0,0,0,0,0],"id":50,"left_children":[1,3,5,-1,7,9,11,13,-1,15,-1,17,19,-1,-1,-1,-1,-1,-1,-1,-1],"loss_changes":[6.8627757E-1,1.7019197E0,1.4279838E0,0E0,8.255496E-1,2.3393135E0,1.4204936E0,1.6701443E0,0E0,1.3973931E0,0E0,2.3899112E0,1.5764164E0,0E0,0E0,0E0,0E0,0E0,0E0,0E0,0E0],"parents":[2147483647,0,0,1,1,2,2,4,4,5,5,6,6,7,7,9,9,11,11,12,12],"right_children":[2,4,6,-1,8,10,12,14,-1,16,-1,18,20,-1,-1,-1,-1,-1,-1,-1,-1],"split_conditions":[2.9345527E0,2.7062435E0,3.2215111E0,2.2720061E-2,6.316475E1,3.1990597E0,3.3729122E0,1.3326934E-1,-4.2087793E-2,5.9182175E1,5.0869234E-2,6.2643814E1,3.6409783E0,-2.2723032E-2,2.7378468E-2,1.5564607E-2,-8.3062155E-3,-4.0324978E-3,-5.0994705E-2,1.1871705E-2,-1.4374027E-3],"split_indices":[1,1,1,0,0,1,1,2,0,0,0,0,1,0,0,0,0,0,0,0,0],"split_type":[0,0,0,0,0,0,0,0,0,0,0,0,0,0,0,0,0,0,0,0,0],"sum_hessian":[2.4045708E2,1.0347005E1,2.3011006E2,1.9349723E0,8.412033E0,2.5616383E1,2.0449368E2,6.0960574E0,2.3159757E0,2.329817E1,2.3182113E0,1.4107098E1,1.9038658E2,4.689398E0,1.4066596E0,1.353265E1,9.76552E0,1.1476197E1,2.6309006E0,2.4676702E1,1.6570988E2],"tree_param":{"num_deleted":"0","num_feature":"3","num_nodes":"21","size_leaf_vector":"1"}},{"base_weights":[-7.799624E-5,-5.18613E-2,5.6737438E-2,-2.2158558E-3,-5.9915143E-1,6.037679E-1,2.2869248E-2,-4.7825232E-2,4.6099314E-1,-1.0041735E0,8.3609454E-2,-8.260213E-3,8.0711883E-1,-4.4187462E-1,5.5836733E-2,2.9999984E-3,-1.4655526E-2,4.8793104E-2,6.57472E-3,-1.1926684E-2,-5.674327E-2,3.5383593E-2,-1.6053062E-2,6.522634E-2,2.909404E-3,-4.346902E-2,3.0105924E-2,1.5562355E-2,-1.2714266E-3],"categories":[],"categories_nodes":[],"categories_segments":[],"categories_sizes":[],"default_left":[0,0,0,0,0,0,0,0,0,0,0,0,0,0,0,0,0,0,0,0,0,0,0,0,0,0,0,0,0],"id":51,"left_children":[1,3,5,7,9,11,13,15,17,19,21,-1,23,25,27,-1,-1,-1,-1,-1,-1,-1,-1,-1,-1,-1,-1,-1,-1],"loss_changes":[7.1290386E-1,3.4430501E0,2.1268432E0,2.4987245E0,2.998432E0,1.180577E0,1.7076643E0,2.864116E0,1.6703331E0,3.9891768E-1,1.4513469E0,0E0,1.9604576E0,3.8208992E0,2.1552749E0,0E0,0E0,0E0,0E0,0E0,0E0,0E0,0E0,0E0,0E0,0E0,0E0,0E0,0E0],"parents":[2147483647,0,0,1,1,2,2,3,3,4,4,5,5,6,6,7,7,8,8,9,9,10,10,12,12,13,13,14,14],"right_children":[2,4,6,8,10,12,14,16,18,20,22,-1,24,26,28,-1,-1,-1,-1,-1,-1,-1,-1,-1,-1,-1,-1,-1,-1],"split_conditions":[4.699405E0,4.5276117E0,4.7895594E0,4.2929015E0,4.9810963E1,-3.3400893E-2,-2.7492628E-1,3.6409783E0,4.3928313E0,3.7993626E1,2.0037545E-2,-8.260213E-3,1.15403764E-1,7.043244E0,-9.8444E-2,2.9999984E-3,-1.4655526E-2,4.8793104E-2,6.57472E-3,-1.1926684E-2,-5.674327E-2,3.5383593E-2,-1.6053062E-2,6.522634E-2,2.909404E-3,-4.346902E-2,3.0105924E-2,1.5562355E-2,-1.2714266E-3],"split_indices":[1,1,1,1,0,2,2,1,1,0,2,0,2,1,2,0,0,0,0,0,0,0,0,0,0,0,0,0,0],"split_type":[0,0,0,0,0,0,0,0,0,0,0,0,0,0,0,0,0,0,0,0,0,0,0,0,0,0,0,0,0],"sum_hessian":[2.4031186E2,1.257692E2,1.14542656E2,1.1622987E2,9.539324E0,5.697126E0,1.0884553E2,1.06627655E2,9.602225E0,5.6920037E0,3.84732E0,1.2307254E0,4.4664006E0,6.388153E0,1.02457375E2,7.459274E1,3.203491E1,2.9815898E0,6.620635E0,1.2418668E0,4.450137E0,1.2188745E0,2.6284456E0,2.2380986E0,2.228302E0,4.6509047E0,1.7372487E0,2.404761E1,7.840977E1],"tree_param":{"num_deleted":"0","num_feature":"3","num_nodes":"29","size_leaf_vector":"1"}},{"base_weights":[1.564871E-4,1.0411338E-2,-2.8023148E-1,-9.47389E-3,4.0224608E-2,-3.9360332E-1,1.1103078E-2,1.6046931E-3,-3.7052035E-1,1.6181588E-2,-6.5925E-1,-7.918686E-3,1.4531635E-3,-3.206119E-2,9.916748E-3,-1.1827391E-2,1.5350843E-2,-4.0254124E-2,-7.434907E-3],"categories":[],"categories_nodes":[],"categories_segments":[],"categories_sizes":[],"default_left":[0,0,0,0,0,0,0,0,0,0,0,0,0,0,0,0,0,0,0],"id":52,"left_children":[1,3,5,7,-1,9,-1,11,13,15,17,-1,-1,-1,-1,-1,-1,-1,-1],"loss_changes":[6.965964E-1,3.6979089E0,5.741762E-1,9.164971E-1,0E0,8.090968E-1,0E0,9.848997E-1,1.1776079E0,3.5639805E-1,2.1338677E-1,0E0,0E0,0E0,0E0,0E0,0E0,0E0,0E0],"parents":[2147483647,0,0,1,1,2,2,3,3,5,5,7,7,8,8,9,9,10,10],"right_children":[2,4,6,8,-1,10,-1,12,14,16,18,-1,-1,-1,-1,-1,-1,-1,-1],"split_conditions":[7.530562E0,7.043244E0,1.4048147E-1,7.231598E1,4.0224608E-2,-1.10272974E-1,1.1103078E-2,-1.7320415E-1,5.5441794E0,-1.8261358E-1,9.48296E0,-7.918686E-3,1.4531635E-3,-3.206119E-2,9.916748E-3,-1.1827391E-2,1.5350843E-2,-4.0254124E-2,-7.434907E-3],"split_indices":[1,1,2,0,0,2,0,2,1,2,1,0,0,0,0,0,0,0,0],"split_type":[0,0,0,0,0,0,0,0,0,0,0,0,0,0,0,0,0,0,0],"sum_hessian":[2.4025131E2,2.3270334E2,7.5479746E0,2.2798232E2,4.721023E0,6.3345904E0,1.2133842E0,2.2216093E2,5.821375E0,2.8607311E0,3.4738595E0,3.1847013E1,1.9031392E2,3.8581595E0,1.9632154E0,1.6305124E0,1.2302188E0,2.253337E0,1.2205225E0],"tree_param":{"num_deleted":"0","num_feature":"3","num_nodes":"19","size_leaf_vector":"1"}},{"base_weights":[6.244866E-5,-9.340987E-3,2.9727122E-1,-2.7012895E-3,-2.8589113E-2,6.348542E-1,-1.7012822E-2,2.3124186E-2,-1.5263093E-1,1.7213564E-3,8.0319804E-1,-2.41857E-3,9.548648E-3,-4.026985E-2,-3.1092146E-3,4.638083E-2,1.1000477E-2],"categories":[],"categories_nodes":[],"categories_segments":[],"categories_sizes":[],"default_left":[0,0,0,0,0,0,0,0,0,0,0,0,0,0,0,0,0],"id":53,"left_children":[1,3,5,7,-1,9,-1,11,13,-1,15,-1,-1,-1,-1,-1,-1],"loss_changes":[6.765765E-1,8.748067E-1,1.8138962E0,9.054518E-1,0E0,4.982643E-1,0E0,2.40423E0,1.9784865E0,0E0,8.75268E-2,0E0,0E0,0E0,0E0,0E0,0E0],"parents":[2147483647,0,0,1,1,2,2,3,3,5,5,7,7,8,8,10,10],"right_children":[2,4,6,8,-1,10,-1,12,14,-1,16,-1,-1,-1,-1,-1,-1],"split_conditions":[3.6949527E-1,3.5254928E-1,4.5611274E-1,6.395756E1,-2.8589113E-2,3.6409783E0,-1.7012822E-2,5.5508915E1,6.4373505E1,1.7213564E-3,5.0078435E0,-2.41857E-3,9.548648E-3,-4.026985E-2,-3.1092146E-3,4.638083E-2,1.1000477E-2],"split_indices":[2,2,2,0,0,1,0,0,0,0,1,0,0,0,0,0,0],"split_type":[0,0,0,0,0,0,0,0,0,0,0,0,0,0,0,0,0],"sum_hessian":[2.400919E2,2.3366743E2,6.42447E0,2.3193422E2,1.7332128E0,4.203062E0,2.2214077E0,1.9857527E2,3.335895E1,1.1841376E0,3.0189247E0,1.3975719E2,5.8818085E1,3.0977056E0,3.0261246E1,2.0013564E0,1.0175682E0],"tree_param":{"num_deleted":"0","num_feature":"3","num_nodes":"17","size_leaf_vector":"1"}},{"base_weights":[-3.1552278E-5,2.4050185E-2,-5.8636116E-3,-5.275615E-1,6.6927327E-3,9.592362E-3,-5.646969E-2,3.9264858E-1,-1.0943215E-2,-3.0725796E-2,2.6041878E-2,-3.4011777E-2,3.227622E-2,-2.2913799E-2,-1.4484736E-4],"categories":[],"categories_nodes":[],"categories_segments":[],"categories_sizes":[],"default_left":[0,0,0,0,0,0,0,0,0,0,0,0,0,0,0],"id":54,"left_children":[1,-1,3,5,7,9,-1,11,13,-1,-1,-1,-1,-1,-1],"loss_changes":[6.7879236E-1,0E0,1.5694777E0,1.8311691E0,1.5999389E0,1.5857918E0,0E0,3.2256389E0,8.09074E-1,0E0,0E0,0E0,0E0,0E0,0E0],"parents":[2147483647,0,0,2,2,3,3,4,4,5,5,7,7,8,8],"right_children":[2,-1,4,6,8,10,-1,12,14,-1,-1,-1,-1,-1,-1],"split_conditions":[2.3460789E1,2.4050185E-2,2.863392E1,-1.0411429E-1,3.4054016E1,5.655422E0,-5.646969E-2,-2.2680917E-1,3.506577E1,-3.0725796E-2,2.6041878E-2,-3.4011777E-2,3.227622E-2,-2.2913799E-2,-1.4484736E-4],"split_indices":[0,0,0,2,0,1,0,2,0,0,0,0,0,0,0],"split_type":[0,0,0,0,0,0,0,0,0,0,0,0,0,0,0],"sum_hessian":[2.3995163E2,1.8983417E0,2.3805328E2,4.6308923E0,2.334224E2,2.9669023E0,1.6639901E0,9.270785E0,2.2415161E2,1.2450254E0,1.721877E0,1.4459615E0,7.8248234E0,2.9719293E0,2.2117969E2],"tree_param":{"num_deleted":"0","num_feature":"3","num_nodes":"15","size_leaf_vector":"1"}},{"base_weights":[-2.8362562E-4,3.396021E-1,-8.5121915E-3,-6.884727E-3,3.3338897E-2,-3.1997446E-2,1.187353E-3,1.5399141E-2,-4.1068584E-1,-5.888393E-5,3.3901345E-2,-4.9844783E-2,-3.59893E-3],"categories":[],"categories_nodes":[],"categories_segments":[],"categories_sizes":[],"default_left":[0,0,0,0,0,0,0,0,0,0,0,0,0],"id":55,"left_children":[1,3,5,-1,-1,-1,7,9,11,-1,-1,-1,-1],"loss_changes":[6.764806E-1,9.8464745E-1,1.4469607E0,0E0,0E0,0E0,1.3734208E0,2.491234E0,1.4821599E0,0E0,0E0,0E0,0E0],"parents":[2147483647,0,0,1,1,2,2,6,6,7,7,8,8],"right_children":[2,4,6,-1,-1,-1,8,10,12,-1,-1,-1,-1],"split_conditions":[-3.6646605E-1,3.8299873E0,-3.3796883E-1,-6.884727E-3,3.3338897E-2,-3.1997446E-2,7.530562E0,6.9712358E0,3.890214E1,-5.888393E-5,3.3901345E-2,-4.9844783E-2,-3.59893E-3],"split_indices":[2,1,2,0,0,0,1,1,0,0,0,0,0],"split_type":[0,0,0,0,0,0,0,0,0,0,0,0,0],"sum_hessian":[2.3984543E2,4.7174454E0,2.3512799E2,2.1541014E0,2.5633442E0,2.5741563E0,2.3255383E2,2.2572766E2,6.8261776E0,2.2119235E2,4.5353003E0,1.7881469E0,5.0380306E0],"tree_param":{"num_deleted":"0","num_feature":"3","num_nodes":"13","size_leaf_vector":"1"}},{"base_weights":[-3.7279516E-4,4.616726E-3,-2.6917472E-2,-9.299356E-3,2.7333397E-1,1.1485394E-3,-3.671664E-1,7.643418E-1,-1.3959096E-1,-6.3372793E-4,1.7512154E-2,-4.872643E-3,-4.2756177E-2,4.174661E-2,1.1383312E-2,-2.596646E-2,8.089717E-3],"categories":[],"categories_nodes":[],"categories_segments":[],"categories_sizes":[],"default_left":[0,0,0,0,0,0,0,0,0,0,0,0,0,0,0,0,0],"id":56,"left_children":[1,3,-1,5,7,9,11,13,15,-1,-1,-1,-1,-1,-1,-1,-1],"loss_changes":[6.487187E-1,8.9826035E-1,0E0,8.555319E-1,2.5045457E0,1.0815648E0,7.7089435E-1,2.043438E-2,9.1602504E-1,0E0,0E0,0E0,0E0,0E0,0E0,0E0,0E0],"parents":[2147483647,0,0,1,1,3,3,4,4,5,5,6,6,7,7,8,8],"right_children":[2,4,-1,6,8,10,12,14,16,-1,-1,-1,-1,-1,-1,-1,-1],"split_conditions":[1.0052805E1,7.043244E0,-2.6917472E-2,6.6886854E0,7.530562E0,6.4152393E0,1.3041174E-1,6.6930145E1,3.890214E1,-6.3372793E-4,1.7512154E-2,-4.872643E-3,-4.2756177E-2,4.174661E-2,1.1383312E-2,-2.596646E-2,8.089717E-3],"split_indices":[1,1,0,1,1,1,2,0,0,0,0,0,0,0,0,0,0],"split_type":[0,0,0,0,0,0,0,0,0,0,0,0,0,0,0,0,0],"sum_hessian":[2.3975038E2,2.3852954E2,1.2208492E0,2.2770287E2,1.08266735E1,2.2221219E2,5.4906735E0,4.556961E0,6.269712E0,2.1467538E2,7.5368094E0,4.3087626E0,1.1819106E0,3.5361004E0,1.0208608E0,2.4542613E0,3.8154507E0],"tree_param":{"num_deleted":"0","num_feature":"3","num_nodes":"17","size_leaf_vector":"1"}},{"base_weights":[-4.4137714E-4,-9.654046E-3,2.9228595E-1,5.3667394E-3,-2.4388643E-1,6.206939E-1,-1.6260356E-2,-1.568505E-2,8.3868307E-1,-4.4094443E-1,3.7895858E-1,7.991122E-1,2.325856E-3,7.560012E-5,-2.826939E-2,5.103878E-3,5.9904423E-2,-3.994934E-2,-8.609616E-4,3.281391E-2,3.4971154E-4,4.610725E-2,1.18233925E-2],"categories":[],"categories_nodes":[],"categories_segments":[],"categories_sizes":[],"default_left":[0,0,0,0,0,0,0,0,0,0,0,0,0,0,0,0,0,0,0,0,0,0,0],"id":57,"left_children":[1,3,5,7,9,11,-1,13,15,17,19,21,-1,-1,-1,-1,-1,-1,-1,-1,-1,-1,-1],"loss_changes":[6.518169E-1,8.255857E-1,1.6973675E0,3.8925552E0,1.902587E0,4.9124038E-1,0E0,2.0491118E0,1.3251064E0,1.6859725E0,4.0144438E-1,5.0076246E-2,0E0,0E0,0E0,0E0,0E0,0E0,0E0,0E0,0E0,0E0,0E0],"parents":[2147483647,0,0,1,1,2,2,3,3,4,4,5,5,7,7,8,8,9,9,10,10,11,11],"right_children":[2,4,6,8,10,12,-1,14,16,18,20,22,-1,-1,-1,-1,-1,-1,-1,-1,-1,-1,-1],"split_conditions":[3.6949527E-1,2.6610643E-1,4.5611274E-1,2.5035876E-1,5.1894746E0,6.128956E1,-1.6260356E-2,2.2663859E-1,3.7257261E0,3.128741E-1,2.9389337E-1,4.9529095E0,2.325856E-3,7.560012E-5,-2.826939E-2,5.103878E-3,5.9904423E-2,-3.994934E-2,-8.609616E-4,3.281391E-2,3.4971154E-4,4.610725E-2,1.18233925E-2],"split_indices":[2,2,2,2,1,0,0,2,1,2,2,1,0,0,0,0,0,0,0,0,0,0,0],"split_type":[0,0,0,0,0,0,0,0,0,0,0,0,0,0,0,0,0,0,0,0,0,0,0],"sum_hessian":[2.3965382E2,2.3327911E2,6.3747034E0,2.2013919E2,1.3139933E1,4.1580825E0,2.2166214E0,2.1567192E2,4.467269E0,1.0203697E1,2.9362357E0,2.8734426E0,1.2846396E0,2.1009645E2,5.575466E0,1.8859694E0,2.5812995E0,5.050481E0,5.1532164E0,1.2442338E0,1.6920017E0,1.8335536E0,1.0398892E0],"tree_param":{"num_deleted":"0","num_feature":"3","num_nodes":"23","size_leaf_vector":"1"}},{"base_weights":[-1.07893145E-4,3.287965E-1,-8.060258E-3,-6.6308747E-3,3.2309E-2,-3.1148884E-2,1.3598539E-3,1.4916554E-2,-3.934303E-1,-2.2134342E-5,3.211647E-2,-4.816711E-2,-3.446851E-3],"categories":[],"categories_nodes":[],"categories_segments":[],"categories_sizes":[],"default_left":[0,0,0,0,0,0,0,0,0,0,0,0,0],"id":58,"left_children":[1,3,5,-1,-1,-1,7,9,11,-1,-1,-1,-1],"loss_changes":[6.318828E-1,9.209077E-1,1.3671389E0,0E0,0E0,0E0,1.2545443E0,2.1832185E0,1.3727562E0,0E0,0E0,0E0,0E0],"parents":[2147483647,0,0,1,1,2,2,6,6,7,7,8,8],"right_children":[2,4,6,-1,-1,-1,8,10,12,-1,-1,-1,-1],"split_conditions":[-3.6646605E-1,3.8299873E0,-3.3796883E-1,-6.6308747E-3,3.2309E-2,-3.1148884E-2,7.530562E0,6.9712358E0,3.890214E1,-2.2134342E-5,3.211647E-2,-4.816711E-2,-3.446851E-3],"split_indices":[2,1,2,0,0,0,1,1,0,0,0,0,0],"split_type":[0,0,0,0,0,0,0,0,0,0,0,0,0],"sum_hessian":[2.395721E2,4.7032466E0,2.3486885E2,2.15396E0,2.5492866E0,2.5610075E0,2.3230783E2,2.2552573E2,6.782112E0,2.2111214E2,4.413593E0,1.7463012E0,5.035811E0],"tree_param":{"num_deleted":"0","num_feature":"3","num_nodes":"13","size_leaf_vector":"1"}},{"base_weights":[-2.0560516E-4,-2.302704E-1,1.1072724E-2,2.2049988E-2,-4.155445E-1,2.2045222E-1,-1.6074281E-2,-1.7589486E-1,-4.036702E-2,1.0676173E-1,4.975349E-2,9.900565E-3,-2.7927727E-1,-2.2116477E-2,2.6512092E-2,1.3837073E-3,4.414257E-2,-4.646923E-4,5.1791694E-2,-2.6210656E-2,1.2087203E-2],"categories":[],"categories_nodes":[],"categories_segments":[],"categories_sizes":[],"default_left":[0,0,0,0,0,0,0,0,0,0,0,0,0,0,0,0,0,0,0,0,0],"id":59,"left_children":[1,3,5,-1,7,9,11,13,-1,15,-1,17,19,-1,-1,-1,-1,-1,-1,-1,-1],"loss_changes":[6.265229E-1,1.586593E0,1.3119607E0,0E0,7.3663414E-1,2.2264671E0,1.402256E0,1.5674803E0,0E0,1.4620483E0,0E0,3.6976306E0,2.4776034E0,0E0,0E0,0E0,0E0,0E0,0E0,0E0,0E0],"parents":[2147483647,0,0,1,1,2,2,4,4,5,5,6,6,7,7,9,9,11,11,12,12],"right_children":[2,4,6,-1,8,10,12,14,-1,16,-1,18,20,-1,-1,-1,-1,-1,-1,-1,-1],"split_conditions":[2.9345527E0,2.7062435E0,3.2215111E0,2.2049988E-2,6.316475E1,3.1990597E0,6.666686E1,1.3326934E-1,-4.036702E-2,6.7132576E1,4.975349E-2,6.626655E1,1.4583734E-1,-2.2116477E-2,2.6512092E-2,1.3837073E-3,4.414257E-2,-4.646923E-4,5.1791694E-2,-2.6210656E-2,1.2087203E-2],"split_indices":[1,1,1,0,0,1,0,2,0,0,0,0,2,0,0,0,0,0,0,0,0],"split_type":[0,0,0,0,0,0,0,0,0,0,0,0,0,0,0,0,0,0,0,0,0],"sum_hessian":[2.3947559E2,1.0283668E1,2.2919191E2,1.9258454E0,8.357822E0,2.548792E1,2.03704E2,6.0848494E0,2.2729726E0,2.3218039E1,2.2698824E0,1.8628261E2,1.7421381E1,4.68916E0,1.3956895E0,2.2010693E1,1.207346E0,1.8383417E2,2.448453E0,1.1846249E1,5.575133E0],"tree_param":{"num_deleted":"0","num_feature":"3","num_nodes":"21","size_leaf_vector":"1"}},{"base_weights":[2.9655223E-4,-8.670449E-3,2.8658593E-1,-2.2083826E-3,-2.7725948E-2,