{"learner":{"attributes":{"scikit_learn":"{\"_estimator_type\": \"classifier\"}"},"feature_names":[],"feature_types":[],"gradient_booster":{"model":{"cats":{"enc":[],"feature_segments":[],"sorted_idx":[]},"gbtree_model_param":{"num_parallel_tree":"1","num_trees":"100"},"iteration_indptr":[0,1,2,3,4,5,6,7,8,9,10,11,12,13,14,15,16,17,18,19,20,21,22,23,24,25,26,27,28,29,30,31,32,33,34,35,36,37,38,39,40,41,42,43,44,45,46,47,48,49,50,51,52,53,54,55,56,57,58,59,60,61,62,63,64,65,66,67,68,69,70,71,72,73,74,75,76,77,78,79,80,81,82,83,84,85,86,87,88,89,90,91,92,93,94,95,96,97,98,99,100],"tree_info":[0,0,0,0,0,0,0,0,0,0,0,0,0,0,0,0,0,0,0,0,0,0,0,0,0,0,0,0,0,0,0,0,0,0,0,0,0,0,0,0,0,0,0,0,0,0,0,0,0,0,0,0,0,0,0,0,0,0,0,0,0,0,0,0,0,0,0,0,0,0,0,0,0,0,0,0,0,0,0,0,0,0,0,0,0,0,0,0,0,0,0,0,0,0,0,0,0,0,0,0],"trees":[{"base_weights":[1.5396425E-8,6.825018E-1,-3.3673197E-2,1.0552807E0,6.66204E-2,-1.12966985E-1,2.024537E-1,5.9633445E-2,1.5813375E-2,5.5933237E-2,-6.081178E-1,-4.7611505E-2,-6.772309E-1,7.335099E-1,-6.4831056E-2,-5.010378E-2,7.2108083E-3,2.1767556E-3,-1.6392464E-2,-4.2282023E-2,7.23468E-3,4.435429E-2,4.3722563E-3,-2.931841E-2,1.2135903E-2],"categories":[],"categories_nodes":[],"categories_segments":[],"categories_sizes":[],"default_left":[0,0,0,0,0,0,0,0,0,0,0,0,0,0,0,0,0,0,0,0,0,0,0,0,0],"id":0,"left_children":[1,3,5,7,9,11,13,-1,-1,-1,15,17,19,21,23,-1,-1,-1,-1,-1,-1,-1,-1,-1,-1],"loss_changes":[5.7171264E0,2.6150622E0,4.4616013E0,3.5574245E-1,4.568574E0,6.536186E0,8.557756E0,0E0,0E0,0E0,1.3256394E0,4.119009E0,2.6710653E0,1.922122E0,6.6867046E0,0E0,0E0,0E0,0E0,0E0,0E0,0E0,0E0,0E0,0E0],"parents":[2147483647,0,0,1,1,2,2,3,3,4,4,5,5,6,6,10,10,11,11,12,12,13,13,14,14],"right_children":[2,4,6,8,10,12,14,-1,-1,-1,16,18,20,22,24,-1,-1,-1,-1,-1,-1,-1,-1,-1,-1],"split_conditions":[2.4150083E0,6.540246E1,4.7045054E0,6.065955E-2,2.1087806E0,4.452876E0,4.9810805E0,5.9633445E-2,1.5813375E-2,5.5933237E-2,6.9662704E1,6.5179375E1,6.1803936E1,1.1771454E-1,5.43678E0,-5.010378E-2,7.2108083E-3,2.1767556E-3,-1.6392464E-2,-4.2282023E-2,7.23468E-3,4.435429E-2,4.3722563E-3,-2.931841E-2,1.2135903E-2],"split_indices":[1,0,1,2,1,1,1,0,0,0,0,0,0,2,1,0,0,0,0,0,0,0,0,0,0],"split_type":[0,0,0,0,0,0,0,0,0,0,0,0,0,0,0,0,0,0,0,0,0,0,0,0,0],"sum_hessian":[2.4676512E2,1.0696472E1,2.3606865E2,6.2188787E0,4.477593E0,1.7711368E2,5.895497E1,4.726348E0,1.492531E0,1.492531E0,2.985062E0,1.597008E2,1.741286E1,1.9154146E1,3.9800827E1,1.741286E0,1.2437758E0,1.2114376E2,3.855705E1,1.4427799E1,2.985062E0,1.5174065E1,3.9800825E0,1.4427799E1,2.5373026E1],"tree_param":{"num_deleted":"0","num_feature":"3","num_nodes":"25","size_leaf_vector":"1"}},{"base_weights":[3.014581E-4,6.576234E-1,-3.205117E-2,1.0166911E0,6.576053E-2,-1.343457E-2,-9.945559E-1,5.741902E-2,1.5351014E-2,5.441589E-2,-5.8778775E-1,-3.288623E-2,8.023627E-1,-7.1226925E-2,-3.9900444E-3,-4.8695404E-2,7.3284614E-3,-5.328426E-3,8.969466E-3,4.7918346E-2,7.531182E-3],"categories":[],"categories_nodes":[],"categories_segments":[],"categories_sizes":[],"default_left":[0,0,0,0,0,0,0,0,0,0,0,0,0,0,0,0,0,0,0,0,0],"id":1,"left_children":[1,3,5,7,9,11,13,-1,-1,-1,15,17,19,-1,-1,-1,-1,-1,-1,-1,-1],"loss_changes":[5.2896075E0,2.4128342E0,4.234684E0,3.1966496E-1,4.29858E0,3.7331417E0,1.6503077E0,0E0,0E0,0E0,1.2739648E0,3.6026316E0,4.1275287E-1,0E0,0E0,0E0,0E0,0E0,0E0,0E0,0E0],"parents":[2147483647,0,0,1,1,2,2,3,3,4,4,5,5,6,6,10,10,11,11,12,12],"right_children":[2,4,6,8,10,12,14,-1,-1,-1,16,18,20,-1,-1,-1,-1,-1,-1,-1,-1],"split_conditions":[2.4150083E0,6.540246E1,7.652442E1,6.065955E-2,2.1087806E0,7.4323296E1,1.2966761E-1,5.741902E-2,1.5351014E-2,5.441589E-2,2.2652845E0,4.7045054E0,9.3318865E-2,-7.1226925E-2,-3.9900444E-3,-4.8695404E-2,7.3284614E-3,-5.328426E-3,8.969466E-3,4.7918346E-2,7.531182E-3],"split_indices":[1,0,0,2,1,0,2,0,0,0,1,1,2,0,0,0,0,0,0,0,0],"split_type":[0,0,0,0,0,0,0,0,0,0,0,0,0,0,0,0,0,0,0,0,0],"sum_hessian":[2.4674324E2,1.0668105E1,2.3607513E2,6.19312E0,4.474985E0,2.3259038E2,3.484764E0,4.7023463E0,1.4907737E0,1.4854969E0,2.9894884E0,2.2811104E2,4.479333E0,1.9914085E0,1.4933556E0,1.7455065E0,1.2439818E0,1.697037E2,5.840734E1,3.2346025E0,1.2447306E0],"tree_param":{"num_deleted":"0","num_feature":"3","num_nodes":"21","size_leaf_vector":"1"}},{"base_weights":[5.762011E-4,6.343251E-1,-3.0511016E-2,9.8054415E-1,6.499174E-2,-1.2506794E-2,-9.600086E-1,5.5357706E-2,1.4903161E-2,5.298654E-2,-5.683816E-1,-3.1221801E-2,7.7424955E-1,-6.869631E-2,-3.8699347E-3,-4.709114E-2,7.1274177E-3,-5.061728E-3,8.534523E-3,4.6226375E-2,7.3244623E-3],"categories":[],"categories_nodes":[],"categories_segments":[],"categories_sizes":[],"default_left":[0,0,0,0,0,0,0,0,0,0,0,0,0,0,0,0,0,0,0,0,0],"id":2,"left_children":[1,3,5,7,9,11,13,-1,-1,-1,15,17,19,-1,-1,-1,-1,-1,-1,-1,-1],"loss_changes":[4.8997684E0,2.2285109E0,3.95565E0,2.887268E-1,4.04773E0,3.463693E0,1.5346808E0,0E0,0E0,0E0,1.1941041E0,3.2563713E0,3.8025475E-1,0E0,0E0,0E0,0E0,0E0,0E0,0E0,0E0],"parents":[2147483647,0,0,1,1,2,2,3,3,4,4,5,5,6,6,10,10,11,11,12,12],"right_children":[2,4,6,8,10,12,14,-1,-1,-1,16,18,20,-1,-1,-1,-1,-1,-1,-1,-1],"split_conditions":[2.4150083E0,6.540246E1,7.652442E1,6.065955E-2,2.1087806E0,7.4323296E1,1.2966761E-1,5.5357706E-2,1.4903161E-2,5.298654E-2,2.2652845E0,4.7045054E0,9.3318865E-2,-6.869631E-2,-3.8699347E-3,-4.709114E-2,7.1274177E-3,-5.061728E-3,8.534523E-3,4.6226375E-2,7.3244623E-3],"split_indices":[1,0,0,2,1,0,2,0,0,0,1,1,2,0,0,0,0,0,0,0,0],"split_type":[0,0,0,0,0,0,0,0,0,0,0,0,0,0,0,0,0,0,0,0,0],"sum_hessian":[2.4671805E2,1.0628996E1,2.3608905E2,6.160467E0,4.4685287E0,2.3259714E2,3.4919147E0,4.671574E0,1.4888929E0,1.4764888E0,2.99204E0,2.2813078E2,4.466357E0,1.9981698E0,1.4937449E0,1.7486984E0,1.2433416E0,1.69764E2,5.8366776E1,3.222251E0,1.2441062E0],"tree_param":{"num_deleted":"0","num_feature":"3","num_nodes":"21","size_leaf_vector":"1"}},{"base_weights":[8.2928076E-4,6.124582E-1,-2.9047849E-2,9.4656944E-1,6.430195E-2,-1.1634637E-2,-9.277093E-1,1.0686256E0,1.4469258E-2,5.163721E-2,-5.499002E-1,-3.2399917E-1,3.2667115E-2,-6.6367246E-2,-3.7534696E-3,2.3335893E-2,6.304123E-2,-4.5822926E-2,7.2248094E-3,-2.1024553E-2,5.102321E-2,6.2462546E-2,7.31229E-4],"categories":[],"categories_nodes":[],"categories_segments":[],"categories_sizes":[],"default_left":[0,0,0,0,0,0,0,0,0,0,0,0,0,0,0,0,0,0,0,0,0,0,0],"id":3,"left_children":[1,3,5,7,9,11,13,15,-1,-1,17,19,21,-1,-1,-1,-1,-1,-1,-1,-1,-1,-1],"loss_changes":[4.5436354E0,2.0599732E0,3.6993215E0,2.6202536E-1,3.8145618E0,3.243148E0,1.4316723E0,6.343937E-2,0E0,0E0,1.1486641E0,4.2050943E0,4.492264E0,0E0,0E0,0E0,0E0,0E0,0E0,0E0,0E0,0E0,0E0],"parents":[2147483647,0,0,1,1,2,2,3,3,4,4,5,5,6,6,7,7,10,10,11,11,12,12],"right_children":[2,4,6,8,10,12,14,16,-1,-1,18,20,22,-1,-1,-1,-1,-1,-1,-1,-1,-1,-1],"split_conditions":[2.4150083E0,6.540246E1,7.652442E1,6.065955E-2,2.1087806E0,-2.0534651E-1,1.2966761E-1,-1.7335287E-1,1.4469258E-2,5.163721E-2,6.9662704E1,9.21893E0,-2.0014788E-1,-6.6367246E-2,-3.7534696E-3,2.3335893E-2,6.304123E-2,-4.5822926E-2,7.2248094E-3,-2.1024553E-2,5.102321E-2,6.2462546E-2,7.31229E-4],"split_indices":[1,0,0,2,1,2,2,2,0,0,0,1,2,0,0,0,0,0,0,0,0,0,0],"split_type":[0,0,0,0,0,0,0,0,0,0,0,0,0,0,0,0,0,0,0,0,0,0,0],"sum_hessian":[2.4666963E2,1.0580102E1,2.3608952E2,6.1218805E0,4.4582214E0,2.325955E2,3.4940178E0,4.634978E0,1.4869027E0,1.465716E0,2.9925056E0,2.8106642E1,2.0448886E2,1.9999067E0,1.4941113E0,1.9515696E0,2.6834083E0,1.7492951E0,1.2432104E0,2.6865736E1,1.2409061E0,1.9911202E0,2.0249774E2],"tree_param":{"num_deleted":"0","num_feature":"3","num_nodes":"23","size_leaf_vector":"1"}},{"base_weights":[1.3493211E-3,5.9443206E-1,-2.7494133E-2,9.184626E-1,6.368955E-2,-1.0649987E-2,-8.974322E-1,1.037339E0,1.4048792E-2,5.036084E-2,-5.32222E-1,-2.8623601E-2,7.4702954E-1,-6.421611E-2,-3.6405257E-3,2.262204E-2,6.123502E-2,-4.437334E-2,7.027354E-3,1.090941E-3,-1.472241E-2,4.4603545E-2,7.1034627E-3],"categories":[],"categories_nodes":[],"categories_segments":[],"categories_sizes":[],"default_left":[0,0,0,0,0,0,0,0,0,0,0,0,0,0,0,0,0,0,0,0,0,0,0],"id":4,"left_children":[1,3,5,7,9,11,13,15,-1,-1,17,19,21,-1,-1,-1,-1,-1,-1,-1,-1,-1,-1],"loss_changes":[4.252354E0,1.9241314E0,3.4647038E0,2.4535084E-1,3.5974286E0,3.202671E0,1.3394663E0,5.9462547E-2,0E0,0E0,1.078664E0,3.079125E0,3.5147476E-1,0E0,0E0,0E0,0E0,0E0,0E0,0E0,0E0,0E0,0E0],"parents":[2147483647,0,0,1,1,2,2,3,3,4,4,5,5,6,6,7,7,10,10,11,11,12,12],"right_children":[2,4,6,8,10,12,14,16,-1,-1,18,20,22,-1,-1,-1,-1,-1,-1,-1,-1,-1,-1],"split_conditions":[2.4150083E0,6.540246E1,7.652442E1,6.065955E-2,2.1087806E0,7.4323296E1,1.2966761E-1,-1.7335287E-1,1.4048792E-2,5.036084E-2,2.2652845E0,6.5179375E1,9.3318865E-2,-6.421611E-2,-3.6405257E-3,2.262204E-2,6.123502E-2,-4.437334E-2,7.027354E-3,1.090941E-3,-1.472241E-2,4.4603545E-2,7.1034627E-3],"split_indices":[1,0,0,2,1,0,2,2,0,0,1,0,2,0,0,0,0,0,0,0,0,0,0],"split_type":[0,0,0,0,0,0,0,0,0,0,0,0,0,0,0,0,0,0,0,0,0,0,0],"sum_hessian":[2.4662497E2,1.0528463E1,2.3609651E2,6.083701E0,4.4447627E0,2.3260495E2,3.491563E0,4.598884E0,1.4848168E0,1.4533738E0,2.991389E0,2.2815489E2,4.450051E0,1.9971071E0,1.494456E0,1.9442376E0,2.6546466E0,1.748825E0,1.2425641E0,1.9253728E2,3.5617622E1,3.206651E0,1.2433999E0],"tree_param":{"num_deleted":"0","num_feature":"3","num_nodes":"23","size_leaf_vector":"1"}},{"base_weights":[1.6172542E-3,5.0413556E-2,-1.438766E-2,-2.7667735E-2,4.9203888E-2,2.883016E-2,-2.6293936E-1,-9.260652E-4,4.2623013E-2,-1.7269555E-2,3.9519306E-2],"categories":[],"categories_nodes":[],"categories_segments":[],"categories_sizes":[],"default_left":[0,0,0,0,0,0,0,0,0,0,0],"id":5,"left_children":[1,-1,3,5,-1,7,9,-1,-1,-1,-1],"loss_changes":[4.002981E0,0E0,3.2714443E0,3.2300284E0,0E0,7.6748714E0,4.358554E0,0E0,0E0,0E0,0E0],"parents":[2147483647,0,0,2,2,3,3,5,5,6,6],"right_children":[2,-1,4,6,-1,8,10,-1,-1,-1,-1],"split_conditions":[2.1426585E0,5.0413556E-2,4.0168843E-1,6.5179375E1,4.9203888E-2,6.3784042E1,4.7383304E0,-9.260652E-4,4.2623013E-2,-1.7269555E-2,3.9519306E-2],"split_indices":[1,0,2,0,0,0,1,0,0,0,0],"split_type":[0,0,0,0,0,0,0,0,0,0,0],"sum_hessian":[2.4655591E2,2.8883924E0,2.4366753E2,2.414287E2,2.2388294E0,1.9538629E2,4.6042404E1,1.8568835E2,9.697929E0,4.332326E1,2.719143E0],"tree_param":{"num_deleted":"0","num_feature":"3","num_nodes":"11","size_leaf_vector":"1"}},{"base_weights":[2.2058922E-3,5.700716E-1,-2.5210278E-2,8.8463676E-1,5.6388464E-2,-9.088537E-3,-8.5966974E-1,9.9878836E-1,1.36681E-2,4.7973316E-2,-5.065265E-1,-1.3453694E-1,1.01154864E-1,-6.170074E-2,-3.3446157E-3,2.1409728E-2,5.925044E-2,-4.3001685E-2,7.5933947E-3,-9.9468E-4,-4.4487808E-2,3.8522575E-2,2.14319E-3],"categories":[],"categories_nodes":[],"categories_segments":[],"categories_sizes":[],"default_left":[0,0,0,0,0,0,0,0,0,0,0,0,0,0,0,0,0,0,0,0,0,0,0],"id":6,"left_children":[1,3,5,7,9,11,13,15,-1,-1,17,19,21,-1,-1,-1,-1,-1,-1,-1,-1,-1,-1],"loss_changes":[3.8679345E0,1.7990048E0,3.18158E0,2.1739244E-1,3.2380981E0,3.2441945E0,1.2478356E0,8.1834316E-2,0E0,0E0,1.0591419E0,9.479508E0,4.839949E0,0E0,0E0,0E0,0E0,0E0,0E0,0E0,0E0,0E0,0E0],"parents":[2147483647,0,0,1,1,2,2,3,3,4,4,5,5,6,6,7,7,10,10,11,11,12,12],"right_children":[2,4,6,8,10,12,14,16,-1,-1,18,20,22,-1,-1,-1,-1,-1,-1,-1,-1,-1,-1],"split_conditions":[2.4150083E0,6.540246E1,7.652442E1,6.065955E-2,2.1087806E0,5.1344612E1,1.2966761E-1,-1.7335287E-1,1.36681E-2,4.7973316E-2,6.9662704E1,4.8834034E1,5.3053425E1,-6.170074E-2,-3.3446157E-3,2.1409728E-2,5.925044E-2,-4.3001685E-2,7.5933947E-3,-9.9468E-4,-4.4487808E-2,3.8522575E-2,2.14319E-3],"split_indices":[1,0,0,2,1,0,2,2,0,0,0,0,0,0,0,0,0,0,0,0,0,0,0],"split_type":[0,0,0,0,0,0,0,0,0,0,0,0,0,0,0,0,0,0,0,0,0,0,0],"sum_hessian":[2.4651987E2,1.0442071E1,2.360778E2,6.0283394E0,4.4137316E0,2.3259496E2,3.4828384E0,4.5455446E0,1.4827946E0,1.4242936E0,2.989438E0,1.086918E2,1.2390316E2,1.9876908E0,1.4951475E0,1.9303131E0,2.6152318E0,1.7458119E0,1.243626E0,9.5257866E1,1.3433937E1,8.94777E0,1.1495539E2],"tree_param":{"num_deleted":"0","num_feature":"3","num_nodes":"23","size_leaf_vector":"1"}},{"base_weights":[2.2560754E-3,5.542695E-1,-2.424159E-2,8.596528E-1,5.615839E-2,-9.0915665E-2,1.7490306E-1,9.713164E-1,1.327222E-2,4.6881985E-2,-4.9063343E-1,2.5668677E-2,-3.879267E-1,6.811479E-1,-7.84888E-2,2.0761924E-2,5.7699155E-2,-4.1693226E-2,7.385035E-3,-4.6814685E-3,1.7686067E-2,-5.5368938E-2,-1.3298238E-2,6.8608426E-2,2.4020584E-2,-2.8694315E-2,1.0758835E-2],"categories":[],"categories_nodes":[],"categories_segments":[],"categories_sizes":[],"default_left":[0,0,0,0,0,0,0,0,0,0,0,0,0,0,0,0,0,0,0,0,0,0,0,0,0,0,0],"id":7,"left_children":[1,3,5,7,9,11,13,15,-1,-1,17,19,21,23,25,-1,-1,-1,-1,-1,-1,-1,-1,-1,-1,-1,-1],"loss_changes":[3.6327264E0,1.6820829E0,3.1635666E0,2.0543814E-1,3.0595417E0,6.182509E0,7.724929E0,7.964468E-2,0E0,0E0,9.9627185E-1,5.0796876E0,4.1199474E0,2.1222506E0,6.0520477E0,0E0,0E0,0E0,0E0,0E0,0E0,0E0,0E0,0E0,0E0,0E0,0E0],"parents":[2147483647,0,0,1,1,2,2,3,3,4,4,5,5,6,6,7,7,10,10,11,11,12,12,13,13,14,14],"right_children":[2,4,6,8,10,12,14,16,-1,-1,18,20,22,24,26,-1,-1,-1,-1,-1,-1,-1,-1,-1,-1,-1,-1],"split_conditions":[2.4150083E0,6.540246E1,4.7045054E0,6.065955E-2,2.1087806E0,4.019942E0,4.9810805E0,-1.7335287E-1,1.327222E-2,4.6881985E-2,6.9662704E1,3.4951878E0,4.101364E0,-1.9173746E-1,5.43678E0,2.0761924E-2,5.7699155E-2,-4.1693226E-2,7.385035E-3,-4.6814685E-3,1.7686067E-2,-5.5368938E-2,-1.3298238E-2,6.8608426E-2,2.4020584E-2,-2.8694315E-2,1.0758835E-2],"split_indices":[1,0,1,2,1,1,1,2,0,0,0,1,1,2,1,0,0,0,0,0,0,0,0,0,0,0,0],"split_type":[0,0,0,0,0,0,0,0,0,0,0,0,0,0,0,0,0,0,0,0,0,0,0,0,0,0,0],"sum_hessian":[2.4643784E2,1.0375351E1,2.3606248E2,5.9820404E0,4.3933105E0,1.7725919E2,5.88033E1,4.501483E0,1.4805573E0,1.4082589E0,2.9850516E0,1.2794939E2,4.93098E1,1.90519E1,3.97514E1,1.9224184E0,2.5790648E0,1.7420441E0,1.2430075E0,9.435229E1,3.3597103E1,5.976252E0,4.3333546E1,2.9749968E0,1.6076904E1,1.4439144E1,2.5312256E1],"tree_param":{"num_deleted":"0","num_feature":"3","num_nodes":"27","size_leaf_vector":"1"}},{"base_weights":[2.6600235E-3,5.392625E-1,-2.2940723E-2,8.35857E-1,5.5972185E-2,-3.616411E-2,4.7309373E-2,9.4526684E-1,1.2888379E-2,4.5842018E-2,-4.754287E-1,-1.8623674E-2,-9.897003E-1,2.013577E-2,5.6244772E-2,-4.066698E-2,7.4524516E-3,-1.8197444E-3,3.638683E-2,-5.9735697E-2,-1.3888304E-2],"categories":[],"categories_nodes":[],"categories_segments":[],"categories_sizes":[],"default_left":[0,0,0,0,0,0,0,0,0,0,0,0,0,0,0,0,0,0,0,0,0],"id":8,"left_children":[1,3,5,7,9,11,-1,13,-1,-1,15,17,19,-1,-1,-1,-1,-1,-1,-1,-1],"loss_changes":[3.410099E0,1.5734744E0,3.0717976E0,1.9484138E-1,2.8927398E0,3.9087477E0,0E0,7.858944E-2,0E0,0E0,9.609195E-1,3.0981095E0,2.843814E-1,0E0,0E0,0E0,0E0,0E0,0E0,0E0,0E0],"parents":[2147483647,0,0,1,1,2,2,3,3,4,4,5,5,7,7,10,10,11,11,12,12],"right_children":[2,4,6,8,10,12,-1,14,-1,-1,16,18,20,-1,-1,-1,-1,-1,-1,-1,-1],"split_conditions":[2.4150083E0,6.540246E1,4.0168843E-1,6.065955E-2,2.1087806E0,7.652442E1,4.7309373E-2,-1.7335287E-1,1.2888379E-2,4.5842018E-2,2.2652845E0,7.4323296E1,1.2966761E-1,2.013577E-2,5.6244772E-2,-4.066698E-2,7.4524516E-3,-1.8197444E-3,3.638683E-2,-5.9735697E-2,-1.3888304E-2],"split_indices":[1,0,2,2,1,0,0,2,0,0,1,0,2,0,0,0,0,0,0,0,0],"split_type":[0,0,0,0,0,0,0,0,0,0,0,0,0,0,0,0,0,0,0,0,0],"sum_hessian":[2.4633374E2,1.030351E1,2.3603023E2,5.9329524E0,4.370557E0,2.3380276E2,2.2274668E0,4.4546947E0,1.4782574E0,1.3913105E0,2.9792466E0,2.3058073E2,3.2220347E0,1.9143906E0,2.5403042E0,1.7369399E0,1.2423066E0,2.261473E2,4.433444E0,1.9751363E0,1.2468984E0],"tree_param":{"num_deleted":"0","num_feature":"3","num_nodes":"21","size_leaf_vector":"1"}},{"base_weights":[2.9805545E-3,4.591495E-2,-1.1141036E-2,-2.3414744E-2,4.5846377E-2,2.9866902E-2,-2.4550335E-1,-7.578532E-4,4.075954E-2,-1.6111983E-2,3.705209E-2],"categories":[],"categories_nodes":[],"categories_segments":[],"categories_sizes":[],"default_left":[0,0,0,0,0,0,0,0,0,0,0],"id":9,"left_children":[1,-1,3,5,-1,7,9,-1,-1,-1,-1],"loss_changes":[3.2059774E0,0E0,2.8061924E0,2.8739893E0,0E0,6.952218E0,3.795548E0,0E0,0E0,0E0,0E0],"parents":[2147483647,0,0,2,2,3,3,5,5,6,6],"right_children":[2,-1,4,6,-1,8,10,-1,-1,-1,-1],"split_conditions":[2.1426585E0,4.591495E-2,4.0168843E-1,6.5179375E1,4.5846377E-2,6.3784042E1,4.7383304E0,-7.578532E-4,4.075954E-2,-1.6111983E-2,3.705209E-2],"split_indices":[1,0,2,0,0,0,1,0,0,0,0],"split_type":[0,0,0,0,0,0,0,0,0,0,0],"sum_hessian":[2.4623874E2,2.7684467E0,2.4347029E2,2.4125447E2,2.2158206E0,1.9527197E2,4.5982506E1,1.8561125E2,9.660712E0,4.3288746E1,2.6937568E0],"tree_param":{"num_deleted":"0","num_feature":"3","num_nodes":"11","size_leaf_vector":"1"}},{"base_weights":[3.4595348E-3,5.190147E-1,-2.0904716E-2,8.0702335E-1,5.0369572E-2,-6.0257393E-1,1.2735964E-3,9.1283983E-1,1.2538048E-2,4.3878097E-2,-4.5269287E-1,-8.366454E-1,-1.5656234E-1,-3.2309473E-1,4.684228E-2,1.905699E-2,5.4644763E-2,-3.9264333E-2,7.690035E-3,-1.1566828E-2,-6.780543E-2,3.5461027E-2,-4.433529E-2,-2.2503303E-3,-4.4800613E-2,6.0180623E-2,1.4690111E-3],"categories":[],"categories_nodes":[],"categories_segments":[],"categories_sizes":[],"default_left":[0,0,0,0,0,0,0,0,0,0,0,0,0,0,0,0,0,0,0,0,0,0,0,0,0,0,0],"id":10,"left_children":[1,3,5,7,9,11,13,15,-1,-1,17,19,21,23,25,-1,-1,-1,-1,-1,-1,-1,-1,-1,-1,-1,-1],"loss_changes":[3.1155818E0,1.4700382E0,3.0578835E0,1.7521906E-1,2.613905E0,7.778971E-1,3.4040084E0,9.942961E-2,0E0,0E0,9.2200565E-1,1.4091661E0,3.300706E0,4.4793425E0,4.0430055E0,0E0,0E0,0E0,0E0,0E0,0E0,0E0,0E0,0E0,0E0,0E0,0E0],"parents":[2147483647,0,0,1,1,2,2,3,3,4,4,5,5,6,6,7,7,10,10,11,11,12,12,13,13,14,14],"right_children":[2,4,6,8,10,12,14,16,-1,-1,18,20,22,24,26,-1,-1,-1,-1,-1,-1,-1,-1,-1,-1,-1,-1],"split_conditions":[2.4150083E0,6.540246E1,2.5535839E0,6.065955E-2,2.1087806E0,6.144653E1,-2.0534651E-1,-1.7335287E-1,1.2538048E-2,4.3878097E-2,2.2652845E0,5.8720154E1,6.540246E1,-2.4294579E-1,-2.0014788E-1,1.905699E-2,5.4644763E-2,-3.9264333E-2,7.690035E-3,-1.1566828E-2,-6.780543E-2,3.5461027E-2,-4.433529E-2,-2.2503303E-3,-4.4800613E-2,6.0180623E-2,1.4690111E-3],"split_indices":[1,0,1,2,1,0,2,2,0,0,1,0,0,2,2,0,0,0,0,0,0,0,0,0,0,0,0],"split_type":[0,0,0,0,0,0,0,0,0,0,0,0,0,0,0,0,0,0,0,0,0,0,0,0,0,0,0],"sum_hessian":[2.4617007E2,1.0192446E1,2.3597763E2,5.865644E0,4.3268013E0,7.7059026E0,2.2827173E2,4.3895974E0,1.4760467E0,1.3547418E0,2.9720595E0,4.479288E0,3.2266145E0,2.7368217E1,2.0090352E2,1.898919E0,2.4906785E0,1.7290637E0,1.2429959E0,2.736221E0,1.743067E0,1.489301E0,1.7373136E0,1.9151054E1,8.217162E0,1.977495E0,1.9892603E2],"tree_param":{"num_deleted":"0","num_feature":"3","num_nodes":"27","size_leaf_vector":"1"}},{"base_weights":[3.398811E-3,-1.1889428E-1,1.0183552E-1,-1.0241875E-2,-8.4061235E-1,7.881837E-1,4.4131983E-2,-1.5730034E-1,2.7119303E-1,-9.459402E-1,7.703703E-3,-1.65693E-2,9.71041E-1,1.7219831E-1,-1.6347544E-1,4.407861E-3,-1.7961347E-2,4.030564E-2,3.8233974E-3,-2.6694963E-2,-5.8473773E-2,1.6709752E-2,5.6156594E-2,3.9015026E-3,3.882551E-2,4.625499E-2,-1.093255E-2],"categories":[],"categories_nodes":[],"categories_segments":[],"categories_sizes":[],"default_left":[0,0,0,0,0,0,0,0,0,0,0,0,0,0,0,0,0,0,0,0,0,0,0,0,0,0,0],"id":11,"left_children":[1,3,5,7,9,11,13,15,17,19,-1,-1,21,23,25,-1,-1,-1,-1,-1,-1,-1,-1,-1,-1,-1,-1],"loss_changes":[2.9863946E0,8.667829E0,5.4079514E0,4.0646954E0,1.6612635E0,2.4915376E0,3.4267771E0,3.2266397E0,3.450634E0,5.9329414E-1,0E0,0E0,5.3173256E-1,4.466131E0,3.162282E0,0E0,0E0,0E0,0E0,0E0,0E0,0E0,0E0,0E0,0E0,0E0,0E0],"parents":[2147483647,0,0,1,1,2,2,3,3,4,4,5,5,6,6,7,7,8,8,9,9,12,12,13,13,14,14],"right_children":[2,4,6,8,10,12,14,16,18,20,-1,-1,22,24,26,-1,-1,-1,-1,-1,-1,-1,-1,-1,-1,-1,-1],"split_conditions":[5.1344612E1,4.8834034E1,5.3053425E1,4.7045054E0,5.956785E0,-2.4294579E-1,6.5179375E1,4.0436737E1,4.9536896E0,3.9864693E0,7.703703E-3,-1.65693E-2,-1.5257247E-1,6.3784042E1,2.1087806E0,4.407861E-3,-1.7961347E-2,4.030564E-2,3.8233974E-3,-2.6694963E-2,-5.8473773E-2,1.6709752E-2,5.6156594E-2,3.9015026E-3,3.882551E-2,4.625499E-2,-1.093255E-2],"split_indices":[0,0,0,1,1,2,0,0,1,1,0,0,2,0,1,0,0,0,0,0,0,0,0,0,0,0,0],"split_type":[0,0,0,0,0,0,0,0,0,0,0,0,0,0,0,0,0,0,0,0,0,0,0,0,0,0,0],"sum_hessian":[2.4607216E2,1.09645706E2,1.3642644E2,9.618026E1,1.3465447E1,9.598537E0,1.268279E2,6.3461E1,3.2719265E1,1.22204275E1,1.2450205E0,1.2335693E0,8.364968E0,7.854598E1,4.8281925E1,2.8897388E1,3.456361E1,7.894078E0,2.4825186E1,5.489713E0,6.7307143E0,2.2289755E0,6.1359925E0,6.89334E1,9.61258E0,1.5685742E0,4.671335E1],"tree_param":{"num_deleted":"0","num_feature":"3","num_nodes":"27","size_leaf_vector":"1"}},{"base_weights":[3.6024156E-3,5.0137323E-1,-1.9693969E-2,7.8161335E-1,4.5204043E-2,-5.8506095E-1,1.8559811E-3,8.8569295E-1,1.2063967E-2,4.203444E-2,-4.3093154E-1,-8.101338E-1,-1.5334211E-1,-3.0534467E-1,4.5043923E-2,1.8335424E-2,5.3189345E-2,-3.8023923E-2,8.040288E-3,-1.1179332E-2,-6.564648E-2,3.395876E-2,-4.263289E-2,-2.0118067E-3,-4.2550817E-2,5.815659E-2,1.4128609E-3],"categories":[],"categories_nodes":[],"categories_segments":[],"categories_sizes":[],"default_left":[0,0,0,0,0,0,0,0,0,0,0,0,0,0,0,0,0,0,0,0,0,0,0,0,0,0,0],"id":12,"left_children":[1,3,5,7,9,11,13,15,-1,-1,17,19,21,23,25,-1,-1,-1,-1,-1,-1,-1,-1,-1,-1,-1,-1],"loss_changes":[2.8735337E0,1.3809137E0,2.8870015E0,1.6878557E-1,2.3611076E0,7.211652E-1,3.0542092E0,1.02387905E-1,0E0,0E0,8.949845E-1,1.3241546E0,3.0330083E0,4.0705748E0,3.7545853E0,0E0,0E0,0E0,0E0,0E0,0E0,0E0,0E0,0E0,0E0,0E0,0E0],"parents":[2147483647,0,0,1,1,2,2,3,3,4,4,5,5,6,6,7,7,10,10,11,11,12,12,13,13,14,14],"right_children":[2,4,6,8,10,12,14,16,-1,-1,18,20,22,24,26,-1,-1,-1,-1,-1,-1,-1,-1,-1,-1,-1,-1],"split_conditions":[2.4150083E0,6.540246E1,2.5535839E0,6.065955E-2,2.1087806E0,6.144653E1,-2.0534651E-1,-1.7335287E-1,1.2063967E-2,4.203444E-2,6.9662704E1,5.8720154E1,6.540246E1,-2.4294579E-1,-2.0014788E-1,1.8335424E-2,5.3189345E-2,-3.8023923E-2,8.040288E-3,-1.1179332E-2,-6.564648E-2,3.395876E-2,-4.263289E-2,-2.0118067E-3,-4.2550817E-2,5.815659E-2,1.4128609E-3],"split_indices":[1,0,1,2,1,0,2,2,0,0,0,0,0,2,2,0,0,0,0,0,0,0,0,0,0,0,0],"split_type":[0,0,0,0,0,0,0,0,0,0,0,0,0,0,0,0,0,0,0,0,0,0,0,0,0,0,0],"sum_hessian":[2.4594682E2,1.0078536E1,2.3586829E2,5.801222E0,4.2773147E0,7.700304E0,2.2816798E2,4.3283362E0,1.4728856E0,1.3148804E0,2.9624343E0,4.4853663E0,3.2149377E0,2.7375175E1,2.0079282E2,1.8873814E0,2.4409547E0,1.7196018E0,1.2428327E0,2.7370682E0,1.7482984E0,1.4808381E0,1.7340995E0,1.91467E1,8.228475E0,1.9599564E0,1.9883286E2],"tree_param":{"num_deleted":"0","num_feature":"3","num_nodes":"27","size_leaf_vector":"1"}},{"base_weights":[3.5348972E-3,4.8878753E-1,-1.9006765E-2,7.611846E-1,4.552573E-2,-5.660449E-1,1.831614E-3,8.6361456E-1,1.1716544E-2,4.120149E-2,-4.1796234E-1,-7.8312474E-1,-1.4807913E-1,-2.9158106E-1,4.3097135E-2,1.7788336E-2,5.199198E-2,-3.6941912E-2,7.819578E-3,-1.076468E-2,-6.351849E-2,3.3022657E-2,-4.1346587E-2,-1.9335851E-2,4.973336E-2,5.6571912E-2,1.3427007E-3],"categories":[],"categories_nodes":[],"categories_segments":[],"categories_sizes":[],"default_left":[0,0,0,0,0,0,0,0,0,0,0,0,0,0,0,0,0,0,0,0,0,0,0,0,0,0,0],"id":13,"left_children":[1,3,5,7,9,11,13,15,-1,-1,17,19,21,23,25,-1,-1,-1,-1,-1,-1,-1,-1,-1,-1,-1,-1],"loss_changes":[2.7091763E0,1.2928429E0,2.7007768E0,1.6168308E-1,2.2381585E0,6.728444E-1,2.7869315E0,1.0220122E-1,0E0,0E0,8.4411424E-1,1.2451036E0,2.8541782E0,3.85763E0,3.5362854E0,0E0,0E0,0E0,0E0,0E0,0E0,0E0,0E0,0E0,0E0,0E0,0E0],"parents":[2147483647,0,0,1,1,2,2,3,3,4,4,5,5,6,6,7,7,10,10,11,11,12,12,13,13,14,14],"right_children":[2,4,6,8,10,12,14,16,-1,-1,18,20,22,24,26,-1,-1,-1,-1,-1,-1,-1,-1,-1,-1,-1,-1],"split_conditions":[2.4150083E0,6.540246E1,2.5535839E0,6.065955E-2,2.1087806E0,6.144653E1,-2.0534651E-1,-1.7335287E-1,1.1716544E-2,4.120149E-2,6.9662704E1,5.8720154E1,6.540246E1,9.21893E0,-2.0014788E-1,1.7788336E-2,5.199198E-2,-3.6941912E-2,7.819578E-3,-1.076468E-2,-6.351849E-2,3.3022657E-2,-4.1346587E-2,-1.9335851E-2,4.973336E-2,5.6571912E-2,1.3427007E-3],"split_indices":[1,0,1,2,1,0,2,2,0,0,0,0,0,1,2,0,0,0,0,0,0,0,0,0,0,0,0],"split_type":[0,0,0,0,0,0,0,0,0,0,0,0,0,0,0,0,0,0,0,0,0,0,0,0,0,0,0],"sum_hessian":[2.4582639E2,9.99438E0,2.35832E2,5.74604E0,4.24834E0,7.6938376E0,2.2813817E2,4.2755938E0,1.4704461E0,1.2951075E0,2.9532328E0,4.4888144E0,3.205023E0,2.73813E1,2.0075687E2,1.8791248E0,2.396469E0,1.7109759E0,1.242257E0,2.738846E0,1.7499685E0,1.4751647E0,1.7298583E0,2.614673E1,1.2345697E0,1.9425614E0,1.988143E2],"tree_param":{"num_deleted":"0","num_feature":"3","num_nodes":"27","size_leaf_vector":"1"}},{"base_weights":[3.7719125E-3,-1.1190427E-1,9.707276E-2,-8.0934465E-3,-8.0055505E-1,7.497385E-1,4.2473566E-2,-1.469459E-1,2.5807348E-1,-9.022116E-1,7.7750436E-3,6.139351E-2,1.0768367E0,1.631736E-1,-1.5317798E-1,-1.4277225E-3,-2.6815562E-2,3.8845237E-2,3.4976804E-3,-4.943105E-2,-1.0626517E-2,-1.5819814E-2,1.5242527E-2,6.231276E-2,1.2993536E-2,1.278843E-2,-1.9066049E-2,-1.0963281E-2,3.6146805E-2],"categories":[],"categories_nodes":[],"categories_segments":[],"categories_sizes":[],"default_left":[0,0,0,0,0,0,0,0,0,0,0,0,0,0,0,0,0,0,0,0,0,0,0,0,0,0,0,0,0],"id":14,"left_children":[1,3,5,7,9,11,13,15,17,19,-1,21,23,25,27,-1,-1,-1,-1,-1,-1,-1,-1,-1,-1,-1,-1,-1,-1],"loss_changes":[2.6734116E0,7.900753E0,4.853444E0,3.627571E0,1.5475063E0,2.3032436E0,3.0375593E0,2.956448E0,3.2310607E0,5.785961E-1,0E0,5.057646E-1,6.5509415E-1,4.099716E0,3.0065293E0,0E0,0E0,0E0,0E0,0E0,0E0,0E0,0E0,0E0,0E0,0E0,0E0,0E0,0E0],"parents":[2147483647,0,0,1,1,2,2,3,3,4,4,5,5,6,6,7,7,8,8,9,9,11,11,12,12,13,13,14,14],"right_children":[2,4,6,8,10,12,14,16,18,20,-1,22,24,26,28,-1,-1,-1,-1,-1,-1,-1,-1,-1,-1,-1,-1,-1,-1],"split_conditions":[5.1344612E1,4.8834034E1,5.3053425E1,4.7045054E0,5.956785E0,-1.5257247E-1,6.5179375E1,4.2764826E0,4.9536896E0,5.1155323E1,7.7750436E-3,-2.4294579E-1,4.9810805E0,4.8765726E0,4.7383304E0,-1.4277225E-3,-2.6815562E-2,3.8845237E-2,3.4976804E-3,-4.943105E-2,-1.0626517E-2,-1.5819814E-2,1.5242527E-2,6.231276E-2,1.2993536E-2,1.278843E-2,-1.9066049E-2,-1.0963281E-2,3.6146805E-2],"split_indices":[0,0,0,1,1,2,0,1,1,0,0,2,1,1,1,0,0,0,0,0,0,0,0,0,0,0,0,0,0],"split_type":[0,0,0,0,0,0,0,0,0,0,0,0,0,0,0,0,0,0,0,0,0,0,0,0,0,0,0,0,0],"sum_hessian":[2.4569936E2,1.0960705E2,1.3609232E2,9.612797E1,1.347908E1,9.523151E0,1.2656917E2,6.3466854E1,3.266111E1,1.2234514E1,1.2445652E0,3.4502144E0,6.072937E0,7.838093E1,4.818824E1,4.9491634E1,1.3975221E1,7.8582788E0,2.480283E1,1.0487147E1,1.7473679E0,1.2346779E0,2.2155364E0,4.5946517E0,1.478285E0,6.744219E1,1.093874E1,4.5505375E1,2.6828632E0],"tree_param":{"num_deleted":"0","num_feature":"3","num_nodes":"29","size_leaf_vector":"1"}},{"base_weights":[3.825148E-3,4.7594237E-1,-1.7918305E-2,6.0283303E-1,-1.4402603E-2,-3.0126771E-2,4.417194E-2,1.700258E-1,4.219859E-2,-1.39167905E-2,-9.193354E-1,2.6914278E-2,-2.4460759E-2,-1.5678321E-3,3.5919033E-2,-5.591811E-2,-1.2551694E-2],"categories":[],"categories_nodes":[],"categories_segments":[],"categories_sizes":[],"default_left":[0,0,0,0,0,0,0,0,0,0,0,0,0,0,0,0,0],"id":15,"left_children":[1,3,5,7,-1,9,-1,11,-1,13,15,-1,-1,-1,-1,-1,-1],"loss_changes":[2.539464E0,1.2294817E0,2.6308393E0,8.650272E-1,0E0,3.366754E0,0E0,1.4067495E0,0E0,2.9762356E0,2.75537E-1,0E0,0E0,0E0,0E0,0E0,0E0],"parents":[2147483647,0,0,1,1,2,2,3,3,5,5,7,7,9,9,10,10],"right_children":[2,4,6,8,-1,10,-1,12,-1,14,16,-1,-1,-1,-1,-1,-1],"split_conditions":[2.4150083E0,1.8751594E-1,4.0168843E-1,-8.726799E-2,-1.4402603E-2,7.652442E1,4.417194E-2,6.540246E1,4.219859E-2,7.4323296E1,1.2966761E-1,2.6914278E-2,-2.4460759E-2,-1.5678321E-3,3.5919033E-2,-5.591811E-2,-1.2551694E-2],"split_indices":[1,2,2,2,0,0,0,0,0,0,2,0,0,0,0,0,0],"split_type":[0,0,0,0,0,0,0,0,0,0,0,0,0,0,0,0,0],"sum_hessian":[2.4554877E2,9.891209E0,2.3565756E2,8.663283E0,1.2279253E0,2.3346199E2,2.195559E0,3.7098193E0,4.953464E0,2.3027972E2,3.182273E0,2.4979255E0,1.2118939E0,2.2585803E2,4.4216866E0,1.9331287E0,1.2491443E0],"tree_param":{"num_deleted":"0","num_feature":"3","num_nodes":"17","size_leaf_vector":"1"}},{"base_weights":[3.8054008E-3,-1.057216E-1,9.226076E-2,-6.544914E-3,-7.633954E-1,7.2208667E-1,3.9821558E-2,-1.3897066E-1,2.4768378E-1,-8.609349E-1,7.604606E-3,5.7943482E-2,1.0401769E0,1.5501277E-1,-1.469705E-1,6.1373576E-3,-1.5618791E-2,3.7318405E-2,3.3842628E-3,-2.349646E-2,-5.3901203E-2,-1.548948E-2,1.47882765E-2,6.0210068E-2,1.2663466E-2,3.3241713E-3,3.633965E-2,-1.0517522E-2,3.4833945E-2],"categories":[],"categories_nodes":[],"categories_segments":[],"categories_sizes":[],"default_left":[0,0,0,0,0,0,0,0,0,0,0,0,0,0,0,0,0,0,0,0,0,0,0,0,0,0,0,0,0],"id":16,"left_children":[1,3,5,7,9,11,13,15,17,19,-1,21,23,25,27,-1,-1,-1,-1,-1,-1,-1,-1,-1,-1,-1,-1,-1,-1],"loss_changes":[2.3972702E0,7.20696E0,4.491575E0,3.303051E0,1.4239626E0,2.1497278E0,2.7641127E0,2.964529E0,2.9665277E0,6.1692333E-1,0E0,4.8051795E-1,6.003742E-1,3.9654214E0,2.7725606E0,0E0,0E0,0E0,0E0,0E0,0E0,0E0,0E0,0E0,0E0,0E0,0E0,0E0,0E0],"parents":[2147483647,0,0,1,1,2,2,3,3,4,4,5,5,6,6,7,7,8,8,9,9,11,11,12,12,13,13,14,14],"right_children":[2,4,6,8,10,12,14,16,18,20,-1,22,24,26,28,-1,-1,-1,-1,-1,-1,-1,-1,-1,-1,-1,-1,-1,-1],"split_conditions":[5.1344612E1,4.8834034E1,5.3053425E1,4.7045054E0,5.956785E0,-1.5257247E-1,6.5179375E1,3.994435E1,4.9536896E0,3.9864693E0,7.604606E-3,-2.4294579E-1,4.9810805E0,6.3784042E1,4.7383304E0,6.1373576E-3,-1.5618791E-2,3.7318405E-2,3.3842628E-3,-2.349646E-2,-5.3901203E-2,-1.548948E-2,1.47882765E-2,6.0210068E-2,1.2663466E-2,3.3241713E-3,3.633965E-2,-1.0517522E-2,3.4833945E-2],"split_indices":[0,0,0,1,1,2,0,0,1,1,0,2,1,0,1,0,0,0,0,0,0,0,0,0,0,0,0,0,0],"split_type":[0,0,0,0,0,0,0,0,0,0,0,0,0,0,0,0,0,0,0,0,0,0,0,0,0,0,0,0,0],"sum_hessian":[2.454342E2,1.0956888E2,1.3586533E2,9.608872E1,1.348015E1,9.461164E0,1.2640416E2,6.3477272E1,3.2611454E1,1.2236063E1,1.2440873E0,3.4467754E0,6.014389E0,7.8292656E1,4.8111507E1,2.5413376E1,3.8063896E1,7.8146143E0,2.4796839E1,5.4980483E0,6.738015E0,1.2348199E0,2.2119555E0,4.5381527E0,1.4762363E0,6.8762375E1,9.53028E0,4.544786E1,2.6636465E0],"tree_param":{"num_deleted":"0","num_feature":"3","num_nodes":"29","size_leaf_vector":"1"}},{"base_weights":[4.0299343E-3,4.1029986E-2,-7.964255E-3,-1.9294018E-2,4.28047E-2,-7.192713E-2,1.4559358E-1,1.4805563E-3,-1.7098548E-2,3.101459E-2,-4.2145485E-3],"categories":[],"categories_nodes":[],"categories_segments":[],"categories_sizes":[],"default_left":[0,0,0,0,0,0,0,0,0,0,0],"id":17,"left_children":[1,-1,3,5,-1,7,9,-1,-1,-1,-1],"loss_changes":[2.4183466E0,0E0,2.4020147E0,2.1063545E0,0E0,5.0481024E0,6.465211E0,0E0,0E0,0E0,0E0],"parents":[2147483647,0,0,2,2,3,3,5,5,6,6],"right_children":[2,-1,4,6,-1,8,10,-1,-1,-1,-1],"split_conditions":[2.1426585E0,4.1029986E-2,4.0168843E-1,4.7045054E0,4.28047E-2,4.019942E0,4.9810805E0,1.4805563E-3,-1.7098548E-2,3.101459E-2,-4.2145485E-3],"split_indices":[1,0,2,1,0,1,1,0,0,0,0],"split_type":[0,0,0,0,0,0,0,0,0,0,0],"sum_hessian":[2.4525165E2,2.5743206E0,2.4267732E2,2.4050148E2,2.1758494E0,1.827351E2,5.7766365E1,1.3344809E2,4.9287018E1,1.8293364E1,3.9473003E1],"tree_param":{"num_deleted":"0","num_feature":"3","num_nodes":"11","size_leaf_vector":"1"}},{"base_weights":[4.227177E-3,3.9967343E-2,-7.3389467E-3,-1.1047558E-1,8.415507E-2,-2.5918214E-2,-6.653202E-1,4.145323E-1,-7.584712E-2,-4.668194E-3,1.8502193E-2,-4.0830873E-2,2.8586099E-2,-2.3371165E-3,2.92885E-2,1.799017E-2,-8.9906845E-3],"categories":[],"categories_nodes":[],"categories_segments":[],"categories_sizes":[],"default_left":[0,0,0,0,0,0,0,0,0,0,0,0,0,0,0,0,0],"id":18,"left_children":[1,-1,3,5,7,9,11,13,15,-1,-1,-1,-1,-1,-1,-1,-1],"loss_changes":[2.2694352E0,0E0,2.3079705E0,5.3755355E0,6.88498E0,2.7260954E0,3.3042946E0,3.38102E0,4.0592804E0,0E0,0E0,0E0,0E0,0E0,0E0,0E0,0E0],"parents":[2147483647,0,0,2,2,3,3,4,4,5,5,6,6,7,7,8,8],"right_children":[2,-1,4,6,8,10,12,14,16,-1,-1,-1,-1,-1,-1,-1,-1],"split_conditions":[2.1426585E0,3.9967343E-2,-3.1873718E-2,-6.1526127E-2,2.2861337E-2,5.219075E0,5.766357E0,4.7044643E1,4.4281864E1,-4.668194E-3,1.8502193E-2,-4.0830873E-2,2.8586099E-2,-2.3371165E-3,2.92885E-2,1.799017E-2,-8.9906845E-3],"split_indices":[1,0,2,2,2,1,1,0,0,0,0,0,0,0,0,0,0],"split_type":[0,0,0,0,0,0,0,0,0,0,0,0,0,0,0,0,0],"sum_hessian":[2.4513496E2,2.5381386E0,2.4259683E2,1.1394494E2,1.2865189E2,9.9784645E1,1.4160295E1,4.1457806E1,8.7194084E1,8.591469E1,1.3869952E1,1.2919971E1,1.2403224E0,1.1420544E1,3.0037262E1,1.632534E1,7.0868744E1],"tree_param":{"num_deleted":"0","num_feature":"3","num_nodes":"17","size_leaf_vector":"1"}},{"base_weights":[4.3442E-3,-6.4119194E-3,4.1663237E-2,4.421967E-1,-2.692103E-2,6.8505013E-1,-1.7927716E-2,-1.1507127E-2,-8.7792206E-1,3.8493235E-2,1.0736239E-2,-3.7791282E-2,2.6798313E-2,-1.41821E-3,3.4904078E-2,-5.388946E-2,-1.1491919E-2],"categories":[],"categories_nodes":[],"categories_segments":[],"categories_sizes":[],"default_left":[0,0,0,0,0,0,0,0,0,0,0,0,0,0,0,0,0],"id":19,"left_children":[1,3,-1,5,7,9,11,13,15,-1,-1,-1,-1,-1,-1,-1,-1],"loss_changes":[2.199169E0,2.255888E0,0E0,1.2101817E0,3.0616438E0,1.1560917E-1,2.3170455E0,2.7832057E0,2.9019928E-1,0E0,0E0,0E0,0E0,0E0,0E0,0E0,0E0],"parents":[2147483647,0,0,1,1,3,3,4,4,5,5,6,6,7,7,8,8],"right_children":[2,4,-1,6,8,10,12,14,16,-1,-1,-1,-1,-1,-1,-1,-1],"split_conditions":[4.0168843E-1,2.4150083E0,4.1663237E-2,6.601289E1,7.652442E1,6.065955E-2,6.9662704E1,7.4323296E1,1.2966761E-1,3.8493235E-2,1.0736239E-2,-3.7791282E-2,2.6798313E-2,-1.41821E-3,3.4904078E-2,-5.388946E-2,-1.1491919E-2],"split_indices":[2,1,0,0,0,2,0,0,2,0,0,0,0,0,0,0,0],"split_type":[0,0,0,0,0,0,0,0,0,0,0,0,0,0,0,0,0],"sum_hessian":[2.4505586E2,2.4289629E2,2.159571E0,9.72016E0,2.3317613E2,6.042235E0,3.6779249E0,2.3002332E2,3.152815E0,4.5795245E0,1.4627101E0,1.4207001E0,2.2572248E0,2.256234E2,4.399908E0,1.90292E0,1.249895E0],"tree_param":{"num_deleted":"0","num_feature":"3","num_nodes":"17","size_leaf_vector":"1"}},{"base_weights":[4.329385E-3,-9.918065E-2,8.669512E-2,-3.8065421E-3,-7.789952E-1,2.1189052E-1,-1.440088E-1,-1.2361776E-1,2.2697826E-1,-8.8420963E-1,7.0833727E-3,3.0283734E-1,-2.6383194E-1,-1.9671823E-1,3.776716E-2,-2.438377E-2,-4.355012E-4,3.465427E-2,3.0202866E-3,-2.705415E-2,-5.3242665E-2,5.9348118E-2,1.2791529E-2,-5.0315596E-2,1.9127768E-2,-1.8655984E-2,6.1045885E-3],"categories":[],"categories_nodes":[],"categories_segments":[],"categories_sizes":[],"default_left":[0,0,0,0,0,0,0,0,0,0,0,0,0,0,0,0,0,0,0,0,0,0,0,0,0,0,0],"id":20,"left_children":[1,3,5,7,9,11,13,15,17,19,-1,21,23,25,-1,-1,-1,-1,-1,-1,-1,-1,-1,-1,-1,-1,-1],"loss_changes":[2.1053846E0,7.093214E0,4.0016685E0,2.7097862E0,1.429163E0,3.953453E0,2.469542E0,2.6935635E0,2.558805E0,1.8115997E-1,0E0,2.8393679E0,7.5375586E0,2.6912122E0,0E0,0E0,0E0,0E0,0E0,0E0,0E0,0E0,0E0,0E0,0E0,0E0,0E0],"parents":[2147483647,0,0,1,1,2,2,3,3,4,4,5,5,6,6,7,7,8,8,9,9,11,11,12,12,13,13],"right_children":[2,4,6,8,10,12,14,16,18,20,-1,22,24,26,-1,-1,-1,-1,-1,-1,-1,-1,-1,-1,-1,-1,-1],"split_conditions":[5.116044E1,4.8834034E1,6.5179375E1,4.7045054E0,5.956785E0,4.9059486E0,4.785054E0,-1.6501094E-1,4.9536896E0,3.9864693E0,7.0833727E-3,5.178134E1,5.253288E0,7.140238E1,3.776716E-2,-2.438377E-2,-4.355012E-4,3.465427E-2,3.0202866E-3,-2.705415E-2,-5.3242665E-2,5.9348118E-2,1.2791529E-2,-5.0315596E-2,1.9127768E-2,-1.8655984E-2,6.1045885E-3],"split_indices":[0,0,0,1,1,1,1,2,1,1,0,0,1,0,0,0,0,0,0,0,0,0,0,0,0,0,0],"split_type":[0,0,0,0,0,0,0,0,0,0,0,0,0,0,0,0,0,0,0,0,0,0,0,0,0,0,0],"sum_hessian":[2.4493768E2,1.0844693E2,1.3649074E2,9.598621E1,1.2460719E1,8.852999E1,4.7960754E1,6.3489956E1,3.2496258E1,1.1218276E1,1.2424433E0,7.462658E1,1.3903411E1,4.604349E1,1.9172611E0,1.4453486E1,4.903647E1,7.7234507E0,2.4772806E1,5.247027E0,5.9712486E0,2.5431387E0,7.208344E1,6.211582E0,7.6918283E0,2.9532469E1,1.6511024E1],"tree_param":{"num_deleted":"0","num_feature":"3","num_nodes":"27","size_leaf_vector":"1"}},{"base_weights":[4.1521476E-3,3.8524162E-2,-6.7997235E-3,-1.7345572E-2,4.0325057E-2,-3.8550836E-3,-6.092205E-1,-9.6722564E-4,3.3347365E-2,6.244303E-3,-4.2939465E-2],"categories":[],"categories_nodes":[],"categories_segments":[],"categories_sizes":[],"default_left":[0,0,0,0,0,0,0,0,0,0,0],"id":21,"left_children":[1,-1,3,5,-1,7,9,-1,-1,-1,-1],"loss_changes":[2.067513E0,0E0,2.100329E0,1.9228768E0,0E0,2.4727952E0,1.0905106E0,0E0,0E0,0E0,0E0],"parents":[2147483647,0,0,2,2,3,3,5,5,6,6],"right_children":[2,-1,4,6,-1,8,10,-1,-1,-1,-1],"split_conditions":[2.1426585E0,3.8524162E-2,4.0168843E-1,7.652442E1,4.0325057E-2,7.4323296E1,2.4150083E0,-9.6722564E-4,3.3347365E-2,6.244303E-3,-4.2939465E-2],"split_indices":[1,0,2,0,0,0,1,0,0,0,0],"split_type":[0,0,0,0,0,0,0,0,0,0,0],"sum_hessian":[2.4472061E2,2.4709373E0,2.4224968E2,2.4011484E2,2.1348302E0,2.35748E2,4.3668437E0,2.3137646E2,4.371528E0,1.2346661E0,3.1321776E0],"tree_param":{"num_deleted":"0","num_feature":"3","num_nodes":"11","size_leaf_vector":"1"}},{"base_weights":[4.2536394E-3,3.7555568E-2,-6.3115438E-3,-1.0164309E-1,7.834791E-2,-2.1143291E-2,-6.2915444E-1,3.942938E-1,-7.440754E-2,-3.9998936E-3,1.8910274E-2,-3.8710173E-2,2.7778296E-2,-2.3193907E-3,2.7927784E-2,1.698728E-2,-8.653134E-3],"categories":[],"categories_nodes":[],"categories_segments":[],"categories_sizes":[],"default_left":[0,0,0,0,0,0,0,0,0,0,0,0,0,0,0,0,0],"id":22,"left_children":[1,-1,3,5,7,9,11,13,15,-1,-1,-1,-1,-1,-1,-1,-1],"loss_changes":[1.9429641E0,0E0,1.9707586E0,4.8626966E0,6.273268E0,2.3960533E0,3.0366125E0,3.0895853E0,3.6564147E0,0E0,0E0,0E0,0E0,0E0,0E0,0E0,0E0],"parents":[2147483647,0,0,2,2,3,3,4,4,5,5,6,6,7,7,8,8],"right_children":[2,-1,4,6,8,10,12,14,16,-1,-1,-1,-1,-1,-1,-1,-1],"split_conditions":[2.1426585E0,3.7555568E-2,-3.1873718E-2,-6.1526127E-2,2.2861337E-2,5.43678E0,5.766357E0,4.7044643E1,4.4281864E1,-3.9998936E-3,1.8910274E-2,-3.8710173E-2,2.7778296E-2,-2.3193907E-3,2.7927784E-2,1.698728E-2,-8.653134E-3],"split_indices":[1,0,2,2,2,1,1,0,0,0,0,0,0,0,0,0,0],"split_type":[0,0,0,0,0,0,0,0,0,0,0,0,0,0,0,0,0],"sum_hessian":[2.4463425E2,2.43465E0,2.421996E2,1.1382515E2,1.2837445E2,9.965724E1,1.416791E1,4.1323456E1,8.7051E1,8.755359E1,1.2103651E1,1.29312105E1,1.2366987E0,1.1415514E1,2.9907942E1,1.6276917E1,7.0774086E1],"tree_param":{"num_deleted":"0","num_feature":"3","num_nodes":"17","size_leaf_vector":"1"}},{"base_weights":[4.361206E-3,-5.6628063E-3,3.9293494E-2,4.0761846E-1,-2.4252504E-2,6.500811E-1,-4.450337E-2,-6.1041784E-1,-2.4350025E-3,3.653502E-2,1.0337368E-2,3.6795806E-2,-2.6218593E-2,-4.4440035E-2,-5.6541017E-3,-1.1118685E-2,2.007229E-3],"categories":[],"categories_nodes":[],"categories_segments":[],"categories_sizes":[],"default_left":[0,0,0,0,0,0,0,0,0,0,0,0,0,0,0,0,0],"id":23,"left_children":[1,3,-1,5,7,9,11,13,15,-1,-1,-1,-1,-1,-1,-1,-1],"loss_changes":[1.9278576E0,1.8799391E0,0E0,1.1836492E0,2.9894624E0,9.628153E-2,2.1134357E0,1.0608943E0,2.129949E0,0E0,0E0,0E0,0E0,0E0,0E0,0E0,0E0],"parents":[2147483647,0,0,1,1,3,3,4,4,5,5,6,6,7,7,8,8],"right_children":[2,4,-1,6,8,10,12,14,16,-1,-1,-1,-1,-1,-1,-1,-1],"split_conditions":[4.0168843E-1,2.4150083E0,3.9293494E-2,6.601289E1,2.5535839E0,6.065955E-2,2.1087806E0,6.144653E1,-1.7599718E-1,3.653502E-2,1.0337368E-2,3.6795806E-2,-2.6218593E-2,-4.4440035E-2,-5.6541017E-3,-1.1118685E-2,2.007229E-3],"split_indices":[2,1,0,0,1,2,1,0,2,0,0,0,0,0,0,0,0],"split_type":[0,0,0,0,0,0,0,0,0,0,0,0,0,0,0,0,0],"sum_hessian":[2.445251E2,2.424086E2,2.1164975E0,9.533574E0,2.3287503E2,5.92063E0,3.6129444E0,7.388614E0,2.2548642E2,4.461179E0,1.4594511E0,1.1725023E0,2.440442E0,4.232408E0,3.1562061E0,3.588826E1,1.8959816E2],"tree_param":{"num_deleted":"0","num_feature":"3","num_nodes":"17","size_leaf_vector":"1"}},{"base_weights":[4.3054577E-3,-9.325227E-2,8.333485E-2,-2.8180976E-3,-6.9420195E-1,5.808113E-1,2.482478E-2,-1.1441062E-1,2.1260759E-1,-3.1335473E-1,-1.0067668E0,5.569178E-2,2.862337E-1,-5.2136995E-2,5.7809237E-2,5.8274404E-3,-1.4413498E-2,3.3346597E-2,2.5673693E-3,-3.5290055E-2,2.3663027E-2,-4.6701147E-3,-6.89952E-2,-2.6482104E-3,5.8614742E-2,9.529864E-3,-7.0051923E-3],"categories":[],"categories_nodes":[],"categories_segments":[],"categories_sizes":[],"default_left":[0,0,0,0,0,0,0,0,0,0,0,0,0,0,0,0,0,0,0,0,0,0,0,0,0,0,0],"id":24,"left_children":[1,3,5,7,9,11,13,15,17,19,21,-1,23,-1,25,-1,-1,-1,-1,-1,-1,-1,-1,-1,-1,-1,-1],"loss_changes":[1.8999162E0,5.9927287E0,3.9474325E0,2.3533363E0,1.4015522E0,1.9232678E0,4.3855786E0,2.622407E0,2.413506E0,2.7893767E0,2.417068E0,0E0,3.23065E0,0E0,3.1829476E0,0E0,0E0,0E0,0E0,0E0,0E0,0E0,0E0,0E0,0E0,0E0,0E0],"parents":[2147483647,0,0,1,1,2,2,3,3,4,4,5,5,6,6,7,7,8,8,9,9,10,10,12,12,14,14],"right_children":[2,4,6,8,10,12,14,16,18,20,22,-1,24,-1,26,-1,-1,-1,-1,-1,-1,-1,-1,-1,-1,-1,-1],"split_conditions":[5.1344612E1,4.8834034E1,5.3425068E1,4.7045054E0,2.9826306E-2,3.8728337E0,5.4013454E1,4.021016E1,4.9536896E0,-3.1873718E-2,4.946987E1,5.569178E-2,5.43678E0,-5.2136995E-2,6.5179375E1,5.8274404E-3,-1.4413498E-2,3.3346597E-2,2.5673693E-3,-3.5290055E-2,2.3663027E-2,-4.6701147E-3,-6.89952E-2,-2.6482104E-3,5.8614742E-2,9.529864E-3,-7.0051923E-3],"split_indices":[0,0,0,1,2,1,0,0,1,2,0,0,1,0,0,0,0,0,0,0,0,0,0,0,0,0,0],"split_type":[0,0,0,0,0,0,0,0,0,0,0,0,0,0,0,0,0,0,0,0,0,0,0,0,0,0,0],"sum_hessian":[2.4441667E2,1.0930513E2,1.3511154E2,9.58811E1,1.3424022E1,1.327925E1,1.2183229E2,6.3471294E1,3.2409813E1,6.9537253E0,6.4702964E0,3.736715E0,9.542535E0,2.7339232E0,1.1909837E2,2.7400873E1,3.607042E1,7.6687136E0,2.4741098E1,4.7077446E0,2.245981E0,2.2392883E0,4.231008E0,7.580737E0,1.9617983E0,7.129834E1,4.780003E1],"tree_param":{"num_deleted":"0","num_feature":"3","num_nodes":"27","size_leaf_vector":"1"}},{"base_weights":[4.120838E-3,-5.5509657E-3,3.818668E-2,3.6014196E-2,-1.5662318E-2,-1.676903E-3,-5.348072E-1,-8.990516E-4,4.3163117E-2,1.1507255E-2,-4.2984154E-2],"categories":[],"categories_nodes":[],"categories_segments":[],"categories_sizes":[],"default_left":[0,0,0,0,0,0,0,0,0,0,0],"id":25,"left_children":[1,3,-1,-1,5,7,9,-1,-1,-1,-1],"loss_changes":[1.8059084E0,1.7957319E0,0E0,0E0,1.7472665E0,3.3360772E0,1.7667528E0,0E0,0E0,0E0,0E0],"parents":[2147483647,0,0,1,1,4,4,5,5,6,6],"right_children":[2,4,-1,-1,6,8,10,-1,-1,-1,-1],"split_conditions":[4.0168843E-1,2.1426585E0,3.818668E-2,3.6014196E-2,7.601666E1,7.4323296E1,-1.4452239E-2,-8.990516E-4,4.3163117E-2,1.1507255E-2,-4.2984154E-2],"split_indices":[2,1,0,0,0,0,2,0,0,0,0],"split_type":[0,0,0,0,0,0,0,0,0,0,0],"sum_hessian":[2.4423094E2,2.4214058E2,2.090373E0,2.3618517E0,2.3977872E2,2.344656E2,5.313116E0,2.3108879E2,3.376819E0,1.6707532E0,3.6423628E0],"tree_param":{"num_deleted":"0","num_feature":"3","num_nodes":"11","size_leaf_vector":"1"}},{"base_weights":[4.2682965E-3,-8.943859E-2,7.899024E-2,-1.675379E-3,-7.1690077E-1,5.2620906E-1,2.2889964E-2,-1.1297433E-1,1.9785847E-1,-8.170977E-1,7.2939186E-3,5.6330662E-2,2.1654928E-1,-5.007863E-2,5.4658193E-2,1.6363325E-3,-3.319923E-2,1.5880868E-2,-2.9854013E-2,-2.43121E-2,-4.9833696E-2,-1.3308621E-2,2.9935295E-2,9.076705E-3,-6.7214924E-3],"categories":[],"categories_nodes":[],"categories_segments":[],"categories_sizes":[],"default_left":[0,0,0,0,0,0,0,0,0,0,0,0,0,0,0,0,0,0,0,0,0,0,0,0,0],"id":26,"left_children":[1,3,5,7,9,11,13,15,17,19,-1,-1,21,-1,23,-1,-1,-1,-1,-1,-1,-1,-1,-1,-1],"loss_changes":[1.7235962E0,6.0137568E0,3.4232163E0,2.1726775E0,1.2776546E0,2.5850048E0,4.04827E0,5.062922E0,3.5249133E0,2.3771763E-1,0E0,0E0,2.2395988E0,0E0,2.9024272E0,0E0,0E0,0E0,0E0,0E0,0E0,0E0,0E0,0E0,0E0],"parents":[2147483647,0,0,1,1,2,2,3,3,4,4,5,5,6,6,7,7,8,8,9,9,12,12,14,14],"right_children":[2,4,6,8,10,12,14,16,18,20,-1,-1,22,-1,24,-1,-1,-1,-1,-1,-1,-1,-1,-1,-1],"split_conditions":[5.116044E1,4.8834034E1,5.3425068E1,-1.150509E-2,5.956785E0,3.8728337E0,5.4013454E1,-6.1526127E-2,5.766357E0,3.9864693E0,7.2939186E-3,5.6330662E-2,4.6954293E0,-5.007863E-2,6.5179375E1,1.6363325E-3,-3.319923E-2,1.5880868E-2,-2.9854013E-2,-2.43121E-2,-4.9833696E-2,-1.3308621E-2,2.9935295E-2,9.076705E-3,-6.7214924E-3],"split_indices":[0,0,0,2,1,1,0,2,1,1,0,0,1,0,0,0,0,0,0,0,0,0,0,0,0],"split_type":[0,0,0,0,0,0,0,0,0,0,0,0,0,0,0,0,0,0,0,0,0,0,0,0,0],"sum_hessian":[2.4415009E2,1.0822763E2,1.3592245E2,9.582697E1,1.240066E1,1.4215991E1,1.2170647E2,6.1792976E1,3.4033997E1,1.1157818E1,1.2428421E0,3.939467E0,1.0276524E1,2.7423878E0,1.1896407E2,4.961431E1,1.2178667E1,3.0099852E1,3.934144E0,5.229876E0,5.9279413E0,4.674907E0,5.601617E0,7.121774E1,4.7746334E1],"tree_param":{"num_deleted":"0","num_feature":"3","num_nodes":"25","size_leaf_vector":"1"}},{"base_weights":[3.7111705E-3,-5.650662E-3,3.721011E-2,4.6989784E-2,-1.4201398E-1,-8.1949525E-2,2.8896287E-1,-7.724682E-1,-3.7089307E-2,-4.60739E-4,-2.7810877E-2,2.6900008E-2,5.199514E-3,-6.004702E-3,-6.0036696E-2,5.2859664E-2,-5.415469E-3],"categories":[],"categories_nodes":[],"categories_segments":[],"categories_sizes":[],"default_left":[0,0,0,0,0,0,0,0,0,0,0,0,0,0,0,0,0],"id":27,"left_children":[1,3,-1,5,7,9,11,13,15,-1,-1,-1,-1,-1,-1,-1,-1],"loss_changes":[1.7024733E0,1.7503442E0,0E0,5.5151024E0,4.463153E0,3.9826496E0,2.7727327E0,2.5485702E0,4.7333174E0,0E0,0E0,0E0,0E0,0E0,0E0,0E0,0E0],"parents":[2147483647,0,0,1,1,3,3,4,4,5,5,6,6,7,7,8,8],"right_children":[2,4,-1,6,8,10,12,14,16,-1,-1,-1,-1,-1,-1,-1,-1],"split_conditions":[4.0168843E-1,5.315211E-2,3.721011E-2,-3.1873718E-2,6.7512035E-2,-6.1526127E-2,3.367061E0,6.065955E-2,3.570727E1,-4.60739E-4,-2.7810877E-2,2.6900008E-2,5.199514E-3,-6.004702E-3,-6.0036696E-2,5.2859664E-2,-5.415469E-3],"split_indices":[2,2,0,2,2,2,1,2,0,0,0,0,0,0,0,0,0],"split_type":[0,0,0,0,0,0,0,0,0,0,0,0,0,0,0,0,0],"sum_hessian":[2.4397716E2,2.419111E2,2.066049E0,1.7500803E2,6.690308E1,1.1460187E2,6.040615E1,8.638052E0,5.8265034E1,1.00247185E2,1.4354689E1,2.4931353E1,3.5474796E1,3.9307647E0,4.7072873E0,2.714422E0,5.555061E1],"tree_param":{"num_deleted":"0","num_feature":"3","num_nodes":"17","size_leaf_vector":"1"}},{"base_weights":[3.6272807E-3,4.0612638E-2,-4.7602146E-3,-1.39389215E-2,3.621038E-2,2.8199494E-2,-1.8915051E-1,-4.0919377E-4,3.3738643E-2,-2.4871191E-2,1.4780997E-3],"categories":[],"categories_nodes":[],"categories_segments":[],"categories_sizes":[],"default_left":[0,0,0,0,0,0,0,0,0,0,0],"id":28,"left_children":[1,-1,3,5,-1,7,9,-1,-1,-1,-1],"loss_changes":[1.664759E0,0E0,1.6384451E0,1.7870322E0,0E0,4.602321E0,3.1778846E0,0E0,0E0,0E0,0E0],"parents":[2147483647,0,0,2,2,3,3,5,5,6,6],"right_children":[2,-1,4,6,-1,8,10,-1,-1,-1,-1],"split_conditions":[2.1087806E0,4.0612638E-2,4.0168843E-1,6.5179375E1,3.621038E-2,6.3784042E1,2.9486592E0,-4.0919377E-4,3.3738643E-2,-2.4871191E-2,1.4780997E-3],"split_indices":[1,0,2,0,0,0,1,0,0,0,0],"split_type":[0,0,0,0,0,0,0,0,0,0,0],"sum_hessian":[2.438848E2,1.5198257E0,2.4236496E2,2.4031989E2,2.045079E0,1.944046E2,4.591528E1,1.8498277E2,9.421834E0,1.852713E1,2.738815E1],"tree_param":{"num_deleted":"0","num_feature":"3","num_nodes":"11","size_leaf_vector":"1"}},{"base_weights":[3.8095573E-3,3.9877664E-2,-4.3291077E-3,-1.3200959E-2,3.5248555E-2,2.6972482E-2,-1.8024582E-1,-3.8883163E-4,3.2400493E-2,-2.370641E-2,1.4068584E-3],"categories":[],"categories_nodes":[],"categories_segments":[],"categories_sizes":[],"default_left":[0,0,0,0,0,0,0,0,0,0,0],"id":29,"left_children":[1,-1,3,5,-1,7,9,-1,-1,-1,-1],"loss_changes":[1.5846473E0,0E0,1.5401998E0,1.623855E0,0E0,4.220815E0,2.8856196E0,0E0,0E0,0E0,0E0],"parents":[2147483647,0,0,2,2,3,3,5,5,6,6],"right_children":[2,-1,4,6,-1,8,10,-1,-1,-1,-1],"split_conditions":[2.1087806E0,3.9877664E-2,4.0168843E-1,6.5179375E1,3.5248555E-2,6.3784042E1,2.9486592E0,-3.8883163E-4,3.2400493E-2,-2.370641E-2,1.4068584E-3],"split_indices":[1,0,2,0,0,0,1,0,0,0,0],"split_type":[0,0,0,0,0,0,0,0,0,0,0],"sum_hessian":[2.4376643E2,1.4896433E0,2.4227678E2,2.4025311E2,2.0236719E0,1.9435117E2,4.5901943E1,1.8498796E2,9.363215E0,1.851499E1,2.7386951E1],"tree_param":{"num_deleted":"0","num_feature":"3","num_nodes":"11","size_leaf_vector":"1"}},{"base_weights":[3.9749206E-3,3.8859594E-1,-1.2858707E-2,6.1461294E-1,-3.5890978E-2,-5.341626E-1,6.794389E-3,3.9829783E-2,3.1506866E-1,-3.6140617E-2,4.9600884E-1,-7.69008E-1,-9.3494885E-2,-1.9566308E-1,5.2296504E-2,-1.981681E-2,3.87845E-2,3.976745E-2,-1.5115537E-3,-1.0501428E-2,-6.2085208E-2,3.049831E-2,-3.5096955E-2,-1.2642182E-2,4.7245275E-2,2.8106466E-2,1.0632122E-3],"categories":[],"categories_nodes":[],"categories_segments":[],"categories_sizes":[],"default_left":[0,0,0,0,0,0,0,0,0,0,0,0,0,0,0,0,0,0,0,0,0,0,0,0,0,0,0],"id":30,"left_children":[1,3,5,7,9,11,13,-1,15,-1,17,19,21,23,25,-1,-1,-1,-1,-1,-1,-1,-1,-1,-1,-1,-1],"loss_changes":[1.5889418E0,1.0093154E0,2.4148543E0,1.1806655E-1,2.0100644E0,8.142667E-1,2.1086705E0,0E0,1.6879556E0,0E0,5.1876295E-1,1.1786036E0,2.1895952E0,2.9788284E0,2.943088E0,0E0,0E0,0E0,0E0,0E0,0E0,0E0,0E0,0E0,0E0,0E0,0E0],"parents":[2147483647,0,0,1,1,2,2,3,3,4,4,5,5,6,6,8,8,10,10,11,11,12,12,13,13,14,14],"right_children":[2,4,6,8,10,12,14,-1,16,-1,18,20,22,24,26,-1,-1,-1,-1,-1,-1,-1,-1,-1,-1,-1,-1],"split_conditions":[2.4150083E0,6.601289E1,2.5535839E0,5.6091846E1,6.9662704E1,6.144653E1,-1.6501094E-1,3.9829783E-2,5.8567066E1,-3.6140617E-2,7.8720406E1,5.8720154E1,6.540246E1,9.21893E0,3.4372143E1,-1.981681E-2,3.87845E-2,3.976745E-2,-1.5115537E-3,-1.0501428E-2,-6.2085208E-2,3.049831E-2,-3.5096955E-2,-1.2642182E-2,4.7245275E-2,2.8106466E-2,1.0632122E-3],"split_indices":[1,0,1,0,0,0,2,0,0,0,0,0,0,1,0,0,0,0,0,0,0,0,0,0,0,0,0],"split_type":[0,0,0,0,0,0,0,0,0,0,0,0,0,0,0,0,0,0,0,0,0,0,0,0,0,0,0],"sum_hessian":[2.4364107E2,9.290217E0,2.3435085E2,5.770065E0,3.5201523E0,7.5629125E0,2.2678793E2,2.5571532E0,3.2129114E0,1.3795757E0,2.1405768E0,4.447569E0,3.1153436E0,4.1011402E1,1.8577654E2,1.3175648E0,1.8953465E0,1.0384794E0,1.1020973E0,2.6995628E0,1.7480059E0,1.4436947E0,1.671649E0,3.9794678E1,1.216724E0,9.6770315E0,1.760995E2],"tree_param":{"num_deleted":"0","num_feature":"3","num_nodes":"27","size_leaf_vector":"1"}},{"base_weights":[3.979489E-3,-8.5622735E-2,7.678205E-2,-2.8399446E-3,-6.379635E-1,6.4037424E-1,3.071341E-2,-1.1262116E-1,2.0465373E-1,-2.672784E-1,-9.4716597E-1,-1.6762685E-2,8.099898E-1,1.3255125E-1,-1.5960625E-1,-2.380204E-2,3.4838173E-5,1.6808448E-2,-1.251853E-2,-4.2356607E-2,1.2310053E-2,-3.1004122E-3,-6.57666E-2,1.3261464E-2,4.7358077E-2,-5.062234E-3,1.9120846E-2,-4.4088464E-2,1.8304156E-4],"categories":[],"categories_nodes":[],"categories_segments":[],"categories_sizes":[],"default_left":[0,0,0,0,0,0,0,0,0,0,0,0,0,0,0,0,0,0,0,0,0,0,0,0,0,0,0,0,0],"id":31,"left_children":[1,3,5,7,9,11,13,15,17,19,21,-1,23,25,27,-1,-1,-1,-1,-1,-1,-1,-1,-1,-1,-1,-1,-1,-1],"loss_changes":[1.6016715E0,5.031871E0,3.4967937E0,2.226752E0,1.3909612E0,1.9567828E0,2.4681528E0,2.632428E0,2.1086042E0,2.5657296E0,2.3390188E0,0E0,4.1894484E-1,4.8751583E0,5.2455173E0,0E0,0E0,0E0,0E0,0E0,0E0,0E0,0E0,0E0,0E0,0E0,0E0,0E0,0E0],"parents":[2147483647,0,0,1,1,2,2,3,3,4,4,5,5,6,6,7,7,8,8,9,9,10,10,12,12,13,13,14,14],"right_children":[2,4,6,8,10,12,14,16,18,20,22,-1,24,26,28,-1,-1,-1,-1,-1,-1,-1,-1,-1,-1,-1,-1,-1,-1],"split_conditions":[5.1344612E1,4.8834034E1,5.3053425E1,4.6855044E0,2.9826306E-2,-2.4294579E-1,3.8870606E0,-1.6501094E-1,6.6263204E0,-7.5835556E-2,4.946987E1,-1.6762685E-2,-1.5257247E-1,2.9486592E0,4.101364E0,-2.380204E-2,3.4838173E-5,1.6808448E-2,-1.251853E-2,-4.2356607E-2,1.2310053E-2,-3.1004122E-3,-6.57666E-2,1.3261464E-2,4.7358077E-2,-5.062234E-3,1.9120846E-2,-4.4088464E-2,1.8304156E-4],"split_indices":[0,0,0,1,2,2,1,2,1,2,0,0,2,1,1,0,0,0,0,0,0,0,0,0,0,0,0,0,0],"split_type":[0,0,0,0,0,0,0,0,0,0,0,0,0,0,0,0,0,0,0,0,0,0,0,0,0,0,0,0,0],"sum_hessian":[2.4352412E2,1.0908766E2,1.3443646E2,9.574317E1,1.3344491E1,9.183792E0,1.2525266E2,6.291382E1,3.2829353E1,6.916777E0,6.4277143E0,1.2155281E0,7.9682646E0,8.1790855E1,4.3461807E1,1.4193429E1,4.872039E1,2.567092E1,7.1584334E0,2.9432662E0,3.973511E0,2.231379E0,4.1963353E0,2.1929183E0,5.7753463E0,4.2561466E1,3.922939E1,7.2025785E0,3.6259228E1],"tree_param":{"num_deleted":"0","num_feature":"3","num_nodes":"29","size_leaf_vector":"1"}},{"base_weights":[3.363898E-3,3.8131538E-1,-1.3091041E-2,5.0070536E-1,-1.3693805E-2,-5.1325774E-1,5.729371E-3,9.659726E-2,3.683957E-2,-7.402777E-1,-8.6533226E-2,4.0708154E-1,-1.7303092E-2,2.0352067E-2,-2.0883946E-2,-9.901321E-3,-6.005926E-2,2.9826034E-2,-3.3999693E-2,4.0728066E-2,-1.7949253E-2,-3.3722706E-2,3.4260488E-4],"categories":[],"categories_nodes":[],"categories_segments":[],"categories_sizes":[],"default_left":[0,0,0,0,0,0,0,0,0,0,0,0,0,0,0,0,0,0,0,0,0,0,0],"id":32,"left_children":[1,3,5,7,-1,9,11,13,-1,15,17,19,21,-1,-1,-1,-1,-1,-1,-1,-1,-1,-1],"loss_changes":[1.5245208E0,9.371071E-1,2.216047E0,7.8785706E-1,0E0,7.6293945E-1,2.1106966E0,8.838816E-1,0E0,1.1217179E0,2.0663517E0,4.16047E0,3.4360976E0,0E0,0E0,0E0,0E0,0E0,0E0,0E0,0E0,0E0,0E0],"parents":[2147483647,0,0,1,1,2,2,3,3,5,5,6,6,7,7,9,9,10,10,11,11,12,12],"right_children":[2,4,6,8,-1,10,12,14,-1,16,18,20,22,-1,-1,-1,-1,-1,-1,-1,-1,-1,-1],"split_conditions":[2.4150083E0,1.8751594E-1,2.5535839E0,-8.726799E-2,-1.3693805E-2,6.144653E1,2.7188032E0,6.540246E1,3.683957E-2,5.8720154E1,6.540246E1,6.72206E1,2.763443E0,2.0352067E-2,-2.0883946E-2,-9.901321E-3,-6.005926E-2,2.9826034E-2,-3.3999693E-2,4.0728066E-2,-1.7949253E-2,-3.3722706E-2,3.4260488E-4],"split_indices":[1,2,1,2,0,0,1,0,0,0,0,0,1,0,0,0,0,0,0,0,0,0,0],"split_type":[0,0,0,0,0,0,0,0,0,0,0,0,0,0,0,0,0,0,0,0,0,0,0],"sum_hessian":[2.4332993E2,9.226824E0,2.341031E2,8.004094E0,1.2227304E0,7.536756E0,2.2656635E2,3.4713507E0,4.532743E0,4.4399085E0,3.0968478E0,1.1391393E1,2.1517496E2,2.2946784E0,1.1766723E0,2.6968024E0,1.743106E0,1.4373492E0,1.6594987E0,7.394741E0,3.996652E0,6.674375E0,2.0850058E2],"tree_param":{"num_deleted":"0","num_feature":"3","num_nodes":"23","size_leaf_vector":"1"}},{"base_weights":[2.9491675E-3,-8.390818E-2,7.24248E-2,-3.489538E-3,-6.618124E-1,4.8998585E-1,2.044114E-2,-1.0811162E-1,1.9449934E-1,-7.592131E-1,7.842494E-3,5.3524967E-2,1.9681747E-1,-4.80219E-2,5.1038697E-2,-1.0624524E-3,-2.8757593E-2,2.9698623E-2,2.3034185E-3,-2.231889E-2,-4.6582498E-2,-3.185026E-3,4.3836318E-2,4.711552E-3,-2.2328174E-2],"categories":[],"categories_nodes":[],"categories_segments":[],"categories_sizes":[],"default_left":[0,0,0,0,0,0,0,0,0,0,0,0,0,0,0,0,0,0,0,0,0,0,0,0,0],"id":33,"left_children":[1,3,5,7,9,11,13,15,17,19,-1,-1,21,-1,23,-1,-1,-1,-1,-1,-1,-1,-1,-1,-1],"loss_changes":[1.4797081E0,5.0628624E0,2.9466834E0,2.0236645E0,1.180273E0,2.3483884E0,3.715851E0,2.579998E0,1.9757524E0,2.3494959E-1,0E0,0E0,2.0425887E0,0E0,2.608951E0,0E0,0E0,0E0,0E0,0E0,0E0,0E0,0E0,0E0,0E0],"parents":[2147483647,0,0,1,1,2,2,3,3,4,4,5,5,6,6,7,7,8,8,9,9,12,12,14,14],"right_children":[2,4,6,8,10,12,14,16,18,20,-1,-1,22,-1,24,-1,-1,-1,-1,-1,-1,-1,-1,-1,-1],"split_conditions":[5.116044E1,4.8834034E1,5.3425068E1,4.6855044E0,5.956785E0,3.8728337E0,5.4013454E1,4.400633E0,4.9536896E0,3.9864693E0,7.842494E-3,5.3524967E-2,5.43678E0,-4.80219E-2,4.9810805E0,-1.0624524E-3,-2.8757593E-2,2.9698623E-2,2.3034185E-3,-2.231889E-2,-4.6582498E-2,-3.185026E-3,4.3836318E-2,4.711552E-3,-2.2328174E-2],"split_indices":[0,0,0,1,1,1,0,1,1,1,0,0,1,0,1,0,0,0,0,0,0,0,0,0,0],"split_type":[0,0,0,0,0,0,0,0,0,0,0,0,0,0,0,0,0,0,0,0,0,0,0,0,0],"sum_hessian":[2.4320229E2,1.0798874E2,1.3521356E2,9.568032E1,1.2308418E1,1.4036775E1,1.2117678E2,6.2897644E1,3.2782673E1,1.1064618E1,1.2438002E0,3.8203928E0,1.0216381E1,2.7463543E0,1.1843043E2,5.391563E1,8.982012E0,8.067878E0,2.4714796E1,5.2068977E0,5.8577204E0,8.041472E0,2.174909E0,1.09717476E2,8.712952E0],"tree_param":{"num_deleted":"0","num_feature":"3","num_nodes":"25","size_leaf_vector":"1"}},{"base_weights":[2.6867914E-3,3.834639E-2,-4.9621323E-3,-1.3543706E-2,3.4355894E-2,3.639362E-2,-1.4254256E-1,-4.116462E-3,1.3033301E-2,-3.6556296E-2,-2.185924E-3],"categories":[],"categories_nodes":[],"categories_segments":[],"categories_sizes":[],"default_left":[0,0,0,0,0,0,0,0,0,0,0],"id":34,"left_children":[1,-1,3,5,-1,7,9,-1,-1,-1,-1],"loss_changes":[1.4301152E0,0E0,1.4499741E0,1.5549805E0,0E0,4.66074E0,3.8852215E0,0E0,0E0,0E0,0E0],"parents":[2147483647,0,0,2,2,3,3,5,5,6,6],"right_children":[2,-1,4,6,-1,8,10,-1,-1,-1,-1],"split_conditions":[2.1087806E0,3.834639E-2,4.0168843E-1,5.315211E-2,3.4355894E-2,-3.1873718E-2,6.7512035E-2,-4.116462E-3,1.3033301E-2,-3.6556296E-2,-2.185924E-3],"split_indices":[1,0,2,2,0,2,2,0,0,0,0],"split_type":[0,0,0,0,0,0,0,0,0,0,0],"sum_hessian":[2.4299625E2,1.4242716E0,2.4157198E2,2.3958167E2,1.9903069E0,1.7323698E2,6.634468E1,1.1368734E2,5.9549652E1,8.618105E0,5.7726574E1],"tree_param":{"num_deleted":"0","num_feature":"3","num_nodes":"11","size_leaf_vector":"1"}},{"base_weights":[2.735814E-3,3.274926E-2,-5.840662E-3,4.911903E-3,-5.6359625E-1,-9.5029585E-3,5.399364E-1,-9.705423E-3,-3.185526E-2,1.4497173E-3,-1.033122E-2,4.167572E-2,-4.1223527E-3],"categories":[],"categories_nodes":[],"categories_segments":[],"categories_sizes":[],"default_left":[0,0,0,0,0,0,0,0,0,0,0,0,0],"id":35,"left_children":[1,-1,3,5,7,9,11,-1,-1,-1,-1,-1,-1],"loss_changes":[1.3682216E0,0E0,1.4524912E0,1.8418046E0,7.4517727E-4,1.7732588E0,1.2134968E0,0E0,0E0,0E0,0E0,0E0,0E0],"parents":[2147483647,0,0,2,2,3,3,4,4,5,5,6,6],"right_children":[2,-1,4,6,8,10,12,-1,-1,-1,-1,-1,-1],"split_conditions":[2.1426585E0,3.274926E-2,7.768656E1,7.4323296E1,2.6221668E-2,6.5179375E1,7.601666E1,-9.705423E-3,-3.185526E-2,1.4497173E-3,-1.033122E-2,4.167572E-2,-4.1223527E-3],"split_indices":[1,0,0,0,2,0,0,0,0,0,0,0,0],"split_type":[0,0,0,0,0,0,0,0,0,0,0,0,0],"sum_hessian":[2.4290344E2,2.17432E0,2.4072911E2,2.371485E2,3.58062E0,2.3188324E2,5.2652597E0,1.198259E0,2.382361E0,1.9470982E2,3.7173412E1,3.3471713E0,1.9180884E0],"tree_param":{"num_deleted":"0","num_feature":"3","num_nodes":"13","size_leaf_vector":"1"}},{"base_weights":[2.6853413E-3,-8.038292E-2,7.028019E-2,-3.8508303E-3,-5.9358543E-1,5.989318E-1,2.7580982E-2,-2.682077E-1,7.1029834E-2,-2.3746029E-1,-8.936309E-1,-1.6828563E-2,7.653526E-1,1.2274938E-1,-1.496583E-1,1.5981913E-3,-3.609933E-2,4.4273756E-2,2.3290045E-4,-3.9806176E-2,1.2498036E-2,-1.7413077E-3,-6.2865086E-2,1.9529227E-2,5.1189225E-2,-5.0306874E-3,1.8054742E-2,-4.1883495E-2,3.049664E-4],"categories":[],"categories_nodes":[],"categories_segments":[],"categories_sizes":[],"default_left":[0,0,0,0,0,0,0,0,0,0,0,0,0,0,0,0,0,0,0,0,0,0,0,0,0,0,0,0,0],"id":36,"left_children":[1,3,5,7,9,11,13,15,17,19,21,-1,23,25,27,-1,-1,-1,-1,-1,-1,-1,-1,-1,-1,-1,-1,-1,-1],"loss_changes":[1.3746186E0,4.312231E0,3.0298524E0,1.9312851E0,1.310369E0,1.8203106E0,2.142317E0,2.9560242E0,4.1078525E0,2.3440876E0,2.2585177E0,0E0,4.5503998E-1,4.42722E0,4.767613E0,0E0,0E0,0E0,0E0,0E0,0E0,0E0,0E0,0E0,0E0,0E0,0E0,0E0,0E0],"parents":[2147483647,0,0,1,1,2,2,3,3,4,4,5,5,6,6,7,7,8,8,9,9,10,10,12,12,13,13,14,14],"right_children":[2,4,6,8,10,12,14,16,18,20,22,-1,24,26,28,-1,-1,-1,-1,-1,-1,-1,-1,-1,-1,-1,-1,-1,-1],"split_conditions":[5.1344612E1,4.8834034E1,5.3053425E1,3.212743E0,2.9826306E-2,-2.4294579E-1,3.8870606E0,4.2181484E1,3.334662E0,-7.5835556E-2,4.946987E1,-1.6828563E-2,-6.6999026E-2,2.9486592E0,4.101364E0,1.5981913E-3,-3.609933E-2,4.4273756E-2,2.3290045E-4,-3.9806176E-2,1.2498036E-2,-1.7413077E-3,-6.2865086E-2,1.9529227E-2,5.1189225E-2,-5.0306874E-3,1.8054742E-2,-4.1883495E-2,3.049664E-4],"split_indices":[0,0,0,1,2,2,1,0,1,2,0,0,2,1,1,0,0,0,0,0,0,0,0,0,0,0,0,0,0],"split_type":[0,0,0,0,0,0,0,0,0,0,0,0,0,0,0,0,0,0,0,0,0,0,0,0,0,0,0,0,0],"sum_hessian":[2.4280635E2,1.0884994E2,1.339564E2,9.560083E1,1.3249112E1,9.037529E0,1.24918884E2,2.0532299E1,7.506853E1,6.877543E0,6.3715687E0,1.2105032E0,7.827026E0,8.1477234E1,4.344165E1,1.2917214E1,7.615085E0,4.7266703E0,7.034186E1,2.9094756E0,3.9680676E0,2.221435E0,4.1501336E0,4.2194715E0,3.6075542E0,4.2358883E1,3.911835E1,7.2110434E0,3.6230606E1],"tree_param":{"num_deleted":"0","num_feature":"3","num_nodes":"29","size_leaf_vector":"1"}},{"base_weights":[2.3256843E-3,3.5985765E-1,-1.3033147E-2,5.8587027E-1,-5.9911802E-2,-4.9836752E-1,5.162735E-3,3.8319815E-2,2.9351938E-1,-3.5449225E-2,2.2890506E-2,-7.22506E-1,-7.7360585E-2,3.913247E-1,-1.6951125E-2,-1.9685945E-2,3.744873E-2,-9.723558E-3,-5.8457483E-2,2.9030517E-2,-3.265151E-2,3.8953695E-2,-1.6775992E-2,-3.187916E-2,2.957765E-4],"categories":[],"categories_nodes":[],"categories_segments":[],"categories_sizes":[],"default_left":[0,0,0,0,0,0,0,0,0,0,0,0,0,0,0,0,0,0,0,0,0,0,0,0,0],"id":37,"left_children":[1,3,5,7,9,11,13,-1,15,-1,-1,17,19,21,23,-1,-1,-1,-1,-1,-1,-1,-1,-1,-1],"loss_changes":[1.3425554E0,9.9046564E-1,2.074036E0,1.2540174E-1,1.8137459E0,7.4493814E-1,1.945775E0,0E0,1.5954231E0,0E0,0E0,1.0504973E0,1.920147E0,3.739497E0,3.0654674E0,0E0,0E0,0E0,0E0,0E0,0E0,0E0,0E0,0E0,0E0],"parents":[2147483647,0,0,1,1,2,2,3,3,4,4,5,5,6,6,8,8,11,11,12,12,13,13,14,14],"right_children":[2,4,6,8,10,12,14,-1,16,-1,-1,18,20,22,24,-1,-1,-1,-1,-1,-1,-1,-1,-1,-1],"split_conditions":[2.4150083E0,6.601289E1,2.5535839E0,5.6091846E1,6.9662704E1,6.144653E1,2.7188032E0,3.8319815E-2,5.8567066E1,-3.5449225E-2,2.2890506E-2,5.8720154E1,6.540246E1,6.72206E1,2.763443E0,-1.9685945E-2,3.744873E-2,-9.723558E-3,-5.8457483E-2,2.9030517E-2,-3.265151E-2,3.8953695E-2,-1.6775992E-2,-3.187916E-2,2.957765E-4],"split_indices":[1,0,1,0,0,0,1,0,0,0,0,0,0,0,1,0,0,0,0,0,0,0,0,0,0],"split_type":[0,0,0,0,0,0,0,0,0,0,0,0,0,0,0,0,0,0,0,0,0,0,0,0,0],"sum_hessian":[2.426348E2,9.069916E0,2.3356488E2,5.638392E0,3.4315238E0,7.486635E0,2.2607825E2,2.4834025E0,3.1549897E0,1.3586903E0,2.0728333E0,4.418269E0,3.0683658E0,1.134099E1,2.1473726E2,1.3115441E0,1.8434457E0,2.6824298E0,1.7358396E0,1.4278262E0,1.6405396E0,7.3487825E0,3.992207E0,6.6753917E0,2.0806186E2],"tree_param":{"num_deleted":"0","num_feature":"3","num_nodes":"25","size_leaf_vector":"1"}},{"base_weights":[2.0616087E-3,-6.1944393E-3,3.3676967E-2,2.9530624E-2,-1.637692E-1,-7.355562E-2,1.7098548E-1,-6.3017464E-1,9.945244E-3,-1.3081107E-4,-2.6783375E-2,1.7307876E-2,-3.3996286E-4,-5.574234E-3,-5.1898975E-2,8.433002E-3,-4.1954093E-2],"categories":[],"categories_nodes":[],"categories_segments":[],"categories_sizes":[],"default_left":[0,0,0,0,0,0,0,0,0,0,0,0,0,0,0,0,0],"id":38,"left_children":[1,3,-1,5,7,9,11,13,15,-1,-1,-1,-1,-1,-1,-1,-1],"loss_changes":[1.3541061E0,1.3645468E0,0E0,2.8961122E0,3.6354733E0,3.7713132E0,2.6077814E0,2.4588327E0,4.6721597E0,0E0,0E0,0E0,0E0,0E0,0E0,0E0,0E0],"parents":[2147483647,0,0,1,1,3,3,4,4,5,5,6,6,7,7,8,8],"right_children":[2,4,-1,6,8,10,12,14,16,-1,-1,-1,-1,-1,-1,-1,-1],"split_conditions":[4.0168843E-1,1.01343535E-1,3.3676967E-2,-3.1873718E-2,3.1538827E0,-6.1526127E-2,2.2861337E-2,2.724468E0,5.32757E0,-1.3081107E-4,-2.6783375E-2,1.7307876E-2,-3.3996286E-4,-5.574234E-3,-5.1898975E-2,8.433002E-3,-4.1954093E-2],"split_indices":[2,2,0,2,1,2,2,1,1,0,0,0,0,0,0,0,0],"split_type":[0,0,0,0,0,0,0,0,0,0,0,0,0,0,0,0,0],"sum_hessian":[2.4250546E2,2.4053873E2,1.9667311E0,1.9674553E2,4.3793198E1,1.1408517E2,8.266037E1,1.1171424E1,3.2621773E1,9.977434E1,1.4310827E1,4.1159092E1,4.1501278E1,5.4776893E0,5.693735E0,2.8159132E1,4.4626417E0],"tree_param":{"num_deleted":"0","num_feature":"3","num_nodes":"17","size_leaf_vector":"1"}},{"base_weights":[1.6896131E-3,-5.6915474E-1,1.1124896E-2,-3.9915692E-2,-5.459818E-3,6.005061E-1,-6.30426E-4,-1.6267722E-2,5.1093835E-2,-5.942606E-1,1.39474375E-2,5.2582016E-3,-6.96369E-2,3.5878863E-2,-3.8282495E-4],"categories":[],"categories_nodes":[],"categories_segments":[],"categories_sizes":[],"default_left":[0,0,0,0,0,0,0,0,0,0,0,0,0,0,0],"id":39,"left_children":[1,3,5,-1,-1,7,9,-1,-1,11,13,-1,-1,-1,-1],"loss_changes":[1.3173274E0,3.3200693E-1,1.6661493E0,0E0,0E0,2.1671188E0,2.0568728E0,0E0,0E0,3.328034E0,3.532593E0,0E0,0E0,0E0,0E0],"parents":[2147483647,0,0,1,1,2,2,5,5,6,6,9,9,10,10],"right_children":[2,4,6,-1,-1,8,10,-1,-1,12,14,-1,-1,-1,-1],"split_conditions":[-3.7878147E-1,4.6855044E0,2.982834E1,-3.9915692E-2,-5.459818E-3,-2.350867E-1,3.215203E1,-1.6267722E-2,5.1093835E-2,3.1621687E1,3.4372143E1,5.2582016E-3,-6.96369E-2,3.5878863E-2,-3.8282495E-4],"split_indices":[2,1,0,0,0,2,0,0,0,0,0,0,0,0,0],"split_type":[0,0,0,0,0,0,0,0,0,0,0,0,0,0,0],"sum_hessian":[2.4240453E2,2.9769022E0,2.3942761E2,1.4959652E0,1.4809371E0,3.7026494E0,2.3572498E2,1.2293389E0,2.4733105E0,4.696886E0,2.3102809E2,2.9665966E0,1.7302892E0,5.9224253E0,2.2510565E2],"tree_param":{"num_deleted":"0","num_feature":"3","num_nodes":"15","size_leaf_vector":"1"}},{"base_weights":[1.4472825E-3,3.701647E-2,-5.7784077E-3,4.6278113E-3,-2.7453665E-2,-8.981349E-3,5.13916E-1,1.4960541E-3,-1.036854E-2,4.0000357E-2,-4.2839884E-3],"categories":[],"categories_nodes":[],"categories_segments":[],"categories_sizes":[],"default_left":[0,0,0,0,0,0,0,0,0,0,0],"id":40,"left_children":[1,-1,3,5,-1,7,9,-1,-1,-1,-1],"loss_changes":[1.3036975E0,0E0,1.3708408E0,1.6574057E0,0E0,1.8063148E0,1.136125E0,0E0,0E0,0E0,0E0],"parents":[2147483647,0,0,2,2,3,3,5,5,6,6],"right_children":[2,-1,4,6,-1,8,10,-1,-1,-1,-1],"split_conditions":[2.1087806E0,3.701647E-2,7.768656E1,7.4323296E1,-2.7453665E-2,6.5179375E1,7.601666E1,1.4960541E-3,-1.036854E-2,4.0000357E-2,-4.2839884E-3],"split_indices":[1,0,0,0,0,0,0,0,0,0,0],"split_type":[0,0,0,0,0,0,0,0,0,0,0],"sum_hessian":[2.4238564E2,1.3648161E0,2.4102083E2,2.3746394E2,3.5568805E0,2.322404E2,5.223545E0,1.9487608E2,3.7364315E1,3.3099785E0,1.9135668E0],"tree_param":{"num_deleted":"0","num_feature":"3","num_nodes":"11","size_leaf_vector":"1"}},{"base_weights":[1.5289899E-3,-8.0761686E-2,6.7515045E-2,-6.647086E-3,-6.166025E-1,4.5570603E-1,1.959518E-2,-1.0491626E-1,1.841017E-1,-7.126968E-1,8.489479E-3,5.0909437E-2,1.7785916E-1,-4.6390805E-2,4.9260776E-2,-7.168714E-3,4.1487746E-2,2.9830147E-2,2.0239807E-3,-5.204345E-2,-2.5240645E-2,-3.981767E-3,4.282066E-2,1.7382964E-2,-8.45279E-4],"categories":[],"categories_nodes":[],"categories_segments":[],"categories_sizes":[],"default_left":[0,0,0,0,0,0,0,0,0,0,0,0,0,0,0,0,0,0,0,0,0,0,0,0,0],"id":41,"left_children":[1,3,5,7,9,11,13,15,17,19,-1,-1,21,-1,23,-1,-1,-1,-1,-1,-1,-1,-1,-1,-1],"loss_changes":[1.3265182E0,4.3137054E0,2.5128586E0,1.8286232E0,1.1184955E0,2.1398728E0,3.4665415E0,2.4317603E0,1.9416965E0,2.901435E-1,0E0,0E0,2.0167713E0,0E0,2.354779E0,0E0,0E0,0E0,0E0,0E0,0E0,0E0,0E0,0E0,0E0],"parents":[2147483647,0,0,1,1,2,2,3,3,4,4,5,5,6,6,7,7,8,8,9,9,12,12,14,14],"right_children":[2,4,6,8,10,12,14,16,18,20,-1,-1,22,-1,24,-1,-1,-1,-1,-1,-1,-1,-1,-1,-1],"split_conditions":[5.116044E1,4.8834034E1,5.3425068E1,4.7045054E0,5.956785E0,3.8728337E0,5.4013454E1,4.8197987E1,4.9536896E0,3.421766E0,8.489479E-3,5.0909437E-2,5.43678E0,-4.6390805E-2,5.7626064E1,-7.168714E-3,4.1487746E-2,2.9830147E-2,2.0239807E-3,-5.204345E-2,-2.5240645E-2,-3.981767E-3,4.282066E-2,1.7382964E-2,-8.45279E-4],"split_indices":[0,0,0,1,1,1,0,0,1,1,0,0,1,0,0,0,0,0,0,0,0,0,0,0,0],"split_type":[0,0,0,0,0,0,0,0,0,0,0,0,0,0,0,0,0,0,0,0,0,0,0,0,0],"sum_hessian":[2.4228848E2,1.0772348E2,1.34565E2,9.552358E1,1.2199901E1,1.3850953E1,1.2071405E2,6.334153E1,3.2182053E1,1.0954957E1,1.2449437E0,3.6986706E0,1.0152283E1,2.7458472E0,1.179682E2,6.165142E1,1.6901073E0,7.4966693E0,2.468538E1,2.6944463E0,8.26051E0,7.999362E0,2.1529207E0,2.0638391E1,9.732981E1],"tree_param":{"num_deleted":"0","num_feature":"3","num_nodes":"25","size_leaf_vector":"1"}},{"base_weights":[1.6988366E-3,-6.2263245E-3,3.2619383E-2,3.6376093E-2,-1.3346028E-2,-9.4051583E-4,-4.7800303E-1,-7.651696E-4,3.876827E-2,1.1269078E-2,-3.914815E-2],"categories":[],"categories_nodes":[],"categories_segments":[],"categories_sizes":[],"default_left":[0,0,0,0,0,0,0,0,0,0,0],"id":42,"left_children":[1,3,-1,-1,5,7,9,-1,-1,-1,-1],"loss_changes":[1.2575787E0,1.2694693E0,0E0,0E0,1.3818884E0,2.627383E0,1.5136913E0,0E0,0E0,0E0,0E0],"parents":[2147483647,0,0,1,1,4,4,5,5,6,6],"right_children":[2,4,-1,-1,6,8,10,-1,-1,-1,-1],"split_conditions":[4.0168843E-1,2.1087806E0,3.2619383E-2,3.6376093E-2,7.601666E1,7.4323296E1,-1.4452239E-2,-7.651696E-4,3.876827E-2,1.1269078E-2,-3.914815E-2],"split_indices":[2,1,0,0,0,0,2,0,0,0,0],"split_type":[0,0,0,0,0,0,0,0,0,0,0],"sum_hessian":[2.4207974E2,2.401453E2,1.9344542E0,1.3354082E0,2.3880988E2,2.3357585E2,5.2340336E0,2.302953E2,3.2805376E0,1.6618814E0,3.5721521E0],"tree_param":{"num_deleted":"0","num_feature":"3","num_nodes":"11","size_leaf_vector":"1"}},{"base_weights":[1.9447431E-3,-5.537679E-1,1.1142755E-2,-3.8703363E-2,-5.4554227E-3,6.524593E-1,5.2374805E-4,5.822537E-2,-7.0985504E-3,5.806807E-1,-1.1137443E-2,-1.5940996E-2,4.961019E-2,-5.7887896E-3,3.4403172E-3],"categories":[],"categories_nodes":[],"categories_segments":[],"categories_sizes":[],"default_left":[0,0,0,0,0,0,0,0,0,0,0,0,0,0,0],"id":43,"left_children":[1,3,5,-1,-1,7,9,-1,-1,11,13,-1,-1,-1,-1],"loss_changes":[1.2482178E0,3.050437E-1,1.634208E0,0E0,0E0,1.7553304E0,1.6105801E0,0E0,0E0,2.0527055E0,1.9605458E0,0E0,0E0,0E0,0E0],"parents":[2147483647,0,0,1,1,2,2,5,5,6,6,9,9,10,10],"right_children":[2,4,6,-1,-1,8,10,-1,-1,12,14,-1,-1,-1,-1],"split_conditions":[-3.7878147E-1,4.6855044E0,-3.4179476E-1,-3.8703363E-2,-5.4554227E-3,4.0801857E1,2.982834E1,5.822537E-2,-7.0985504E-3,-2.350867E-1,5.116044E1,-1.5940996E-2,4.961019E-2,-5.7887896E-3,3.4403172E-3],"split_indices":[2,1,2,0,0,0,0,0,0,2,0,0,0,0,0],"split_type":[0,0,0,0,0,0,0,0,0,0,0,0,0,0,0],"sum_hessian":[2.4199306E2,2.9761965E0,2.3901686E2,1.4948084E0,1.4813881E0,2.9086943E0,2.3610817E2,1.4854267E0,1.4232676E0,3.6908007E0,2.3241736E2,1.2292324E0,2.4615684E0,1.0046742E2,1.3194994E2],"tree_param":{"num_deleted":"0","num_feature":"3","num_nodes":"15","size_leaf_vector":"1"}},{"base_weights":[2.0077815E-3,-1.4444415E-1,3.548442E-2,-2.6515526E-1,3.3177224E-1,4.081977E-1,3.7684446E-4,-4.730702E-1,1.5155758E-1,7.7447355E-1,-1.2284344E-1,8.833517E-1,-3.7289765E-3,-8.4783787E-1,1.9050384E-2,-1.37806535E-2,-4.3947436E-2,5.4688442E-2,-1.4446042E-2,1.2567797E-3,4.8189387E-2,3.1697E-2,-3.508609E-2,5.9746165E-2,3.0515594E-3,-2.0648679E-2,3.3596624E-2,-1.6005488E-2,-5.551982E-2,5.1306814E-2,2.5121754E-4],"categories":[],"categories_nodes":[],"categories_segments":[],"categories_sizes":[],"default_left":[0,0,0,0,0,0,0,0,0,0,0,0,0,0,0,0,0,0,0,0,0,0,0,0,0,0,0,0,0,0,0],"id":44,"left_children":[1,3,5,7,9,11,13,15,17,19,21,23,25,27,29,-1,-1,-1,-1,-1,-1,-1,-1,-1,-1,-1,-1,-1,-1,-1,-1],"loss_changes":[1.1962926E0,2.6978452E0,2.598006E0,3.2580001E0,2.032312E0,3.3487272E0,2.9062784E0,1.7434916E0,5.7107816E0,6.869831E-1,2.9033139E0,1.9616947E0,3.0843592E0,1.9220471E-1,2.5305634E0,0E0,0E0,0E0,0E0,0E0,0E0,0E0,0E0,0E0,0E0,0E0,0E0,0E0,0E0,0E0,0E0],"parents":[2147483647,0,0,1,1,2,2,3,3,4,4,5,5,6,6,7,7,8,8,9,9,10,10,11,11,12,12,13,13,14,14],"right_children":[2,4,6,8,10,12,14,16,18,20,22,24,26,28,30,-1,-1,-1,-1,-1,-1,-1,-1,-1,-1,-1,-1,-1,-1,-1,-1],"split_conditions":[-1.6501094E-1,6.1537483E1,-1.3405924E-1,4.6855044E0,-2.277768E-1,4.7334286E1,-1.279665E-1,4.257306E0,4.9536896E0,2.3396318E0,3.0293756E0,-1.4312647E-1,-1.4312647E-1,6.2676598E1,2.982834E1,-1.37806535E-2,-4.3947436E-2,5.4688442E-2,-1.4446042E-2,1.2567797E-3,4.8189387E-2,3.1697E-2,-3.508609E-2,5.9746165E-2,3.0515594E-3,-2.0648679E-2,3.3596624E-2,-1.6005488E-2,-5.551982E-2,5.1306814E-2,2.5121754E-4],"split_indices":[2,0,2,1,2,0,2,1,1,1,1,2,2,0,0,0,0,0,0,0,0,0,0,0,0,0,0,0,0,0,0],"split_type":[0,0,0,0,0,0,0,0,0,0,0,0,0,0,0,0,0,0,0,0,0,0,0,0,0,0,0,0,0,0,0],"sum_hessian":[2.4196054E2,4.440127E1,1.9755927E2,3.5775993E1,8.625277E0,1.6092203E1,1.8146707E2,2.3777294E1,1.19987E1,4.0134406E0,4.6118364E0,6.941176E0,9.151028E0,2.9524777E0,1.7851459E2,1.7125101E1,6.652193E0,3.349904E0,8.648796E0,1.0379257E0,2.9755147E0,1.9575546E0,2.6542819E0,4.7052703E0,2.2359056E0,5.941238E0,3.20979E0,1.7181952E0,1.2342825E0,1.4608989E0,1.770537E2],"tree_param":{"num_deleted":"0","num_feature":"3","num_nodes":"31","size_leaf_vector":"1"}},{"base_weights":[2.2641711E-3,-5.398002E-3,3.1774104E-2,3.9484806E-2,-1.2137046E-1,-6.890872E-2,2.4402842E-1,-6.8480176E-1,-2.7362894E-2,-6.642458E-5,-2.5434468E-2,2.4587523E-2,3.1445087E-3,-3.9292905E-3,-5.4515865E-2,4.881893E-2,-4.6125576E-3],"categories":[],"categories_nodes":[],"categories_segments":[],"categories_sizes":[],"default_left":[0,0,0,0,0,0,0,0,0,0,0,0,0,0,0,0,0],"id":45,"left_children":[1,3,-1,5,7,9,11,13,15,-1,-1,-1,-1,-1,-1,-1,-1],"loss_changes":[1.1817721E0,1.2589967E0,0E0,3.8851547E0,3.5553458E0,3.4118764E0,2.6907449E0,2.276022E0,3.924384E0,0E0,0E0,0E0,0E0,0E0,0E0,0E0,0E0],"parents":[2147483647,0,0,1,1,3,3,4,4,5,5,6,6,7,7,8,8],"right_children":[2,4,-1,6,8,10,12,14,16,-1,-1,-1,-1,-1,-1,-1,-1],"split_conditions":[4.0168843E-1,5.315211E-2,3.1774104E-2,-3.1873718E-2,6.7512035E-2,-6.1526127E-2,3.367061E0,6.065955E-2,3.570727E1,-6.642458E-5,-2.5434468E-2,2.4587523E-2,3.1445087E-3,-3.9292905E-3,-5.4515865E-2,4.881893E-2,-4.6125576E-3],"split_indices":[2,2,0,2,2,2,1,2,0,0,0,0,0,0,0,0,0],"split_type":[0,0,0,0,0,0,0,0,0,0,0,0,0,0,0,0,0],"sum_hessian":[2.4186566E2,2.3995361E2,1.9120531E0,1.7347581E2,6.6477806E1,1.13821594E2,5.9654217E1,8.60707E0,5.7870735E1,9.953003E1,1.4291564E1,2.4471952E1,3.5182266E1,3.9283166E0,4.6787534E0,2.6610157E0,5.520972E1],"tree_param":{"num_deleted":"0","num_feature":"3","num_nodes":"17","size_leaf_vector":"1"}},{"base_weights":[2.239877E-3,3.567406E-2,-4.5510135E-3,3.0531948E-2,-1.5028402E-1,-1.3004552E-3,6.0629886E-1,-4.1980243E-1,3.6878474E-2,6.848685E-4,-5.0738703E-2,3.9490826E-2,-2.0772018E-2,3.5870664E-2,-3.1343326E-2,5.9609223E-2,-4.055096E-3],"categories":[],"categories_nodes":[],"categories_segments":[],"categories_sizes":[],"default_left":[0,0,0,0,0,0,0,0,0,0,0,0,0,0,0,0,0],"id":46,"left_children":[1,-1,3,5,7,9,11,13,15,-1,-1,-1,-1,-1,-1,-1,-1],"loss_changes":[1.1756212E0,0E0,1.2389456E0,3.582372E0,2.3869438E0,2.8437474E0,2.2482035E0,5.0056715E0,4.003722E0,0E0,0E0,0E0,0E0,0E0,0E0,0E0,0E0],"parents":[2147483647,0,0,2,2,3,3,4,4,5,5,6,6,7,7,8,8],"right_children":[2,-1,4,6,8,10,12,14,16,-1,-1,-1,-1,-1,-1,-1,-1],"split_conditions":[2.1087806E0,3.567406E-2,6.5179375E1,6.3784042E1,2.9486592E0,6.3523453E1,4.11445E0,-1.4439398E-1,3.0014217E0,6.848685E-4,-5.0738703E-2,3.9490826E-2,-2.0772018E-2,3.5870664E-2,-3.1343326E-2,5.9609223E-2,-4.055096E-3],"split_indices":[1,0,0,0,1,0,1,2,1,0,0,0,0,0,0,0,0],"split_type":[0,0,0,0,0,0,0,0,0,0,0,0,0,0,0,0,0],"sum_hessian":[2.4172948E2,1.3019861E0,2.4042749E2,1.9441547E2,4.6012016E1,1.8517543E2,9.240045E0,1.8347786E1,2.766423E1,1.8344717E2,1.7282469E0,8.025541E0,1.2145033E0,2.4465282E0,1.5901258E1,1.7196702E0,2.594456E1],"tree_param":{"num_deleted":"0","num_feature":"3","num_nodes":"17","size_leaf_vector":"1"}},{"base_weights":[2.4018518E-3,-5.3089E-1,1.1239634E-2,-3.749234E-2,-4.874579E-3,6.3384277E-1,9.467105E-4,5.6880858E-2,-7.237516E-3,-1.8949749E-2,3.3136362E-1,-6.507158E-3,3.5838091E-3,3.341342E-2,-1.961405E-2],"categories":[],"categories_nodes":[],"categories_segments":[],"categories_sizes":[],"default_left":[0,0,0,0,0,0,0,0,0,0,0,0,0,0,0],"id":47,"left_children":[1,3,5,-1,-1,7,9,-1,-1,11,13,-1,-1,-1,-1],"loss_changes":[1.1493678E0,3.0416143E-1,1.5350087E0,0E0,0E0,1.6926472E0,1.5625627E0,0E0,0E0,2.2688868E0,3.5532856E0,0E0,0E0,0E0,0E0],"parents":[2147483647,0,0,1,1,2,2,5,5,6,6,9,9,10,10],"right_children":[2,4,6,-1,-1,8,10,-1,-1,12,14,-1,-1,-1,-1],"split_conditions":[-3.7878147E-1,4.6855044E0,-3.4179476E-1,-3.749234E-2,-4.874579E-3,4.0801857E1,6.0585356E0,5.6880858E-2,-7.237516E-3,-3.1873718E-2,-2.105113E-2,-6.507158E-3,3.5838091E-3,3.341342E-2,-1.961405E-2],"split_indices":[2,1,2,0,0,0,1,0,0,2,2,0,0,0,0],"split_type":[0,0,0,0,0,0,0,0,0,0,0,0,0,0,0],"sum_hessian":[2.415997E2,2.975586E0,2.3862411E2,1.4917732E0,1.4838128E0,2.8955624E0,2.3572855E2,1.4780793E0,1.417483E0,2.2322917E2,1.249937E1,1.00044106E2,1.23185074E2,8.58091E0,3.9184604E0],"tree_param":{"num_deleted":"0","num_feature":"3","num_nodes":"15","size_leaf_vector":"1"}},{"base_weights":[2.3608769E-3,3.3620602E-1,-1.1743117E-2,5.5515033E-1,-7.040637E-2,-4.9006286E-1,6.02887E-3,7.3848313E-1,2.6751977E-1,-3.477114E-2,2.1977179E-2,-7.165503E-1,-6.274588E-2,3.7669304E-1,-1.5155334E-2,1.1535213E-2,4.2749606E-2,-1.9754276E-2,3.572723E-2,-9.926743E-3,-5.73976E-2,2.7143618E-2,-2.9961912E-2,3.6867585E-2,-1.4965785E-2,-3.0121757E-2,3.2429528E-4],"categories":[],"categories_nodes":[],"categories_segments":[],"categories_sizes":[],"default_left":[0,0,0,0,0,0,0,0,0,0,0,0,0,0,0,0,0,0,0,0,0,0,0,0,0,0,0],"id":48,"left_children":[1,3,5,7,9,11,13,15,17,-1,-1,19,21,23,25,-1,-1,-1,-1,-1,-1,-1,-1,-1,-1,-1,-1],"loss_changes":[1.1460178E0,9.1736877E-1,1.9894543E0,1.465261E-1,1.6890638E0,7.6643443E-1,1.7826917E0,4.905939E-3,1.4991243E0,0E0,0E0,9.7516227E-1,1.6250206E0,3.2129927E0,2.736822E0,0E0,0E0,0E0,0E0,0E0,0E0,0E0,0E0,0E0,0E0,0E0,0E0],"parents":[2147483647,0,0,1,1,2,2,3,3,4,4,5,5,6,6,7,7,8,8,11,11,12,12,13,13,14,14],"right_children":[2,4,6,8,10,12,14,16,18,-1,-1,20,22,24,26,-1,-1,-1,-1,-1,-1,-1,-1,-1,-1,-1,-1],"split_conditions":[2.4150083E0,6.601289E1,2.5535839E0,5.6091846E1,6.9662704E1,6.144653E1,2.7188032E0,5.139702E1,5.8567066E1,-3.477114E-2,2.1977179E-2,5.8720154E1,6.540246E1,6.72206E1,2.763443E0,1.1535213E-2,4.2749606E-2,-1.9754276E-2,3.572723E-2,-9.926743E-3,-5.73976E-2,2.7143618E-2,-2.9961912E-2,3.6867585E-2,-1.4965785E-2,-3.0121757E-2,3.2429528E-4],"split_indices":[1,0,1,0,0,0,1,0,0,0,0,0,0,0,1,0,0,0,0,0,0,0,0,0,0,0,0],"split_type":[0,0,0,0,0,0,0,0,0,0,0,0,0,0,0,0,0,0,0,0,0,0,0,0,0,0,0],"sum_hessian":[2.4155232E2,8.865521E0,2.326868E2,5.525147E0,3.3403747E0,7.383747E0,2.2530305E2,2.4170642E0,3.1080828E0,1.3374413E0,2.0029333E0,4.383524E0,3.0002232E0,1.12731285E1,2.1402992E2,1.0072644E0,1.4097999E0,1.2989277E0,1.8091551E0,2.6553094E0,1.7282146E0,1.4037316E0,1.5964916E0,7.2920113E0,3.9811172E0,6.652881E0,2.0737704E2],"tree_param":{"num_deleted":"0","num_feature":"3","num_nodes":"27","size_leaf_vector":"1"}},{"base_weights":[2.1639883E-3,-7.411856E-2,6.342805E-2,-3.7491904E-3,-5.85386E-1,4.3738154E-1,1.7469458E-2,-3.3298403E-2,5.860492E-1,-6.7771405E-1,8.201534E-3,4.8994362E-2,1.7357998E-1,-4.4790875E-2,4.61616E-2,6.0487626E-4,-4.1761305E-2,5.1106382E-2,-1.709697E-2,-5.0318193E-2,-2.3644349E-2,-2.3920482E-2,2.0543389E-2,4.3465146E-3,-2.094967E-2],"categories":[],"categories_nodes":[],"categories_segments":[],"categories_sizes":[],"default_left":[0,0,0,0,0,0,0,0,0,0,0,0,0,0,0,0,0,0,0,0,0,0,0,0,0],"id":49,"left_children":[1,3,5,7,9,11,13,15,17,19,-1,-1,21,-1,23,-1,-1,-1,-1,-1,-1,-1,-1,-1,-1],"loss_changes":[1.1376075E0,3.899035E0,2.3122084E0,1.6982303E0,1.0184541E0,1.9382522E0,3.2186058E0,3.3838007E0,2.230977E0,3.230934E-1,0E0,0E0,1.9180608E0,0E0,2.2837763E0,0E0,0E0,0E0,0E0,0E0,0E0,0E0,0E0,0E0,0E0],"parents":[2147483647,0,0,1,1,2,2,3,3,4,4,5,5,6,6,7,7,8,8,9,9,12,12,14,14],"right_children":[2,4,6,8,10,12,14,16,18,20,-1,-1,22,-1,24,-1,-1,-1,-1,-1,-1,-1,-1,-1,-1],"split_conditions":[5.116044E1,4.8834034E1,5.3425068E1,4.8197987E1,5.956785E0,3.8728337E0,5.4013454E1,4.743834E1,5.208277E0,3.421766E0,8.201534E-3,4.8994362E-2,4.244398E0,-4.4790875E-2,4.9810805E0,6.0487626E-4,-4.1761305E-2,5.1106382E-2,-1.709697E-2,-5.0318193E-2,-2.3644349E-2,-2.3920482E-2,2.0543389E-2,4.3465146E-3,-2.094967E-2],"split_indices":[0,0,0,0,1,1,0,0,1,1,0,0,1,0,1,0,0,0,0,0,0,0,0,0,0],"split_type":[0,0,0,0,0,0,0,0,0,0,0,0,0,0,0,0,0,0,0,0,0,0,0,0,0],"sum_hessian":[2.4141693E2,1.0743506E2,1.3398187E2,9.532248E1,1.2112577E1,1.3731914E1,1.2024996E2,9.167315E1,3.6493306E0,1.0869174E1,1.2434034E0,3.6045992E0,1.0127315E1,2.7422092E0,1.1750776E2,8.769385E1,3.9793031E0,2.4136631E0,1.2356676E0,2.6707144E0,8.19846E0,2.4311495E0,7.6961646E0,1.08786255E2,8.721499E0],"tree_param":{"num_deleted":"0","num_feature":"3","num_nodes":"25","size_leaf_vector":"1"}},{"base_weights":[1.6965496E-3,-1.4010823E-1,3.4097604E-2,-1.8983227E-1,4.593995E-2,3.9305848E-1,3.159425E-4,-3.2421875E-1,2.942094E-1,8.516819E-1,-4.840792E-3,-8.2092744E-1,1.8420555E-2,-4.2353544E-4,-2.7100444E-2,4.2111747E-2,-6.664107E-3,5.7572063E-2,3.1172098E-3,-1.9878749E-2,3.2501888E-2,-1.5696965E-2,-5.3517677E-2,4.9519185E-2,2.4791484E-4],"categories":[],"categories_nodes":[],"categories_segments":[],"categories_sizes":[],"default_left":[0,0,0,0,0,0,0,0,0,0,0,0,0,0,0,0,0,0,0,0,0,0,0,0,0],"id":50,"left_children":[1,3,5,7,-1,9,11,13,15,17,19,21,23,-1,-1,-1,-1,-1,-1,-1,-1,-1,-1,-1,-1],"loss_changes":[1.1177827E0,2.5570157E0,2.4007607E0,2.960782E0,0E0,3.1117227E0,2.7205672E0,2.3990514E0,2.4776192E0,1.8013778E0,2.8593383E0,1.6307187E-1,2.3374538E0,0E0,0E0,0E0,0E0,0E0,0E0,0E0,0E0,0E0,0E0,0E0,0E0],"parents":[2147483647,0,0,1,1,2,2,3,3,5,5,6,6,7,7,8,8,9,9,10,10,11,11,12,12],"right_children":[2,4,6,8,-1,10,12,14,16,18,20,22,24,-1,-1,-1,-1,-1,-1,-1,-1,-1,-1,-1,-1],"split_conditions":[-1.6501094E-1,9.21893E0,-1.3405924E-1,6.1349808E1,4.593995E-2,4.7334286E1,-1.279665E-1,4.277482E1,-2.5519425E-1,-1.4312647E-1,-1.4312647E-1,6.2676598E1,2.982834E1,-4.2353544E-4,-2.7100444E-2,4.2111747E-2,-6.664107E-3,5.7572063E-2,3.1172098E-3,-1.9878749E-2,3.2501888E-2,-1.5696965E-2,-5.3517677E-2,4.9519185E-2,2.4791484E-4],"split_indices":[2,1,2,0,0,0,2,0,2,2,2,0,0,0,0,0,0,0,0,0,0,0,0,0,0],"split_type":[0,0,0,0,0,0,0,0,0,0,0,0,0,0,0,0,0,0,0,0,0,0,0,0,0],"sum_hessian":[2.4124078E2,4.425081E1,1.9698997E2,4.305E1,1.2008091E0,1.6029259E1,1.8096072E2,3.3953526E1,9.096474E0,6.9166274E0,9.112632E0,2.946812E0,1.780139E2,1.42838955E1,1.966963E1,3.5611086E0,5.535365E0,4.680438E0,2.2361891E0,5.9420533E0,3.1705785E0,1.7164893E0,1.2303226E0,1.4405429E0,1.7657336E2],"tree_param":{"num_deleted":"0","num_feature":"3","num_nodes":"25","size_leaf_vector":"1"}},{"base_weights":[2.0655303E-3,-5.367693E-3,3.1000791E-2,2.830739E-2,-1.5368128E-1,-1.1806613E-2,3.5014415E-1,-5.9689903E-1,1.0653407E-2,1.6683837E-3,-3.045765E-2,-2.059077E-2,2.9090786E-2,-4.987733E-3,-4.9208414E-2,8.100021E-3,-3.97407E-2],"categories":[],"categories_nodes":[],"categories_segments":[],"categories_sizes":[],"default_left":[0,0,0,0,0,0,0,0,0,0,0,0,0,0,0,0,0],"id":51,"left_children":[1,3,-1,5,7,9,11,13,15,-1,-1,-1,-1,-1,-1,-1,-1],"loss_changes":[1.1156691E0,1.2044014E0,0E0,2.5430436E0,3.2560163E0,4.7650967E0,4.092752E0,2.228644E0,4.2162967E0,0E0,0E0,0E0,0E0,0E0,0E0,0E0,0E0],"parents":[2147483647,0,0,1,1,3,3,4,4,5,5,6,6,7,7,8,8],"right_children":[2,4,-1,6,8,10,12,14,16,-1,-1,-1,-1,-1,-1,-1,-1],"split_conditions":[4.0168843E-1,1.01343535E-1,3.1000791E-2,5.43678E0,3.1538827E0,4.9810805E0,-2.0928505E-1,2.724468E0,5.32757E0,1.6683837E-3,-3.045765E-2,-2.059077E-2,2.9090786E-2,-4.987733E-3,-4.9208414E-2,8.100021E-3,-3.97407E-2],"split_indices":[2,2,0,1,1,1,2,1,1,0,0,0,0,0,0,0,0],"split_type":[0,0,0,0,0,0,0,0,0,0,0,0,0,0,0,0,0],"sum_hessian":[2.4116273E2,2.3927585E2,1.8868966E0,1.9565979E2,4.361605E1,1.7483191E2,2.0827879E1,1.1085571E1,3.253048E1,1.634176E2,1.1414308E1,4.6748567E0,1.6153023E1,5.404852E0,5.68072E0,2.8057383E1,4.4730973E0],"tree_param":{"num_deleted":"0","num_feature":"3","num_nodes":"17","size_leaf_vector":"1"}},{"base_weights":[1.6590963E-3,-7.3269054E-2,6.280917E-2,-6.723558E-3,-5.243691E-1,5.4739314E-1,2.4448177E-2,-3.5700034E-2,5.7267267E-1,-1.7778404E-1,-8.233176E-1,-1.6030306E-2,7.0625496E-1,1.094897E-1,-1.3280119E-1,3.751658E-4,-3.985933E-2,4.9924653E-2,-1.6558997E-2,-3.613611E-2,1.4007966E-2,4.3848163E-4,-5.9439022E-2,1.7254768E-2,4.8152786E-2,-4.851588E-3,1.6442064E-2,-3.948873E-2,7.896022E-4],"categories":[],"categories_nodes":[],"categories_segments":[],"categories_sizes":[],"default_left":[0,0,0,0,0,0,0,0,0,0,0,0,0,0,0,0,0,0,0,0,0,0,0,0,0,0,0,0,0],"id":52,"left_children":[1,3,5,7,9,11,13,15,17,19,21,-1,23,25,27,-1,-1,-1,-1,-1,-1,-1,-1,-1,-1,-1,-1,-1,-1],"loss_changes":[1.113727E0,3.275745E0,2.474355E0,1.635711E0,1.3073323E0,1.5736706E0,1.6868979E0,3.0514028E0,2.1169586E0,2.142217E0,2.2174006E0,0E0,4.6257687E-1,3.7335114E0,4.3415785E0,0E0,0E0,0E0,0E0,0E0,0E0,0E0,0E0,0E0,0E0,0E0,0E0,0E0,0E0],"parents":[2147483647,0,0,1,1,2,2,3,3,4,4,5,5,6,6,7,7,8,8,9,9,10,10,12,12,13,13,14,14],"right_children":[2,4,6,8,10,12,14,16,18,20,22,-1,24,26,28,-1,-1,-1,-1,-1,-1,-1,-1,-1,-1,-1,-1,-1,-1],"split_conditions":[5.1344612E1,4.8834034E1,5.3053425E1,4.8197987E1,2.9826306E-2,-2.4294579E-1,3.8870606E0,4.743834E1,5.208277E0,-7.5835556E-2,4.946987E1,-1.6030306E-2,-6.6999026E-2,2.9486592E0,4.101364E0,3.751658E-4,-3.985933E-2,4.9924653E-2,-1.6558997E-2,-3.613611E-2,1.4007966E-2,4.3848163E-4,-5.9439022E-2,1.7254768E-2,4.8152786E-2,-4.851588E-3,1.6442064E-2,-3.948873E-2,7.896022E-4],"split_indices":[0,0,0,0,2,2,1,0,1,2,0,0,2,1,1,0,0,0,0,0,0,0,0,0,0,0,0,0,0],"split_type":[0,0,0,0,0,0,0,0,0,0,0,0,0,0,0,0,0,0,0,0,0,0,0,0,0,0,0,0,0],"sum_hessian":[2.4106862E2,1.0824101E2,1.328276E2,9.521061E1,1.3030398E1,8.770267E0,1.24057335E2,9.1569466E1,3.6411424E0,6.7729244E0,6.257474E0,1.1993017E0,7.5709653E0,8.071165E1,4.3345688E1,8.759014E1,3.9793274E0,2.403911E0,1.2372314E0,2.8286862E0,3.9442382E0,2.2074795E0,4.0499945E0,4.120209E0,3.450756E0,4.185883E1,3.885282E1,7.199522E0,3.6146164E1],"tree_param":{"num_deleted":"0","num_feature":"3","num_nodes":"29","size_leaf_vector":"1"}},{"base_weights":[1.3114125E-3,3.481394E-2,-5.2273925E-3,2.895144E-2,-1.4701967E-1,-1.1579763E-3,5.769595E-1,-1.9921623E-1,3.5945885E-2,6.762865E-4,-4.9494922E-2,5.3377308E-2,6.0958406E-3,-4.4859517E-3,-2.7993822E-2],"categories":[],"categories_nodes":[],"categories_segments":[],"categories_sizes":[],"default_left":[0,0,0,0,0,0,0,0,0,0,0,0,0,0,0],"id":53,"left_children":[1,-1,3,5,7,9,11,13,-1,-1,-1,-1,-1,-1,-1],"loss_changes":[1.102701E0,0E0,1.1702526E0,3.213259E0,2.2628393E0,2.7073858E0,2.1340027E0,1.7273625E0,0E0,0E0,0E0,0E0,0E0,0E0,0E0],"parents":[2147483647,0,0,2,2,3,3,4,4,5,5,6,6,7,7],"right_children":[2,-1,4,6,8,10,12,14,-1,-1,-1,-1,-1,-1,-1],"split_conditions":[2.1087806E0,3.481394E-2,6.5179375E1,6.3784042E1,4.785054E0,6.3523453E1,6.450378E1,3.8870606E0,3.5945885E-2,6.762865E-4,-4.9494922E-2,5.3377308E-2,6.0958406E-3,-4.4859517E-3,-2.7993822E-2],"split_indices":[1,0,0,0,1,0,0,1,0,0,0,0,0,0,0],"split_type":[0,0,0,0,0,0,0,0,0,0,0,0,0,0,0],"sum_hessian":[2.4085722E2,1.2618256E0,2.395954E2,1.9370009E2,4.589532E1,1.8455774E2,9.14234E0,4.401231E1,1.8830113E0,1.8282889E2,1.728857E0,3.7516298E0,5.3907094E0,3.4720005E1,9.292302E0],"tree_param":{"num_deleted":"0","num_feature":"3","num_nodes":"15","size_leaf_vector":"1"}},{"base_weights":[1.457629E-3,-5.1399994E-1,1.00238295E-2,-3.6686845E-2,-4.3283626E-3,6.075008E-1,1.684133E-4,5.5233486E-2,-7.839871E-3,-1.8024912E-2,3.0310798E-1,-6.23169E-3,3.4471059E-3,3.100561E-2,-1.8495802E-2],"categories":[],"categories_nodes":[],"categories_segments":[],"categories_sizes":[],"default_left":[0,0,0,0,0,0,0,0,0,0,0,0,0,0,0],"id":54,"left_children":[1,3,5,-1,-1,7,9,-1,-1,11,13,-1,-1,-1,-1],"loss_changes":[1.0725826E0,3.094437E-1,1.4058944E0,0E0,0E0,1.6454281E0,1.3056222E0,0E0,0E0,2.080573E0,3.0927184E0,0E0,0E0,0E0,0E0],"parents":[2147483647,0,0,1,1,2,2,5,5,6,6,9,9,10,10],"right_children":[2,4,6,-1,-1,8,10,-1,-1,12,14,-1,-1,-1,-1],"split_conditions":[-3.7878147E-1,4.6855044E0,-3.4179476E-1,-3.6686845E-2,-4.3283626E-3,4.0801857E1,6.0585356E0,5.5233486E-2,-7.839871E-3,-3.1873718E-2,-2.105113E-2,-6.23169E-3,3.4471059E-3,3.100561E-2,-1.8495802E-2],"split_indices":[2,1,2,0,0,0,1,0,0,2,2,0,0,0,0],"split_type":[0,0,0,0,0,0,0,0,0,0,0,0,0,0,0],"sum_hessian":[2.4074554E2,2.9709353E0,2.3777461E2,1.4888997E0,1.4820356E0,2.87441E0,2.3490019E2,1.4717268E0,1.402683E0,2.2247948E2,1.2420717E1,9.975783E1,1.2272165E2,8.497085E0,3.9236333E0],"tree_param":{"num_deleted":"0","num_feature":"3","num_nodes":"15","size_leaf_vector":"1"}},{"base_weights":[1.4556955E-3,-7.269132E-2,6.1027523E-2,-7.648937E-3,-5.4896754E-1,2.6700068E-1,-1.9288857E-2,-2.4441975E-1,5.9620462E-2,-2.3709282E-1,-8.2540923E-1,9.312698E-1,1.1658912E-1,2.374392E-2,-6.826277E-1,1.6798446E-3,-3.332148E-2,4.1905873E-2,-1.799761E-4,-3.4141537E-2,1.21653965E-2,3.6678102E-4,-6.290393E-2,2.3946853E-2,6.0495008E-2,-1.7914427E-3,3.6893047E-2,-1.148038E-2,9.291988E-3,-7.209418E-2,2.0217234E-2],"categories":[],"categories_nodes":[],"categories_segments":[],"categories_sizes":[],"default_left":[0,0,0,0,0,0,0,0,0,0,0,0,0,0,0,0,0,0,0,0,0,0,0,0,0,0,0,0,0,0,0],"id":55,"left_children":[1,3,5,7,9,11,13,15,17,19,21,23,25,27,29,-1,-1,-1,-1,-1,-1,-1,-1,-1,-1,-1,-1,-1,-1,-1,-1],"loss_changes":[1.0719883E0,3.3454177E0,2.2311666E0,1.5459999E0,9.2320967E-1,3.6698594E0,2.806293E0,2.5413165E0,3.7277658E0,1.7723963E0,2.342863E0,2.8246593E-1,3.0545359E0,3.8518252E0,5.5249877E0,0E0,0E0,0E0,0E0,0E0,0E0,0E0,0E0,0E0,0E0,0E0,0E0,0E0,0E0,0E0,0E0],"parents":[2147483647,0,0,1,1,2,2,3,3,4,4,5,5,6,6,7,7,8,8,9,9,10,10,11,11,12,12,13,13,14,14],"right_children":[2,4,6,8,10,12,14,16,18,20,22,24,26,28,30,-1,-1,-1,-1,-1,-1,-1,-1,-1,-1,-1,-1,-1,-1,-1,-1],"split_conditions":[5.116044E1,4.8834034E1,5.7626064E1,3.212743E0,2.3933671E-2,2.724468E0,4.9810805E0,4.2181484E1,3.334662E0,4.9545807E1,4.946987E1,2.5434344E0,5.670232E1,2.9486592E0,5.253288E0,1.6798446E-3,-3.332148E-2,4.1905873E-2,-1.799761E-4,-3.4141537E-2,1.21653965E-2,3.6678102E-4,-6.290393E-2,2.3946853E-2,6.0495008E-2,-1.7914427E-3,3.6893047E-2,-1.148038E-2,9.291988E-3,-7.209418E-2,2.0217234E-2],"split_indices":[0,0,0,1,2,1,1,0,1,0,0,1,0,1,1,0,0,0,0,0,0,0,0,0,0,0,0,0,0,0,0],"split_type":[0,0,0,0,0,0,0,0,0,0,0,0,0,0,0,0,0,0,0,0,0,0,0,0,0,0,0,0,0,0,0],"sum_hessian":[2.4068767E2,1.07128395E2,1.3355928E2,9.515031E1,1.1978087E1,3.6816975E1,9.67423E1,2.0469507E1,7.46808E1,6.501225E0,5.4768624E0,5.8389006E0,3.0978073E1,9.175414E1,4.9881606E0,1.2894865E1,7.5746427E0,4.6885376E0,6.999226E1,3.1536996E0,3.3475251E0,2.2087665E0,3.2680962E0,3.2620826E0,2.5768178E0,2.5632038E1,5.3460345E0,3.5637375E1,5.611677E1,2.7445586E0,2.243602E0],"tree_param":{"num_deleted":"0","num_feature":"3","num_nodes":"31","size_leaf_vector":"1"}},{"base_weights":[1.3487383E-3,2.9870603E-2,-6.0794516E-3,3.3596025E-3,-4.999398E-1,-9.132079E-3,4.730831E-1,-8.500787E-3,-5.6492776E-1,1.2197339E-3,-9.006377E-3,3.71397E-2,-4.195089E-3,-3.9373245E-2,-5.090517E-3],"categories":[],"categories_nodes":[],"categories_segments":[],"categories_sizes":[],"default_left":[0,0,0,0,0,0,0,0,0,0,0,0,0,0,0],"id":56,"left_children":[1,-1,3,5,7,9,11,-1,13,-1,-1,-1,-1,-1,-1],"loss_changes":[1.0728754E0,0E0,1.118167E0,1.3891417E0,4.0626526E-4,1.3279966E0,9.8361003E-1,0E0,2.627833E-1,0E0,0E0,0E0,0E0,0E0,0E0],"parents":[2147483647,0,0,2,2,3,3,4,4,5,5,6,6,8,8],"right_children":[2,-1,4,6,8,10,12,-1,14,-1,-1,-1,-1,-1,-1],"split_conditions":[2.1426585E0,2.9870603E-2,7.768656E1,7.4323296E1,2.5127754E0,6.5179375E1,7.601666E1,-8.500787E-3,1.2966761E-1,1.2197339E-3,-9.006377E-3,3.71397E-2,-4.195089E-3,-3.9373245E-2,-5.090517E-3],"split_indices":[1,0,0,0,1,0,0,0,2,0,0,0,0,0,0],"split_type":[0,0,0,0,0,0,0,0,0,0,0,0,0,0,0],"sum_hessian":[2.4049113E2,1.9825135E0,2.3850862E2,2.3501012E2,3.4985042E0,2.298774E2,5.1327295E0,1.1708035E0,2.3277006E0,1.9291103E2,3.696636E1,3.2334068E0,1.8993226E0,1.0991708E0,1.2285299E0],"tree_param":{"num_deleted":"0","num_feature":"3","num_nodes":"15","size_leaf_vector":"1"}},{"base_weights":[1.2934331E-3,-5.9041954E-3,3.0259922E-2,1.1634964E-2,-2.8266332E-1,-7.6773497E-3,5.6778723E-1,-7.89855E-1,4.642634E-2,7.990009E-4,-2.9371573E-2,-3.563149E-2,4.6287086E-2,-5.426779E-2,7.398048E-3,2.8261406E-2,-1.8405974E-2],"categories":[],"categories_nodes":[],"categories_segments":[],"categories_sizes":[],"default_left":[0,0,0,0,0,0,0,0,0,0,0,0,0,0,0,0,0],"id":57,"left_children":[1,3,-1,5,7,9,11,13,15,-1,-1,-1,-1,-1,-1,-1,-1],"loss_changes":[1.0528187E0,1.1660314E0,0E0,2.4341164E0,2.4260283E0,3.0215313E0,4.1454306E0,1.7370837E0,2.2783897E0,0E0,0E0,0E0,0E0,0E0,0E0,0E0,0E0],"parents":[2147483647,0,0,1,1,3,3,4,4,5,5,6,6,7,7,8,8],"right_children":[2,4,-1,6,8,10,12,14,16,-1,-1,-1,-1,-1,-1,-1,-1],"split_conditions":[4.0168843E-1,2.1481916E-1,3.0259922E-2,1.8751594E-1,2.4948205E-1,1.5138774E-1,3.1538827E0,4.624465E0,2.8469607E-1,7.990009E-4,-2.9371573E-2,-3.563149E-2,4.6287086E-2,-5.426779E-2,7.398048E-3,2.8261406E-2,-1.8405974E-2],"split_indices":[2,2,0,2,2,2,1,1,2,0,0,0,0,0,0,0,0],"split_type":[0,0,0,0,0,0,0,0,0,0,0,0,0,0,0,0,0],"sum_hessian":[2.4038991E2,2.3853712E2,1.8527762E0,2.2522202E2,1.3315119E1,2.1861676E2,6.6052423E0,4.688736E0,8.626383E0,2.1097998E2,7.636785E0,1.2266455E0,5.378597E0,3.4456937E0,1.2430425E0,3.6699603E0,4.9564223E0],"tree_param":{"num_deleted":"0","num_feature":"3","num_nodes":"17","size_leaf_vector":"1"}},{"base_weights":[1.1313721E-3,3.2407236E-1,-1.2354132E-2,5.37825E-1,-7.194209E-2,-4.6594647E-1,4.3795696E-3,3.5810623E-2,2.582489E-1,-3.4042068E-2,2.14679E-2,-6.896996E-1,-4.5972753E-2,3.641548E-1,-1.6108027E-2,-1.9172108E-2,3.4853194E-2,-9.233413E-3,-5.5487394E-2,2.6250646E-2,-2.7998552E-2,3.509349E-2,-1.3367808E-2,-2.778644E-2,1.888141E-4],"categories":[],"categories_nodes":[],"categories_segments":[],"categories_sizes":[],"default_left":[0,0,0,0,0,0,0,0,0,0,0,0,0,0,0,0,0,0,0,0,0,0,0,0,0],"id":58,"left_children":[1,3,5,7,9,11,13,-1,15,-1,-1,17,19,21,23,-1,-1,-1,-1,-1,-1,-1,-1,-1,-1],"loss_changes":[1.0549587E0,8.606298E-1,1.7676178E0,1.3542819E-1,1.600532E0,7.4686944E-1,1.6667202E0,0E0,1.4122732E0,0E0,0E0,9.266107E-1,1.4536476E0,2.7857769E0,2.2998464E0,0E0,0E0,0E0,0E0,0E0,0E0,0E0,0E0,0E0,0E0],"parents":[2147483647,0,0,1,1,2,2,3,3,4,4,5,5,6,6,8,8,11,11,12,12,13,13,14,14],"right_children":[2,4,6,8,10,12,14,-1,16,-1,-1,18,20,22,24,-1,-1,-1,-1,-1,-1,-1,-1,-1,-1],"split_conditions":[2.4150083E0,6.601289E1,2.5535839E0,5.6091846E1,6.9662704E1,6.144653E1,2.7188032E0,3.5810623E-2,5.8567066E1,-3.4042068E-2,2.14679E-2,5.8720154E1,6.540246E1,6.72206E1,2.763443E0,-1.9172108E-2,3.4853194E-2,-9.233413E-3,-5.5487394E-2,2.6250646E-2,-2.7998552E-2,3.509349E-2,-1.3367808E-2,-2.778644E-2,1.888141E-4],"split_indices":[1,0,1,0,0,0,1,0,0,0,0,0,0,0,1,0,0,0,0,0,0,0,0,0,0],"split_type":[0,0,0,0,0,0,0,0,0,0,0,0,0,0,0,0,0,0,0,0,0,0,0,0,0],"sum_hessian":[2.4032024E2,8.709934E0,2.316103E2,5.424119E0,3.2858152E0,7.2853394E0,2.2432497E2,2.3578684E0,3.0662506E0,1.321959E0,1.9638561E0,4.33402E0,2.9513192E0,1.1182299E1,2.1314267E2,1.2965124E0,1.7697382E0,2.6216276E0,1.7123928E0,1.3880006E0,1.5633186E0,7.2133694E0,3.9689293E0,6.6171875E0,2.0652548E2],"tree_param":{"num_deleted":"0","num_feature":"3","num_nodes":"25","size_leaf_vector":"1"}},{"base_weights":[9.414526E-4,-7.2123125E-2,5.975568E-2,-9.698086E-3,-5.308141E-1,3.5455335E-2,7.335269E-1,-3.7718304E-2,5.522898E-1,-6.1753875E-1,7.950947E-3,9.2346266E-2,-6.479766E-1,4.5070168E-2,7.6951007E-3,1.5448082E-4,-3.780616E-2,4.8368756E-2,-1.6118988E-2,-1.7404515E-2,-4.2037692E-2,5.3317845E-2,3.1783548E-3,-5.0538696E-2,-3.0145554E-3],"categories":[],"categories_nodes":[],"categories_segments":[],"categories_sizes":[],"default_left":[0,0,0,0,0,0,0,0,0,0,0,0,0,0,0,0,0,0,0,0,0,0,0,0,0],"id":59,"left_children":[1,3,5,7,9,11,13,15,17,19,-1,21,23,-1,-1,-1,-1,-1,-1,-1,-1,-1,-1,-1,-1],"loss_changes":[1.0406661E0,3.087511E0,2.1705906E0,1.5339246E0,8.7112784E-1,5.135428E0,3.1076837E-1,2.7129595E0,1.9918418E0,4.099326E-1,0E0,3.334785E0,2.1044984E0,0E0,0E0,0E0,0E0,0E0,0E0,0E0,0E0,0E0,0E0,0E0,0E0],"parents":[2147483647,0,0,1,1,2,2,3,3,4,4,5,5,6,6,7,7,8,8,9,9,11,11,12,12],"right_children":[2,4,6,8,10,12,14,16,18,20,-1,22,24,-1,-1,-1,-1,-1,-1,-1,-1,-1,-1,-1,-1],"split_conditions":[5.116044E1,4.8834034E1,5.858428E0,4.8197987E1,5.956785E0,4.9810805E0,6.5992977E-3,4.743834E1,5.208277E0,4.0403576E0,7.950947E-3,5.178134E1,5.253288E0,4.5070168E-2,7.6951007E-3,1.5448082E-4,-3.780616E-2,4.8368756E-2,-1.6118988E-2,-1.7404515E-2,-4.2037692E-2,5.3317845E-2,3.1783548E-3,-5.0538696E-2,-3.0145554E-3],"split_indices":[0,0,1,0,1,1,2,0,1,1,0,0,1,0,0,0,0,0,0,0,0,0,0,0,0],"split_type":[0,0,0,0,0,0,0,0,0,0,0,0,0,0,0,0,0,0,0,0,0,0,0,0,0],"sum_hessian":[2.4016808E2,1.0700727E2,1.3316081E2,9.508758E1,1.1919695E1,1.2954137E2,3.6194391E0,9.146033E1,3.627247E0,1.068162E1,1.2380751E0,1.2038503E2,9.156334E0,2.3761005E0,1.2433385E0,8.748649E1,3.9738407E0,2.388002E0,1.2392453E0,5.9992332E0,4.6823864E0,2.4202516E0,1.1796478E2,5.2162504E0,3.940084E0],"tree_param":{"num_deleted":"0","num_feature":"3","num_nodes":"25","size_leaf_vector":"1"}},{"base_weights":[8.933701E-4,3.368326E-2,-5.3030117E-3,-4.3121107E-2,1.13052845E-1,4.246879E-3,-4.7265968E-1,4.8903167E-1,-6.814156E-2,-1.4478321E-3,1.6518477E-2,-3.157988E-2,1.3380684E-2,6.218641E-2,1.408446E-2,-2.211516E-2,7.8023854E-3],"categories":[],"categories_nodes":[],"categories_segments":[],"categories_sizes":[],"default_left":[0,0,0,0,0,0,0,0,0,0,0,0,0,0,0,0,0],"id":60,"left_children":[1,-1,3,5,7,9,11,13,15,-1,-1,-1,-1,-1,-1,-1,-1],"loss_changes":[1.0081484E0,0E0,1.0780867E0,3.7138627E0,4.0075774E0,1.7995522E0,2.3020124E0,2.6374674E0,3.4447787E0,0E0,0E0,0E0,0E0,0E0,0E0,0E0,0E0],"parents":[2147483647,0,0,2,2,3,3,4,4,5,5,6,6,7,7,8,8],"right_children":[2,-1,4,6,8,10,12,14,16,-1,-1,-1,-1,-1,-1,-1,-1],"split_conditions":[2.1087806E0,3.368326E-2,4.7045054E0,4.452876E0,4.9810805E0,4.2224164E0,6.1803936E1,-1.9173746E-1,5.43678E0,-1.4478321E-3,1.6518477E-2,-3.157988E-2,1.3380684E-2,6.218641E-2,1.408446E-2,-2.211516E-2,7.8023854E-3],"split_indices":[1,0,1,1,1,1,0,2,1,0,0,0,0,0,0,0,0],"split_type":[0,0,0,0,0,0,0,0,0,0,0,0,0,0,0,0,0],"sum_hessian":[2.3997769E2,1.2070148E0,2.3877068E2,1.8143321E2,5.733746E1,1.6430443E2,1.7128794E1,1.8093815E1,3.9243645E1,1.4994888E2,1.4355533E1,1.4222093E1,2.9067013E0,2.822371E0,1.5271443E1,1.4339228E1,2.4904415E1],"tree_param":{"num_deleted":"0","num_feature":"3","num_nodes":"17","size_leaf_vector":"1"}},{"base_weights":[1.2404283E-3,-4.965053E-1,9.526374E-3,-3.553586E-2,-4.0904037E-3,5.813353E-1,1.1898067E-4,5.321417E-2,-7.878816E-3,5.0190717E-1,-9.890016E-3,-1.6850553E-2,4.513019E-2,-2.9747576E-2,2.4028568E-4],"categories":[],"categories_nodes":[],"categories_segments":[],"categories_sizes":[],"default_left":[0,0,0,0,0,0,0,0,0,0,0,0,0,0,0],"id":61,"left_children":[1,3,5,-1,-1,7,9,-1,-1,11,13,-1,-1,-1,-1],"loss_changes":[9.979546E-1,2.9382735E-1,1.2794392E0,0E0,0E0,1.5415083E0,1.1852827E0,0E0,0E0,1.8556398E0,1.9923776E0,0E0,0E0,0E0,0E0],"parents":[2147483647,0,0,1,1,2,2,5,5,6,6,9,9,10,10],"right_children":[2,4,6,-1,-1,8,10,-1,-1,12,14,-1,-1,-1,-1],"split_conditions":[-3.7878147E-1,4.6855044E0,-3.4179476E-1,-3.553586E-2,-4.0904037E-3,4.0801857E1,2.982834E1,5.321417E-2,-7.878816E-3,-2.350867E-1,3.215203E1,-1.6850553E-2,4.513019E-2,-2.9747576E-2,2.4028568E-4],"split_indices":[2,1,2,0,0,0,0,0,0,2,0,0,0,0,0],"split_type":[0,0,0,0,0,0,0,0,0,0,0,0,0,0,0],"sum_hessian":[2.3982295E2,2.962148E0,2.3686081E2,1.4825268E0,1.4796213E0,2.849739E0,2.3401108E2,1.4570688E0,1.3926703E0,3.615334E0,2.3039574E2,1.2200061E0,2.395328E0,4.677856E0,2.2571788E2],"tree_param":{"num_deleted":"0","num_feature":"3","num_nodes":"15","size_leaf_vector":"1"}},{"base_weights":[1.2007033E-3,-5.784416E-3,2.9561136E-2,1.1264137E-2,-2.7479234E-1,-7.240726E-3,5.4519683E-1,-7.609882E-1,4.1429106E-2,7.597829E-4,-2.7801132E-2,-3.415058E-2,4.4492226E-2,-5.2347638E-2,7.2131627E-3,2.6754161E-2,-1.7560232E-2],"categories":[],"categories_nodes":[],"categories_segments":[],"categories_sizes":[],"default_left":[0,0,0,0,0,0,0,0,0,0,0,0,0,0,0,0,0],"id":62,"left_children":[1,3,-1,5,7,9,11,13,15,-1,-1,-1,-1,-1,-1,-1,-1],"loss_changes":[9.9584067E-1,1.0990652E0,0E0,2.2338412E0,2.2272797E0,2.7063637E0,3.8134098E0,1.6213808E0,2.0490084E0,0E0,0E0,0E0,0E0,0E0,0E0,0E0,0E0],"parents":[2147483647,0,0,1,1,3,3,4,4,5,5,6,6,7,7,8,8],"right_children":[2,4,-1,6,8,10,12,14,16,-1,-1,-1,-1,-1,-1,-1,-1],"split_conditions":[4.0168843E-1,2.1481916E-1,2.9561136E-2,1.8751594E-1,2.4948205E-1,1.5138774E-1,3.1538827E0,4.624465E0,2.8469607E-1,7.597829E-4,-2.7801132E-2,-3.415058E-2,4.4492226E-2,-5.2347638E-2,7.2131627E-3,2.6754161E-2,-1.7560232E-2],"split_indices":[2,2,0,2,2,2,1,1,2,0,0,0,0,0,0,0,0],"split_type":[0,0,0,0,0,0,0,0,0,0,0,0,0,0,0,0,0],"sum_hessian":[2.3979851E2,2.3797144E2,1.8270867E0,2.246897E2,1.328173E1,2.1811671E2,6.5729785E0,4.6798606E0,8.601869E0,2.1048363E2,7.633096E0,1.2251585E0,5.3478203E0,3.4374535E0,1.2424071E0,3.6499817E0,4.951887E0],"tree_param":{"num_deleted":"0","num_feature":"3","num_nodes":"17","size_leaf_vector":"1"}},{"base_weights":[1.0491502E-3,-6.9356315E-2,5.8630556E-2,-1.018258E-2,-4.75213E-1,6.04299E-1,2.905053E-2,-1.0164907E-1,1.5473963E-1,-1.4995034E-1,-7.604361E-1,4.085745E-3,7.841701E-1,1.0989518E-1,-1.1653243E-1,1.1517096E-3,-3.45958E-2,1.3281132E-2,-2.8455852E-2,-3.2338995E-2,1.655778E-2,1.4005298E-3,-5.59355E-2,9.636691E-3,4.4426564E-2,3.5128745E-4,2.530839E-2,-3.7543997E-2,1.032532E-3],"categories":[],"categories_nodes":[],"categories_segments":[],"categories_sizes":[],"default_left":[0,0,0,0,0,0,0,0,0,0,0,0,0,0,0,0,0,0,0,0,0,0,0,0,0,0,0,0,0],"id":63,"left_children":[1,3,5,7,9,11,13,15,17,19,21,-1,23,25,27,-1,-1,-1,-1,-1,-1,-1,-1,-1,-1,-1,-1,-1,-1],"loss_changes":[9.799336E-1,2.6070442E0,2.1285157E0,1.4629518E0,1.1678042E0,5.7382894E-1,1.5095735E0,4.602188E0,2.9300947E0,2.0549355E0,2.0414472E0,0E0,1.331892E-1,3.350567E0,4.0090604E0,0E0,0E0,0E0,0E0,0E0,0E0,0E0,0E0,0E0,0E0,0E0,0E0,0E0,0E0],