{"learner":{"attributes":{"scikit_learn":"{\"_estimator_type\": \"classifier\"}"},"feature_names":[],"feature_types":[],"gradient_booster":{"model":{"cats":{"enc":[],"feature_segments":[],"sorted_idx":[]},"gbtree_model_param":{"num_parallel_tree":"1","num_trees":"100"},"iteration_indptr":[0,1,2,3,4,5,6,7,8,9,10,11,12,13,14,15,16,17,18,19,20,21,22,23,24,25,26,27,28,29,30,31,32,33,34,35,36,37,38,39,40,41,42,43,44,45,46,47,48,49,50,51,52,53,54,55,56,57,58,59,60,61,62,63,64,65,66,67,68,69,70,71,72,73,74,75,76,77,78,79,80,81,82,83,84,85,86,87,88,89,90,91,92,93,94,95,96,97,98,99,100],"tree_info":[0,0,0,0,0,0,0,0,0,0,0,0,0,0,0,0,0,0,0,0,0,0,0,0,0,0,0,0,0,0,0,0,0,0,0,0,0,0,0,0,0,0,0,0,0,0,0,0,0,0,0,0,0,0,0,0,0,0,0,0,0,0,0,0,0,0,0,0,0,0,0,0,0,0,0,0,0,0,0,0,0,0,0,0,0,0,0,0,0,0,0,0,0,0,0,0,0,0,0,0],"trees":[{"base_weights":[-1.763232E-8,3.3206075E-2,-7.4094445E-1,-4.7080427E-1,7.968863E-2,-9.826156E-1,1.4322978E-2,-2.6281735E-1,-5.317184E-2,2.2108787E-1,-1.7609647E-1,-5.0179654E-1,-6.5409794E-2,-4.9990077E-2,1.6131577E-4,4.5753643E-2,8.530826E-3,-5.3829946E-2,-2.2284929E-3,-4.6278607E-2,1.4322978E-2],"categories":[],"categories_nodes":[],"categories_segments":[],"categories_sizes":[],"default_left":[0,0,0,0,0,0,0,0,0,0,0,0,0,0,0,0,0,0,0,0,0],"id":0,"left_children":[1,3,5,7,9,11,-1,13,-1,15,17,19,-1,-1,-1,-1,-1,-1,-1,-1,-1],"loss_changes":[4.432688E0,4.077258E0,2.2002463E0,1.5330205E0,5.779838E0,3.5826492E-1,0E0,2.3978298E0,0E0,3.4398413E0,6.7108006E0,1.6812547E0,0E0,0E0,0E0,0E0,0E0,0E0,0E0,0E0,0E0],"parents":[2147483647,0,0,1,1,2,2,3,3,4,4,5,5,7,7,9,9,10,10,11,11],"right_children":[2,4,6,8,10,12,-1,14,-1,16,18,20,-1,-1,-1,-1,-1,-1,-1,-1,-1],"split_conditions":[7.063182E1,-3.9419246E-1,6.395515E-2,5.3012146E1,3.136935E0,1.6951193E0,1.4322978E-2,3.0877161E1,-5.317184E-2,3.37695E1,3.2430952E0,1.5112758E0,-6.5409794E-2,-4.9990077E-2,1.6131577E-4,4.5753643E-2,8.530826E-3,-5.3829946E-2,-2.2284929E-3,-4.6278607E-2,1.4322978E-2],"split_indices":[0,2,2,0,1,1,0,0,0,0,1,1,0,0,0,0,0,0,0,0,0],"split_type":[0,0,0,0,0,0,0,0,0,0,0,0,0,0,0,0,0,0,0,0,0],"sum_hessian":[1.7816225E2,1.7143443E2,6.727805E0,1.3704788E1,1.5772964E2,5.481915E0,1.2458898E0,1.1213008E1,2.4917796E0,1.0166461E2,5.606504E1,3.2393136E0,2.2426016E0,2.2426016E0,8.970407E0,5.731093E0,9.593352E1,6.2294493E0,4.9835594E1,1.9934237E0,1.2458898E0],"tree_param":{"num_deleted":"0","num_feature":"3","num_nodes":"21","size_leaf_vector":"1"}},{"base_weights":[-1.0596485E-3,3.0927392E-2,-7.161134E-1,-4.5482475E-1,7.567299E-2,-9.5094895E-1,1.3919592E-2,-2.5393227E-1,-5.1415395E-2,2.1043986E-1,-1.6837353E-1,-4.8489475E-1,-6.3363455E-2,-4.8380774E-2,1.5405387E-4,4.3725293E-2,8.104795E-3,-5.168415E-2,-2.11954E-3,-4.4834998E-2,1.3919592E-2],"categories":[],"categories_nodes":[],"categories_segments":[],"categories_sizes":[],"default_left":[0,0,0,0,0,0,0,0,0,0,0,0,0,0,0,0,0,0,0,0,0],"id":1,"left_children":[1,3,5,7,9,11,-1,13,-1,15,17,19,-1,-1,-1,-1,-1,-1,-1,-1,-1],"loss_changes":[4.1199102E0,3.782546E0,2.0659792E0,1.4310296E0,5.2568455E0,3.3870554E-1,0E0,2.2417483E0,0E0,3.1559863E0,6.17379E0,1.580466E0,0E0,0E0,0E0,0E0,0E0,0E0,0E0,0E0,0E0],"parents":[2147483647,0,0,1,1,2,2,3,3,4,4,5,5,7,7,9,9,10,10,11,11],"right_children":[2,4,6,8,10,12,-1,14,-1,16,18,20,-1,-1,-1,-1,-1,-1,-1,-1,-1],"split_conditions":[7.063182E1,-3.9419246E-1,6.395515E-2,5.3012146E1,3.136935E0,1.6951193E0,1.3919592E-2,3.0877161E1,-5.1415395E-2,3.37695E1,3.2430952E0,1.5112758E0,-6.3363455E-2,-4.8380774E-2,1.5405387E-4,4.3725293E-2,8.104795E-3,-5.168415E-2,-2.11954E-3,-4.4834998E-2,1.3919592E-2],"split_indices":[0,2,2,0,1,1,0,0,0,0,1,1,0,0,0,0,0,0,0,0,0],"split_type":[0,0,0,0,0,0,0,0,0,0,0,0,0,0,0,0,0,0,0,0,0],"sum_hessian":[1.7815712E2,1.7144452E2,6.7126093E0,1.3687727E1,1.5775679E2,5.4657593E0,1.2468498E0,1.120528E1,2.4824462E0,1.01721855E2,5.603493E1,3.2339308E0,2.2318287E0,2.2347918E0,8.970489E0,5.74315E0,9.597871E1,6.2057724E0,4.982916E1,1.9870809E0,1.2468498E0],"tree_param":{"num_deleted":"0","num_feature":"3","num_nodes":"21","size_leaf_vector":"1"}},{"base_weights":[-2.0352602E-3,2.8784819E-2,-6.9273037E-1,-4.3957382E-1,7.1866415E-2,-9.2124313E-1,1.3528356E-2,-2.4540903E-1,-4.9762815E-2,2.1347769E-1,-1.3987951E-1,-4.6880543E-1,-6.1465453E-2,-4.686042E-2,1.4712002E-4,4.7231942E-2,7.916421E-3,-3.438469E-2,-3.331057E-3,-4.3465026E-2,1.3528356E-2],"categories":[],"categories_nodes":[],"categories_segments":[],"categories_sizes":[],"default_left":[0,0,0,0,0,0,0,0,0,0,0,0,0,0,0,0,0,0,0,0,0],"id":2,"left_children":[1,3,5,7,9,11,-1,13,-1,15,17,19,-1,-1,-1,-1,-1,-1,-1,-1,-1],"loss_changes":[3.8329554E0,3.5108328E0,1.9422946E0,1.338058E0,4.790533E0,3.218007E-1,0E0,2.0980065E0,0E0,3.702672E0,2.5318952E0,1.4867662E0,0E0,0E0,0E0,0E0,0E0,0E0,0E0,0E0,0E0],"parents":[2147483647,0,0,1,1,2,2,3,3,4,4,5,5,7,7,9,9,10,10,11,11],"right_children":[2,4,6,8,10,12,-1,14,-1,16,18,20,-1,-1,-1,-1,-1,-1,-1,-1,-1],"split_conditions":[7.063182E1,-3.9419246E-1,6.395515E-2,5.3012146E1,2.9539793E0,1.6951193E0,1.3528356E-2,3.0877161E1,-4.9762815E-2,3.37695E1,-1.877179E-1,1.5112758E0,-6.1465453E-2,-4.686042E-2,1.4712002E-4,4.7231942E-2,7.916421E-3,-3.438469E-2,-3.331057E-3,-4.3465026E-2,1.3528356E-2],"split_indices":[0,2,2,0,1,1,0,0,0,0,2,1,0,0,0,0,0,0,0,0,0],"split_type":[0,0,0,0,0,0,0,0,0,0,0,0,0,0,0,0,0,0,0,0,0],"sum_hessian":[1.781218E2,1.7143057E2,6.6912208E0,1.3665352E1,1.5776521E2,5.4435596E0,1.247661E0,1.1195197E1,2.4701548E0,9.45344E1,6.3230816E1,3.2266073E0,2.2169523E0,2.2246287E0,8.970569E0,5.499118E0,8.9035286E1,6.4690523E0,5.6761765E1,1.9789464E0,1.247661E0],"tree_param":{"num_deleted":"0","num_feature":"3","num_nodes":"21","size_leaf_vector":"1"}},{"base_weights":[-2.820695E-3,2.6884278E-2,-6.706613E-1,-4.250012E-1,6.8377934E-2,-8.933025E-1,1.3148836E-2,-6.1343056E-1,3.2649085E-2,1.9126964E-1,-1.5456846E-1,-4.5346874E-1,-5.9699263E-2,1.1760487E-3,-4.8535615E-2,1.7788423E-2,-2.7883848E-2,1.0919247E-2,-3.5389133E-2,-4.9361743E-2,-1.7013074E-3,-4.2162385E-2,1.3148836E-2],"categories":[],"categories_nodes":[],"categories_segments":[],"categories_sizes":[],"default_left":[0,0,0,0,0,0,0,0,0,0,0,0,0,0,0,0,0,0,0,0,0,0,0],"id":3,"left_children":[1,3,5,7,9,11,-1,13,15,17,19,21,-1,-1,-1,-1,-1,-1,-1,-1,-1,-1,-1],"loss_changes":[3.5705063E0,3.2617817E0,1.8280773E0,1.2823572E0,4.379586E0,3.070855E-1,0E0,2.3940244E0,1.1938546E0,2.6606066E0,5.6846876E0,1.3995295E0,0E0,0E0,0E0,0E0,0E0,0E0,0E0,0E0,0E0,0E0,0E0],"parents":[2147483647,0,0,1,1,2,2,3,3,4,4,5,5,7,7,8,8,9,9,10,10,11,11],"right_children":[2,4,6,8,10,12,-1,14,16,18,20,22,-1,-1,-1,-1,-1,-1,-1,-1,-1,-1,-1],"split_conditions":[7.063182E1,-3.9419246E-1,6.395515E-2,1.8922272E0,3.136935E0,1.6951193E0,1.3148836E-2,9.812816E-1,-4.7300136E-1,7.384582E-1,3.2430952E0,1.5112758E0,-5.9699263E-2,1.1760487E-3,-4.8535615E-2,1.7788423E-2,-2.7883848E-2,1.0919247E-2,-3.5389133E-2,-4.9361743E-2,-1.7013074E-3,-4.2162385E-2,1.3148836E-2],"split_indices":[0,2,2,1,1,1,0,1,2,2,1,1,0,0,0,0,0,0,0,0,0,0,0],"split_type":[0,0,0,0,0,0,0,0,0,0,0,0,0,0,0,0,0,0,0,0,0,0,0],"sum_hessian":[1.7807262E2,1.7140828E2,6.6643476E0,1.3638292E1,1.5776999E2,5.4160137E0,1.2483343E0,9.419563E0,4.2187295E0,1.0179887E2,5.597112E1,3.217556E0,2.1984575E0,3.720655E0,5.6989083E0,2.9831924E0,1.2355368E0,9.9553444E1,2.2454238E0,6.168844E0,4.9802273E1,1.9692218E0,1.2483343E0],"tree_param":{"num_deleted":"0","num_feature":"3","num_nodes":"23","size_leaf_vector":"1"}},{"base_weights":[-3.861413E-3,8.697501E-2,-2.0790192E-1,2.1984142E-1,-1.1566366E-1,-9.9393356E-1,2.893488E-2,-2.7105287E-1,3.6911735E-1,-5.4774374E-1,3.3633657E-2,-2.708317E-1,-1.2857572E0,-3.7984833E-1,3.8989925E-1,1.1030509E-2,-2.6490672E-2,-1.4807952E-2,2.1651551E-2,-7.74821E-3,-5.310154E-2,2.1352716E-2,-6.7762956E-3,-4.7902267E-2,3.1858083E-2,-3.3278394E-2,-7.588611E-2,-4.092261E-3,-4.3932408E-2,3.213871E-2,-2.8740117E-2],"categories":[],"categories_nodes":[],"categories_segments":[],"categories_sizes":[],"default_left":[0,0,0,0,0,0,0,0,0,0,0,0,0,0,0,0,0,0,0,0,0,0,0,0,0,0,0,0,0,0,0],"id":4,"left_children":[1,3,5,7,9,11,13,15,17,19,21,23,25,27,29,-1,-1,-1,-1,-1,-1,-1,-1,-1,-1,-1,-1,-1,-1,-1,-1],"loss_changes":[3.3358924E0,3.379352E0,1.0349249E1,5.6386776E0,3.2430434E0,2.3664427E0,6.5776925E0,2.432489E0,2.6106567E0,2.4401581E0,2.5929976E0,3.709039E0,2.70051E-1,3.040689E0,6.13492E0,0E0,0E0,0E0,0E0,0E0,0E0,0E0,0E0,0E0,0E0,0E0,0E0,0E0,0E0,0E0,0E0],"parents":[2147483647,0,0,1,1,2,2,3,3,4,4,5,5,6,6,7,7,8,8,9,9,10,10,11,11,12,12,13,13,14,14],"right_children":[2,4,6,8,10,12,14,16,18,20,22,24,26,28,30,-1,-1,-1,-1,-1,-1,-1,-1,-1,-1,-1,-1,-1,-1,-1,-1],"split_conditions":[5.3819374E1,2.8441076E0,-8.3561175E-2,1.0690672E0,3.2319126E0,5.759722E1,5.8919407E1,7.668136E-1,-3.9419246E-1,3.1644957E0,-1.0775284E-1,5.5700634E1,-2.422352E-1,5.747305E1,7.158455E1,1.1030509E-2,-2.6490672E-2,-1.4807952E-2,2.1651551E-2,-7.74821E-3,-5.310154E-2,2.1352716E-2,-6.7762956E-3,-4.7902267E-2,3.1858083E-2,-3.3278394E-2,-7.588611E-2,-4.092261E-3,-4.3932408E-2,3.213871E-2,-2.8740117E-2],"split_indices":[0,1,2,1,1,0,0,1,2,1,2,0,2,0,0,0,0,0,0,0,0,0,0,0,0,0,0,0,0,0,0],"split_type":[0,0,0,0,0,0,0,0,0,0,0,0,0,0,0,0,0,0,0,0,0,0,0,0,0,0,0,0,0,0,0],"sum_hessian":[1.7800911E2,1.2357065E2,5.4438454E1,7.458304E1,4.898761E1,1.1864608E1,4.257385E1,1.7201168E1,5.738187E1,1.1894636E1,3.7092976E1,3.9658363E0,7.8987713E0,1.993999E1,2.263386E1,5.9821334E0,1.1219035E1,4.7110353E0,5.2670837E1,7.481819E0,4.412817E0,1.0694896E1,2.6398079E1,2.2259812E0,1.739855E0,3.203376E0,4.695395E0,1.3211181E1,6.7288074E0,1.8197498E1,4.4363594E0],"tree_param":{"num_deleted":"0","num_feature":"3","num_nodes":"31","size_leaf_vector":"1"}},{"base_weights":[-4.9520684E-3,8.218439E-2,-2.0086831E-1,2.0868431E-1,-1.1090615E-1,-9.584402E-1,2.6447032E-2,-2.5854158E-1,3.506025E-1,-5.2670926E-1,3.2326806E-2,-2.6097348E-1,-1.2409717E0,-3.6354133E-1,3.7034026E-1,1.0553661E-2,-2.5307402E-2,-1.42129585E-2,2.057564E-2,-7.4089426E-3,-5.128157E-2,1.8790994E-2,-7.203602E-3,-4.6409987E-2,3.0806748E-2,-3.210671E-2,-7.326282E-2,-8.578042E-3,-5.6882203E-2,6.4543E-2,5.123672E-3],"categories":[],"categories_nodes":[],"categories_segments":[],"categories_sizes":[],"default_left":[0,0,0,0,0,0,0,0,0,0,0,0,0,0,0,0,0,0,0,0,0,0,0,0,0,0,0,0,0,0,0],"id":5,"left_children":[1,3,5,7,9,11,13,15,17,19,21,23,25,27,29,-1,-1,-1,-1,-1,-1,-1,-1,-1,-1,-1,-1,-1,-1,-1,-1],"loss_changes":[3.0709596E0,3.0654216E0,9.560583E0,5.1034164E0,2.9920418E0,2.1997519E0,5.977189E0,2.2217832E0,2.375667E0,2.2760468E0,2.3624644E0,3.4737027E0,2.4750519E-1,2.9135778E0,5.6981483E0,0E0,0E0,0E0,0E0,0E0,0E0,0E0,0E0,0E0,0E0,0E0,0E0,0E0,0E0,0E0,0E0],"parents":[2147483647,0,0,1,1,2,2,3,3,4,4,5,5,6,6,7,7,8,8,9,9,10,10,11,11,12,12,13,13,14,14],"right_children":[2,4,6,8,10,12,14,16,18,20,22,24,26,28,30,-1,-1,-1,-1,-1,-1,-1,-1,-1,-1,-1,-1,-1,-1,-1,-1],"split_conditions":[5.3819374E1,2.8441076E0,-8.3561175E-2,1.0690672E0,3.2319126E0,5.759722E1,5.8919407E1,7.668136E-1,-3.9419246E-1,3.1644957E0,-3.4083348E-2,5.5700634E1,-2.422352E-1,5.81589E1,6.0868183E1,1.0553661E-2,-2.5307402E-2,-1.42129585E-2,2.057564E-2,-7.4089426E-3,-5.128157E-2,1.8790994E-2,-7.203602E-3,-4.6409987E-2,3.0806748E-2,-3.210671E-2,-7.326282E-2,-8.578042E-3,-5.6882203E-2,6.4543E-2,5.123672E-3],"split_indices":[0,1,2,1,1,0,0,1,2,1,2,0,2,0,0,0,0,0,0,0,0,0,0,0,0,0,0,0,0,0,0],"split_type":[0,0,0,0,0,0,0,0,0,0,0,0,0,0,0,0,0,0,0,0,0,0,0,0,0,0,0,0,0,0,0],"sum_hessian":[1.7792163E2,1.23551094E2,5.4370544E1,7.459845E1,4.8952644E1,1.1806563E1,4.256398E1,1.7188469E1,5.740998E1,1.18564E1,3.7096245E1,3.958406E0,7.8481574E0,1.9918495E1,2.2645487E1,5.9849167E0,1.1203553E1,4.7048593E0,5.270512E1,7.4790616E0,4.3773384E0,1.220314E1,2.4893103E1,2.2151027E0,1.7433032E0,3.1910698E0,4.657088E0,1.6939146E1,2.9793494E0,4.243552E0,1.8401934E1],"tree_param":{"num_deleted":"0","num_feature":"3","num_nodes":"31","size_leaf_vector":"1"}},{"base_weights":[-5.6972494E-3,1.9640042E-2,-6.438019E-1,-5.155517E-1,4.9170926E-2,-4.4736426E-2,1.3442432E-2,-8.5199244E-2,-5.315252E-2,1.6822228E-1,-1.0472603E-1,-3.2242987E-2,1.12712225E-2,3.0757259E-3,2.8150184E-2,-8.275032E-3,1.5922315E-2],"categories":[],"categories_nodes":[],"categories_segments":[],"categories_sizes":[],"default_left":[0,0,0,0,0,0,0,0,0,0,0,0,0,0,0,0,0],"id":6,"left_children":[1,3,5,7,9,-1,-1,11,-1,13,15,-1,-1,-1,-1,-1,-1],"loss_changes":[2.903302E0,2.7584987E0,1.8110242E0,2.0606625E0,3.0370717E0,0E0,0E0,1.2230468E0,0E0,3.8959413E0,1.9172151E0,0E0,0E0,0E0,0E0,0E0,0E0],"parents":[2147483647,0,0,1,1,2,2,3,3,4,4,7,7,9,9,10,10],"right_children":[2,4,6,8,10,-1,-1,12,-1,14,16,-1,-1,-1,-1,-1,-1],"split_conditions":[7.158455E1,-4.8503846E-1,6.395515E-2,4.613339E1,2.7978647E0,-4.4736426E-2,1.3442432E-2,3.04892E1,-5.315252E-2,2.2408543E0,5.8919407E1,-3.2242987E-2,1.12712225E-2,3.0757259E-3,2.8150184E-2,-8.275032E-3,1.5922315E-2],"split_indices":[0,2,2,0,1,0,0,0,0,1,0,0,0,0,0,0,0],"split_type":[0,0,0,0,0,0,0,0,0,0,0,0,0,0,0,0,0],"sum_hessian":[1.7779054E2,1.7193282E2,5.8577332E0,8.1301985E0,1.6380261E2,4.60991E0,1.2478234E0,5.199126E0,2.9310732E0,9.230465E1,7.149796E1,1.471629E0,3.7274966E0,7.3573784E1,1.8730867E1,6.3051605E1,8.446357E0],"tree_param":{"num_deleted":"0","num_feature":"3","num_nodes":"17","size_leaf_vector":"1"}},{"base_weights":[-5.7971263E-3,7.6649584E-2,-1.9149373E-1,1.9080508E-1,-9.7902596E-2,-9.1661024E-1,2.4553658E-2,-2.4049453E-1,3.265214E-1,-4.9946707E-1,3.9702766E-2,-2.4384336E-1,-1.1914103E0,-3.4729472E-1,3.5211205E-1,1.0078164E-2,-2.3249576E-2,1.2281211E-2,4.191358E-2,7.287944E-3,-3.7676524E-2,1.9960945E-2,-5.7836077E-3,-4.4586632E-2,2.9963193E-2,-3.0137008E-2,-7.080688E-2,-6.230352E-2,-9.340758E-3,6.1513968E-2,4.8152595E-3],"categories":[],"categories_nodes":[],"categories_segments":[],"categories_sizes":[],"default_left":[0,0,0,0,0,0,0,0,0,0,0,0,0,0,0,0,0,0,0,0,0,0,0,0,0,0,0,0,0,0,0],"id":7,"left_children":[1,3,5,7,9,11,13,15,17,19,21,23,25,27,29,-1,-1,-1,-1,-1,-1,-1,-1,-1,-1,-1,-1,-1,-1,-1,-1],"loss_changes":[2.7507532E0,2.4990056E0,8.675519E0,4.503566E0,2.7760162E0,2.058403E0,5.4242268E0,1.9465679E0,2.1922302E0,2.2087085E0,2.1730626E0,3.2338836E0,3.0574894E-1,2.7802544E0,5.191896E0,0E0,0E0,0E0,0E0,0E0,0E0,0E0,0E0,0E0,0E0,0E0,0E0,0E0,0E0,0E0,0E0],"parents":[2147483647,0,0,1,1,2,2,3,3,4,4,5,5,6,6,7,7,8,8,9,9,10,10,11,11,12,12,13,13,14,14],"right_children":[2,4,6,8,10,12,14,16,18,20,22,24,26,28,30,-1,-1,-1,-1,-1,-1,-1,-1,-1,-1,-1,-1,-1,-1,-1,-1],"split_conditions":[5.3819374E1,2.8441076E0,-8.3561175E-2,1.1288731E0,3.2319126E0,5.759722E1,5.8919407E1,7.668136E-1,5.1526543E1,3.9019302E1,-1.0775284E-1,5.5700634E1,-2.422352E-1,5.4511147E1,6.0868183E1,1.0078164E-2,-2.3249576E-2,1.2281211E-2,4.191358E-2,7.287944E-3,-3.7676524E-2,1.9960945E-2,-5.7836077E-3,-4.4586632E-2,2.9963193E-2,-3.0137008E-2,-7.080688E-2,-6.230352E-2,-9.340758E-3,6.1513968E-2,4.8152595E-3],"split_indices":[0,1,2,1,1,0,0,1,0,0,2,0,2,0,0,0,0,0,0,0,0,0,0,0,0,0,0,0,0,0,0],"split_type":[0,0,0,0,0,0,0,0,0,0,0,0,0,0,0,0,0,0,0,0,0,0,0,0,0,0,0,0,0,0,0],"sum_hessian":[1.7771077E2,1.23476265E2,5.423451E1,7.459725E1,4.8879017E1,1.1705359E1,4.252915E1,1.7670202E1,5.6927048E1,1.1803615E1,3.70754E1,3.9419663E0,7.763393E0,1.9889776E1,2.2639374E1,5.9857655E0,1.1684437E1,5.043438E1,6.492668E0,3.4551406E0,8.3484745E0,1.071439E1,2.636101E1,2.1964335E0,1.7455326E0,3.162187E0,4.6012063E0,1.9884832E0,1.7901293E1,4.247747E0,1.8391626E1],"tree_param":{"num_deleted":"0","num_feature":"3","num_nodes":"31","size_leaf_vector":"1"}},{"base_weights":[-6.0728695E-3,-5.221664E-1,2.2240143E-2,-1.4183826E-2,-9.816949E-1,1.2417686E-1,-1.6189374E-1,-3.140646E-2,3.6956277E-1,-6.1873294E-2,-6.2457025E-3,1.4829105E-1,-3.57956E-2,-8.638137E-1,-6.974297E-2,3.752575E-2,-3.8700902E-3,4.2662863E-3,3.0598912E-2,-5.398506E-2,-1.6001698E-2,4.5387473E-2,-8.182775E-3],"categories":[],"categories_nodes":[],"categories_segments":[],"categories_sizes":[],"default_left":[0,0,0,0,0,0,0,0,0,0,0,0,0,0,0,0,0,0,0,0,0,0,0],"id":8,"left_children":[1,3,5,7,9,11,13,-1,15,-1,-1,17,-1,19,21,-1,-1,-1,-1,-1,-1,-1,-1],"loss_changes":[2.6207125E0,2.1633167E0,3.2153141E0,1.5148873E0,9.1535807E-1,2.337325E0,3.8913817E0,0E0,7.3577887E-1,0E0,0E0,3.097825E0,0E0,4.7644758E-1,5.2058277E0,0E0,0E0,0E0,0E0,0E0,0E0,0E0,0E0],"parents":[2147483647,0,0,1,1,2,2,3,3,4,4,5,5,6,6,8,8,11,11,13,13,14,14],"right_children":[2,4,6,8,10,12,14,-1,16,-1,-1,18,-1,20,22,-1,-1,-1,-1,-1,-1,-1,-1],"split_conditions":[-4.8503846E-1,4.221645E1,3.136935E0,3.04892E1,1.7635005E0,7.384582E-1,3.2430952E0,-3.140646E-2,3.7068237E1,-6.1873294E-2,-6.2457025E-3,4.1407406E-2,-3.57956E-2,4.7374786E1,3.320148E0,3.752575E-2,-3.8700902E-3,4.2662863E-3,3.0598912E-2,-5.398506E-2,-1.6001698E-2,4.5387473E-2,-8.182775E-3],"split_indices":[2,0,1,0,1,2,1,0,0,0,0,2,0,0,1,0,0,0,0,0,0,0,0],"split_type":[0,0,0,0,0,0,0,0,0,0,0,0,0,0,0,0,0,0,0,0,0,0,0],"sum_hessian":[1.775567E2,8.327071E0,1.6922963E2,4.4446406E0,3.8824306E0,1.09136925E2,6.00927E1,1.4646137E0,2.9800267E0,2.6477032E0,1.2347271E0,1.06892136E2,2.244787E0,6.001891E0,5.409081E1,1.2421732E0,1.7378535E0,9.515482E1,1.1737314E1,3.5907638E0,2.4111276E0,3.9816577E0,5.010915E1],"tree_param":{"num_deleted":"0","num_feature":"3","num_nodes":"23","size_leaf_vector":"1"}},{"base_weights":[-6.3459845E-3,1.7462373E-2,-6.0986656E-1,-3.6691654E-1,5.2358616E-2,-4.2592525E-2,1.2942891E-2,1.6320345E-1,-4.8893175E-1,5.6051534E-2,2.9918287E-2,-5.499955E-3,1.821152E-2,-3.850282E-2,1.356657E-3,2.3761049E-2,-6.679905E-4],"categories":[],"categories_nodes":[],"categories_segments":[],"categories_sizes":[],"default_left":[0,0,0,0,0,0,0,0,0,0,0,0,0,0,0,0,0],"id":9,"left_children":[1,3,5,7,9,-1,-1,11,13,-1,15,-1,-1,-1,-1,-1,-1],"loss_changes":[2.5749009E0,2.3351464E0,1.6501367E0,1.0173864E0,3.7834122E0,0E0,0E0,2.3019162E-1,1.766686E0,0E0,3.030436E0,0E0,0E0,0E0,0E0,0E0,0E0],"parents":[2147483647,0,0,1,1,2,2,3,3,4,4,7,7,8,8,10,10],"right_children":[2,4,6,8,10,-1,-1,12,14,-1,16,-1,-1,-1,-1,-1,-1],"split_conditions":[7.158455E1,-3.9419246E-1,6.395515E-2,9.062758E-1,-3.14458E-1,-4.2592525E-2,1.2942891E-2,7.7177405E-1,1.8922272E0,5.6051534E-2,3.479659E1,-5.499955E-3,1.821152E-2,-3.850282E-2,1.356657E-3,2.3761049E-2,-6.679905E-4],"split_indices":[0,2,2,1,2,0,0,1,1,0,0,0,0,0,0,0,0],"split_type":[0,0,0,0,0,0,0,0,0,0,0,0,0,0,0,0,0],"sum_hessian":[1.7745927E2,1.7165855E2,5.800714E0,1.349524E1,1.5816331E2,4.552136E0,1.2485781E0,2.4618156E0,1.1033425E1,2.2460074E0,1.5591731E2,1.2355181E0,1.2262975E0,6.8239384E0,4.209487E0,1.2926955E1,1.4299036E2],"tree_param":{"num_deleted":"0","num_feature":"3","num_nodes":"17","size_leaf_vector":"1"}},{"base_weights":[-5.900116E-3,7.127732E-2,-1.8016875E-1,1.7707708E-1,-9.067816E-2,-8.720034E-1,2.3818014E-2,-2.3946969E-1,3.0343905E-1,-4.697278E-1,3.843649E-2,-2.2653966E-1,-1.1385336E0,-3.3565482E-1,3.4047437E-1,9.671571E-3,-2.34182E-2,1.1302734E-2,3.996348E-2,6.925682E-3,-3.554983E-2,7.366802E-3,-2.1358464E-2,-4.2793356E-2,2.9128376E-2,-2.7675137E-2,-6.8384916E-2,-7.5198743E-3,-5.445723E-2,2.8179988E-2,-2.5963327E-2],"categories":[],"categories_nodes":[],"categories_segments":[],"categories_sizes":[],"default_left":[0,0,0,0,0,0,0,0,0,0,0,0,0,0,0,0,0,0,0,0,0,0,0,0,0,0,0,0,0,0,0],"id":10,"left_children":[1,3,5,7,9,11,13,15,17,19,21,23,25,27,29,-1,-1,-1,-1,-1,-1,-1,-1,-1,-1,-1,-1,-1,-1,-1,-1],"loss_changes":[2.412101E0,2.1468046E0,7.7878885E0,4.049526E0,2.4551713E0,1.9026785E0,5.063363E0,1.8884814E0,2.0604978E0,1.966331E0,1.9932E0,3.0032115E0,4.0136242E-1,2.7488642E0,4.822171E0,0E0,0E0,0E0,0E0,0E0,0E0,0E0,0E0,0E0,0E0,0E0,0E0,0E0,0E0,0E0,0E0],"parents":[2147483647,0,0,1,1,2,2,3,3,4,4,5,5,6,6,7,7,8,8,9,9,10,10,11,11,12,12,13,13,14,14],"right_children":[2,4,6,8,10,12,14,16,18,20,22,24,26,28,30,-1,-1,-1,-1,-1,-1,-1,-1,-1,-1,-1,-1,-1,-1,-1,-1],"split_conditions":[5.3819374E1,2.8441076E0,-8.3561175E-2,1.0690672E0,3.2319126E0,5.759722E1,5.8919407E1,7.668136E-1,5.1526543E1,3.9019302E1,5.748801E0,5.5700634E1,-2.422352E-1,5.81589E1,7.158455E1,9.671571E-3,-2.34182E-2,1.1302734E-2,3.996348E-2,6.925682E-3,-3.554983E-2,7.366802E-3,-2.1358464E-2,-4.2793356E-2,2.9128376E-2,-2.7675137E-2,-6.8384916E-2,-7.5198743E-3,-5.445723E-2,2.8179988E-2,-2.5963327E-2],"split_indices":[0,1,2,1,1,0,0,1,0,0,1,0,2,0,0,0,0,0,0,0,0,0,0,0,0,0,0,0,0,0,0],"split_type":[0,0,0,0,0,0,0,0,0,0,0,0,0,0,0,0,0,0,0,0,0,0,0,0,0,0,0,0,0,0,0],"sum_hessian":[1.7738878E2,1.2335167E2,5.4037117E1,7.45545E1,4.8797173E1,1.1559046E1,4.247807E1,1.7144217E1,5.741028E1,1.1728129E1,3.7069042E1,3.9187815E0,7.640264E0,1.9865955E1,2.2612116E1,5.9832335E0,1.1160984E1,5.0919216E1,6.491063E0,3.451855E0,8.276275E0,3.059646E1,6.4725814E0,2.1717734E0,1.747008E0,3.1117172E0,4.528547E0,1.6908367E1,2.9575882E0,1.8226353E1,4.385764E0],"tree_param":{"num_deleted":"0","num_feature":"3","num_nodes":"31","size_leaf_vector":"1"}},{"base_weights":[-6.6181123E-3,6.76943E-2,-1.7476091E-1,1.6876407E-1,-8.708118E-2,-8.4403914E-1,2.1255525E-2,-2.2853078E-1,2.891472E-1,-4.5001414E-1,3.6138006E-2,-2.1877222E-1,-1.1036675E0,9.7112256E-1,-9.240179E-2,9.255141E-3,-2.2385808E-2,2.5000108E-2,5.9964894E-3,-5.1650596E-3,-4.6167534E-2,1.9062417E-2,-5.6542316E-3,-4.1555922E-2,2.8190672E-2,-2.6737988E-2,-6.6408366E-2,5.72159E-2,1.3378381E-2,-6.0133178E-2,-1.1988116E-4],"categories":[],"categories_nodes":[],"categories_segments":[],"categories_sizes":[],"default_left":[0,0,0,0,0,0,0,0,0,0,0,0,0,0,0,0,0,0,0,0,0,0,0,0,0,0,0,0,0,0,0],"id":11,"left_children":[1,3,5,7,9,11,13,15,17,19,21,23,25,27,29,-1,-1,-1,-1,-1,-1,-1,-1,-1,-1,-1,-1,-1,-1,-1,-1],"loss_changes":[2.2383113E0,1.9590507E0,7.219442E0,3.678653E0,2.2416017E0,1.7812262E0,4.7788525E0,1.725984E0,2.0241194E0,1.9866605E0,2.0038862E0,2.818141E0,3.8262558E-1,2.7001238E-1,3.9648144E0,0E0,0E0,0E0,0E0,0E0,0E0,0E0,0E0,0E0,0E0,0E0,0E0,0E0,0E0,0E0,0E0],"parents":[2147483647,0,0,1,1,2,2,3,3,4,4,5,5,6,6,7,7,8,8,9,9,10,10,11,11,12,12,13,13,14,14],"right_children":[2,4,6,8,10,12,14,16,18,20,22,24,26,28,30,-1,-1,-1,-1,-1,-1,-1,-1,-1,-1,-1,-1,-1,-1,-1,-1],"split_conditions":[5.3819374E1,2.8441076E0,-8.3561175E-2,1.0690672E0,3.2319126E0,5.759722E1,1.1043415E0,7.668136E-1,1.883335E0,3.1644957E0,-1.0775284E-1,5.5700634E1,-2.422352E-1,6.3144413E1,5.4511147E1,9.255141E-3,-2.2385808E-2,2.5000108E-2,5.9964894E-3,-5.1650596E-3,-4.6167534E-2,1.9062417E-2,-5.6542316E-3,-4.1555922E-2,2.8190672E-2,-2.6737988E-2,-6.6408366E-2,5.72159E-2,1.3378381E-2,-6.0133178E-2,-1.1988116E-4],"split_indices":[0,1,2,1,1,0,1,1,1,1,2,0,2,0,0,0,0,0,0,0,0,0,0,0,0,0,0,0,0,0,0],"split_type":[0,0,0,0,0,0,0,0,0,0,0,0,0,0,0,0,0,0,0,0,0,0,0,0,0,0,0,0,0,0,0],"sum_hessian":[1.771884E2,1.2329453E2,5.3893867E1,7.4533264E1,4.876127E1,1.145975E1,4.2434116E1,1.7123386E1,5.7409878E1,1.1686729E1,3.707454E1,3.9029217E0,7.5568285E0,3.7286243E0,3.8705494E1,5.9847736E0,1.1138613E1,2.4689945E1,3.2719933E1,7.448811E0,4.237919E0,1.0722196E1,2.6352343E1,2.1548276E0,1.7480941E0,3.0952141E0,4.461614E0,2.489339E0,1.2392851E0,1.9753925E0,3.6730103E1],"tree_param":{"num_deleted":"0","num_feature":"3","num_nodes":"31","size_leaf_vector":"1"}},{"base_weights":[-6.9748075E-3,-4.7599113E-1,1.8549424E-2,1.1086631E-2,-9.27351E-1,9.390585E-2,-1.9233654E-1,-3.0572115E-2,3.9363512E-1,-5.8597457E-2,-6.0057268E-3,6.392375E-2,9.4158816E-1,6.1348915E-1,-2.8014255E-1,3.740456E-2,-2.0992316E-3,4.5608166E-3,-4.147136E-2,1.4439831E-2,5.5880856E-2,-3.0079892E-2,6.095423E-2,-5.7806563E-2,-7.1128756E-3],"categories":[],"categories_nodes":[],"categories_segments":[],"categories_sizes":[],"default_left":[0,0,0,0,0,0,0,0,0,0,0,0,0,0,0,0,0,0,0,0,0,0,0,0,0],"id":12,"left_children":[1,3,5,7,9,11,13,-1,15,-1,-1,17,19,21,23,-1,-1,-1,-1,-1,-1,-1,-1,-1,-1],"loss_changes":[2.1395433E0,2.0380857E0,2.7158496E0,1.5325166E0,8.068261E-1,3.1355815E0,3.3572936E0,0E0,6.441308E-1,0E0,0E0,3.0629072E0,1.6246414E-1,4.219134E0,4.8218913E0,0E0,0E0,0E0,0E0,0E0,0E0,0E0,0E0,0E0,0E0],"parents":[2147483647,0,0,1,1,2,2,3,3,4,4,5,5,6,6,8,8,11,11,12,12,13,13,14,14],"right_children":[2,4,6,8,10,12,14,-1,16,-1,-1,18,20,22,24,-1,-1,-1,-1,-1,-1,-1,-1,-1,-1],"split_conditions":[-4.8503846E-1,4.221645E1,3.4263177E0,3.04892E1,1.7635005E0,3.362615E0,3.5913284E1,-3.0572115E-2,3.7068237E1,-5.8597457E-2,-6.0057268E-3,3.320148E0,3.7317337E1,3.5009627E0,4.067234E1,3.740456E-2,-2.0992316E-3,4.5608166E-3,-4.147136E-2,1.4439831E-2,5.5880856E-2,-3.0079892E-2,6.095423E-2,-5.7806563E-2,-7.1128756E-3],"split_indices":[2,0,1,0,1,1,0,0,0,0,0,1,0,1,0,0,0,0,0,0,0,0,0,0,0],"split_type":[0,0,0,0,0,0,0,0,0,0,0,0,0,0,0,0,0,0,0,0,0,0,0,0,0],"sum_hessian":[1.7698544E2,8.223695E0,1.6876175E2,4.424502E0,3.7991931E0,1.2474206E2,4.401969E1,1.4562986E0,2.968203E0,2.5689728E0,1.2302204E0,1.21519394E2,3.2226703E0,3.7370105E0,4.0282684E1,1.2410665E0,1.7271367E0,1.1878821E2,2.7311807E0,1.2452742E0,1.977396E0,1.2452004E0,2.49181E0,4.474061E0,3.580862E1],"tree_param":{"num_deleted":"0","num_feature":"3","num_nodes":"25","size_leaf_vector":"1"}},{"base_weights":[-6.983565E-3,1.43220015E-2,-5.5362064E-1,-3.3993107E-1,4.6319347E-2,-7.911871E-1,1.3445434E-2,-4.3226685E-2,-1.7515902E-1,5.389724E-2,2.4637058E-2,-5.1244017E-2,-4.198757E-1,4.911387E-2,-2.3089072E-2,-4.2162247E-2,2.2731128E-3,1.8395672E-2,-4.6913527E-2],"categories":[],"categories_nodes":[],"categories_segments":[],"categories_sizes":[],"default_left":[0,0,0,0,0,0,0,0,0,0,0,0,0,0,0,0,0,0,0],"id":13,"left_children":[1,3,5,7,9,11,-1,-1,13,-1,15,-1,17,-1,-1,-1,-1,-1,-1],"loss_changes":[2.0800238E0,1.9678575E0,1.5218804E0,1.0921426E0,3.526172E0,4.274845E-2,0E0,0E0,4.5015864E0,0E0,2.8684196E0,0E0,1.8970132E0,0E0,0E0,0E0,0E0,0E0,0E0],"parents":[2147483647,0,0,1,1,2,2,3,3,4,4,5,5,8,8,10,10,12,12],"right_children":[2,4,6,8,10,12,-1,-1,14,-1,16,-1,18,-1,-1,-1,-1,-1,-1],"split_conditions":[7.158455E1,-3.9419246E-1,6.395515E-2,3.0877161E1,-3.14458E-1,1.555883E0,1.3445434E-2,-4.3226685E-2,3.8058357E1,5.389724E-2,-2.8365466E-1,-5.1244017E-2,3.4263177E0,4.911387E-2,-2.3089072E-2,-4.2162247E-2,2.2731128E-3,1.8395672E-2,-4.6913527E-2],"split_indices":[0,2,2,0,2,1,0,0,0,0,2,0,1,0,0,0,0,0,0],"split_type":[0,0,0,0,0,0,0,0,0,0,0,0,0,0,0,0,0,0,0],"sum_hessian":[1.7691699E2,1.7121747E2,5.6995225E0,1.3386577E1,1.5783089E2,4.45183E0,1.2476922E0,2.1845474E0,1.1202029E1,2.2461362E0,1.5558476E2,1.6519654E0,2.7998648E0,1.7416866E0,9.460342E0,2.720428E0,1.5286433E2,1.2264098E0,1.573455E0],"tree_param":{"num_deleted":"0","num_feature":"3","num_nodes":"19","size_leaf_vector":"1"}},{"base_weights":[-7.0394753E-3,6.3442856E-2,-1.6689657E-1,9.289108E-2,-4.0952808E-1,-8.0761683E-1,1.8422047E-2,2.8348126E-2,6.248905E-1,1.1303607E-1,-5.1920693E-2,-2.0323746E-1,-1.0617886E0,-3.2177028E-1,3.182356E-1,1.2686992E-2,-2.924508E-3,1.6295707E-2,6.980598E-2,-2.8124038E-2,5.932462E-2,-4.0091414E-2,2.7609516E-2,-2.4833823E-2,-6.446367E-2,-2.3404604E-3,-3.9415564E-2,5.689577E-2,4.01177E-3],"categories":[],"categories_nodes":[],"categories_segments":[],"categories_sizes":[],"default_left":[0,0,0,0,0,0,0,0,0,0,0,0,0,0,0,0,0,0,0,0,0,0,0,0,0,0,0,0,0],"id":14,"left_children":[1,3,5,7,9,11,13,15,17,19,-1,21,23,25,27,-1,-1,-1,-1,-1,-1,-1,-1,-1,-1,-1,-1,-1,-1],"loss_changes":[2.014313E0,1.7671617E0,6.5089626E0,4.0231886E0,2.569449E0,1.6725206E0,4.528992E0,2.0895193E0,2.4699616E0,4.276408E0,0E0,2.6475878E0,4.4163513E-1,2.6349738E0,4.50723E0,0E0,0E0,0E0,0E0,0E0,0E0,0E0,0E0,0E0,0E0,0E0,0E0,0E0,0E0],"parents":[2147483647,0,0,1,1,2,2,3,3,4,4,5,5,6,6,7,7,8,8,9,9,11,11,12,12,13,13,14,14],"right_children":[2,4,6,8,10,12,14,16,18,20,-1,22,24,26,28,-1,-1,-1,-1,-1,-1,-1,-1,-1,-1,-1,-1,-1,-1],"split_conditions":[5.3819374E1,5.748801E0,-8.3561175E-2,5.1526543E1,5.0855625E1,5.759722E1,5.8919407E1,-2.7357887E-2,1.7698487E-2,7.2105494E0,-5.1920693E-2,5.5700634E1,-2.422352E-1,5.747305E1,6.0868183E1,1.2686992E-2,-2.924508E-3,1.6295707E-2,6.980598E-2,-2.8124038E-2,5.932462E-2,-4.0091414E-2,2.7609516E-2,-2.4833823E-2,-6.446367E-2,-2.3404604E-3,-3.9415564E-2,5.689577E-2,4.01177E-3],"split_indices":[0,1,2,0,0,0,0,2,2,1,0,0,2,0,0,0,0,0,0,0,0,0,0,0,0,0,0,0,0],"split_type":[0,0,0,0,0,0,0,0,0,0,0,0,0,0,0,0,0,0,0,0,0,0,0,0,0,0,0,0,0],"sum_hessian":[1.7683853E2,1.2314569E2,5.369284E1,1.1668427E2,6.4614224E0,1.1292427E1,4.2400414E1,1.0499893E2,1.1685339E1,3.977026E0,2.4843965E0,3.8758614E0,7.416566E0,1.9828352E1,2.2572062E1,2.8668049E1,7.633088E1,9.446052E0,2.2392871E0,2.7331119E0,1.2439141E0,2.128134E0,1.7477274E0,3.042299E0,4.3742666E0,1.3167987E1,6.660365E0,4.228349E0,1.8343712E1],"tree_param":{"num_deleted":"0","num_feature":"3","num_nodes":"29","size_leaf_vector":"1"}},{"base_weights":[-6.7572254E-3,1.3617911E-2,-5.338025E-1,-3.300767E-1,4.458393E-2,-7.655685E-1,1.2956048E-2,-4.233476E-2,-1.6819008E-1,5.19478E-2,2.3688577E-2,-4.9868982E-2,-4.003596E-1,4.7074612E-2,-2.222554E-2,-4.10829E-2,2.1977916E-3,1.7917518E-2,-4.5479644E-2],"categories":[],"categories_nodes":[],"categories_segments":[],"categories_sizes":[],"default_left":[0,0,0,0,0,0,0,0,0,0,0,0,0,0,0,0,0,0,0],"id":15,"left_children":[1,3,5,7,9,11,-1,-1,13,-1,15,-1,17,-1,-1,-1,-1,-1,-1],"loss_changes":[1.9152454E0,1.8456731E0,1.4182504E0,1.0567284E0,3.2727835E0,5.695796E-2,0E0,0E0,4.148603E0,0E0,2.716645E0,0E0,1.7799098E0,0E0,0E0,0E0,0E0,0E0,0E0],"parents":[2147483647,0,0,1,1,2,2,3,3,4,4,5,5,8,8,10,10,12,12],"right_children":[2,4,6,8,10,12,-1,-1,14,-1,16,-1,18,-1,-1,-1,-1,-1,-1],"split_conditions":[7.158455E1,-3.9419246E-1,6.395515E-2,3.0877161E1,-3.14458E-1,1.555883E0,1.2956048E-2,-4.233476E-2,3.8058357E1,5.19478E-2,-2.8365466E-1,-4.9868982E-2,3.4263177E0,4.7074612E-2,-2.222554E-2,-4.10829E-2,2.1977916E-3,1.7917518E-2,-4.5479644E-2],"split_indices":[0,2,2,0,2,1,0,0,0,0,2,0,1,0,0,0,0,0,0],"split_type":[0,0,0,0,0,0,0,0,0,0,0,0,0,0,0,0,0,0,0],"sum_hessian":[1.7667424E2,1.7103627E2,5.63796E0,1.3337943E1,1.5769833E2,4.3894525E0,1.2485073E0,2.1730502E0,1.1164893E1,2.2428594E0,1.5545547E2,1.6262372E0,2.7632153E0,1.7459701E0,9.418922E0,2.7139874E0,1.5274149E2,1.2287649E0,1.5344504E0],"tree_param":{"num_deleted":"0","num_feature":"3","num_nodes":"19","size_leaf_vector":"1"}},{"base_weights":[-6.821385E-3,6.0323704E-2,-1.5965796E-1,-2.2222027E-1,1.0747075E-1,-6.557582E-2,-5.8342855E-2,1.777393E-1,-4.3441954E-1,4.695877E-1,-6.6318843E-3,-6.7067814E-1,1.021747E-1,-1.11577865E-2,2.6789954E-2,7.4694664E-3,-2.8109867E-2,-2.0485133E-2,3.064168E-2,1.4638029E-2,-6.135247E-3,1.911807E-2,-5.1425666E-2,4.632196E-2,-1.8411288E-4],"categories":[],"categories_nodes":[],"categories_segments":[],"categories_sizes":[],"default_left":[0,0,0,0,0,0,0,0,0,0,0,0,0,0,0,0,0,0,0,0,0,0,0,0,0],"id":16,"left_children":[1,3,5,7,9,-1,11,13,15,17,19,21,23,-1,-1,-1,-1,-1,-1,-1,-1,-1,-1,-1,-1],"loss_changes":[1.8320357E0,1.6771069E0,6.281122E0,1.6111348E0,4.425518E0,0E0,5.093175E0,1.1207426E0,9.8653436E-1,3.4829392E0,2.8985052E0,4.443884E0,3.6131773E0,0E0,0E0,0E0,0E0,0E0,0E0,0E0,0E0,0E0,0E0,0E0,0E0],"parents":[2147483647,0,0,1,1,2,2,3,3,4,4,6,6,7,7,8,8,9,9,10,10,11,11,12,12],"right_children":[2,4,6,8,10,-1,12,14,16,18,20,22,24,-1,-1,-1,-1,-1,-1,-1,-1,-1,-1,-1,-1],"split_conditions":[5.3819374E1,1.0690672E0,5.4511147E1,7.668136E-1,1.883335E0,-6.557582E-2,-8.3561175E-2,6.913458E-1,-7.280214E-1,-3.9419246E-1,-2.7357887E-2,5.759722E1,1.1043415E0,-1.11577865E-2,2.6789954E-2,7.4694664E-3,-2.8109867E-2,-2.0485133E-2,3.064168E-2,1.4638029E-2,-6.135247E-3,1.911807E-2,-5.1425666E-2,4.632196E-2,-1.8411288E-4],"split_indices":[0,1,0,1,1,0,2,1,2,2,2,0,1,0,0,0,0,0,0,0,0,0,0,0,0],"split_type":[0,0,0,0,0,0,0,0,0,0,0,0,0,0,0,0,0,0,0,0,0,0,0,0,0],"sum_hessian":[1.7658377E2,1.2310558E2,5.3478184E1,1.7073536E1,1.0603204E2,3.357832E0,5.0120354E1,5.9746776E0,1.1098859E1,2.4658897E1,8.1373146E1,9.749639E0,4.0370712E1,2.9964838E0,2.9781938E0,1.9626225E0,9.136236E0,3.1938524E0,2.1465046E1,2.2308811E1,5.9064335E1,2.4553828E0,7.2942557E0,3.7123525E0,3.6658363E1],"tree_param":{"num_deleted":"0","num_feature":"3","num_nodes":"25","size_leaf_vector":"1"}},{"base_weights":[-6.7269243E-3,1.2715463E-2,-5.1378417E-1,-4.0705568E-1,3.530151E-2,-7.4071175E-1,1.2598715E-2,1.3014164E-2,-8.244015E-1,6.295496E-2,-4.6898735E-1,-4.8630964E-2,-3.8012022E-1,-2.7993888E-2,1.801907E-2,-5.3661276E-2,-4.465152E-3,2.3435566E-3,5.723491E-2,-3.4379523E-2,1.2583892E-2,1.7704189E-2,-4.417605E-2],"categories":[],"categories_nodes":[],"categories_segments":[],"categories_sizes":[],"default_left":[0,0,0,0,0,0,0,0,0,0,0,0,0,0,0,0,0,0,0,0,0,0,0],"id":17,"left_children":[1,3,5,7,9,11,-1,13,15,17,19,-1,21,-1,-1,-1,-1,-1,-1,-1,-1,-1,-1],"loss_changes":[1.755117E0,1.6431619E0,1.329016E0,1.5625113E0,2.315785E0,7.5586796E-2,0E0,1.2755501E0,7.19141E-1,2.6658025E0,1.5343726E0,0E0,1.6898909E0,0E0,0E0,0E0,0E0,0E0,0E0,0E0,0E0,0E0,0E0],"parents":[2147483647,0,0,1,1,2,2,3,3,4,4,5,5,7,7,8,8,9,9,10,10,12,12],"right_children":[2,4,6,8,10,12,-1,14,16,18,20,-1,22,-1,-1,-1,-1,-1,-1,-1,-1,-1,-1],"split_conditions":[7.158455E1,-4.8503846E-1,6.395515E-2,4.221645E1,5.748801E0,1.555883E0,1.2598715E-2,3.04892E1,1.7635005E0,5.639655E0,7.5070014E0,-4.8630964E-2,3.4263177E0,-2.7993888E-2,1.801907E-2,-5.3661276E-2,-4.465152E-3,2.3435566E-3,5.723491E-2,-3.4379523E-2,1.2583892E-2,1.7704189E-2,-4.417605E-2],"split_indices":[0,2,2,0,1,1,0,0,1,1,1,0,1,0,0,0,0,0,0,0,0,0,0],"split_type":[0,0,0,0,0,0,0,0,0,0,0,0,0,0,0,0,0,0,0,0,0,0,0],"sum_hessian":[1.7636992E2,1.7079591E2,5.5740027E0,7.8514266E0,1.6294449E2,4.3250194E0,1.2489834E0,4.395776E0,3.4556506E0,1.5530334E2,7.641137E0,1.5992223E0,2.7257972E0,1.4283348E0,2.967441E0,2.2380996E0,1.2175511E0,1.540561E2,1.2472446E0,5.8979707E0,1.7431668E0,1.229379E0,1.4964181E0],"tree_param":{"num_deleted":"0","num_feature":"3","num_nodes":"23","size_leaf_vector":"1"}},{"base_weights":[-6.932537E-3,1.18974615E-2,-5.010781E-1,-2.0307387E-1,5.4258533E-2,-7.2393805E-1,1.2246804E-2,8.909448E-2,-8.6759526E-1,9.417055E-1,2.5778094E-2,-3.586454E-1,-4.6880227E-2,-9.401366E-3,1.9782078E-2,-1.3855821E-2,-5.7495963E-2,2.110307E-2,5.901133E-2,2.85956E-2,-6.125313E-4,-4.3537576E-2,1.6839303E-2],"categories":[],"categories_nodes":[],"categories_segments":[],"categories_sizes":[],"default_left":[0,0,0,0,0,0,0,0,0,0,0,0,0,0,0,0,0,0,0,0,0,0,0],"id":18,"left_children":[1,3,5,7,9,11,-1,13,15,17,19,21,-1,-1,-1,-1,-1,-1,-1,-1,-1,-1,-1],"loss_changes":[1.655482E0,1.5750132E0,1.2630694E0,5.6073513E0,3.6219635E0,7.593584E-2,0E0,1.8321412E0,1.1469746E0,5.43828E-2,2.9313679E0,1.5641286E0,0E0,0E0,0E0,0E0,0E0,0E0,0E0,0E0,0E0,0E0,0E0],"parents":[2147483647,0,0,1,1,2,2,3,3,4,4,5,5,7,7,8,8,9,9,10,10,11,11],"right_children":[2,4,6,8,10,12,-1,14,16,18,20,22,-1,-1,-1,-1,-1,-1,-1,-1,-1,-1,-1],"split_conditions":[7.158455E1,-1.921885E-1,6.395515E-2,5.0518974E1,-1.6053346E-1,1.6951193E0,1.2246804E-2,-3.9419246E-1,-3.2284695E-1,-1.6976033E-1,3.37695E1,1.5112758E0,-4.6880227E-2,-9.401366E-3,1.9782078E-2,-1.3855821E-2,-5.7495963E-2,2.110307E-2,5.901133E-2,2.85956E-2,-6.125313E-4,-4.3537576E-2,1.6839303E-2],"split_indices":[0,2,2,0,2,1,0,2,2,2,0,1,0,0,0,0,0,0,0,0,0,0,0],"split_type":[0,0,0,0,0,0,0,0,0,0,0,0,0,0,0,0,0,0,0,0,0,0,0],"sum_hessian":[1.7627704E2,1.7074646E2,5.5305715E0,2.7483093E1,1.4326337E2,4.2812176E0,1.2493536E0,1.9691368E1,7.7917247E0,3.457674E0,1.398057E2,2.568514E0,1.7127036E0,1.0545107E1,9.146261E0,3.1613457E0,4.6303787E0,1.9590857E0,1.4985882E0,8.187359E0,1.3161833E2,1.3340418E0,1.2344724E0],"tree_param":{"num_deleted":"0","num_feature":"3","num_nodes":"23","size_leaf_vector":"1"}},{"base_weights":[-6.681385E-3,4.8932306E-2,-1.698664E-1,1.7629227E-2,9.426636E-1,5.649722E-1,-2.4970393E-1,-2.524633E-1,9.2780285E-2,1.2396372E-2,5.6663305E-2,-3.0213118E-2,5.7704777E-2,-1.1156585E0,-1.1560972E-1,3.5153683E-3,-3.145912E-2,3.5387985E-2,2.2964408E-3,-6.669707E-2,-2.0456089E-2,8.500563E-3,-1.9163257E-2],"categories":[],"categories_nodes":[],"categories_segments":[],"categories_sizes":[],"default_left":[0,0,0,0,0,0,0,0,0,0,0,0,0,0,0,0,0,0,0,0,0,0,0],"id":19,"left_children":[1,3,5,7,9,11,13,15,17,-1,-1,-1,-1,19,21,-1,-1,-1,-1,-1,-1,-1,-1],"loss_changes":[1.616214E0,3.7019124E0,2.7962022E0,2.650706E0,3.12109E-1,3.9635398E0,4.691763E0,3.5028572E0,2.9061904E0,0E0,0E0,0E0,0E0,2.9495E-1,2.8986492E0,0E0,0E0,0E0,0E0,0E0,0E0,0E0,0E0],"parents":[2147483647,0,0,1,1,2,2,3,3,4,4,5,5,6,6,7,7,8,8,13,13,14,14],"right_children":[2,4,6,8,10,12,14,16,18,-1,-1,-1,-1,20,22,-1,-1,-1,-1,-1,-1,-1,-1],"split_conditions":[3.4263177E0,3.362615E0,3.5913284E1,-1.1708249E-1,3.4029068E1,3.5009627E0,4.067234E1,4.6526817E1,-1.1889935E-2,1.2396372E-2,5.6663305E-2,-3.0213118E-2,5.7704777E-2,3.8736591E0,5.296715E1,3.5153683E-3,-3.145912E-2,3.5387985E-2,2.2964408E-3,-6.669707E-2,-2.0456089E-2,8.500563E-3,-1.9163257E-2],"split_indices":[1,1,0,2,0,1,0,0,2,0,0,0,0,1,0,0,0,0,0,0,0,0,0],"split_type":[0,0,0,0,0,0,0,0,0,0,0,0,0,0,0,0,0,0,0,0,0,0,0],"sum_hessian":[1.7617303E2,1.3191602E2,4.425703E1,1.2843721E2,3.4788082E0,3.7416556E0,4.0515373E1,2.7444042E1,1.00993164E2,1.2442689E0,2.234539E0,1.2450011E0,2.4966545E0,4.4510956E0,3.6064278E1,1.5218388E1,1.2225655E1,6.1507707E0,9.484239E1,2.7221072E0,1.7289885E0,1.7623096E1,1.8441181E1],"tree_param":{"num_deleted":"0","num_feature":"3","num_nodes":"23","size_leaf_vector":"1"}},{"base_weights":[-6.317238E-3,-4.9090836E-2,2.026872E-1,-2.3097321E-2,-4.129424E-2,6.142133E-1,-8.6567886E-2,-5.124955E-2,4.1102993E-1,1.1743252E0,1.34155E-1,-4.297053E-1,2.742534E-1,1.3633484E-3,-1.5359697E-2,-3.0966377E-2,5.054915E-2,7.0651226E-2,8.932444E-3,4.6840902E-2,-1.2236409E-2,4.622931E-3,-4.6093013E-2,3.1778466E-2,-1.699089E-2],"categories":[],"categories_nodes":[],"categories_segments":[],"categories_sizes":[],"default_left":[0,0,0,0,0,0,0,0,0,0,0,0,0,0,0,0,0,0,0,0,0,0,0,0,0],"id":20,"left_children":[1,3,5,7,-1,9,11,13,15,17,19,21,23,-1,-1,-1,-1,-1,-1,-1,-1,-1,-1,-1,-1],"loss_changes":[1.5928793E0,2.9650064E0,3.6570685E0,1.7813709E0,0E0,3.2358446E0,2.4276142E0,2.7444193E0,6.116814E0,1.1011896E0,2.6392858E0,2.642671E0,2.3690097E0,0E0,0E0,0E0,0E0,0E0,0E0,0E0,0E0,0E0,0E0,0E0,0E0],"parents":[2147483647,0,0,1,1,2,2,3,3,5,5,6,6,7,7,8,8,9,9,10,10,11,11,12,12],"right_children":[2,4,6,8,-1,10,12,14,16,18,20,22,24,-1,-1,-1,-1,-1,-1,-1,-1,-1,-1,-1,-1],"split_conditions":[6.1922576E-2,7.210656E1,1.7872168E-1,6.338163E1,-4.129424E-2,3.3007703E0,4.931937E1,5.3819374E1,-8.3561175E-2,5.981177E1,3.5913284E1,2.7723167E0,6.0868183E1,1.3633484E-3,-1.5359697E-2,-3.0966377E-2,5.054915E-2,7.0651226E-2,8.932444E-3,4.6840902E-2,-1.2236409E-2,4.622931E-3,-4.6093013E-2,3.1778466E-2,-1.699089E-2],"split_indices":[2,0,2,0,0,1,0,0,2,0,0,1,0,0,0,0,0,0,0,0,0,0,0,0,0],"split_type":[0,0,0,0,0,0,0,0,0,0,0,0,0,0,0,0,0,0,0,0,0,0,0,0,0],"sum_hessian":[1.7606395E2,1.4678827E2,2.9275688E1,1.430318E2,3.756476E0,1.16201515E1,1.7655537E1,1.3514958E2,7.882214E0,4.695465E0,6.924686E0,8.951674E0,8.703861E0,1.041062E2,3.1043379E1,2.8887649E0,4.993449E0,3.449368E0,1.2460971E0,1.7483127E0,5.1763735E0,4.737472E0,4.2142024E0,5.45762E0,3.246241E0],"tree_param":{"num_deleted":"0","num_feature":"3","num_nodes":"25","size_leaf_vector":"1"}},{"base_weights":[-5.726675E-3,-4.0331888E-1,1.5379297E-2,-3.7001424E-2,-4.4160087E-2,9.650002E-2,-1.318641E-1,-2.7154906E-2,2.3101102E-1,1.20442204E-1,-3.6323432E-2,-7.9876435E-1,-4.5672726E-2,3.2787584E-2,-5.587152E-3,3.2533172E-3,2.6396602E-2,-5.1270504E-2,-1.2712697E-2,4.1630745E-2,-6.5724174E-3],"categories":[],"categories_nodes":[],"categories_segments":[],"categories_sizes":[],"default_left":[0,0,0,0,0,0,0,0,0,0,0,0,0,0,0,0,0,0,0,0,0],"id":21,"left_children":[1,3,5,7,-1,9,11,-1,13,15,-1,17,19,-1,-1,-1,-1,-1,-1,-1,-1],"loss_changes":[1.4909343E0,1.5416173E0,2.031054E0,9.5591414E-1,0E0,2.2456145E0,3.4380765E0,0E0,7.581382E-1,2.3866606E0,0E0,5.8557796E-1,4.221983E0,0E0,0E0,0E0,0E0,0E0,0E0,0E0,0E0],"parents":[2147483647,0,0,1,1,2,2,3,3,5,5,6,6,8,8,9,9,11,11,12,12],"right_children":[2,4,6,8,-1,10,12,-1,14,16,-1,18,20,-1,-1,-1,-1,-1,-1,-1,-1],"split_conditions":[-4.8503846E-1,4.613339E1,3.136935E0,3.04892E1,-4.4160087E-2,7.384582E-1,3.2430952E0,-2.7154906E-2,3.7068237E1,4.1407406E-2,-3.6323432E-2,4.7374786E1,3.320148E0,3.2787584E-2,-5.587152E-3,3.2533172E-3,2.6396602E-2,-5.1270504E-2,-1.2712697E-2,4.1630745E-2,-6.5724174E-3],"split_indices":[2,0,1,0,0,2,1,0,0,2,0,0,1,0,0,0,0,0,0,0,0],"split_type":[0,0,0,0,0,0,0,0,0,0,0,0,0,0,0,0,0,0,0,0,0],"sum_hessian":[1.759313E2,7.9555836E0,1.6797572E2,5.122466E0,2.8331175E0,1.08528694E2,5.944703E1,1.4181452E0,3.7043211E0,1.062901E2,2.238592E0,5.8575187E0,5.3589508E1,1.2464887E0,2.4578323E0,9.459481E1,1.1695292E1,3.5123634E0,2.3451552E0,3.9933417E0,4.959617E1],"tree_param":{"num_deleted":"0","num_feature":"3","num_nodes":"21","size_leaf_vector":"1"}},{"base_weights":[-5.908437E-3,-4.6142902E-2,1.9069721E-1,-2.1174062E-2,-3.9990764E-2,5.891221E-1,-8.923115E-2,-4.833771E-2,3.993914E-1,1.1158525E0,1.3616808E-1,-4.1717476E-1,2.5570893E-1,2.1463095E-3,-1.25505505E-2,-2.9704316E-2,4.85088E-2,6.738789E-2,7.96072E-3,4.5323767E-2,-1.1466472E-2,4.162328E-3,-4.444954E-2,3.0096976E-2,-1.6554462E-2],"categories":[],"categories_nodes":[],"categories_segments":[],"categories_sizes":[],"default_left":[0,0,0,0,0,0,0,0,0,0,0,0,0,0,0,0,0,0,0,0,0,0,0,0,0],"id":22,"left_children":[1,3,5,7,-1,9,11,13,15,17,19,21,23,-1,-1,-1,-1,-1,-1,-1,-1,-1,-1,-1,-1],"loss_changes":[1.407255E0,2.7599144E0,3.4238815E0,1.6627331E0,0E0,2.855483E0,2.213265E0,2.5267143E0,5.586755E0,1.047523E0,2.436668E0,2.4177065E0,2.169211E0,0E0,0E0,0E0,0E0,0E0,0E0,0E0,0E0,0E0,0E0,0E0,0E0],"parents":[2147483647,0,0,1,1,2,2,3,3,5,5,6,6,7,7,8,8,9,9,10,10,11,11,12,12],"right_children":[2,4,6,8,-1,10,12,14,16,18,20,22,24,-1,-1,-1,-1,-1,-1,-1,-1,-1,-1,-1,-1],"split_conditions":[6.1922576E-2,7.210656E1,1.7872168E-1,6.338163E1,-3.9990764E-2,3.3007703E0,4.931937E1,5.2111683E1,-8.3561175E-2,5.981177E1,3.5913284E1,2.7723167E0,6.0868183E1,2.1463095E-3,-1.25505505E-2,-2.9704316E-2,4.85088E-2,6.738789E-2,7.96072E-3,4.5323767E-2,-1.1466472E-2,4.162328E-3,-4.444954E-2,3.0096976E-2,-1.6554462E-2],"split_indices":[2,0,2,0,0,1,0,0,2,0,0,1,0,0,0,0,0,0,0,0,0,0,0,0,0],"split_type":[0,0,0,0,0,0,0,0,0,0,0,0,0,0,0,0,0,0,0,0,0,0,0,0,0],"sum_hessian":[1.757887E2,1.4656096E2,2.9227743E1,1.428563E2,3.704673E0,1.1605281E1,1.7622461E1,1.3502058E2,7.835698E0,4.6890206E0,6.9162607E0,8.926444E0,8.696018E0,9.364182E1,4.1378765E1,2.8442762E0,4.9914217E0,3.4450374E0,1.243983E0,1.7493309E0,5.1669297E0,4.7315702E0,4.1948743E0,5.4528503E0,3.2431676E0],"tree_param":{"num_deleted":"0","num_feature":"3","num_nodes":"25","size_leaf_vector":"1"}},{"base_weights":[-5.3400635E-3,-4.2357028E-1,1.3262897E-2,-4.6582125E-2,-5.0186444E-2,3.32088E-1,-1.7709825E-2,-2.6514325E-2,2.409139E-1,1.4834237E-1,6.0197856E-2,5.9411015E-2,-1.609637E-1,-4.483034E-3,2.5370894E-2,2.9714813E-2,-1.6690396E-2,-2.5819626E-3,1.5364175E-2,-2.526775E-2,4.3085005E-4],"categories":[],"categories_nodes":[],"categories_segments":[],"categories_sizes":[],"default_left":[0,0,0,0,0,0,0,0,0,0,0,0,0,0,0,0,0,0,0,0,0],"id":23,"left_children":[1,3,5,7,-1,9,11,-1,13,15,-1,17,19,-1,-1,-1,-1,-1,-1,-1,-1],"loss_changes":[1.379881E0,1.6050646E0,1.6854091E0,9.1018707E-1,0E0,2.242116E0,1.7327025E0,0E0,4.1697425E-1,3.1270623E0,0E0,2.8268123E0,3.2078242E0,0E0,0E0,0E0,0E0,0E0,0E0,0E0,0E0],"parents":[2147483647,0,0,1,1,2,2,3,3,5,5,6,6,8,8,9,9,11,11,12,12],"right_children":[2,4,6,8,-1,10,12,-1,14,16,-1,18,20,-1,-1,-1,-1,-1,-1,-1,-1],"split_conditions":[-5.944601E-1,4.613339E1,3.479659E1,3.04892E1,-5.0186444E-2,1.7698487E-2,3.136935E0,-2.6514325E-2,9.345224E-1,2.568137E0,6.0197856E-2,2.2408543E0,4.7374786E1,-4.483034E-3,2.5370894E-2,2.9714813E-2,-1.6690396E-2,-2.5819626E-3,1.5364175E-2,-2.526775E-2,4.3085005E-4],"split_indices":[2,0,0,0,0,2,1,0,1,1,0,1,0,0,0,0,0,0,0,0,0],"split_type":[0,0,0,0,0,0,0,0,0,0,0,0,0,0,0,0,0,0,0,0,0],"sum_hessian":[1.7563327E2,6.5524592E0,1.6908081E2,4.6264653E0,1.9259938E0,1.4110373E1,1.5497043E2,1.4098798E0,3.2165854E0,1.2620711E1,1.489661E0,1.0111849E2,5.3851944E1,1.7318928E0,1.4846926E0,6.4356284E0,6.185083E0,7.037928E1,3.073921E1,1.71147E1,3.6737244E1],"tree_param":{"num_deleted":"0","num_feature":"3","num_nodes":"21","size_leaf_vector":"1"}},{"base_weights":[-5.0538615E-3,-4.1206318E-1,1.2961212E-2,-4.533569E-2,-4.909804E-2,5.5031013E-1,-4.7666696E-3,-2.5839427E-2,2.3367624E-1,-1.07782995E-2,8.2718724E-1,6.0485695E-2,-1.259385E-1,-4.34186E-3,2.4582177E-2,1.0092594E-2,5.8764886E-2,4.1585974E-3,-3.5112794E-2,-3.543001E-2,-2.7020543E-3],"categories":[],"categories_nodes":[],"categories_segments":[],"categories_sizes":[],"default_left":[0,0,0,0,0,0,0,0,0,0,0,0,0,0,0,0,0,0,0,0,0],"id":24,"left_children":[1,3,5,7,-1,9,11,-1,13,-1,15,17,19,-1,-1,-1,-1,-1,-1,-1,-1],"loss_changes":[1.2997339E0,1.5256807E0,1.6222428E0,8.599901E-1,0E0,1.3315952E0,1.316827E0,0E0,3.9153162E-1,0E0,6.773207E-1,1.9324028E0,2.4032214E0,0E0,0E0,0E0,0E0,0E0,0E0,0E0,0E0],"parents":[2147483647,0,0,1,1,2,2,3,3,5,5,6,6,8,8,10,10,11,11,12,12],"right_children":[2,4,6,8,-1,10,12,-1,14,-1,16,18,20,-1,-1,-1,-1,-1,-1,-1,-1],"split_conditions":[-5.944601E-1,4.613339E1,3.00513E1,3.04892E1,-4.909804E-2,-1.921885E-1,3.136935E0,-2.5839427E-2,9.345224E-1,-1.07782995E-2,3.2319126E0,7.384582E-1,3.2430952E0,-4.34186E-3,2.4582177E-2,1.0092594E-2,5.8764886E-2,4.1585974E-3,-3.5112794E-2,-3.543001E-2,-2.7020543E-3],"split_indices":[2,0,0,0,0,2,1,0,1,0,1,2,1,0,0,0,0,0,0,0,0],"split_type":[0,0,0,0,0,0,0,0,0,0,0,0,0,0,0,0,0,0,0,0,0],"sum_hessian":[1.7553294E2,6.5130157E0,1.6901993E2,4.6197624E0,1.8932533E0,4.4386344E0,1.6458128E2,1.4007217E0,3.2190406E0,1.2373663E0,3.2012682E0,1.0729993E2,5.7281364E1,1.7313235E0,1.4877172E0,1.7097585E0,1.4915097E0,1.050659E2,2.2340233E0,5.3191214E0,5.1962242E1],"tree_param":{"num_deleted":"0","num_feature":"3","num_nodes":"21","size_leaf_vector":"1"}},{"base_weights":[-5.1871003E-3,-4.3959085E-2,1.8434812E-1,-2.0028908E-2,-3.8692087E-2,5.6628865E-1,-8.401772E-2,-4.6423066E-2,3.9138597E-1,1.0687709E0,1.336632E-1,-3.976978E-1,2.4495335E-1,1.3035904E-3,-1.4154314E-2,-2.8192773E-2,4.6486538E-2,6.467119E-2,7.4048373E-3,4.3017033E-2,-1.0606217E-2,4.1275388E-3,-4.2639986E-2,2.8758759E-2,-1.574779E-2],"categories":[],"categories_nodes":[],"categories_segments":[],"categories_sizes":[],"default_left":[0,0,0,0,0,0,0,0,0,0,0,0,0,0,0,0,0,0,0,0,0,0,0,0,0],"id":25,"left_children":[1,3,5,7,-1,9,11,13,15,17,19,21,23,-1,-1,-1,-1,-1,-1,-1,-1,-1,-1,-1,-1],"loss_changes":[1.3046007E0,2.5567942E0,3.13835E0,1.5777726E0,0E0,2.5903463E0,2.014815E0,2.3382976E0,5.0314593E0,9.819989E-1,2.1673462E0,2.2325633E0,1.9724561E0,0E0,0E0,0E0,0E0,0E0,0E0,0E0,0E0,0E0,0E0,0E0,0E0],"parents":[2147483647,0,0,1,1,2,2,3,3,5,5,6,6,7,7,8,8,9,9,10,10,11,11,12,12],"right_children":[2,4,6,8,-1,10,12,14,16,18,20,22,24,-1,-1,-1,-1,-1,-1,-1,-1,-1,-1,-1,-1],"split_conditions":[6.1922576E-2,7.210656E1,1.7872168E-1,6.338163E1,-3.8692087E-2,3.3007703E0,4.931937E1,5.3819374E1,-8.3561175E-2,5.981177E1,3.5913284E1,2.7723167E0,6.0868183E1,1.3035904E-3,-1.4154314E-2,-2.8192773E-2,4.6486538E-2,6.467119E-2,7.4048373E-3,4.3017033E-2,-1.0606217E-2,4.1275388E-3,-4.2639986E-2,2.8758759E-2,-1.574779E-2],"split_indices":[2,0,2,0,0,1,0,0,2,0,0,1,0,0,0,0,0,0,0,0,0,0,0,0,0],"split_type":[0,0,0,0,0,0,0,0,0,0,0,0,0,0,0,0,0,0,0,0,0,0,0,0,0],"sum_hessian":[1.7542638E2,1.4627245E2,2.9153933E1,1.4262378E2,3.6486697E0,1.1573002E1,1.758093E1,1.3485912E2,7.7646704E0,4.673932E0,6.8990703E0,8.892679E0,8.6882515E0,1.03917E2,3.0942108E1,2.7816E0,4.9830704E0,3.4317E0,1.242232E0,1.7446346E0,5.1544356E0,4.725102E0,4.1675777E0,5.4479237E0,3.2403278E0],"tree_param":{"num_deleted":"0","num_feature":"3","num_nodes":"25","size_leaf_vector":"1"}},{"base_weights":[-4.6811025E-3,-3.9899138E-1,1.2669318E-2,-4.5215495E-2,-4.7828253E-2,5.283414E-1,-4.346939E-3,-2.521861E-2,2.256687E-1,-1.0516817E-2,7.9637164E-1,4.5853615E-2,-1.4625059E-1,-4.246189E-3,2.3782564E-2,9.732468E-3,5.660659E-2,8.495355E-4,3.823864E-2,-2.6722822E-2,9.936055E-4],"categories":[],"categories_nodes":[],"categories_segments":[],"categories_sizes":[],"default_left":[0,0,0,0,0,0,0,0,0,0,0,0,0,0,0,0,0,0,0,0,0],"id":26,"left_children":[1,3,5,7,-1,9,11,-1,13,-1,15,17,19,-1,-1,-1,-1,-1,-1,-1,-1],"loss_changes":[1.2108281E0,1.4280924E0,1.4921383E0,8.119743E-1,0E0,1.2429432E0,1.1846315E0,0E0,3.6814332E-1,0E0,6.27079E-1,2.5373044E0,2.8126383E0,0E0,0E0,0E0,0E0,0E0,0E0,0E0,0E0],"parents":[2147483647,0,0,1,1,2,2,3,3,5,5,6,6,8,8,10,10,11,11,12,12],"right_children":[2,4,6,8,-1,10,12,-1,14,-1,16,18,20,-1,-1,-1,-1,-1,-1,-1,-1],"split_conditions":[-5.944601E-1,4.613339E1,3.00513E1,3.04892E1,-4.7828253E-2,-1.921885E-1,3.4762511E0,-2.521861E-2,9.345224E-1,-1.0516817E-2,3.2319126E0,3.362615E0,3.7854745E0,-4.246189E-3,2.3782564E-2,9.732468E-3,5.660659E-2,8.495355E-4,3.823864E-2,-2.6722822E-2,9.936055E-4],"split_indices":[2,0,0,0,0,2,1,0,1,0,1,1,1,0,0,0,0,0,0,0,0],"split_type":[0,0,0,0,0,0,0,0,0,0,0,0,0,0,0,0,0,0,0,0,0],"sum_hessian":[1.7524527E2,6.459053E0,1.6878622E2,4.6131444E0,1.8459085E0,4.431831E0,1.6435439E2,1.3918945E0,3.2212498E0,1.237259E0,3.1945717E0,1.2190539E2,4.2449E1,1.7309282E0,1.4903216E0,1.7099195E0,1.4846523E0,1.18184204E2,3.7211828E0,1.2056764E1,3.0392237E1],"tree_param":{"num_deleted":"0","num_feature":"3","num_nodes":"21","size_leaf_vector":"1"}},{"base_weights":[-4.3671564E-3,-4.191942E-2,1.7936796E-1,-1.8852888E-2,-3.7608124E-2,5.4811287E-1,-7.967552E-2,-4.4244807E-2,3.794756E-1,1.0277766E0,1.3422161E-1,-3.8163817E-1,2.3628838E-1,1.9751685E-3,-1.1522055E-2,-2.6984084E-2,4.454366E-2,6.2189836E-2,7.178509E-3,4.141285E-2,-9.853589E-3,3.922226E-3,-4.0993504E-2,3.453095E-2,-8.153832E-3],"categories":[],"categories_nodes":[],"categories_segments":[],"categories_sizes":[],"default_left":[0,0,0,0,0,0,0,0,0,0,0,0,0,0,0,0,0,0,0,0,0,0,0,0,0],"id":27,"left_children":[1,3,5,7,-1,9,11,13,15,17,19,21,23,-1,-1,-1,-1,-1,-1,-1,-1,-1,-1,-1,-1],"loss_changes":[1.2230256E0,2.395469E0,2.9174309E0,1.4680218E0,0E0,2.3517778E0,1.859468E0,2.1264029E0,4.5715756E0,9.0227175E-1,1.9755782E0,2.0532422E0,1.868932E0,0E0,0E0,0E0,0E0,0E0,0E0,0E0,0E0,0E0,0E0,0E0,0E0],"parents":[2147483647,0,0,1,1,2,2,3,3,5,5,6,6,7,7,8,8,9,9,10,10,11,11,12,12],"right_children":[2,4,6,8,-1,10,12,14,16,18,20,22,24,-1,-1,-1,-1,-1,-1,-1,-1,-1,-1,-1,-1],"split_conditions":[6.1922576E-2,7.210656E1,1.7872168E-1,6.338163E1,-3.7608124E-2,3.3007703E0,4.931937E1,5.2111683E1,-8.3561175E-2,5.981177E1,3.5913284E1,2.7723167E0,5.3612812E1,1.9751685E-3,-1.1522055E-2,-2.6984084E-2,4.454366E-2,6.2189836E-2,7.178509E-3,4.141285E-2,-9.853589E-3,3.922226E-3,-4.0993504E-2,3.453095E-2,-8.153832E-3],"split_indices":[2,0,2,0,0,1,0,0,2,0,0,1,0,0,0,0,0,0,0,0,0,0,0,0,0],"split_type":[0,0,0,0,0,0,0,0,0,0,0,0,0,0,0,0,0,0,0,0,0,0,0,0,0],"sum_hessian":[1.7516881E2,1.460837E2,2.908512E1,1.4248282E2,3.6008644E0,1.1540896E1,1.7544224E1,1.3478004E2,7.7027884E0,4.6586843E0,6.8822126E0,8.864593E0,8.679631E0,9.3508995E1,4.127104E1,2.733837E0,4.9689517E0,3.4171586E0,1.2415258E0,1.739021E0,5.1431913E0,4.7249975E0,4.1395946E0,3.7192261E0,4.960405E0],"tree_param":{"num_deleted":"0","num_feature":"3","num_nodes":"25","size_leaf_vector":"1"}},{"base_weights":[-3.8142642E-3,-3.560802E-1,1.4495607E-2,1.6696917E-2,-7.3094594E-1,3.882109E-2,-3.795709E-1,-2.463366E-2,3.1799585E-1,-4.9130928E-2,-1.6488795E-3,2.28827E-2,5.7234045E-2,-5.471995E-1,1.2852283E-2,3.145638E-2,-2.7240969E-3,2.5361959E-2,2.8259863E-4,-4.0627502E-2,8.1754E-3],"categories":[],"categories_nodes":[],"categories_segments":[],"categories_sizes":[],"default_left":[0,0,0,0,0,0,0,0,0,0,0,0,0,0,0,0,0,0,0,0,0],"id":28,"left_children":[1,3,5,7,9,11,13,-1,15,-1,-1,17,-1,19,-1,-1,-1,-1,-1,-1,-1],"loss_changes":[1.1401983E0,1.2327013E0,1.6274817E0,9.7879845E-1,7.3647857E-1,2.7827635E0,1.1944094E0,0E0,4.9477795E-1,0E0,0E0,1.3168058E0,0E0,1.6671879E0,0E0,0E0,0E0,0E0,0E0,0E0,0E0],"parents":[2147483647,0,0,1,1,2,2,3,3,4,4,5,5,6,6,8,8,11,11,13,13],"right_children":[2,4,6,8,10,12,14,-1,16,-1,-1,18,-1,20,-1,-1,-1,-1,-1,-1,-1],"split_conditions":[-4.8503846E-1,4.221645E1,5.748801E0,3.04892E1,1.7635005E0,5.639655E0,7.5070014E0,-2.463366E-2,3.7068237E1,-4.9130928E-2,-1.6488795E-3,3.00513E1,5.7234045E-2,5.885821E1,1.2852283E-2,3.145638E-2,-2.7240969E-3,2.5361959E-2,2.8259863E-4,-4.0627502E-2,8.1754E-3],"split_indices":[2,0,1,0,1,1,1,0,0,0,0,0,0,0,0,0,0,0,0,0,0],"split_type":[0,0,0,0,0,0,0,0,0,0,0,0,0,0,0,0,0,0,0,0,0],"sum_hessian":[1.7497623E2,7.7339697E0,1.6724225E2,4.3568516E0,3.3771179E0,1.583678E2,8.874459E0,1.3832284E0,2.9736233E0,2.182373E0,1.1947446E0,1.571239E2,1.2438824E0,7.13594E0,1.7385194E0,1.2448024E0,1.7288209E0,4.420669E0,1.5270325E2,5.091627E0,2.0443132E0],"tree_param":{"num_deleted":"0","num_feature":"3","num_nodes":"21","size_leaf_vector":"1"}},{"base_weights":[-3.5413501E-3,-3.9709583E-2,1.7355773E-1,-1.7505212E-2,-3.650425E-2,5.293598E-1,-7.624548E-2,-5.409799E-2,2.5425583E-1,9.9102825E-1,1.3127695E-1,3.9818093E-1,-2.6658615E-1,1.23152495E-5,-4.634189E-2,-3.1940877E-2,2.9896686E-2,5.9979804E-2,6.974035E-3,-2.0335836E-2,2.692669E-2,3.664359E-2,-1.6515104E-2,-5.3144973E-2,-5.153326E-3],"categories":[],"categories_nodes":[],"categories_segments":[],"categories_sizes":[],"default_left":[0,0,0,0,0,0,0,0,0,0,0,0,0,0,0,0,0,0,0,0,0,0,0,0,0],"id":29,"left_children":[1,3,5,7,-1,9,11,13,15,17,19,21,23,-1,-1,-1,-1,-1,-1,-1,-1,-1,-1,-1,-1],"loss_changes":[1.133537E0,2.238722E0,2.7081752E0,1.43903E0,0E0,2.1684556E0,1.7775424E0,6.0302453E0,5.656185E0,8.340702E-1,1.9430666E0,1.6319664E0,1.6884564E0,0E0,0E0,0E0,0E0,0E0,0E0,0E0,0E0,0E0,0E0,0E0,0E0],"parents":[2147483647,0,0,1,1,2,2,3,3,5,5,6,6,7,7,8,8,9,9,10,10,11,11,12,12],"right_children":[2,4,6,8,-1,10,12,14,16,18,20,22,24,-1,-1,-1,-1,-1,-1,-1,-1,-1,-1,-1,-1],"split_conditions":[6.1922576E-2,7.210656E1,1.7872168E-1,5.8919407E1,-3.650425E-2,3.3007703E0,1.6876942E0,5.759722E1,-8.3561175E-2,5.981177E1,3.7170825E0,7.384582E-1,1.9647183E0,1.23152495E-5,-4.634189E-2,-3.1940877E-2,2.9896686E-2,5.9979804E-2,6.974035E-3,-2.0335836E-2,2.692669E-2,3.664359E-2,-1.6515104E-2,-5.3144973E-2,-5.153326E-3],"split_indices":[2,0,2,0,0,1,1,0,2,0,1,2,1,0,0,0,0,0,0,0,0,0,0,0,0],"split_type":[0,0,0,0,0,0,0,0,0,0,0,0,0,0,0,0,0,0,0,0,0,0,0,0,0],"sum_hessian":[1.7489098E2,1.4587524E2,2.9015738E1,1.4232309E2,3.5521455E0,1.1506946E1,1.7508791E1,1.261393E2,1.6183794E1,4.6382866E0,6.868659E0,4.7005863E0,1.2808205E1,1.1968632E2,6.452984E0,4.2586355E0,1.1925159E1,3.3974347E0,1.2408518E0,2.9599016E0,3.9087574E0,3.2166972E0,1.4838891E0,1.2450223E0,1.1563183E1],"tree_param":{"num_deleted":"0","num_feature":"3","num_nodes":"25","size_leaf_vector":"1"}},{"base_weights":[-3.662074E-3,-3.747204E-1,1.2453419E-2,-4.2273223E-2,-4.5729417E-2,4.8351094E-1,-3.0806658E-3,-2.4017252E-2,2.1414839E-1,-1.098154E-2,7.445332E-1,5.6555074E-2,-1.1413169E-1,-4.3547186E-3,2.2900915E-2,8.563175E-3,5.36335E-2,-1.4007173E-3,1.2316063E-2,-3.500367E-2,-2.106509E-3],"categories":[],"categories_nodes":[],"categories_segments":[],"categories_sizes":[],"default_left":[0,0,0,0,0,0,0,0,0,0,0,0,0,0,0,0,0,0,0,0,0],"id":30,"left_children":[1,3,5,7,-1,9,11,-1,13,-1,15,17,19,-1,-1,-1,-1,-1,-1,-1,-1],"loss_changes":[1.0551838E0,1.2795072E0,1.2405787E0,7.312333E-1,0E0,1.1568503E0,1.0986643E0,0E0,3.4992075E-1,0E0,6.016102E-1,1.7396259E0,2.4154544E0,0E0,0E0,0E0,0E0,0E0,0E0,0E0,0E0],"parents":[2147483647,0,0,1,1,2,2,3,3,5,5,6,6,8,8,10,10,11,11,12,12],"right_children":[2,4,6,8,-1,10,12,-1,14,-1,16,18,20,-1,-1,-1,-1,-1,-1,-1,-1],"split_conditions":[-5.944601E-1,4.613339E1,3.00513E1,3.04892E1,-4.5729417E-2,-1.921885E-1,3.136935E0,-2.4017252E-2,9.345224E-1,-1.098154E-2,3.2319126E0,2.2408543E0,3.2430952E0,-4.3547186E-3,2.2900915E-2,8.563175E-3,5.36335E-2,-1.4007173E-3,1.2316063E-2,-3.500367E-2,-2.106509E-3],"split_indices":[2,0,0,0,0,2,1,0,1,0,1,1,1,0,0,0,0,0,0,0,0],"split_type":[0,0,0,0,0,0,0,0,0,0,0,0,0,0,0,0,0,0,0,0,0],"sum_hessian":[1.74678E2,6.3444815E0,1.6833351E2,4.5938945E0,1.7505872E0,4.412181E0,1.6392133E2,1.3737357E0,3.2201588E0,1.2374126E0,3.1747682E0,1.0696862E2,5.6952713E1,1.7282214E0,1.4919374E0,1.7097265E0,1.4650418E0,7.458302E1,3.2385597E1,5.277977E0,5.1674736E1],"tree_param":{"num_deleted":"0","num_feature":"3","num_nodes":"21","size_leaf_vector":"1"}},{"base_weights":[-3.6389832E-3,-3.8123958E-2,1.6521658E-1,-1.6821442E-2,-3.53585E-2,4.275239E-1,-1.5288642E-1,-4.102289E-2,3.6766905E-1,5.462509E-1,-1.9420091E-2,3.1153965E-1,-3.9425406E-1,1.2019367E-3,-1.2723537E-2,-2.4669364E-2,4.166674E-2,3.2492187E-2,-7.644149E-3,3.143545E-2,-1.5991172E-2,-2.9775027E-2,1.77727E-2],"categories":[],"categories_nodes":[],"categories_segments":[],"categories_sizes":[],"default_left":[0,0,0,0,0,0,0,0,0,0,0,0,0,0,0,0,0,0,0,0,0,0,0],"id":31,"left_children":[1,3,5,7,-1,9,11,13,15,17,-1,19,21,-1,-1,-1,-1,-1,-1,-1,-1,-1,-1],"loss_changes":[1.0285761E0,2.077475E0,2.565327E0,1.3466504E0,0E0,1.828382E0,1.7232375E0,1.8881835E0,3.8491216E0,1.1842957E0,0E0,1.2906389E0,1.6956793E0,0E0,0E0,0E0,0E0,0E0,0E0,0E0,0E0,0E0,0E0],"parents":[2147483647,0,0,1,1,2,2,3,3,5,5,6,6,7,7,8,8,9,9,11,11,12,12],"right_children":[2,4,6,8,-1,10,12,14,16,18,-1,20,22,-1,-1,-1,-1,-1,-1,-1,-1,-1,-1],"split_conditions":[6.1922576E-2,7.210656E1,2.3095211E-1,6.338163E1,-3.53585E-2,4.753232E0,1.6876942E0,5.3819374E1,-8.3561175E-2,6.841339E1,-1.9420091E-2,7.384582E-1,5.134149E0,1.2019367E-3,-1.2723537E-2,-2.4669364E-2,4.166674E-2,3.2492187E-2,-7.644149E-3,3.143545E-2,-1.5991172E-2,-2.9775027E-2,1.77727E-2],"split_indices":[2,0,2,0,0,1,1,0,2,0,0,2,1,0,0,0,0,0,0,0,0,0,0],"split_type":[0,0,0,0,0,0,0,0,0,0,0,0,0,0,0,0,0,0,0,0,0,0,0],"sum_hessian":[1.7455914E2,1.4559819E2,2.8960953E1,1.4209888E2,3.4993052E0,1.5683983E1,1.3276971E1,1.3452464E2,7.5742407E0,1.3980208E1,1.7037745E0,4.4410415E0,8.835929E0,1.0377889E2,3.074575E1,2.6375854E0,4.9366555E0,1.2237449E1,1.7427596E0,2.9588485E0,1.482193E0,7.12818E0,1.7077492E0],"tree_param":{"num_deleted":"0","num_feature":"3","num_nodes":"23","size_leaf_vector":"1"}},{"base_weights":[-3.5854082E-3,-3.6370978E-1,1.1961783E-2,-4.2206965E-2,-4.4662572E-2,4.6642405E-1,-3.0046408E-3,-2.3448886E-2,2.0686182E-1,-1.0711442E-2,7.203513E-1,5.43785E-2,-1.09971404E-1,-4.2555067E-3,2.216593E-2,8.255835E-3,5.201294E-2,3.7640773E-3,-3.2424904E-2,-3.3900466E-2,-2.0326017E-3],"categories":[],"categories_nodes":[],"categories_segments":[],"categories_sizes":[],"default_left":[0,0,0,0,0,0,0,0,0,0,0,0,0,0,0,0,0,0,0,0,0],"id":32,"left_children":[1,3,5,7,-1,9,11,-1,13,-1,15,17,19,-1,-1,-1,-1,-1,-1,-1,-1],"loss_changes":[9.863533E-1,1.2034872E0,1.151571E0,6.907665E-1,0E0,1.0872406E0,1.0169431E0,0E0,3.2915878E-1,0E0,5.672159E-1,1.6336131E0,2.2498438E0,0E0,0E0,0E0,0E0,0E0,0E0,0E0,0E0],"parents":[2147483647,0,0,1,1,2,2,3,3,5,5,6,6,8,8,10,10,11,11,12,12],"right_children":[2,4,6,8,-1,10,12,-1,14,-1,16,18,20,-1,-1,-1,-1,-1,-1,-1,-1],"split_conditions":[-5.944601E-1,4.613339E1,3.00513E1,3.04892E1,-4.4662572E-2,-1.921885E-1,3.136935E0,-2.3448886E-2,9.345224E-1,-1.0711442E-2,3.2319126E0,7.384582E-1,3.2430952E0,-4.2555067E-3,2.216593E-2,8.255835E-3,5.201294E-2,3.7640773E-3,-3.2424904E-2,-3.3900466E-2,-2.0326017E-3],"split_indices":[2,0,0,0,0,2,1,0,1,0,1,2,1,0,0,0,0,0,0,0,0],"split_type":[0,0,0,0,0,0,0,0,0,0,0,0,0,0,0,0,0,0,0,0,0],"sum_hessian":[1.7439137E2,6.290424E0,1.6810095E2,4.5858827E0,1.7045413E0,4.397712E0,1.6370323E2,1.3646603E0,3.2212224E0,1.237344E0,3.1603682E0,1.0686585E2,5.683738E1,1.7278137E0,1.4934087E0,1.7094934E0,1.4508748E0,1.0464664E2,2.2192206E0,5.2266464E0,5.1610733E1],"tree_param":{"num_deleted":"0","num_feature":"3","num_nodes":"21","size_leaf_vector":"1"}},{"base_weights":[-3.7894894E-3,-3.7123553E-2,1.594736E-1,-1.6629744E-2,-6.869569E-1,4.922354E-1,-7.3466085E-2,-5.149804E-2,2.4431129E-1,-4.2610716E-2,-1.5201822E-2,1.0014912E0,1.4585283E-1,-3.667053E-1,2.3209094E-1,-3.0006668E-6,-4.4266015E-2,-2.9949382E-2,2.8097425E-2,6.340158E-2,6.049507E-3,4.1521933E-2,-9.00244E-3,3.7244253E-3,-3.9399046E-2,3.3440825E-2,-7.6316567E-3],"categories":[],"categories_nodes":[],"categories_segments":[],"categories_sizes":[],"default_left":[0,0,0,0,0,0,0,0,0,0,0,0,0,0,0,0,0,0,0,0,0,0,0,0,0,0,0],"id":33,"left_children":[1,3,5,7,9,11,13,15,17,-1,-1,19,21,23,25,-1,-1,-1,-1,-1,-1,-1,-1,-1,-1,-1,-1],"loss_changes":[9.5978695E-1,1.9377946E0,2.3543587E0,1.3128994E0,2.2491932E-2,2.049146E0,1.7393551E0,5.442474E0,4.8956394E0,0E0,0E0,9.8891926E-1,2.0631733E0,1.8817704E0,1.7240804E0,0E0,0E0,0E0,0E0,0E0,0E0,0E0,0E0,0E0,0E0,0E0,0E0],"parents":[2147483647,0,0,1,1,2,2,3,3,4,4,5,5,6,6,7,7,8,8,11,11,12,12,13,13,14,14],"right_children":[2,4,6,8,10,12,14,16,18,-1,-1,20,22,24,26,-1,-1,-1,-1,-1,-1,-1,-1,-1,-1,-1,-1],"split_conditions":[6.1922576E-2,7.210656E1,1.7872168E-1,5.8919407E1,7.421992E1,3.1782846E0,4.931937E1,5.759722E1,-8.3561175E-2,-4.2610716E-2,-1.5201822E-2,5.981177E1,3.5913284E1,2.7723167E0,5.3612812E1,-3.0006668E-6,-4.4266015E-2,-2.9949382E-2,2.8097425E-2,6.340158E-2,6.049507E-3,4.1521933E-2,-9.00244E-3,3.7244253E-3,-3.9399046E-2,3.3440825E-2,-7.6316567E-3],"split_indices":[2,0,2,0,0,1,0,0,2,0,0,0,0,1,0,0,0,0,0,0,0,0,0,0,0,0,0],"split_type":[0,0,0,0,0,0,0,0,0,0,0,0,0,0,0,0,0,0,0,0,0,0,0,0,0,0,0],"sum_hessian":[1.7427153E2,1.453645E2,2.8907026E1,1.4191454E2,3.449972E0,1.1444725E1,1.7462301E1,1.258945E2,1.6020033E1,1.553822E0,1.8961499E0,3.8674572E0,7.5772686E0,8.80864E0,8.653661E0,1.1952137E2,6.3731346E0,4.1408033E0,1.187923E1,2.6309159E0,1.2365413E0,1.9445143E0,5.6327543E0,4.704691E0,4.1039486E0,3.7070801E0,4.946581E0],"tree_param":{"num_deleted":"0","num_feature":"3","num_nodes":"27","size_leaf_vector":"1"}},{"base_weights":[-3.683119E-3,-3.5189092E-1,1.1259992E-2,-4.117571E-2,-4.3591987E-2,3.0252403E-1,-1.0553677E-2,-2.2867372E-2,2.0074141E-1,4.6835545E-2,-2.054496E-1,1.7888363E-1,-4.6475075E-2,-4.121513E-3,2.1493578E-2,-3.9045557E-2,9.591303E-3,2.5791574E-2,-1.7082606E-2,-5.3277373E-2,-4.8279125E-4],"categories":[],"categories_nodes":[],"categories_segments":[],"categories_sizes":[],"default_left":[0,0,0,0,0,0,0,0,0,0,0,0,0,0,0,0,0,0,0,0,0],"id":34,"left_children":[1,3,5,7,-1,9,11,-1,13,-1,15,17,19,-1,-1,-1,-1,-1,-1,-1,-1],"loss_changes":[9.1460294E-1,1.1325521E0,1.0755389E0,6.5326494E-1,0E0,3.991694E0,1.083385E0,0E0,3.0934733E-1,0E0,1.8343469E0,4.6292357E0,5.0024815E0,0E0,0E0,0E0,0E0,0E0,0E0,0E0,0E0],"parents":[2147483647,0,0,1,1,2,2,3,3,5,5,6,6,8,8,10,10,11,11,12,12],"right_children":[2,4,6,8,-1,10,12,-1,14,-1,16,18,20,-1,-1,-1,-1,-1,-1,-1,-1],"split_conditions":[-5.944601E-1,4.613339E1,3.37695E1,3.04892E1,-4.3591987E-2,2.568137E0,-1.4263526E-1,-2.2867372E-2,9.345224E-1,4.6835545E-2,3.2319126E0,5.0661453E1,-1.1855938E-1,-4.121513E-3,2.1493578E-2,-3.9045557E-2,9.591303E-3,2.5791574E-2,-1.7082606E-2,-5.3277373E-2,-4.8279125E-4],"split_indices":[2,0,0,0,0,1,2,0,1,0,1,0,2,0,0,0,0,0,0,0,0],"split_type":[0,0,0,0,0,0,0,0,0,0,0,0,0,0,0,0,0,0,0,0,0],"sum_hessian":[1.7401189E2,6.2324805E0,1.677794E2,4.576695E0,1.655786E0,1.0793404E1,1.56986E2,1.355061E0,3.2216337E0,4.424971E0,6.368432E0,2.4388649E1,1.3259735E2,1.7272499E0,1.4943838E0,2.2065442E0,4.161888E0,1.4810625E1,9.578024E0,3.6494336E0,1.2894792E2],"tree_param":{"num_deleted":"0","num_feature":"3","num_nodes":"21","size_leaf_vector":"1"}},{"base_weights":[-3.9528147E-3,-2.5098684E-1,1.723412E-2,-3.7302654E-2,-1.0078764E-1,5.7497364E-2,-3.723784E-4,4.2936023E-2,-3.5220447E-1,-5.8018947E-1,1.5988082E-2,-2.9549235E-2,8.863532E-3,1.5135667E-2,-5.0311577E-2,1.7896814E-2,-4.2821033E-4],"categories":[],"categories_nodes":[],"categories_segments":[],"categories_sizes":[],"default_left":[0,0,0,0,0,0,0,0,0,0,0,0,0,0,0,0,0],"id":35,"left_children":[1,3,5,-1,7,-1,9,-1,11,13,15,-1,-1,-1,-1,-1,-1],"loss_changes":[9.195747E-1,9.567038E-1,3.231059E0,0E0,3.1498241E0,0E0,1.5319104E0,0E0,1.376856E0,1.9715797E0,1.321856E0,0E0,0E0,0E0,0E0,0E0,0E0],"parents":[2147483647,0,0,1,1,2,2,4,4,6,6,8,8,9,9,10,10],"right_children":[2,4,6,-1,8,-1,10,-1,12,14,16,-1,-1,-1,-1,-1,-1],"split_conditions":[-3.9419246E-1,3.0877161E1,-3.2284695E-1,-3.7302654E-2,3.8058357E1,5.7497364E-2,-2.8365466E-1,4.2936023E-2,1.8922272E0,4.0848465E1,3.37695E1,-2.9549235E-2,8.863532E-3,1.5135667E-2,-5.0311577E-2,1.7896814E-2,-4.2821033E-4],"split_indices":[2,0,2,0,0,0,2,0,1,0,0,0,0,0,0,0,0],"split_type":[0,0,0,0,0,0,0,0,0,0,0,0,0,0,0,0,0],"sum_hessian":[1.7386963E2,1.287731E1,1.6099232E2,2.0740423E0,1.08032675E1,1.4797367E0,1.5951259E2,1.7414949E0,9.061773E0,3.4316459E0,1.5608095E2,6.1652336E0,2.8965392E0,1.2111696E0,2.2204764E0,9.5464E0,1.4653455E2],"tree_param":{"num_deleted":"0","num_feature":"3","num_nodes":"17","size_leaf_vector":"1"}},{"base_weights":[-3.620668E-3,-3.5810284E-2,1.5691446E-1,-1.4062622E-2,-7.0315635E-1,4.930324E-1,-6.96323E-2,-2.8505009E-2,3.1360637E-2,-4.4067256E-2,-1.4492312E-2,9.461584E-1,1.831115E-1,-3.0185822E-1,2.9612952E-1,1.993592E-2,-2.4711625E-3,6.0703833E-2,5.909043E-3,-1.3431716E-2,2.9690582E-2,2.318397E-3,-2.4854146E-2,5.7732534E-2,-7.276976E-3],"categories":[],"categories_nodes":[],"categories_segments":[],"categories_sizes":[],"default_left":[0,0,0,0,0,0,0,0,0,0,0,0,0,0,0,0,0,0,0,0,0,0,0,0,0],"id":36,"left_children":[1,3,5,7,9,11,13,15,-1,-1,-1,17,19,21,23,-1,-1,-1,-1,-1,-1,-1,-1,-1,-1],"loss_changes":[9.0877277E-1,2.1147947E0,2.2712965E0,1.3403959E0,8.3310366E-2,1.5051959E0,1.6544157E0,1.2762858E0,0E0,0E0,0E0,8.801446E-1,1.7063885E0,8.228663E-1,3.0726378E0,0E0,0E0,0E0,0E0,0E0,0E0,0E0,0E0,0E0,0E0],"parents":[2147483647,0,0,1,1,2,2,3,3,4,4,5,5,6,6,7,7,11,11,12,12,13,13,14,14],"right_children":[2,4,6,8,10,12,14,16,-1,-1,-1,18,20,22,24,-1,-1,-1,-1,-1,-1,-1,-1,-1,-1],"split_conditions":[6.395515E-2,7.210656E1,1.7872168E-1,6.726661E1,7.421992E1,3.1782846E0,5.1526543E1,7.668136E-1,3.1360637E-2,-4.4067256E-2,-1.4492312E-2,5.981177E1,3.7170825E0,4.3872543E1,5.3612812E1,1.993592E-2,-2.4711625E-3,6.0703833E-2,5.909043E-3,-1.3431716E-2,2.9690582E-2,2.318397E-3,-2.4854146E-2,5.7732534E-2,-7.276976E-3],"split_indices":[2,0,2,0,0,1,0,1,0,0,0,0,1,0,0,0,0,0,0,0,0,0,0,0,0],"split_type":[0,0,0,0,0,0,0,0,0,0,0,0,0,0,0,0,0,0,0,0,0,0,0,0,0],"sum_hessian":[1.7377356E2,1.4539641E2,2.8377155E1,1.4179657E2,3.5998347E0,1.0951934E1,1.742522E1,1.3960797E2,2.18861E0,1.7241169E0,1.8757179E0,3.6144512E0,7.3374825E0,1.0765078E1,6.660144E0,5.673547E0,1.3393442E2,2.3784974E0,1.2359538E0,3.658862E0,3.6786203E0,4.141066E0,6.6240115E0,1.7140551E0,4.946089E0],"tree_param":{"num_deleted":"0","num_feature":"3","num_nodes":"25","size_leaf_vector":"1"}},{"base_weights":[-2.8633934E-3,-3.244065E-2,1.622385E-1,-1.169561E-2,-6.8741626E-1,5.938674E-1,-6.469643E-2,-5.0721385E-2,2.7873978E-1,-4.3228645E-2,-1.4066792E-2,7.867691E-1,4.64594E-2,3.8167402E-1,-2.4407814E-1,-1.397493E-4,-4.250366E-2,-2.8647712E-2,2.9062567E-2,7.5453944E-3,5.8431394E-2,-1.1457797E-2,1.5070197E-2,-1.8039644E-3,5.2112784E-2,-5.0563116E-2,-4.3750005E-3],"categories":[],"categories_nodes":[],"categories_segments":[],"categories_sizes":[],"default_left":[0,0,0,0,0,0,0,0,0,0,0,0,0,0,0,0,0,0,0,0,0,0,0,0,0,0,0],"id":37,"left_children":[1,3,5,7,9,11,13,15,17,-1,-1,19,21,23,25,-1,-1,-1,-1,-1,-1,-1,-1,-1,-1,-1,-1],"loss_changes":[8.5826707E-1,2.0161414E0,2.654253E0,1.6623682E0,8.454251E-2,9.455576E-1,1.5668342E0,4.9410915E0,4.8107195E0,0E0,0E0,1.478251E0,3.1403315E-1,1.6012074E0,1.561858E0,0E0,0E0,0E0,0E0,0E0,0E0,0E0,0E0,0E0,0E0,0E0,0E0],"parents":[2147483647,0,0,1,1,2,2,3,3,4,4,5,5,6,6,7,7,8,8,11,11,12,12,13,13,14,14],"right_children":[2,4,6,8,10,12,14,16,18,-1,-1,20,22,24,26,-1,-1,-1,-1,-1,-1,-1,-1,-1,-1,-1,-1],"split_conditions":[9.2977144E-2,7.210656E1,1.7872168E-1,5.8919407E1,7.421992E1,6.338163E1,1.6876942E0,5.759722E1,-8.3561175E-2,-4.3228645E-2,-1.4066792E-2,4.416593E1,3.5555053E0,1.3041724E0,1.9647183E0,-1.397493E-4,-4.250366E-2,-2.8647712E-2,2.9062567E-2,7.5453944E-3,5.8431394E-2,-1.1457797E-2,1.5070197E-2,-1.8039644E-3,5.2112784E-2,-5.0563116E-2,-4.3750005E-3],"split_indices":[2,0,2,0,0,0,1,0,2,0,0,0,1,1,1,0,0,0,0,0,0,0,0,0,0,0,0],"split_type":[0,0,0,0,0,0,0,0,0,0,0,0,0,0,0,0,0,0,0,0,0,0,0,0,0,0,0],"sum_hessian":[1.7367915E2,1.4797382E2,2.570533E1,1.4441754E2,3.5562801E0,8.300646E0,1.7404686E1,1.2803839E2,1.6379145E1,1.6899531E0,1.8663269E0,5.8144298E0,2.4862156E0,4.6660485E0,1.2738637E1,1.2174262E2,6.2957745E0,4.0585814E0,1.2320562E1,2.705123E0,3.1093068E0,1.2432822E0,1.2429334E0,3.4375296E0,1.2285191E0,1.233984E0,1.1504653E1],"tree_param":{"num_deleted":"0","num_feature":"3","num_nodes":"27","size_leaf_vector":"1"}},{"base_weights":[-2.9323066E-3,4.7669586E-2,-9.928196E-2,-3.3689313E-2,2.3881768E-1,-7.3125196E-1,-2.099984E-2,7.646816E-2,-4.6091092E-1,7.710525E-1,6.0253035E-2,-4.8717108E-2,-1.762413E-1,6.4433336E-1,-8.860012E-2,-1.744945E-2,7.2659343E-3,9.254762E-3,-4.0549397E-2,6.815052E-2,1.3155529E-2,-4.1619617E-2,8.726992E-3,-1.7900782E-2,4.2402535E-3,3.8949158E-2,1.20811295E-2,-4.7832064E-2,-1.4673867E-3],"categories":[],"categories_nodes":[],"categories_segments":[],"categories_sizes":[],"default_left":[0,0,0,0,0,0,0,0,0,0,0,0,0,0,0,0,0,0,0,0,0,0,0,0,0,0,0,0,0],"id":38,"left_children":[1,3,5,7,9,11,13,15,17,19,21,-1,23,25,27,-1,-1,-1,-1,-1,-1,-1,-1,-1,-1,-1,-1,-1,-1],"loss_changes":[8.5528237E-1,1.7973797E0,2.9725933E0,3.874672E0,3.2299862E0,7.224088E-1,2.5204456E0,1.975757E0,3.964389E0,2.219987E0,2.8894627E0,0E0,1.8407515E-1,9.22544E-2,2.5743165E0,0E0,0E0,0E0,0E0,0E0,0E0,0E0,0E0,0E0,0E0,0E0,0E0,0E0,0E0],"parents":[2147483647,0,0,1,1,2,2,3,3,4,4,5,5,6,6,7,7,8,8,9,9,10,10,12,12,13,13,14,14],"right_children":[2,4,6,8,10,12,14,16,18,20,22,-1,24,26,28,-1,-1,-1,-1,-1,-1,-1,-1,-1,-1,-1,-1,-1,-1],"split_conditions":[3.136935E0,2.2408543E0,3.2430952E0,1.9097109E0,2.568137E0,4.7374786E1,3.320148E0,-4.0698949E-1,4.238233E1,4.613339E1,3.5240757E1,-4.8717108E-2,3.1923583E0,4.0608284E1,3.352587E0,-1.744945E-2,7.2659343E-3,9.254762E-3,-4.0549397E-2,6.815052E-2,1.3155529E-2,-4.1619617E-2,8.726992E-3,-1.7900782E-2,4.2402535E-3,3.8949158E-2,1.20811295E-2,-4.7832064E-2,-1.4673867E-3],"split_indices":[1,1,1,1,1,0,1,2,0,0,0,0,1,0,1,0,0,0,0,0,0,0,0,0,0,0,0,0,0],"split_type":[0,0,0,0,0,0,0,0,0,0,0,0,0,0,0,0,0,0,0,0,0,0,0,0,0,0,0,0,0],"sum_hessian":[1.7345474E2,1.140579E2,5.9396843E1,8.058292E1,3.347498E1,5.6272144E0,5.3769627E1,6.471692E1,1.5866001E1,7.57592E0,2.589906E1,3.3878334E0,2.2393813E0,4.1724234E0,4.9597202E1,8.447483E0,5.6269432E1,5.741794E0,1.0124207E1,2.7212105E0,4.85471E0,2.2263815E0,2.3672676E1,1.1011524E0,1.1382289E0,2.4266896E0,1.7457339E0,2.2014215E0,4.7395782E1],"tree_param":{"num_deleted":"0","num_feature":"3","num_nodes":"29","size_leaf_vector":"1"}},{"base_weights":[-3.1032441E-3,3.6732413E-2,-1.20325E-1,7.2770086E-3,8.721757E-1,-4.558992E-1,3.212595E-2,3.0202515E-2,-7.710837E-1,7.931786E-3,5.4883804E-2,-9.8726153E-1,-6.173621E-2,4.311296E-2,-5.212894E-2,2.2812594E-4,3.1136533E-2,-5.211546E-2,-6.3109803E-3,-5.154208E-5,-6.610894E-2,3.1552162E-2,-2.5100296E-2,1.5637394E-2,-6.857991E-3],"categories":[],"categories_nodes":[],"categories_segments":[],"categories_sizes":[],"default_left":[0,0,0,0,0,0,0,0,0,0,0,0,0,0,0,0,0,0,0,0,0,0,0,0,0],"id":39,"left_children":[1,3,5,7,9,11,13,15,17,-1,-1,19,21,-1,23,-1,-1,-1,-1,-1,-1,-1,-1,-1,-1],"loss_changes":[8.1840944E-1,3.2141306E0,2.2884984E0,2.2970276E0,5.416548E-1,2.8608618E0,2.2479186E0,1.8922249E0,5.126653E-1,0E0,0E0,1.9390125E0,3.0850208E0,0E0,9.593214E-1,0E0,0E0,0E0,0E0,0E0,0E0,0E0,0E0,0E0,0E0],"parents":[2147483647,0,0,1,1,2,2,3,3,4,4,5,5,6,6,7,7,8,8,11,11,12,12,14,14],"right_children":[2,4,6,8,10,12,14,16,18,-1,-1,20,22,-1,24,-1,-1,-1,-1,-1,-1,-1,-1,-1,-1],"split_conditions":[3.4263177E0,3.362615E0,3.7854745E0,3.320148E0,3.4029068E1,4.613339E1,3.5913284E1,3.2430952E0,3.343208E0,7.931786E-3,5.4883804E-2,3.5240757E1,5.2111683E1,4.311296E-2,3.8854291E0,2.2812594E-4,3.1136533E-2,-5.211546E-2,-6.3109803E-3,-5.154208E-5,-6.610894E-2,3.1552162E-2,-2.5100296E-2,1.5637394E-2,-6.857991E-3],"split_indices":[1,1,1,1,0,0,0,1,1,0,0,0,0,0,1,0,0,0,0,0,0,0,0,0,0],"split_type":[0,0,0,0,0,0,0,0,0,0,0,0,0,0,0,0,0,0,0,0,0,0,0,0,0],"sum_hessian":[1.7331657E2,1.2986946E2,4.3447105E1,1.2642093E2,3.4485393E0,1.2950365E1,3.049674E1,1.2373761E2,2.6833177E0,1.2372023E0,2.211337E0,4.8744817E0,8.075884E0,1.9592283E0,2.8537514E1,1.195712E2,4.1664085E0,1.4550219E0,1.2282959E0,1.4899893E0,3.3844926E0,2.96968E0,5.106203E0,4.8873425E0,2.3650171E1],"tree_param":{"num_deleted":"0","num_feature":"3","num_nodes":"25","size_leaf_vector":"1"}},{"base_weights":[-2.7996423E-3,-3.138827E-2,1.5681931E-1,-1.1141434E-2,-6.7506343E-1,5.786085E-1,-6.4274855E-2,-3.6598735E-2,3.9612308E-1,-4.2442486E-2,-1.3878331E-2,7.612504E-1,5.7535235E-2,-3.415768E-1,2.2331801E-1,-9.302688E-4,-3.7355553E-2,-2.1600416E-2,4.0287446E-2,7.1789934E-3,5.668364E-2,-1.0718403E-2,1.5190223E-2,3.8300527E-3,-3.727511E-2,3.1743504E-2,-6.95052E-3],"categories":[],"categories_nodes":[],"categories_segments":[],"categories_sizes":[],"default_left":[0,0,0,0,0,0,0,0,0,0,0,0,0,0,0,0,0,0,0,0,0,0,0,0,0,0,0],"id":40,"left_children":[1,3,5,7,9,11,13,15,17,-1,-1,19,21,23,25,-1,-1,-1,-1,-1,-1,-1,-1,-1,-1,-1,-1],"loss_changes":[7.9993963E-1,1.9289554E0,2.520644E0,1.518614E0,7.62527E-2,8.373368E-1,1.541463E0,1.7434006E0,3.2720084E0,0E0,0E0,1.3954442E0,2.9846784E-1,1.7037956E0,1.5232683E0,0E0,0E0,0E0,0E0,0E0,0E0,0E0,0E0,0E0,0E0,0E0,0E0],"parents":[2147483647,0,0,1,1,2,2,3,3,4,4,5,5,6,6,7,7,8,8,11,11,12,12,13,13,14,14],"right_children":[2,4,6,8,10,12,14,16,18,-1,-1,20,22,24,26,-1,-1,-1,-1,-1,-1,-1,-1,-1,-1,-1,-1],"split_conditions":[9.2977144E-2,7.210656E1,1.7872168E-1,6.338163E1,7.421992E1,6.338163E1,4.931937E1,6.1899E1,-8.3561175E-2,-4.2442486E-2,-1.3878331E-2,4.416593E1,3.5555053E0,2.7723167E0,5.3612812E1,-9.302688E-4,-3.7355553E-2,-2.1600416E-2,4.0287446E-2,7.1789934E-3,5.668364E-2,-1.0718403E-2,1.5190223E-2,3.8300527E-3,-3.727511E-2,3.1743504E-2,-6.95052E-3],"split_indices":[2,0,2,0,0,0,0,0,2,0,0,0,1,1,0,0,0,0,0,0,0,0,0,0,0,0,0],"split_type":[0,0,0,0,0,0,0,0,0,0,0,0,0,0,0,0,0,0,0,0,0,0,0,0,0,0,0],"sum_hessian":[1.732203E2,1.4758957E2,2.5630745E1,1.4407498E2,3.5145779E0,8.258564E0,1.737218E1,1.3645555E2,7.6194315E0,1.6553621E0,1.8592157E0,5.7738423E0,2.484722E0,8.748763E0,8.623417E0,1.3408607E2,2.369475E0,2.5035067E0,5.115925E0,2.6929908E0,3.0808518E0,1.2424659E0,1.242256E0,4.6966996E0,4.052064E0,3.6852818E0,4.9381356E0],"tree_param":{"num_deleted":"0","num_feature":"3","num_nodes":"27","size_leaf_vector":"1"}},{"base_weights":[-2.7575202E-3,4.563384E-2,-9.513314E-2,-3.171448E-2,2.2735213E-1,-7.1173763E-1,-1.919034E-2,7.350186E-2,-4.3961382E-1,7.3934674E-1,5.6198724E-2,-4.7407605E-2,-1.7400898E-1,5.9888524E-1,-8.207357E-2,-4.709645E-3,1.2157003E-2,8.892144E-3,-3.8737502E-2,6.598111E-2,1.2227981E-2,-4.0121105E-2,8.319733E-3,-1.7678501E-2,4.143975E-3,3.6625285E-2,1.0752685E-2,-4.5607246E-2,-1.2840012E-3],"categories":[],"categories_nodes":[],"categories_segments":[],"categories_sizes":[],"default_left":[0,0,0,0,0,0,0,0,0,0,0,0,0,0,0,0,0,0,0,0,0,0,0,0,0,0,0,0,0],"id":41,"left_children":[1,3,5,7,9,11,13,15,17,19,21,-1,23,25,27,-1,-1,-1,-1,-1,-1,-1,-1,-1,-1,-1,-1,-1,-1],"loss_changes":[7.8234714E-1,1.6220373E0,2.8031988E0,3.5285726E0,2.9750242E0,6.700728E-1,2.170734E0,1.8895237E0,3.6241388E0,2.1298585E0,2.6769912E0,0E0,1.7833075E-1,1.0718334E-1,2.3370018E0,0E0,0E0,0E0,0E0,0E0,0E0,0E0,0E0,0E0,0E0,0E0,0E0,0E0,0E0],"parents":[2147483647,0,0,1,1,2,2,3,3,4,4,5,5,6,6,7,7,8,8,9,9,10,10,12,12,13,13,14,14],"right_children":[2,4,6,8,10,12,14,16,18,20,22,-1,24,26,28,-1,-1,-1,-1,-1,-1,-1,-1,-1,-1,-1,-1,-1,-1],"split_conditions":[3.136935E0,2.2408543E0,3.2430952E0,1.9097109E0,2.568137E0,4.7374786E1,3.320148E0,1.3100524E0,4.238233E1,4.613339E1,3.5240757E1,-4.7407605E-2,3.1923583E0,4.0608284E1,3.352587E0,-4.709645E-3,1.2157003E-2,8.892144E-3,-3.8737502E-2,6.598111E-2,1.2227981E-2,-4.0121105E-2,8.319733E-3,-1.7678501E-2,4.143975E-3,3.6625285E-2,1.0752685E-2,-4.5607246E-2,-1.2840012E-3],"split_indices":[1,1,1,1,1,0,1,1,0,0,0,0,1,0,1,0,0,0,0,0,0,0,0,0,0,0,0,0,0],"split_type":[0,0,0,0,0,0,0,0,0,0,0,0,0,0,0,0,0,0,0,0,0,0,0,0,0,0,0,0,0],"sum_hessian":[1.7304344E2,1.1388847E2,5.9154964E1,8.046434E1,3.342414E1,5.5687156E0,5.358625E1,6.4616516E1,1.5847822E1,7.5422335E0,2.5881907E1,3.3379288E0,2.2307868E0,4.161301E0,4.942495E1,3.2718044E1,3.1898472E1,5.7406187E0,1.01072035E1,2.7039962E0,4.8382373E0,2.2293737E0,2.3652533E1,1.0914937E0,1.139293E0,2.4129088E0,1.7483923E0,2.1788757E0,4.724607E1],"tree_param":{"num_deleted":"0","num_feature":"3","num_nodes":"29","size_leaf_vector":"1"}},{"base_weights":[-2.8371778E-3,-2.300098E-1,1.6547916E-2,2.6472777E-1,-3.558355E-1,5.593918E-2,-6.2356313E-4,2.2922624E-2,-2.4734964E-3,-6.0549194E-1,7.132443E-2,-5.439521E-1,1.4708741E-2,-3.9043225E-2,-1.1246919E-2,1.8125331E-2,-2.4097066E-2,1.5101592E-2,-4.779211E-2,1.4591779E-2,-8.826405E-4],"categories":[],"categories_nodes":[],"categories_segments":[],"categories_sizes":[],"default_left":[0,0,0,0,0,0,0,0,0,0,0,0,0,0,0,0,0,0,0,0,0],"id":42,"left_children":[1,3,5,7,9,-1,11,-1,-1,13,15,17,19,-1,-1,-1,-1,-1,-1,-1,-1],"loss_changes":[7.696734E-1,9.49561E-1,3.0511918E0,2.2716245E-1,1.2569071E0,0E0,1.3383659E0,0E0,0E0,3.107698E-1,9.9515676E-1,1.8250959E0,1.4067938E0,0E0,0E0,0E0,0E0,0E0,0E0,0E0,0E0],"parents":[2147483647,0,0,1,1,2,2,3,3,4,4,6,6,9,9,10,10,11,11,12,12],"right_children":[2,4,6,8,10,-1,12,-1,-1,14,16,18,20,-1,-1,-1,-1,-1,-1,-1,-1],"split_conditions":[-3.9419246E-1,9.062758E-1,-3.2284695E-1,-8.306465E-1,1.8922272E0,5.593918E-2,-2.8365466E-1,2.2922624E-2,-2.4734964E-3,-4.764667E-1,-4.7300136E-1,4.0848465E1,-1.4263526E-1,-3.9043225E-2,-1.1246919E-2,1.8125331E-2,-2.4097066E-2,1.5101592E-2,-4.779211E-2,1.4591779E-2,-8.826405E-4],"split_indices":[2,1,2,2,1,0,2,0,0,2,2,0,2,0,0,0,0,0,0,0,0],"split_type":[0,0,0,0,0,0,0,0,0,0,0,0,0,0,0,0,0,0,0,0,0],"sum_hessian":[1.72912E2,1.2740591E1,1.6017142E2,2.3594556E0,1.0381135E1,1.4728942E0,1.5869852E2,1.1755354E0,1.1839201E0,6.288372E0,4.0927634E0,3.4092135E0,1.552893E2,3.5845613E0,2.7038107E0,2.9073963E0,1.1853669E0,1.2036815E0,2.2055323E0,1.5399379E1,1.3988992E2],"tree_param":{"num_deleted":"0","num_feature":"3","num_nodes":"21","size_leaf_vector":"1"}},{"base_weights":[-2.6968794E-3,1.376003E-2,-2.7489293E-1,-1.4955638E-3,5.609281E-2,1.572871E-1,-5.822314E-1,-3.662663E-1,1.7418338E-2,-4.770778E-1,5.6248605E-2,-5.043946E-2,9.733907E-3,2.2341358E-3,-4.1913986E-2,6.4526536E-3,-2.170174E-3,1.5588114E-2,-5.0210994E-2],"categories":[],"categories_nodes":[],"categories_segments":[],"categories_sizes":[],"default_left":[0,0,0,0,0,0,0,0,0,0,0,0,0,0,0,0,0,0,0],"id":43,"left_children":[1,3,5,7,-1,9,11,13,15,17,-1,-1,-1,-1,-1,-1,-1,-1,-1],"loss_changes":[7.8258556E-1,2.789245E0,1.4145024E0,1.1354992E0,0E0,3.5609434E0,2.1958075E0,1.6111665E0,1.0685185E0,1.842501E0,0E0,0E0,0E0,0E0,0E0,0E0,0E0,0E0,0E0],"parents":[2147483647,0,0,1,1,2,2,3,3,5,5,6,6,7,7,8,8,9,9],"right_children":[2,4,6,8,-1,10,12,14,16,18,-1,-1,-1,-1,-1,-1,-1,-1,-1],"split_conditions":[5.748801E0,5.639655E0,5.0855625E1,-4.8503846E-1,5.609281E-2,7.2105494E0,5.885821E1,4.221645E1,1.8578315E0,-1.1708249E-1,5.6248605E-2,-5.043946E-2,9.733907E-3,2.2341358E-3,-4.1913986E-2,6.4526536E-3,-2.170174E-3,1.5588114E-2,-5.0210994E-2],"split_indices":[1,1,0,2,0,1,0,0,1,2,0,0,0,0,0,0,0,0,0],"split_type":[0,0,0,0,0,0,0,0,0,0,0,0,0,0,0,0,0,0,0],"sum_hessian":[1.7285916E2,1.6389929E2,8.959866E0,1.6265855E2,1.2407337E0,3.926559E0,5.0333066E0,7.113017E0,1.5554555E2,2.6779935E0,1.2485653E0,3.0566218E0,1.9766848E0,4.286445E0,2.826572E0,5.4462013E1,1.0108353E2,1.2363869E0,1.4416068E0],"tree_param":{"num_deleted":"0","num_feature":"3","num_nodes":"19","size_leaf_vector":"1"}},{"base_weights":[-2.5667911E-3,-3.0150551E-2,1.5158811E-1,-1.0339826E-2,-6.6434795E-1,5.6325364E-1,-6.402551E-2,-4.7116257E-2,2.6553E-1,-4.175478E-2,-1.37436185E-2,7.41141E-1,5.7730448E-2,-2.8489995E-1,2.8286603E-1,-7.159982E-5,-4.083358E-2,-2.6847383E-2,2.7223138E-2,7.263578E-3,5.5037357E-2,-1.0270259E-2,1.4749578E-2,2.5272209E-3,-2.3666E-2,5.528294E-2,-6.8744025E-3],"categories":[],"categories_nodes":[],"categories_segments":[],"categories_sizes":[],"default_left":[0,0,0,0,0,0,0,0,0,0,0,0,0,0,0,0,0,0,0,0,0,0,0,0,0,0,0],"id":44,"left_children":[1,3,5,7,9,11,13,15,17,-1,-1,19,21,23,25,-1,-1,-1,-1,-1,-1,-1,-1,-1,-1,-1,-1],"loss_changes":[7.434448E-1,1.8554126E0,2.3917084E0,1.4810791E0,6.799209E-2,7.86726E-1,1.4838676E0,4.5190144E0,4.1373463E0,0E0,0E0,1.2840838E0,2.782002E-1,7.626689E-1,2.7898276E0,0E0,0E0,0E0,0E0,0E0,0E0,0E0,0E0,0E0,0E0,0E0,0E0],"parents":[2147483647,0,0,1,1,2,2,3,3,4,4,5,5,6,6,7,7,8,8,11,11,12,12,13,13,14,14],"right_children":[2,4,6,8,10,12,14,16,18,-1,-1,20,22,24,26,-1,-1,-1,-1,-1,-1,-1,-1,-1,-1,-1,-1],"split_conditions":[9.2977144E-2,7.210656E1,1.7872168E-1,5.8919407E1,7.421992E1,6.338163E1,5.1526543E1,5.759722E1,-8.3561175E-2,-4.175478E-2,-1.37436185E-2,4.416593E1,3.5555053E0,4.3872543E1,5.3612812E1,-7.159982E-5,-4.083358E-2,-2.6847383E-2,2.7223138E-2,7.263578E-3,5.5037357E-2,-1.0270259E-2,1.4749578E-2,2.5272209E-3,-2.3666E-2,5.528294E-2,-6.8744025E-3],"split_indices":[2,0,2,0,0,0,0,0,2,0,0,0,1,0,0,0,0,0,0,0,0,0,0,0,0,0,0],"split_type":[0,0,0,0,0,0,0,0,0,0,0,0,0,0,0,0,0,0,0,0,0,0,0,0,0,0,0],"sum_hessian":[1.7276399E2,1.472247E2,2.5539288E1,1.437506E2,3.474102E0,8.224374E0,1.7314913E1,1.2757295E2,1.6177647E1,1.6198149E0,1.8542873E0,5.738855E0,2.4855192E0,1.0688187E1,6.6267266E0,1.2136976E2,6.203193E0,3.9341774E0,1.2243469E1,2.6883001E0,3.0505548E0,1.2421602E0,1.2433589E0,4.107445E0,6.5807414E0,1.6894763E0,4.9372506E0],"tree_param":{"num_deleted":"0","num_feature":"3","num_nodes":"27","size_leaf_vector":"1"}},{"base_weights":[-2.4602702E-3,3.465631E-2,-1.11905664E-1,6.1537507E-3,8.416265E-1,-4.367333E-1,3.5635013E-2,2.7797783E-2,-7.31994E-1,7.653856E-3,5.297025E-2,-9.529871E-1,-5.612581E-2,4.1761957E-2,-4.5886178E-2,1.9610501E-4,2.8940454E-2,-4.937849E-2,-6.258649E-3,-4.538517E-5,-6.3998505E-2,3.060302E-2,-2.418574E-2,1.4489069E-2,-6.668524E-3],"categories":[],"categories_nodes":[],"categories_segments":[],"categories_sizes":[],"default_left":[0,0,0,0,0,0,0,0,0,0,0,0,0,0,0,0,0,0,0,0,0,0,0,0,0],"id":45,"left_children":[1,3,5,7,9,11,13,15,17,-1,-1,19,21,-1,23,-1,-1,-1,-1,-1,-1,-1,-1,-1,-1],"loss_changes":[7.0875484E-1,2.9927187E0,2.1328988E0,2.0477664E0,5.0349593E-1,2.6727548E0,2.078947E0,1.6323153E0,4.4269955E-1,0E0,0E0,1.8124051E0,2.8814945E0,0E0,9.007297E-1,0E0,0E0,0E0,0E0,0E0,0E0,0E0,0E0,0E0,0E0],"parents":[2147483647,0,0,1,1,2,2,3,3,4,4,5,5,6,6,7,7,8,8,11,11,12,12,14,14],"right_children":[2,4,6,8,10,12,14,16,18,-1,-1,20,22,-1,24,-1,-1,-1,-1,-1,-1,-1,-1,-1,-1],"split_conditions":[3.4263177E0,3.362615E0,3.7854745E0,3.320148E0,3.4029068E1,4.613339E1,3.5913284E1,3.2430952E0,3.343208E0,7.653856E-3,5.297025E-2,3.5240757E1,5.2111683E1,4.1761957E-2,-1.4661147E-1,1.9610501E-4,2.8940454E-2,-4.937849E-2,-6.258649E-3,-4.538517E-5,-6.3998505E-2,3.060302E-2,-2.418574E-2,1.4489069E-2,-6.668524E-3],"split_indices":[1,1,1,1,0,0,0,1,1,0,0,0,0,0,2,0,0,0,0,0,0,0,0,0,0],"split_type":[0,0,0,0,0,0,0,0,0,0,0,0,0,0,0,0,0,0,0,0,0,0,0,0,0],"sum_hessian":[1.7251927E2,1.2933934E2,4.317993E1,1.25900116E2,3.4392238E0,1.2874706E1,3.0305223E1,1.2324855E2,2.6515634E0,1.2355841E0,2.2036397E0,4.825529E0,8.049177E0,1.9484174E0,2.8356806E1,1.1909519E2,4.153355E0,1.4242581E0,1.2273053E0,1.4899637E0,3.3355656E0,2.9725697E0,5.076607E0,5.384541E0,2.2972265E1],"tree_param":{"num_deleted":"0","num_feature":"3","num_nodes":"25","size_leaf_vector":"1"}},{"base_weights":[-2.1987495E-3,-3.1458285E-2,1.4179732E-1,-1.3801457E-2,-6.1566746E-1,5.04488E-2,6.2250644E-2,-2.771223E-2,3.0488996E-2,-3.8541887E-2,-1.3472808E-2,-2.3584144E-1,4.0961868E-1,1.892473E-2,-2.3867302E-3,1.7622234E-2,-1.9177865E-2,4.1191276E-2,-1.6966139E-3],"categories":[],"categories_nodes":[],"categories_segments":[],"categories_sizes":[],"default_left":[0,0,0,0,0,0,0,0,0,0,0,0,0,0,0,0,0,0,0],"id":46,"left_children":[1,3,5,7,9,-1,11,13,-1,-1,-1,15,17,-1,-1,-1,-1,-1,-1],"loss_changes":[7.350628E-1,1.4865899E0,1.969819E0,1.246161E0,1.9488573E-2,0E0,3.001771E0,1.1532557E0,0E0,0E0,0E0,1.50243E0,2.4756064E0,0E0,0E0,0E0,0E0,0E0,0E0],"parents":[2147483647,0,0,1,1,2,2,3,3,4,4,6,6,7,7,11,11,12,12],"right_children":[2,4,6,8,10,-1,12,14,-1,-1,-1,16,18,-1,-1,-1,-1,-1,-1],"split_conditions":[6.1922576E-2,7.210656E1,3.479659E1,6.726661E1,7.421992E1,5.04488E-2,5.1526543E1,7.668136E-1,3.0488996E-2,-3.8541887E-2,-1.3472808E-2,1.6876942E0,6.0868183E1,1.892473E-2,-2.3867302E-3,1.7622234E-2,-1.9177865E-2,4.1191276E-2,-1.6966139E-3],"split_indices":[2,0,0,0,0,0,0,1,0,0,0,1,0,0,0,0,0,0,0],"split_type":[0,0,0,0,0,0,0,0,0,0,0,0,0,0,0,0,0,0,0],"sum_hessian":[1.7240547E2,1.4393906E2,2.8466417E1,1.4070995E2,3.2291183E0,1.4101022E0,2.7056316E1,1.385742E2,2.1357358E0,1.3828406E0,1.8462777E0,1.4733716E1,1.2322599E1,5.6685753E0,1.3290562E2,2.6788986E0,1.2054817E1,5.928745E0,6.393855E0],"tree_param":{"num_deleted":"0","num_feature":"3","num_nodes":"19","size_leaf_vector":"1"}},{"base_weights":[-1.6080834E-3,-2.842221E-2,1.4860475E-1,-9.665332E-3,-6.3866454E-1,5.418357E-1,-5.71397E-2,-3.3326834E-2,3.732048E-1,-4.036762E-2,-1.3077634E-2,5.2594166E-2,3.0868345E-1,3.4484962E-1,-2.1942279E-1,-7.827232E-4,-3.668376E-2,-2.0368306E-2,3.7756857E-2,-4.7227073E-2,3.441451E-2,-2.7225842E-3,4.9422715E-2,-4.8917748E-2,-3.2768336E-3],"categories":[],"categories_nodes":[],"categories_segments":[],"categories_sizes":[],"default_left":[0,0,0,0,0,0,0,0,0,0,0,0,0,0,0,0,0,0,0,0,0,0,0,0,0],"id":47,"left_children":[1,3,5,7,9,11,13,15,17,-1,-1,-1,19,21,23,-1,-1,-1,-1,-1,-1,-1,-1,-1,-1],"loss_changes":[7.022144E-1,1.6865337E0,2.1675804E0,1.3214014E0,6.838989E-2,7.653961E-1,1.2657207E0,1.6841009E0,2.8392076E0,0E0,0E0,0E0,4.316273E0,1.5020454E0,1.5250282E0,0E0,0E0,0E0,0E0,0E0,0E0,0E0,0E0,0E0,0E0],"parents":[2147483647,0,0,1,1,2,2,3,3,4,4,5,5,6,6,7,7,8,8,12,12,13,13,14,14],"right_children":[2,4,6,8,10,12,14,16,18,-1,-1,-1,20,22,24,-1,-1,-1,-1,-1,-1,-1,-1,-1,-1],"split_conditions":[9.2977144E-2,7.210656E1,1.7872168E-1,6.338163E1,7.421992E1,3.9506992E1,1.6876942E0,6.1899E1,-8.3561175E-2,-4.036762E-2,-1.3077634E-2,5.2594166E-2,4.416593E1,1.3041724E0,1.9647183E0,-7.827232E-4,-3.668376E-2,-2.0368306E-2,3.7756857E-2,-4.7227073E-2,3.441451E-2,-2.7225842E-3,4.9422715E-2,-4.8917748E-2,-3.2768336E-3],"split_indices":[2,0,2,0,0,0,1,0,2,0,0,0,0,1,1,0,0,0,0,0,0,0,0,0,0],"split_type":[0,0,0,0,0,0,0,0,0,0,0,0,0,0,0,0,0,0,0,0,0,0,0,0,0],"sum_hessian":[1.7229216E2,1.468832E2,2.5408972E1,1.4348865E2,3.394539E0,8.166719E0,1.7242252E1,1.3599695E2,7.491702E0,1.5571288E0,1.8374104E0,1.460385E0,6.706334E0,4.635278E0,1.2606975E1,1.336469E2,2.3500516E0,2.4394677E0,5.0522346E0,1.2131287E0,5.4932055E0,3.4254665E0,1.2098116E0,1.2221158E0,1.1384859E1],"tree_param":{"num_deleted":"0","num_feature":"3","num_nodes":"25","size_leaf_vector":"1"}},{"base_weights":[-1.7563329E-3,4.3984532E-2,-8.939023E-2,-3.164081E-2,2.2137994E-1,-6.934209E-1,-1.5356504E-2,6.763441E-2,-4.1545147E-1,7.1496105E-1,5.704426E-2,-4.6255883E-2,-1.6896713E-1,5.56462E-1,-7.3765054E-2,-4.6676225E-3,1.1526304E-2,8.653135E-3,-3.6815356E-2,6.4260304E-2,1.1478794E-2,-3.850828E-2,8.162914E-3,-1.7176269E-2,3.9555775E-3,3.4291063E-2,9.725418E-3,-4.3626674E-2,-9.906767E-4],"categories":[],"categories_nodes":[],"categories_segments":[],"categories_sizes":[],"default_left":[0,0,0,0,0,0,0,0,0,0,0,0,0,0,0,0,0,0,0,0,0,0,0,0,0,0,0,0,0],"id":48,"left_children":[1,3,5,7,9,11,13,15,17,19,21,-1,23,25,27,-1,-1,-1,-1,-1,-1,-1,-1,-1,-1,-1,-1,-1,-1],"loss_changes":[6.9788706E-1,1.5420265E0,2.6591585E0,3.1181097E0,2.7433586E0,6.330285E-1,1.8514934E0,1.7336731E0,3.300781E0,2.054016E0,2.483703E0,0E0,1.6635223E-1,1.07305765E-1,2.1402779E0,0E0,0E0,0E0,0E0,0E0,0E0,0E0,0E0,0E0,0E0,0E0,0E0,0E0,0E0],"parents":[2147483647,0,0,1,1,2,2,3,3,4,4,5,5,6,6,7,7,8,8,9,9,10,10,12,12,13,13,14,14],"right_children":[2,4,6,8,10,12,14,16,18,20,22,-1,24,26,28,-1,-1,-1,-1,-1,-1,-1,-1,-1,-1,-1,-1,-1,-1],"split_conditions":[3.136935E0,2.2408543E0,3.2430952E0,1.9097109E0,2.568137E0,4.7374786E1,3.320148E0,1.3100524E0,4.238233E1,4.613339E1,3.5240757E1,-4.6255883E-2,3.1923583E0,4.0608284E1,3.352587E0,-4.6676225E-3,1.1526304E-2,8.653135E-3,-3.6815356E-2,6.4260304E-2,1.1478794E-2,-3.850828E-2,8.162914E-3,-1.7176269E-2,3.9555775E-3,3.4291063E-2,9.725418E-3,-4.3626674E-2,-9.906767E-4],"split_indices":[1,1,1,1,1,0,1,1,0,0,0,0,1,0,1,0,0,0,0,0,0,0,0,0,0,0,0,0,0],"split_type":[0,0,0,0,0,0,0,0,0,0,0,0,0,0,0,0,0,0,0,0,0,0,0,0,0,0,0,0,0],"sum_hessian":[1.7212308E2,1.1342075E2,5.870233E1,8.00965E1,3.3324257E1,5.4958873E0,5.3206444E1,6.429098E1,1.5805514E1,7.4868727E0,2.5837385E1,3.2819848E0,2.2139025E0,4.1408215E0,4.906562E1,3.2549255E1,3.1741726E1,5.739229E0,1.0066285E1,2.684838E0,4.802035E0,2.2287202E0,2.3608665E1,1.0736765E0,1.140226E0,2.3913841E0,1.7494375E0,2.1444123E0,4.692121E1],"tree_param":{"num_deleted":"0","num_feature":"3","num_nodes":"29","size_leaf_vector":"1"}},{"base_weights":[-1.8841374E-3,-2.1784802E-1,1.6461855E-2,-3.5459984E-2,-7.0220105E-2,4.7827855E-2,-2.7083769E-3,4.2035457E-2,-3.1650877E-1,-7.2830194E-1,1.430754E-2,-2.6549047E-2,7.435381E-3,-3.5721331E-3,-5.0864734E-2,1.4302151E-2,-8.742078E-4],"categories":[],"categories_nodes":[],"categories_segments":[],"categories_sizes":[],"default_left":[0,0,0,0,0,0,0,0,0,0,0,0,0,0,0,0,0],"id":49,"left_children":[1,3,5,-1,7,-1,9,-1,11,13,15,-1,-1,-1,-1,-1,-1],"loss_changes":[6.8891543E-1,9.376965E-1,2.8925517E0,0E0,2.8636987E0,0E0,1.9630576E0,0E0,1.0608156E0,6.188816E-1,1.3484262E0,0E0,0E0,0E0,0E0,0E0,0E0],"parents":[2147483647,0,0,1,1,2,2,4,4,6,6,8,8,9,9,10,10],"right_children":[2,4,6,-1,8,-1,10,-1,12,14,16,-1,-1,-1,-1,-1,-1],"split_conditions":[-3.9419246E-1,3.0877161E1,-3.14458E-1,-3.5459984E-2,3.8058357E1,4.7827855E-2,-2.8365466E-1,4.2035457E-2,1.8922272E0,4.2148106E1,-1.4263526E-1,-2.6549047E-2,7.435381E-3,-3.5721331E-3,-5.0864734E-2,1.4302151E-2,-8.742078E-4],"split_indices":[2,0,2,0,0,0,2,0,1,0,2,0,0,0,0,0,0],"split_type":[0,0,0,0,0,0,0,0,0,0,0,0,0,0,0,0,0],"sum_hessian":[1.7197246E2,1.2613651E1,1.593588E2,2.0353627E0,1.0578289E1,2.2074788E0,1.5715132E2,1.7376955E0,8.840593E0,2.6430953E0,1.5450822E2,5.9542336E0,2.8863597E0,1.1886328E0,1.4544625E0,1.5345668E1,1.3916255E2],"tree_param":{"num_deleted":"0","num_feature":"3","num_nodes":"17","size_leaf_vector":"1"}},{"base_weights":[-1.8297503E-3,1.3448253E-2,-2.5579655E-1,-1.4197576E-3,5.448234E-2,1.633888E-1,-5.575601E-1,-3.479788E-1,1.6372183E-2,-4.5612395E-1,5.4853316E-2,-4.8850354E-2,1.0110146E-2,2.3893712E-3,-4.0674563E-2,2.1391738E-2,9.88093E-5,1.4927345E-2,-4.827427E-2],"categories":[],"categories_nodes":[],"categories_segments":[],"categories_sizes":[],"default_left":[0,0,0,0,0,0,0,0,0,0,0,0,0,0,0,0,0,0,0],"id":50,"left_children":[1,3,5,7,-1,9,11,13,15,17,-1,-1,-1,-1,-1,-1,-1,-1,-1],"loss_changes":[6.742826E-1,2.6262164E0,1.3384099E0,1.0094887E0,0E0,3.3350582E0,2.096861E0,1.5117441E0,9.220294E-1,1.6921823E0,0E0,0E0,0E0,0E0,0E0,0E0,0E0,0E0,0E0],"parents":[2147483647,0,0,1,1,2,2,3,3,5,5,6,6,7,7,8,8,9,9],"right_children":[2,4,6,8,-1,10,12,14,16,18,-1,-1,-1,-1,-1,-1,-1,-1,-1],"split_conditions":[5.748801E0,5.639655E0,5.0855625E1,-4.8503846E-1,5.448234E-2,7.2105494E0,5.885821E1,4.221645E1,3.00513E1,-1.1708249E-1,5.4853316E-2,-4.8850354E-2,1.0110146E-2,2.3893712E-3,-4.0674563E-2,2.1391738E-2,9.88093E-5,1.4927345E-2,-4.827427E-2],"split_indices":[1,1,0,2,0,1,0,0,0,2,0,0,0,0,0,0,0,0,0],"split_type":[0,0,0,0,0,0,0,0,0,0,0,0,0,0,0,0,0,0,0],"sum_hessian":[1.7189287E2,1.630323E2,8.860566E0,1.6179573E2,1.2365764E0,3.9006522E0,4.959914E0,6.9945555E0,1.5480118E2,2.6522858E0,1.2483662E0,3.0114362E0,1.948478E0,4.2654924E0,2.7290633E0,4.2621627E0,1.5053902E2,1.2355592E0,1.4167266E0],"tree_param":{"num_deleted":"0","num_feature":"3","num_nodes":"19","size_leaf_vector":"1"}},{"base_weights":[-1.6324292E-3,3.8511544E-2,-9.639381E-2,-6.0035292E-2,1.8205497E-1,-6.071315E-2,1.7258553E-3,3.159048E-2,-8.24307E-1,2.6739556E-1,-3.7717295E-1,6.969881E-1,-9.1850266E-2,7.658725E-3,-9.180344E-3,-6.340705E-2,-2.2948693E-2,7.824734E-3,3.1734597E-2,3.4853916E-3,-4.3840025E-2,5.267292E-2,-1.3702686E-2,4.286341E-2,-8.192877E-3],"categories":[],"categories_nodes":[],"categories_segments":[],"categories_sizes":[],"default_left":[0,0,0,0,0,0,0,0,0,0,0,0,0,0,0,0,0,0,0,0,0,0,0,0,0],"id":51,"left_children":[1,3,5,7,9,-1,11,13,15,17,19,21,23,-1,-1,-1,-1,-1,-1,-1,-1,-1,-1,-1,-1],"loss_changes":[6.610275E-1,1.7379576E0,5.6731615E0,5.147964E0,2.484518E0,0E0,3.2213655E0,1.7621853E0,6.9355965E-1,1.6896193E0,1.6302156E0,2.3217313E0,3.1241062E0,0E0,0E0,0E0,0E0,0E0,0E0,0E0,0E0,0E0,0E0,0E0,0E0],"parents":[2147483647,0,0,1,1,2,2,3,3,4,4,6,6,7,7,8,8,9,9,10,10,11,11,12,12],"right_children":[2,4,6,8,10,-1,12,14,16,18,20,22,24,-1,-1,-1,-1,-1,-1,-1,-1,-1,-1,-1,-1],"split_conditions":[5.3819374E1,4.5251873E1,5.4511147E1,4.4081806E1,5.748801E0,-6.071315E-2,1.1043415E0,2.9539793E0,4.436376E1,3.5947127E0,5.0855625E1,6.493358E1,5.4960304E1,7.658725E-3,-9.180344E-3,-6.340705E-2,-2.2948693E-2,7.824734E-3,3.1734597E-2,3.4853916E-3,-4.3840025E-2,5.267292E-2,-1.3702686E-2,4.286341E-2,-8.192877E-3],"split_indices":[0,0,0,0,1,0,1,1,0,1,0,0,0,0,0,0,0,0,0,0,0,0,0,0,0],"split_type":[0,0,0,0,0,0,0,0,0,0,0,0,0,0,0,0,0,0,0,0,0,0,0,0,0],"sum_hessian":[1.7179135E2,1.2108812E2,5.070323E1,7.214214E1,4.8945972E1,3.173418E0,4.752981E1,6.527521E1,6.866942E0,4.29183E1,6.0276704E0,4.873297E0,4.2656517E1,4.1893867E1,2.338134E1,1.9846506E0,4.8822913E0,3.406027E1,8.858034E0,3.6360059E0,2.3916643E0,3.5026114E0,1.3706857E0,2.2390177E0,4.04175E1],"tree_param":{"num_deleted":"0","num_feature":"3","num_nodes":"25","size_leaf_vector":"1"}},{"base_weights":[-2.0078688E-3,-2.7908199E-2,1.4310475E-1,-9.781171E-3,-6.227161E-1,5.317243E-1,-5.950696E-2,-4.444917E-2,2.5193438E-1,-3.9538123E-2,-1.2645774E-2,5.1652092E-2,3.0227104E-1,-2.625599E-1,2.6001468E-1,-5.7302062E-5,-3.908314E-2,-2.549011E-2,2.564886E-2,-4.5464516E-2,3.332707E-2,2.8208203E-3,-2.2119902E-2,5.2441902E-2,-6.8874136E-3],"categories":[],"categories_nodes":[],"categories_segments":[],"categories_sizes":[],"default_left":[0,0,0,0,0,0,0,0,0,0,0,0,0,0,0,0,0,0,0,0,0,0,0,0,0],"id":52,"left_children":[1,3,5,7,9,11,13,15,17,-1,-1,-1,19,21,23,-1,-1,-1,-1,-1,-1,-1,-1,-1,-1],"loss_changes":[6.529443E-1,1.5826538E0,2.1035395E0,1.3178085E0,6.981897E-2,7.3659277E-1,1.2487824E0,4.085771E0,3.640831E0,0E0,0E0,0E0,3.9905946E0,6.916958E-1,2.520453E0,0E0,0E0,0E0,0E0,0E0,0E0,0E0,0E0,0E0,0E0],"parents":[2147483647,0,0,1,1,2,2,3,3,4,4,5,5,6,6,7,7,8,8,12,12,13,13,14,14],"right_children":[2,4,6,8,10,12,14,16,18,-1,-1,-1,20,22,24,-1,-1,-1,-1,-1,-1,-1,-1,-1,-1],"split_conditions":[9.2977144E-2,7.210656E1,1.7872168E-1,5.8919407E1,7.421992E1,3.9506992E1,5.1526543E1,5.759722E1,-8.3561175E-2,-3.9538123E-2,-1.2645774E-2,5.1652092E-2,4.416593E1,4.3872543E1,5.3612812E1,-5.7302062E-5,-3.908314E-2,-2.549011E-2,2.564886E-2,-4.5464516E-2,3.332707E-2,2.8208203E-3,-2.2119902E-2,5.2441902E-2,-6.8874136E-3],"split_indices":[2,0,2,0,0,0,0,0,2,0,0,0,0,0,0,0,0,0,0,0,0,0,0,0,0],"split_type":[0,0,0,0,0,0,0,0,0,0,0,0,0,0,0,0,0,0,0,0,0,0,0,0,0],"sum_hessian":[1.7166373E2,1.4635019E2,2.5313538E1,1.4300839E2,3.3417983E0,8.118155E0,1.7195383E1,1.2701375E2,1.5994641E1,1.5149986E0,1.8267999E0,1.4493579E0,6.6687965E0,1.0622903E1,6.5724807E0,1.2091301E2,6.100744E0,3.8390753E0,1.2155565E1,1.195702E0,5.473095E0,4.077317E0,6.545585E0,1.6545061E0,4.9179745E0],"tree_param":{"num_deleted":"0","num_feature":"3","num_nodes":"25","size_leaf_vector":"1"}},{"base_weights":[-2.0655962E-3,4.1139282E-2,-8.4996715E-2,-3.1488966E-2,2.1138391E-1,-6.714418E-1,-1.3691877E-2,1.1352133E-2,-4.5870047E-2,6.9065845E-1,5.2705813E-2,-4.4998948E-2,-1.59001E-1,3.4382987E-1,-1.0443195E-1,-1.065106E-3,3.86205E-2,6.2227704E-2,1.10305725E-2,-3.747113E-2,7.7944356E-3,-1.6457772E-2,3.949389E-3,1.706041E-3,4.0401604E-2,-2.1252314E-2,2.072463E-3],"categories":[],"categories_nodes":[],"categories_segments":[],"categories_sizes":[],"default_left":[0,0,0,0,0,0,0,0,0,0,0,0,0,0,0,0,0,0,0,0,0,0,0,0,0,0,0],"id":53,"left_children":[1,3,5,7,9,11,13,15,-1,17,19,-1,21,23,25,-1,-1,-1,-1,-1,-1,-1,-1,-1,-1,-1,-1],"loss_changes":[6.2120503E-1,1.4164802E0,2.4737415E0,3.0768595E0,2.5665255E0,6.083019E-1,1.7864858E0,1.95628E0,0E0,1.9203806E0,2.33461E0,0E0,1.5531848E-1,1.5763164E0,2.0664437E0,0E0,0E0,0E0,0E0,0E0,0E0,0E0,0E0,0E0,0E0,0E0,0E0],"parents":[2147483647,0,0,1,1,2,2,3,3,4,4,5,5,6,6,7,7,9,9,10,10,12,12,13,13,14,14],"right_children":[2,4,6,8,10,12,14,16,-1,18,20,-1,22,24,26,-1,-1,-1,-1,-1,-1,-1,-1,-1,-1,-1,-1],"split_conditions":[3.136935E0,2.2408543E0,3.2430952E0,2.1664E0,2.568137E0,4.7374786E1,3.4263177E0,2.1062207E0,-4.5870047E-2,4.613339E1,3.5240757E1,-4.4998948E-2,3.1923583E0,3.362615E0,3.7854745E0,-1.065106E-3,3.86205E-2,6.2227704E-2,1.10305725E-2,-3.747113E-2,7.7944356E-3,-1.6457772E-2,3.949389E-3,1.706041E-3,4.0401604E-2,-2.1252314E-2,2.072463E-3],"split_indices":[1,1,1,1,1,0,1,1,0,0,0,0,1,1,1,0,0,0,0,0,0,0,0,0,0,0,0],"split_type":[0,0,0,0,0,0,0,0,0,0,0,0,0,0,0,0,0,0,0,0,0,0,0,0,0,0,0],"sum_hessian":[1.7139838E2,1.1302128E2,5.8377106E1,7.9794914E1,3.322636E1,5.4160905E0,5.2961014E1,7.7055824E1,2.7390943E0,7.4305124E0,2.5795847E1,3.2226162E0,2.1934743E0,1.015611E1,4.2804905E1,7.481767E1,2.2381473E0,2.6546242E0,4.775888E0,2.2262516E0,2.3569597E1,1.0556482E0,1.1378261E0,6.735671E0,3.4204392E0,1.2787403E1,3.0017502E1],"tree_param":{"num_deleted":"0","num_feature":"3","num_nodes":"27","size_leaf_vector":"1"}},{"base_weights":[-1.9631814E-3,-2.9548508E-1,1.0304751E-2,-2.0765599E-2,-3.9857727E-2,4.1818488E-1,-2.9486755E-3,-2.1404028E-2,2.1009214E-1,-1.0444181E-2,6.574153E-1,1.6030096E-1,-3.415735E-2,-3.1068595E-3,2.110911E-2,7.6770433E-3,4.7241542E-2,2.1274831E-2,-1.4383614E-2,-4.880814E-2,-6.2226417E-4],"categories":[],"categories_nodes":[],"categories_segments":[],"categories_sizes":[],"default_left":[0,0,0,0,0,0,0,0,0,0,0,0,0,0,0,0,0,0,0,0,0],"id":54,"left_children":[1,3,5,7,-1,9,11,-1,13,-1,15,17,19,-1,-1,-1,-1,-1,-1,-1,-1],"loss_changes":[6.23331E-1,9.4052666E-1,9.002938E-1,6.084267E-1,0E0,9.2355156E-1,8.3120465E-1,0E0,2.6815784E-1,0E0,4.3926036E-1,3.233406E0,2.7875655E0,0E0,0E0,0E0,0E0,0E0,0E0,0E0,0E0],"parents":[2147483647,0,0,1,1,2,2,3,3,5,5,6,6,8,8,10,10,11,11,12,12],"right_children":[2,4,6,8,-1,10,12,-1,14,-1,16,18,20,-1,-1,-1,-1,-1,-1,-1,-1],"split_conditions":[-5.944601E-1,4.613339E1,3.00513E1,3.04892E1,-3.9857727E-2,-1.921885E-1,-1.4263526E-1,-2.1404028E-2,9.345224E-1,-1.0444181E-2,3.2319126E0,5.0661453E1,-1.251796E-1,-3.1068595E-3,2.110911E-2,7.6770433E-3,4.7241542E-2,2.1274831E-2,-1.4383614E-2,-4.880814E-2,-6.2226417E-4],"split_indices":[2,0,0,0,0,2,2,0,1,0,1,0,2,0,0,0,0,0,0,0,0],"split_type":[0,0,0,0,0,0,0,0,0,0,0,0,0,0,0,0,0,0,0,0,0],"sum_hessian":[1.7125833E2,5.944503E0,1.6531383E2,4.5139885E0,1.4305143E0,4.2410374E0,1.6107278E2,1.3238835E0,3.1901047E0,1.2062024E0,3.0348346E0,2.5186768E1,1.3588602E2,1.7066059E0,1.4834989E0,1.6595877E0,1.375247E0,1.585245E1,9.334317E0,2.0710588E0,1.3381496E2],"tree_param":{"num_deleted":"0","num_feature":"3","num_nodes":"21","size_leaf_vector":"1"}},{"base_weights":[-2.1155607E-3,-2.0951506E-1,1.5349714E-2,2.6880693E-1,-3.3477297E-1,5.3028464E-2,-9.320996E-4,2.3408592E-2,-2.6532083E-3,-5.651372E-1,5.433949E-2,-5.21321E-1,1.3747498E-2,-3.8331658E-2,-1.3431171E-2,1.9438637E-2,-1.9638842E-2,1.4261688E-2,-4.5735102E-2,1.3851252E-2,-8.514602E-4],"categories":[],"categories_nodes":[],"categories_segments":[],"categories_sizes":[],"default_left":[0,0,0,0,0,0,0,0,0,0,0,0,0,0,0,0,0,0,0,0,0],"id":55,"left_children":[1,3,5,7,9,-1,11,-1,-1,13,15,17,19,-1,-1,-1,-1,-1,-1,-1,-1],"loss_changes":[6.2673837E-1,8.951084E-1,2.7187216E0,2.3938626E-1,1.0252054E0,0E0,1.2160279E0,0E0,0E0,2.1567011E-1,9.0604085E-1,1.6465386E0,1.2596759E0,0E0,0E0,0E0,0E0,0E0,0E0,0E0,0E0],"parents":[2147483647,0,0,1,1,2,2,3,3,4,4,6,6,9,9,10,10,11,11,12,12],"right_children":[2,4,6,8,10,-1,12,-1,-1,14,16,18,20,-1,-1,-1,-1,-1,-1,-1,-1],"split_conditions":[-3.9419246E-1,9.062758E-1,-3.2284695E-1,-8.306465E-1,1.8922272E0,5.3028464E-2,-2.8365466E-1,2.3408592E-2,-2.6532083E-3,4.1882393E1,-4.764667E-1,4.0848465E1,-1.4263526E-1,-3.8331658E-2,-1.3431171E-2,1.9438637E-2,-1.9638842E-2,1.4261688E-2,-4.5735102E-2,1.3851252E-2,-8.514602E-4],"split_indices":[2,1,2,2,1,0,2,0,0,0,2,0,2,0,0,0,0,0,0,0,0],"split_type":[0,0,0,0,0,0,0,0,0,0,0,0,0,0,0,0,0,0,0,0,0],"sum_hessian":[1.7113489E2,1.2438E1,1.5869688E2,2.3433661E0,1.0094633E1,1.450385E0,1.572465E2,1.1663835E0,1.1769825E0,6.0566006E0,4.0380325E0,3.367184E0,1.5387932E2,2.6620889E0,3.3945117E0,2.3847675E0,1.6532652E0,1.1940085E0,2.1731753E0,1.52681E1,1.3861122E2],"tree_param":{"num_deleted":"0","num_feature":"3","num_nodes":"21","size_leaf_vector":"1"}},{"base_weights":[-1.9943493E-3,-2.7509836E-2,1.4101204E-1,-1.0015157E-2,-6.0725754E-1,5.1780033E-1,-5.4885592E-2,-3.293918E-2,3.6577767E-1,-3.8677122E-2,-1.2289497E-2,6.9582176E-1,3.3124827E-2,3.4194505E-1,-2.1516488E-1,-7.8064244E-4,-3.6090758E-2,-1.8401613E-2,3.5723507E-2,7.336644E-3,5.1041402E-2,-1.0963086E-2,1.3508961E-2,