{"learner":{"attributes":{"scikit_learn":"{\"_estimator_type\": \"classifier\"}"},"feature_names":[],"feature_types":[],"gradient_booster":{"model":{"cats":{"enc":[],"feature_segments":[],"sorted_idx":[]},"gbtree_model_param":{"num_parallel_tree":"1","num_trees":"100"},"iteration_indptr":[0,1,2,3,4,5,6,7,8,9,10,11,12,13,14,15,16,17,18,19,20,21,22,23,24,25,26,27,28,29,30,31,32,33,34,35,36,37,38,39,40,41,42,43,44,45,46,47,48,49,50,51,52,53,54,55,56,57,58,59,60,61,62,63,64,65,66,67,68,69,70,71,72,73,74,75,76,77,78,79,80,81,82,83,84,85,86,87,88,89,90,91,92,93,94,95,96,97,98,99,100],"tree_info":[0,0,0,0,0,0,0,0,0,0,0,0,0,0,0,0,0,0,0,0,0,0,0,0,0,0,0,0,0,0,0,0,0,0,0,0,0,0,0,0,0,0,0,0,0,0,0,0,0,0,0,0,0,0,0,0,0,0,0,0,0,0,0,0,0,0,0,0,0,0,0,0,0,0,0,0,0,0,0,0,0,0,0,0,0,0,0,0,0,0,0,0,0,0,0,0,0,0,0,0],"trees":[{"base_weights":[-1.3953713E-8,-1.5258256E-1,7.466405E-1,5.5016316E-2,-1.1253723E0,1.0219748E0,-1.7479746E-2,-4.0804812E-1,3.550388E-1,-6.79711E-3,-1.3939772E0,5.84975E-2,2.0281475E-2,-4.617865E-2,-4.4882977E-3,-3.9859116E-2,2.3905607E-2,-2.6949946E-2,-8.0182925E-2],"categories":[],"categories_nodes":[],"categories_segments":[],"categories_sizes":[],"default_left":[0,0,0,0,0,0,0,0,0,0,0,0,0,0,0,0,0,0,0],"id":0,"left_children":[1,3,5,7,9,11,-1,13,15,-1,17,-1,-1,-1,-1,-1,-1,-1,-1],"loss_changes":[4.9803123E0,7.3923244E0,2.5962143E0,4.433307E0,1.5195017E0,8.940506E-2,0E0,1.9847758E0,3.1132336E0,0E0,2.2931099E-2,0E0,0E0,0E0,0E0,0E0,0E0,0E0,0E0],"parents":[2147483647,0,0,1,1,2,2,3,3,4,4,5,5,7,7,8,8,10,10],"right_children":[2,4,6,8,10,12,-1,14,16,-1,18,-1,-1,-1,-1,-1,-1,-1,-1],"split_conditions":[6.641762E-2,5.003143E-3,5.1827292E0,-1.5417558E-1,5.1575527E1,4.1570745E0,-1.7479746E-2,5.603371E1,2.9101274E0,-6.79711E-3,3.1150421E-2,5.84975E-2,2.0281475E-2,-4.617865E-2,-4.4882977E-3,-3.9859116E-2,2.3905607E-2,-2.6949946E-2,-8.0182925E-2],"split_indices":[2,2,1,2,0,1,0,0,1,0,2,0,0,0,0,0,0,0,0],"split_type":[0,0,0,0,0,0,0,0,0,0,0,0,0,0,0,0,0,0,0],"sum_hessian":[4.1715977E1,3.5298134E1,6.4178424E0,2.9867651E1,5.430482E0,5.183642E0,1.2342005E0,1.1601484E1,1.8266167E1,1.4810405E0,3.9494414E0,3.4557612E0,1.7278806E0,3.7026014E0,7.898883E0,1.2342005E0,1.7031965E1,1.4810405E0,2.468401E0],"tree_param":{"num_deleted":"0","num_feature":"3","num_nodes":"19","size_leaf_vector":"1"}},{"base_weights":[-2.7295907E-3,-1.4986601E-1,7.2033066E-1,5.0178003E-2,-1.0826923E0,9.8847955E-1,-1.697874E-2,-3.9097324E-1,3.37247E-1,-1.3489885E0,-5.749004E-3,5.656139E-2,1.9669537E-2,-9.574446E-3,-6.157884E-2,-3.866835E-2,2.2839108E-2,-2.6311431E-2,-7.742267E-2],"categories":[],"categories_nodes":[],"categories_segments":[],"categories_sizes":[],"default_left":[0,0,0,0,0,0,0,0,0,0,0,0,0,0,0,0,0,0,0],"id":1,"left_children":[1,3,5,7,9,11,-1,13,15,17,-1,-1,-1,-1,-1,-1,-1,-1,-1],"loss_changes":[4.6497416E0,6.8281507E0,2.4361415E0,4.0382004E0,1.5081325E0,7.775402E-2,0E0,1.8808392E0,2.9052713E0,5.044937E-4,0E0,0E0,0E0,0E0,0E0,0E0,0E0,0E0,0E0],"parents":[2147483647,0,0,1,1,2,2,3,3,4,4,5,5,7,7,8,8,9,9],"right_children":[2,4,6,8,10,12,-1,14,16,18,-1,-1,-1,-1,-1,-1,-1,-1,-1],"split_conditions":[6.641762E-2,5.003143E-3,5.1827292E0,-1.5417558E-1,5.9121213E0,4.1570745E0,-1.697874E-2,-1.771853E-1,2.9101274E0,2.6051389E-2,-5.749004E-3,5.656139E-2,1.9669537E-2,-9.574446E-3,-6.157884E-2,-3.866835E-2,2.2839108E-2,-2.6311431E-2,-7.742267E-2],"split_indices":[2,2,1,2,1,1,0,2,1,2,0,0,0,0,0,0,0,0,0],"split_type":[0,0,0,0,0,0,0,0,0,0,0,0,0,0,0,0,0,0,0],"sum_hessian":[4.1690598E1,3.5300076E1,6.390522E0,2.9845858E1,5.454217E0,5.1539874E0,1.236535E0,1.1622743E1,1.8223116E1,3.9682357E0,1.4859812E0,3.4302168E0,1.7237704E0,1.0385864E1,1.2368786E0,1.2392567E0,1.6983858E1,1.4842308E0,2.484005E0],"tree_param":{"num_deleted":"0","num_feature":"3","num_nodes":"19","size_leaf_vector":"1"}},{"base_weights":[-5.7585933E-3,-1.477999E-1,6.954774E-1,4.4921856E-2,-1.0428421E0,9.569098E-1,-1.649355E-2,-3.7654212E-1,3.203665E-1,-6.4916156E-2,-5.575338E-3,5.475105E-2,1.9078087E-2,-4.349638E-2,-3.6400163E-3,-3.7529703E-2,2.1823253E-2],"categories":[],"categories_nodes":[],"categories_segments":[],"categories_sizes":[],"default_left":[0,0,0,0,0,0,0,0,0,0,0,0,0,0,0,0,0],"id":2,"left_children":[1,3,5,7,9,11,-1,13,15,-1,-1,-1,-1,-1,-1,-1,-1],"loss_changes":[4.350415E0,6.3060617E0,2.288133E0,3.6980925E0,1.3947549E0,6.8468094E-2,0E0,1.8308405E0,2.7119951E0,0E0,0E0,0E0,0E0,0E0,0E0,0E0,0E0],"parents":[2147483647,0,0,1,1,2,2,3,3,4,4,5,5,7,7,8,8],"right_children":[2,4,6,8,10,12,-1,14,16,-1,-1,-1,-1,-1,-1,-1,-1],"split_conditions":[6.641762E-2,5.003143E-3,5.1827292E0,-1.5417558E-1,5.9121213E0,4.1570745E0,-1.649355E-2,5.603371E1,2.9101274E0,-6.4916156E-2,-5.575338E-3,5.475105E-2,1.9078087E-2,-4.349638E-2,-3.6400163E-3,-3.7529703E-2,2.1823253E-2],"split_indices":[2,2,1,2,1,1,0,0,1,0,0,0,0,0,0,0,0],"split_type":[0,0,0,0,0,0,0,0,0,0,0,0,0,0,0,0,0],"sum_hessian":[4.1644905E1,3.5286545E1,6.3583593E0,2.9816273E1,5.4702716E0,5.119732E0,1.2386276E0,1.1639454E1,1.8176819E1,3.9834888E0,1.4867828E0,3.4002712E0,1.7194607E0,3.7248788E0,7.914575E0,1.2432458E0,1.6933573E1],"tree_param":{"num_deleted":"0","num_feature":"3","num_nodes":"17","size_leaf_vector":"1"}},{"base_weights":[-7.210105E-3,-1.4413947E-1,6.719444E-1,-2.4805448E-3,-6.439168E-2,-7.6930844E-3,5.0258804E-2,-3.6101216E-1,2.0752366E-1,-8.388466E-3,-5.9117723E-2,5.006761E-2,2.0857237E-3],"categories":[],"categories_nodes":[],"categories_segments":[],"categories_sizes":[],"default_left":[0,0,0,0,0,0,0,0,0,0,0,0,0],"id":3,"left_children":[1,3,5,7,-1,-1,-1,9,11,-1,-1,-1,-1],"loss_changes":[4.0571685E0,5.8720574E0,2.1695657E0,2.57985E0,0E0,0E0,0E0,1.8100365E0,2.8033102E0,0E0,0E0,0E0,0E0],"parents":[2147483647,0,0,1,1,2,2,3,3,7,7,8,8],"right_children":[2,4,6,8,-1,-1,-1,10,12,-1,-1,-1,-1],"split_conditions":[6.641762E-2,3.1150421E-2,5.386508E1,-1.5417558E-1,-6.439168E-2,-7.6930844E-3,5.0258804E-2,-1.771853E-1,-1.1732702E-1,-8.388466E-3,-5.9117723E-2,5.006761E-2,2.0857237E-3],"split_indices":[2,2,0,2,0,0,0,2,2,0,0,0,0],"split_type":[0,0,0,0,0,0,0,0,0,0,0,0,0],"sum_hessian":[4.1585773E1,3.5263752E1,6.32202E0,3.226905E1,2.9947033E0,1.9723835E0,4.3496366E0,1.1653845E1,2.0615206E1,1.040909E1,1.2447555E0,2.6912737E0,1.7923931E1],"tree_param":{"num_deleted":"0","num_feature":"3","num_nodes":"13","size_leaf_vector":"1"}},{"base_weights":[-7.6901447E-3,-1.3916175E-1,6.478491E-1,4.0555615E-2,-9.7057563E-1,9.004278E-1,-1.6134946E-2,-3.4797606E-1,2.9603633E-1,-4.1783387E-3,-1.2187883E0,5.7273157E-2,4.6876082E-1,-8.000207E-3,-5.7387825E-2,-3.649991E-2,2.0426078E-2,-2.3481501E-2,-7.023204E-2,-2.2268081E-2,5.2270483E-2],"categories":[],"categories_nodes":[],"categories_segments":[],"categories_sizes":[],"default_left":[0,0,0,0,0,0,0,0,0,0,0,0,0,0,0,0,0,0,0,0,0],"id":4,"left_children":[1,3,5,7,9,11,-1,13,15,-1,17,-1,19,-1,-1,-1,-1,-1,-1,-1,-1],"loss_changes":[3.755799E0,5.455884E0,2.0756578E0,3.157039E0,1.3255405E0,1.02138996E-1,0E0,1.7203739E0,2.502868E0,0E0,3.5399437E-2,0E0,2.5111272E0,0E0,0E0,0E0,0E0,0E0,0E0,0E0,0E0],"parents":[2147483647,0,0,1,1,2,2,3,3,4,4,5,5,7,7,8,8,10,10,12,12],"right_children":[2,4,6,8,10,12,-1,14,16,-1,18,-1,20,-1,-1,-1,-1,-1,-1,-1,-1],"split_conditions":[6.641762E-2,5.003143E-3,5.1827292E0,-1.5417558E-1,5.1575527E1,1.02525495E-1,-1.6134946E-2,-1.771853E-1,2.9101274E0,-4.1783387E-3,3.1150421E-2,5.7273157E-2,1.2807117E-1,-8.000207E-3,-5.7387825E-2,-3.649991E-2,2.0426078E-2,-2.3481501E-2,-7.023204E-2,-2.2268081E-2,5.2270483E-2],"split_indices":[2,2,1,2,0,2,0,2,1,0,2,0,2,0,0,0,0,0,0,0,0],"split_type":[0,0,0,0,0,0,0,0,0,0,0,0,0,0,0,0,0,0,0,0,0],"sum_hessian":[4.153236E1,3.5250427E1,6.281932E0,2.9767208E1,5.483221E0,5.042026E0,1.239906E0,1.1665074E1,1.8102133E1,1.491149E0,3.992072E0,2.1614823E0,2.8805437E0,1.0416864E1,1.2482095E0,1.2460996E0,1.6856033E1,1.4945483E0,2.4975235E0,1.2022969E0,1.678247E0],"tree_param":{"num_deleted":"0","num_feature":"3","num_nodes":"21","size_leaf_vector":"1"}},{"base_weights":[-9.82785E-3,-1.3731542E-1,6.2863296E-1,3.595189E-2,-9.3773407E-1,-7.767881E-3,4.754441E-2,-3.3551276E-1,2.8118083E-1,-1.1824472E0,-3.5804089E-3,-4.0472183E-2,-2.3248761E-3,-3.5452913E-2,1.9522056E-2,-2.3014067E-2,-6.800445E-2],"categories":[],"categories_nodes":[],"categories_segments":[],"categories_sizes":[],"default_left":[0,0,0,0,0,0,0,0,0,0,0,0,0,0,0,0,0],"id":5,"left_children":[1,3,5,7,9,-1,-1,11,13,15,-1,-1,-1,-1,-1,-1,-1],"loss_changes":[3.5414047E0,5.054638E0,1.9780099E0,2.8931193E0,1.2886357E0,0E0,0E0,1.6982839E0,2.338013E0,1.3806343E-2,0E0,0E0,0E0,0E0,0E0,0E0,0E0],"parents":[2147483647,0,0,1,1,2,2,3,3,4,4,7,7,8,8,9,9],"right_children":[2,4,6,8,10,-1,-1,12,14,16,-1,-1,-1,-1,-1,-1,-1],"split_conditions":[6.641762E-2,5.003143E-3,5.386508E1,-1.5417558E-1,5.9121213E0,-7.767881E-3,4.754441E-2,5.603371E1,2.9101274E0,2.6051389E-2,-3.5804089E-3,-4.0472183E-2,-2.3248761E-3,-3.5452913E-2,1.9522056E-2,-2.3014067E-2,-6.800445E-2],"split_indices":[2,2,0,2,1,0,0,0,1,2,0,0,0,0,0,0,0],"split_type":[0,0,0,0,0,0,0,0,0,0,0,0,0,0,0,0,0],"sum_hessian":[4.1447926E1,3.5203445E1,6.244481E0,2.9724123E1,5.479323E0,1.9699188E0,4.2745624E0,1.1673432E1,1.805069E1,3.987492E0,1.4918306E0,3.7399385E0,7.933494E0,1.2482281E0,1.6802462E1,1.4961737E0,2.4913185E0],"tree_param":{"num_deleted":"0","num_feature":"3","num_nodes":"17","size_leaf_vector":"1"}},{"base_weights":[-1.2006155E-2,-1.3488266E-1,6.066107E-1,-7.723596E-3,-5.805055E-2,8.5154593E-1,-1.5770923E-2,-3.2192963E-1,1.7804691E-1,5.4926723E-2,4.2949378E-1,-6.9781817E-3,-5.5288564E-2,4.732782E-2,9.826937E-4,-2.2690991E-2,5.007553E-2],"categories":[],"categories_nodes":[],"categories_segments":[],"categories_sizes":[],"default_left":[0,0,0,0,0,0,0,0,0,0,0,0,0,0,0,0,0],"id":6,"left_children":[1,3,5,7,-1,9,-1,11,13,-1,15,-1,-1,-1,-1,-1,-1],"loss_changes":[3.3007915E0,4.7076616E0,1.8945084E0,1.9933988E0,0E0,1.493311E-1,0E0,1.6582767E0,2.5971358E0,0E0,2.3956065E0,0E0,0E0,0E0,0E0,0E0,0E0],"parents":[2147483647,0,0,1,1,2,2,3,3,5,5,7,7,8,8,10,10],"right_children":[2,4,6,8,-1,10,-1,12,14,-1,16,-1,-1,-1,-1,-1,-1],"split_conditions":[6.641762E-2,3.1150421E-2,5.1827292E0,-1.5417558E-1,-5.805055E-2,1.02525495E-1,-1.5770923E-2,-1.771853E-1,-1.1732702E-1,5.4926723E-2,1.2807117E-1,-6.9781817E-3,-5.5288564E-2,4.732782E-2,9.826937E-4,-2.2690991E-2,5.007553E-2],"split_indices":[2,2,1,2,0,2,0,2,2,0,2,0,0,0,0,0,0],"split_type":[0,0,0,0,0,0,0,0,0,0,0,0,0,0,0,0,0],"sum_hessian":[4.134736E1,3.5147865E1,6.1994953E0,3.2168972E1,2.9788914E0,4.958677E0,1.2408187E0,1.1680322E1,2.0488651E1,2.1169677E0,2.8417091E0,1.0431431E1,1.2488914E0,2.650868E0,1.7837784E1,1.1981487E0,1.6435604E0],"tree_param":{"num_deleted":"0","num_feature":"3","num_nodes":"17","size_leaf_vector":"1"}},{"base_weights":[-1.1519295E-2,-1.3025759E-1,5.892327E-1,3.2398894E-2,-8.823796E-1,-7.81303E-3,4.50917E-2,-3.1064436E-1,2.600656E-1,-5.6070138E-2,-2.6147426E-3,-6.656571E-3,-5.378545E-2,-3.4476314E-2,1.8296553E-2],"categories":[],"categories_nodes":[],"categories_segments":[],"categories_sizes":[],"default_left":[0,0,0,0,0,0,0,0,0,0,0,0,0,0,0],"id":7,"left_children":[1,3,5,7,9,-1,-1,11,13,-1,-1,-1,-1,-1,-1],"loss_changes":[3.091787E0,4.4463167E0,1.8086851E0,2.474904E0,1.2223473E0,0E0,0E0,1.5794439E0,2.1593814E0,0E0,0E0,0E0,0E0,0E0,0E0],"parents":[2147483647,0,0,1,1,2,2,3,3,4,4,7,7,8,8],"right_children":[2,4,6,8,10,-1,-1,12,14,-1,-1,-1,-1,-1,-1],"split_conditions":[6.641762E-2,5.003143E-3,5.386508E1,-1.5417558E-1,5.9121213E0,-7.81303E-3,4.50917E-2,-1.771853E-1,2.9101274E0,-5.6070138E-2,-2.6147426E-3,-6.656571E-3,-5.378545E-2,-3.4476314E-2,1.8296553E-2],"split_indices":[2,2,0,2,1,0,0,2,1,0,0,0,0,0,0],"split_type":[0,0,0,0,0,0,0,0,0,0,0,0,0,0,0],"sum_hessian":[4.1267475E1,3.5110985E1,6.1564913E0,2.9654686E1,5.4563007E0,1.9666182E0,4.189873E0,1.1684405E1,1.797028E1,3.963935E0,1.4923658E0,1.043683E1,1.247576E0,1.2494783E0,1.6720802E1],"tree_param":{"num_deleted":"0","num_feature":"3","num_nodes":"15","size_leaf_vector":"1"}},{"base_weights":[-1.3270811E-2,1.4330806E-1,-4.6385494E-1,-4.5916293E-2,2.345681E-1,-8.6684763E-1,-6.528342E-2,9.3313955E-2,8.0708104E-1,-5.9223868E-2,-1.3985968E-2,2.7406523E-2,-4.86911E-1,1.4040536E-2,-5.3994156E-2,5.2821547E-2,1.9667346E-2,-3.4011975E-2,-2.9615776E-3],"categories":[],"categories_nodes":[],"categories_segments":[],"categories_sizes":[],"default_left":[0,0,0,0,0,0,0,0,0,0,0,0,0,0,0,0,0,0,0],"id":8,"left_children":[1,3,5,-1,7,9,11,13,15,-1,-1,-1,17,-1,-1,-1,-1,-1,-1],"loss_changes":[3.040385E0,3.320141E0,1.7273443E0,0E0,2.3754892E0,6.833968E-1,1.9907535E0,5.8990307E0,1.8969226E-1,0E0,0E0,0E0,3.301052E-1,0E0,0E0,0E0,0E0,0E0,0E0],"parents":[2147483647,0,0,1,1,2,2,4,4,5,5,6,6,7,7,8,8,12,12],"right_children":[2,4,6,-1,8,10,12,14,16,-1,-1,-1,18,-1,-1,-1,-1,-1,-1],"split_conditions":[5.1827292E0,2.8886638E0,-9.614898E-2,-4.5916293E-2,6.641762E-2,5.7446904E0,1.6304636E-2,5.003143E-3,1.02525495E-1,-5.9223868E-2,-1.3985968E-2,2.7406523E-2,5.9121213E0,1.4040536E-2,-5.3994156E-2,5.2821547E-2,1.9667346E-2,-3.4011975E-2,-2.9615776E-3],"split_indices":[1,1,2,0,2,1,2,2,2,0,0,0,1,0,0,0,0,0,0],"split_type":[0,0,0,0,0,0,0,0,0,0,0,0,0,0,0,0,0,0,0],"sum_hessian":[4.115207E1,3.104561E1,1.010646E1,1.7401063E0,2.9305504E1,4.4411554E0,5.6653047E0,2.4438793E1,4.8667097E0,2.221786E0,2.2193692E0,2.1855607E0,3.4797442E0,2.1727083E1,2.7117107E0,2.0673504E0,2.7993596E0,1.9897573E0,1.4899869E0],"tree_param":{"num_deleted":"0","num_feature":"3","num_nodes":"19","size_leaf_vector":"1"}},{"base_weights":[-1.4895235E-2,1.3619143E-1,-4.4809172E-1,-4.4466533E-2,2.247048E-1,-8.354011E-1,-6.352969E-2,8.727142E-2,7.853225E-1,-5.7050057E-2,-1.3492628E-2,2.655525E-2,-4.7079232E-1,1.3395183E-2,-5.223589E-2,5.158406E-2,1.9014293E-2,-2.6997784E-3,-3.3081446E-2],"categories":[],"categories_nodes":[],"categories_segments":[],"categories_sizes":[],"default_left":[0,0,0,0,0,0,0,0,0,0,0,0,0,0,0,0,0,0,0],"id":9,"left_children":[1,3,5,-1,7,9,11,13,15,-1,-1,-1,17,-1,-1,-1,-1,-1,-1],"loss_changes":[2.8131022E0,3.09931E0,1.6011281E0,0E0,2.258503E0,6.342046E-1,1.8617346E0,5.469693E0,1.8854213E-1,0E0,0E0,0E0,3.2061356E-1,0E0,0E0,0E0,0E0,0E0,0E0],"parents":[2147483647,0,0,1,1,2,2,4,4,5,5,6,6,7,7,8,8,12,12],"right_children":[2,4,6,-1,8,10,12,14,16,-1,-1,-1,18,-1,-1,-1,-1,-1,-1],"split_conditions":[5.1827292E0,2.8886638E0,-9.614898E-2,-4.4466533E-2,6.641762E-2,5.7446904E0,1.6304636E-2,5.003143E-3,1.02525495E-1,-5.7050057E-2,-1.3492628E-2,2.655525E-2,5.1437443E1,1.3395183E-2,-5.223589E-2,5.158406E-2,1.9014293E-2,-2.6997784E-3,-3.3081446E-2],"split_indices":[1,1,2,0,2,1,2,2,2,0,0,0,0,0,0,0,0,0,0],"split_type":[0,0,0,0,0,0,0,0,0,0,0,0,0,0,0,0,0,0,0],"sum_hessian":[4.1048386E1,3.0942225E1,1.0106159E1,1.7396066E0,2.920262E1,4.4510083E0,5.655151E0,2.4381302E1,4.8213177E0,2.2290215E0,2.2219868E0,2.1751626E0,3.4799886E0,2.1684437E1,2.696865E0,2.0358844E0,2.785433E0,1.4958712E0,1.9841173E0],"tree_param":{"num_deleted":"0","num_feature":"3","num_nodes":"19","size_leaf_vector":"1"}},{"base_weights":[-1.6370468E-2,-8.9061305E-2,4.2619195E-2,5.543734E-2,-5.025253E-1,-4.3090146E-2,1.415666E-1,-8.4543854E-1,-1.5880474E-1,1.6006941E-2,-1.1956252E-2,-5.5021632E-2,-1.1578493E-2,-3.9732356E-2,1.5157582E-2],"categories":[],"categories_nodes":[],"categories_segments":[],"categories_sizes":[],"default_left":[0,0,0,0,0,0,0,0,0,0,0,0,0,0,0],"id":10,"left_children":[1,3,-1,5,7,-1,9,11,13,-1,-1,-1,-1,-1,-1],"loss_changes":[2.724027E0,2.3938208E0,0E0,2.511471E0,1.086252E0,0E0,2.0145922E0,5.203757E-1,2.121578E0,0E0,0E0,0E0,0E0,0E0,0E0],"parents":[2147483647,0,0,1,1,3,3,4,4,6,6,7,7,8,8],"right_children":[2,4,-1,6,8,-1,10,12,14,-1,-1,-1,-1,-1,-1],"split_conditions":[1.3056862E-1,5.1705775E0,4.2619195E-2,2.8886638E0,5.7446904E0,-4.3090146E-2,6.494013E1,-9.614898E-2,3.857595E1,1.6006941E-2,-1.1956252E-2,-5.5021632E-2,-1.1578493E-2,-3.9732356E-2,1.5157582E-2],"split_indices":[2,1,0,1,1,0,0,2,0,0,0,0,0,0,0],"split_type":[0,0,0,0,0,0,0,0,0,0,0,0,0,0,0],"sum_hessian":[4.0933376E1,3.8601017E1,2.3323593E0,2.9245966E1,9.355049E0,1.737406E0,2.750856E1,3.9523318E0,5.402717E0,1.8833385E1,8.675175E0,2.2323997E0,1.7199321E0,1.9704239E0,3.4322934E0],"tree_param":{"num_deleted":"0","num_feature":"3","num_nodes":"15","size_leaf_vector":"1"}},{"base_weights":[-1.764023E-2,-8.795679E-2,4.142537E-2,5.1445976E-2,-4.8610243E-1,-4.1781094E-2,1.3479336E-1,-8.165181E-1,-1.5464735E-1,1.5281811E-2,-1.1404751E-2,-5.3123124E-2,-1.1209587E-2,-3.83324E-2,1.4587492E-2],"categories":[],"categories_nodes":[],"categories_segments":[],"categories_sizes":[],"default_left":[0,0,0,0,0,0,0,0,0,0,0,0,0,0,0],"id":11,"left_children":[1,3,-1,5,7,-1,9,11,13,-1,-1,-1,-1,-1,-1],"loss_changes":[2.564465E0,2.2211218E0,0E0,2.3462741E0,1.0079873E0,0E0,1.8352151E0,4.8333955E-1,1.9731956E0,0E0,0E0,0E0,0E0,0E0,0E0],"parents":[2147483647,0,0,1,1,3,3,4,4,6,6,7,7,8,8],"right_children":[2,4,-1,6,8,-1,10,12,14,-1,-1,-1,-1,-1,-1],"split_conditions":[1.3056862E-1,5.1705775E0,4.142537E-2,2.8886638E0,5.7446904E0,-4.1781094E-2,6.494013E1,-9.614898E-2,3.857595E1,1.5281811E-2,-1.1404751E-2,-5.3123124E-2,-1.1209587E-2,-3.83324E-2,1.4587492E-2],"split_indices":[2,1,0,1,1,0,0,2,0,0,0,0,0,0,0],"split_type":[0,0,0,0,0,0,0,0,0,0,0,0,0,0,0],"sum_hessian":[4.0876766E1,3.8567757E1,2.309008E0,2.921092E1,9.356836E0,1.7336695E0,2.7477251E1,3.9528985E0,5.403938E0,1.8789282E1,8.687969E0,2.2322981E0,1.7206004E0,1.9766216E0,3.4273164E0],"tree_param":{"num_deleted":"0","num_feature":"3","num_nodes":"15","size_leaf_vector":"1"}},{"base_weights":[-1.8786082E-2,-8.6823344E-2,4.028293E-2,4.7688264E-2,-4.7044447E-1,-4.0533982E-2,1.2835015E-1,-7.891229E-1,-1.5061656E-1,3.5534464E-2,1.0568526E-3,-5.1341105E-2,-1.0852898E-2,-3.7001546E-2,1.4039575E-2],"categories":[],"categories_nodes":[],"categories_segments":[],"categories_sizes":[],"default_left":[0,0,0,0,0,0,0,0,0,0,0,0,0,0,0],"id":12,"left_children":[1,3,-1,5,7,-1,9,11,13,-1,-1,-1,-1,-1,-1],"loss_changes":[2.4152913E0,2.062084E0,0E0,2.193182E0,9.364033E-1,0E0,1.7609131E0,4.502473E-1,1.8360264E0,0E0,0E0,0E0,0E0,0E0,0E0],"parents":[2147483647,0,0,1,1,3,3,4,4,6,6,7,7,8,8],"right_children":[2,4,-1,6,8,-1,10,12,14,-1,-1,-1,-1,-1,-1],"split_conditions":[1.3056862E-1,5.1705775E0,4.028293E-2,2.8886638E0,5.7446904E0,-4.0533982E-2,3.120182E0,-9.614898E-2,3.857595E1,3.5534464E-2,1.0568526E-3,-5.1341105E-2,-1.0852898E-2,-3.7001546E-2,1.4039575E-2],"split_indices":[2,1,0,1,1,0,1,2,0,0,0,0,0,0,0],"split_type":[0,0,0,0,0,0,0,0,0,0,0,0,0,0,0],"sum_hessian":[4.0811687E1,3.852694E1,2.2847457E0,2.9173376E1,9.353564E0,1.7285519E0,2.7444824E1,3.9502132E0,5.4033513E0,3.3920105E0,2.4052814E1,2.2290702E0,1.721143E0,1.9811736E0,3.4221778E0],"tree_param":{"num_deleted":"0","num_feature":"3","num_nodes":"15","size_leaf_vector":"1"}},{"base_weights":[-1.9026423E-2,-8.480615E-2,3.9187882E-2,4.521749E-2,-4.554949E-1,-3.934397E-2,1.2331448E-1,-8.5550547E-1,-2.0194905E-1,1.444291E-2,-1.1325289E-2,-1.0243587E-2,-5.4709643E-2,1.7187174E-2,-2.4378626E-2],"categories":[],"categories_nodes":[],"categories_segments":[],"categories_sizes":[],"default_left":[0,0,0,0,0,0,0,0,0,0,0,0,0,0,0],"id":13,"left_children":[1,3,-1,5,7,-1,9,11,13,-1,-1,-1,-1,-1,-1],"loss_changes":[2.2713027E0,1.9240936E0,0E0,2.0561328E0,8.7650824E-1,0E0,1.7115409E0,3.5115004E-1,1.3585675E0,0E0,0E0,0E0,0E0,0E0,0E0],"parents":[2147483647,0,0,1,1,3,3,4,4,6,6,7,7,8,8],"right_children":[2,4,-1,6,8,-1,10,12,14,-1,-1,-1,-1,-1,-1],"split_conditions":[1.3056862E-1,5.1705775E0,3.9187882E-2,2.8886638E0,5.580997E0,-3.934397E-2,6.494013E1,4.8230297E1,5.861869E0,1.444291E-2,-1.1325289E-2,-1.0243587E-2,-5.4709643E-2,1.7187174E-2,-2.4378626E-2],"split_indices":[2,1,0,1,1,0,0,0,1,0,0,0,0,0,0],"split_type":[0,0,0,0,0,0,0,0,0,0,0,0,0,0,0],"sum_hessian":[4.0752777E1,3.849304E1,2.2597406E0,2.9147285E1,9.345752E0,1.7221966E0,2.7425089E1,2.7046127E0,6.641139E0,1.873397E1,8.691119E0,1.2246603E0,1.4799526E0,2.2118485E0,4.429291E0],"tree_param":{"num_deleted":"0","num_feature":"3","num_nodes":"15","size_leaf_vector":"1"}},{"base_weights":[-1.9750709E-2,-8.340228E-2,3.8136672E-2,4.181802E-2,-4.3993556E-1,-3.8206734E-2,1.1740532E-1,-7.5006896E-1,-1.3233821E-1,3.4383114E-2,6.4937834E-4,-4.8947975E-2,-1.0169686E-2,-3.490865E-2,1.3989441E-2],"categories":[],"categories_nodes":[],"categories_segments":[],"categories_sizes":[],"default_left":[0,0,0,0,0,0,0,0,0,0,0,0,0,0,0],"id":14,"left_children":[1,3,-1,5,7,-1,9,11,13,-1,-1,-1,-1,-1,-1],"loss_changes":[2.13964E0,1.7795534E0,0E0,1.9238555E0,8.871641E-1,0E0,1.6817143E0,4.183588E-1,1.689104E0,0E0,0E0,0E0,0E0,0E0,0E0],"parents":[2147483647,0,0,1,1,3,3,4,4,6,6,7,7,8,8],"right_children":[2,4,-1,6,8,-1,10,12,14,-1,-1,-1,-1,-1,-1],"split_conditions":[1.3056862E-1,5.1705775E0,3.8136672E-2,2.8886638E0,5.7446904E0,-3.8206734E-2,3.120182E0,-9.614898E-2,3.857595E1,3.4383114E-2,6.4937834E-4,-4.8947975E-2,-1.0169686E-2,-3.490865E-2,1.3989441E-2],"split_indices":[2,1,0,1,1,0,1,2,0,0,0,0,0,0,0],"split_type":[0,0,0,0,0,0,0,0,0,0,0,0,0,0,0],"sum_hessian":[4.068196E1,3.844782E1,2.234144E0,2.9107498E1,9.340319E0,1.7147377E0,2.7392761E1,3.9347007E0,5.4056177E0,3.375028E0,2.4017733E1,2.2160847E0,1.7186161E0,1.9855126E0,3.4201052E0],"tree_param":{"num_deleted":"0","num_feature":"3","num_nodes":"15","size_leaf_vector":"1"}},{"base_weights":[-1.9865908E-2,-1.1541498E-1,4.7943628E-1,-1.4802869E-3,-5.224411E-2,-1.0508775E-2,7.9081315E-1,-3.7470546E-2,5.7722032E-2,4.9891535E-2,1.5746998E-2,9.324332E-3,-1.4619157E-2],"categories":[],"categories_nodes":[],"categories_segments":[],"categories_sizes":[],"default_left":[0,0,0,0,0,0,0,0,0,0,0,0,0],"id":15,"left_children":[1,3,5,7,-1,-1,9,-1,11,-1,-1,-1,-1],"loss_changes":[2.0406559E0,3.7828195E0,1.6431962E0,1.4971663E0,0E0,0E0,1.7325878E-1,0E0,1.4680487E0,0E0,0E0,0E0,0E0],"parents":[2147483647,0,0,1,1,2,2,3,3,6,6,8,8],"right_children":[2,4,6,8,-1,-1,10,-1,12,-1,-1,-1,-1],"split_conditions":[6.641762E-2,3.1150421E-2,5.386508E1,-3.373049E-1,-5.224411E-2,-1.0508775E-2,1.1845278E-1,-3.7470546E-2,6.494013E1,4.9891535E-2,1.5746998E-2,9.324332E-3,-1.4619157E-2],"split_indices":[2,2,0,2,0,0,2,0,0,0,0,0,0],"split_type":[0,0,0,0,0,0,0,0,0,0,0,0,0],"sum_hessian":[4.0614143E1,3.473577E1,5.878371E0,3.1835009E1,2.9007635E0,1.9296824E0,3.9486885E0,1.4799268E0,3.0355082E1,1.9873128E0,1.9613758E0,2.2534498E1,7.820585E0],"tree_param":{"num_deleted":"0","num_feature":"3","num_nodes":"13","size_leaf_vector":"1"}},{"base_weights":[-1.9861093E-2,-8.114115E-2,3.6965515E-2,3.9359372E-2,-4.239009E-1,-3.6778383E-2,1.1192388E-1,-7.224386E-1,-1.2802644E-1,3.3537824E-2,4.930541E-4,-4.723252E-2,-9.707345E-3,-3.3865295E-2,1.3639914E-2],"categories":[],"categories_nodes":[],"categories_segments":[],"categories_sizes":[],"default_left":[0,0,0,0,0,0,0,0,0,0,0,0,0,0,0],"id":16,"left_children":[1,3,-1,5,7,-1,9,11,13,-1,-1,-1,-1,-1,-1],"loss_changes":[1.9919373E0,1.6409951E0,0E0,1.7699964E0,8.1858134E-1,0E0,1.6081141E0,3.9402318E-1,1.5928798E0,0E0,0E0,0E0,0E0,0E0,0E0],"parents":[2147483647,0,0,1,1,3,3,4,4,6,6,7,7,8,8],"right_children":[2,4,-1,6,8,-1,10,12,14,-1,-1,-1,-1,-1,-1],"split_conditions":[1.3056862E-1,5.1705775E0,3.6965515E-2,2.8886638E0,5.7446904E0,-3.6778383E-2,3.120182E0,-9.614898E-2,3.857595E1,3.3537824E-2,4.930541E-4,-4.723252E-2,-9.707345E-3,-3.3865295E-2,1.3639914E-2],"split_indices":[2,1,0,1,1,0,1,2,0,0,0,0,0,0,0],"split_type":[0,0,0,0,0,0,0,0,0,0,0,0,0,0,0],"sum_hessian":[4.052758E1,3.8326958E1,2.2006207E0,2.90125E1,9.314458E0,1.701816E0,2.7310684E1,3.918739E0,5.3957186E0,3.3571293E0,2.3953556E1,2.203692E0,1.7150471E0,1.9853153E0,3.4104035E0],"tree_param":{"num_deleted":"0","num_feature":"3","num_nodes":"15","size_leaf_vector":"1"}},{"base_weights":[-1.9928267E-2,-7.92129E-2,3.5998955E-2,3.7340507E-2,-4.1090122E-1,-2.4855362E-1,2.3489535E-1,-5.5501014E-1,3.9396062E-3,1.9885092E-3,-4.344716E-2,4.233988E-2,2.7151399E-3,-1.1036895E-3,-3.342757E-2],"categories":[],"categories_nodes":[],"categories_segments":[],"categories_sizes":[],"default_left":[0,0,0,0,0,0,0,0,0,0,0,0,0,0,0],"id":17,"left_children":[1,3,-1,5,7,9,11,13,-1,-1,-1,-1,-1,-1,-1],"loss_changes":[1.875441E0,1.5338964E0,0E0,1.751828E0,7.7038884E-1,2.3130608E0,1.9701909E0,4.7417474E-1,0E0,0E0,0E0,0E0,0E0,0E0,0E0],"parents":[2147483647,0,0,1,1,3,3,4,4,5,5,6,6,7,7],"right_children":[2,4,-1,6,8,10,12,14,-1,-1,-1,-1,-1,-1,-1],"split_conditions":[1.3056862E-1,5.1705775E0,3.5998955E-2,3.4275544E0,6.171582E0,3.3136177E0,3.5535414E0,4.6269054E1,3.9396062E-3,1.9885092E-3,-4.344716E-2,4.233988E-2,2.7151399E-3,-1.1036895E-3,-3.342757E-2],"split_indices":[2,1,0,1,1,1,1,0,0,0,0,0,0,0,0],"split_type":[0,0,0,0,0,0,0,0,0,0,0,0,0,0,0],"sum_hessian":[4.0454548E1,3.8280304E1,2.1742437E0,2.8983194E1,9.297108E0,1.1738099E1,1.7245096E1,7.0801497E0,2.216958E0,8.652688E0,3.0854108E0,3.0891445E0,1.41559515E1,1.4532659E0,5.6268835E0],"tree_param":{"num_deleted":"0","num_feature":"3","num_nodes":"15","size_leaf_vector":"1"}},{"base_weights":[-1.8700203E-2,-1.0781023E-1,4.5190585E-1,1.9172342E-3,-5.041648E-2,-1.075479E-2,7.59523E-1,-2.5924698E-1,1.5675667E-1,4.8915397E-2,1.3823986E-2,-4.18603E-3,-5.1781315E-2,4.316015E-2,6.529891E-4],"categories":[],"categories_nodes":[],"categories_segments":[],"categories_sizes":[],"default_left":[0,0,0,0,0,0,0,0,0,0,0,0,0,0,0],"id":18,"left_children":[1,3,5,7,-1,-1,9,11,13,-1,-1,-1,-1,-1,-1],"loss_changes":[1.7855179E0,3.5225432E0,1.555778E0,1.3653119E0,0E0,0E0,2.4366426E-1,1.6262007E0,2.1396332E0,0E0,0E0,0E0,0E0,0E0,0E0],"parents":[2147483647,0,0,1,1,2,2,3,3,6,6,7,7,8,8],"right_children":[2,4,6,8,-1,-1,10,12,14,-1,-1,-1,-1,-1,-1],"split_conditions":[6.641762E-2,3.1150421E-2,5.386508E1,-1.5417558E-1,-5.041648E-2,-1.075479E-2,1.1845278E-1,-1.771853E-1,-1.1732702E-1,4.8915397E-2,1.3823986E-2,-4.18603E-3,-5.1781315E-2,4.316015E-2,6.529891E-4],"split_indices":[2,2,0,2,0,0,2,2,2,0,0,0,0,0,0],"split_type":[0,0,0,0,0,0,0,0,0,0,0,0,0,0,0],"sum_hessian":[4.0415718E1,3.4629482E1,5.7862372E0,3.1757706E1,2.8717763E0,1.9212301E0,3.865007E0,1.1569461E1,2.0188246E1,1.954468E0,1.9105389E0,1.0339669E1,1.2297916E0,2.566017E0,1.7622229E1],"tree_param":{"num_deleted":"0","num_feature":"3","num_nodes":"15","size_leaf_vector":"1"}},{"base_weights":[-1.8047964E-2,-7.508116E-2,3.4946863E-2,3.4289844E-2,-4.0034837E-1,-2.5081775E-1,2.243534E-1,-7.499574E-1,1.6744858E-1,-3.994485E-3,-5.047972E-2,4.1964065E-2,3.782484E-3,2.4739263E-4,-4.9148303E-2,3.676727E-2,-3.2291982E-2],"categories":[],"categories_nodes":[],"categories_segments":[],"categories_sizes":[],"default_left":[0,0,0,0,0,0,0,0,0,0,0,0,0,0,0,0,0],"id":19,"left_children":[1,3,-1,5,7,9,11,13,15,-1,-1,-1,-1,-1,-1,-1,-1],"loss_changes":[1.7418095E0,1.4072292E0,0E0,1.6946771E0,2.097898E0,1.5490992E0,1.6436694E0,1.1186469E0,2.601263E0,0E0,0E0,0E0,0E0,0E0,0E0,0E0,0E0],"parents":[2147483647,0,0,1,1,3,3,4,4,5,5,6,6,7,7,8,8],"right_children":[2,4,-1,6,8,10,12,14,16,-1,-1,-1,-1,-1,-1,-1,-1],"split_conditions":[1.3056862E-1,5.003143E-3,3.4946863E-2,-1.5417558E-1,6.641762E-2,-1.771853E-1,-1.1732702E-1,5.1575527E1,1.02525495E-1,-3.994485E-3,-5.047972E-2,4.1964065E-2,3.782484E-3,2.4739263E-4,-4.9148303E-2,3.676727E-2,-3.2291982E-2],"split_indices":[2,2,0,2,2,2,2,0,2,0,0,0,0,0,0,0,0],"split_type":[0,0,0,0,0,0,0,0,0,0,0,0,0,0,0,0,0],"sum_hessian":[4.031209E1,3.8171024E1,2.141065E0,2.9235258E1,8.935768E0,1.1565945E1,1.7669313E1,5.331927E0,3.6038413E0,1.0341601E1,1.2243435E0,2.5364525E0,1.5132861E1,1.4884357E0,3.843491E0,2.1784947E0,1.4253464E0],"tree_param":{"num_deleted":"0","num_feature":"3","num_nodes":"17","size_leaf_vector":"1"}},{"base_weights":[-1.7617308E-2,-7.284872E-2,3.405198E-2,3.581359E-2,-3.8135248E-1,-3.5503324E-2,1.0575269E-1,-4.1764382E-2,-1.7699994E-1,3.2513704E-2,3.3317305E-4,-3.2765754E-2,3.756344E-3],"categories":[],"categories_nodes":[],"categories_segments":[],"categories_sizes":[],"default_left":[0,0,0,0,0,0,0,0,0,0,0,0,0],"id":20,"left_children":[1,3,-1,5,7,-1,9,-1,11,-1,-1,-1,-1],"loss_changes":[1.6391133E0,1.323637E0,0E0,1.630308E0,8.043288E-1,0E0,1.5133094E0,0E0,1.0558525E0,0E0,0E0,0E0,0E0],"parents":[2147483647,0,0,1,1,3,3,4,4,6,6,8,8],"right_children":[2,4,-1,6,8,-1,10,-1,12,-1,-1,-1,-1],"split_conditions":[1.3056862E-1,5.1705775E0,3.405198E-2,2.8886638E0,5.481614E0,-3.5503324E-2,3.120182E0,-4.1764382E-2,3.857595E1,3.2513704E-2,3.3317305E-4,-3.2765754E-2,3.756344E-3],"split_indices":[2,1,0,1,1,0,1,0,0,0,0,0,0],"split_type":[0,0,0,0,0,0,0,0,0,0,0,0,0],"sum_hessian":[4.0191776E1,3.807735E1,2.1144254E0,2.8812737E1,9.264615E0,1.6854343E0,2.7127302E1,1.9175694E0,7.3470454E0,3.3200798E0,2.3807222E1,1.984003E0,5.3630424E0],"tree_param":{"num_deleted":"0","num_feature":"3","num_nodes":"13","size_leaf_vector":"1"}},{"base_weights":[-1.7715275E-2,-7.116973E-2,3.318731E-2,3.443102E-2,-3.8598523E-1,-2.3666982E-1,2.1528871E-1,-7.2400194E-1,1.626773E-1,-3.464482E-3,-4.928499E-2,4.0646594E-2,3.6003725E-3,3.451494E-4,-4.757293E-2,3.5971303E-2,-3.126214E-2],"categories":[],"categories_nodes":[],"categories_segments":[],"categories_sizes":[],"default_left":[0,0,0,0,0,0,0,0,0,0,0,0,0,0,0,0,0],"id":21,"left_children":[1,3,-1,5,7,9,11,13,15,-1,-1,-1,-1,-1,-1,-1,-1],"loss_changes":[1.5451488E0,1.3109301E0,0E0,1.529065E0,1.951253E0,1.5038729E0,1.5347757E0,1.0540903E0,2.4612796E0,0E0,0E0,0E0,0E0,0E0,0E0,0E0,0E0],"parents":[2147483647,0,0,1,1,3,3,4,4,5,5,6,6,7,7,8,8],"right_children":[2,4,-1,6,8,10,12,14,16,-1,-1,-1,-1,-1,-1,-1,-1],"split_conditions":[1.3056862E-1,5.003143E-3,3.318731E-2,-1.5417558E-1,6.641762E-2,-1.771853E-1,-1.1732702E-1,5.1575527E1,1.02525495E-1,-3.464482E-3,-4.928499E-2,4.0646594E-2,3.6003725E-3,3.451494E-4,-4.757293E-2,3.5971303E-2,-3.126214E-2],"split_indices":[2,2,0,2,2,2,2,0,2,0,0,0,0,0,0,0,0],"split_type":[0,0,0,0,0,0,0,0,0,0,0,0,0,0,0,0,0],"sum_hessian":[4.0120712E1,3.8032936E1,2.0877745E0,2.9146692E1,8.886246E0,1.1539978E1,1.7606714E1,5.3009143E0,3.5853314E0,1.032519E1,1.214788E0,2.5010133E0,1.5105701E1,1.48825E0,3.812664E0,2.1517928E0,1.4335387E0],"tree_param":{"num_deleted":"0","num_feature":"3","num_nodes":"17","size_leaf_vector":"1"}},{"base_weights":[-1.729874E-2,-6.908701E-2,3.2351043E-2,3.2493457E-2,-3.7297356E-1,-1.2910934E-1,3.334654E-1,-6.990902E-1,1.5635017E-1,1.8833823E-3,-4.51194E-2,5.4939874E-2,2.225812E-3,-4.6323564E-2,1.0272323E-3,3.504495E-2,-3.024756E-2],"categories":[],"categories_nodes":[],"categories_segments":[],"categories_sizes":[],"default_left":[0,0,0,0,0,0,0,0,0,0,0,0,0,0,0,0,0],"id":22,"left_children":[1,3,-1,5,7,9,11,13,15,-1,-1,-1,-1,-1,-1,-1,-1],"loss_changes":[1.4550855E0,1.2139595E0,0E0,1.5070337E0,1.8068731E0,2.65263E0,2.3382137E0,1.0446477E0,2.317016E0,0E0,0E0,0E0,0E0,0E0,0E0,0E0,0E0],"parents":[2147483647,0,0,1,1,3,3,4,4,5,5,6,6,7,7,8,8],"right_children":[2,4,-1,6,8,10,12,14,16,-1,-1,-1,-1,-1,-1,-1,-1],"split_conditions":[1.3056862E-1,5.003143E-3,3.2351043E-2,-9.081716E-2,6.641762E-2,-1.0600992E-1,-6.2286574E-2,5.9121213E0,1.02525495E-1,1.8833823E-3,-4.51194E-2,5.4939874E-2,2.225812E-3,-4.6323564E-2,1.0272323E-3,3.504495E-2,-3.024756E-2],"split_indices":[2,2,0,2,2,2,2,1,2,0,0,0,0,0,0,0,0],"split_type":[0,0,0,0,0,0,0,0,0,0,0,0,0,0,0,0,0],"sum_hessian":[3.999483E1,3.7933647E1,2.0611851E0,2.9099575E1,8.834072E0,1.9305027E1,9.794547E0,5.267833E0,3.5662384E0,1.6662605E1,2.6424215E0,1.916261E0,7.878286E0,3.7846034E0,1.48323E0,2.125347E0,1.4408916E0],"tree_param":{"num_deleted":"0","num_feature":"3","num_nodes":"17","size_leaf_vector":"1"}},{"base_weights":[-1.6301923E-2,9.44463E-2,-3.2918337E-1,-2.1213272E-1,2.9398417E-1,-4.9837697E-1,1.8402539E-1,6.651217E-2,-8.257108E-1,8.441045E-1,1.3101885E-1,6.970258E-3,-6.750065E-1,-1.012391E-2,2.4653187E-2,-3.4154143E-2,1.5309589E-2,-5.7017136E-2,3.9397017E-4,5.3605683E-2,9.613288E-3,-5.342846E-2,1.7453242E-2,-5.752917E-2,-1.4776237E-2],"categories":[],"categories_nodes":[],"categories_segments":[],"categories_sizes":[],"default_left":[0,0,0,0,0,0,0,0,0,0,0,0,0,0,0,0,0,0,0,0,0,0,0,0,0],"id":23,"left_children":[1,3,5,7,9,11,13,15,17,19,21,-1,23,-1,-1,-1,-1,-1,-1,-1,-1,-1,-1,-1,-1],"loss_changes":[1.4483567E0,1.9578748E0,1.0395331E0,2.2428238E0,1.6096685E0,1.0492547E0,5.1033163E-1,1.9565319E0,1.0767279E0,4.1832137E-1,4.5546455E0,0E0,8.892014E-1,0E0,0E0,0E0,0E0,0E0,0E0,0E0,0E0,0E0,0E0,0E0,0E0],"parents":[2147483647,0,0,1,1,2,2,3,3,4,4,5,5,6,6,7,7,8,8,9,9,10,10,12,12],"right_children":[2,4,6,8,10,12,14,16,18,20,22,-1,24,-1,-1,-1,-1,-1,-1,-1,-1,-1,-1,-1,-1],"split_conditions":[5.1827292E0,3.4275544E0,6.171582E0,3.3136177E0,3.5547438E0,4.6269054E1,3.1419086E1,2.8886638E0,-2.5816277E-2,-2.230856E-3,3.6651115E0,6.970258E-3,5.481614E0,-1.012391E-2,2.4653187E-2,-3.4154143E-2,1.5309589E-2,-5.7017136E-2,3.9397017E-4,5.3605683E-2,9.613288E-3,-5.342846E-2,1.7453242E-2,-5.752917E-2,-1.4776237E-2],"split_indices":[1,1,1,1,1,0,0,1,2,2,1,0,1,0,0,0,0,0,0,0,0,0,0,0,0],"split_type":[0,0,0,0,0,0,0,0,0,0,0,0,0,0,0,0,0,0,0,0,0,0,0,0,0],"sum_hessian":[3.99011E1,2.9985504E1,9.915596E0,1.1796976E1,1.8188528E1,7.478876E0,2.43672E0,8.725881E0,3.0710945E0,3.2015228E0,1.4987005E1,1.6677251E0,5.811151E0,1.2358708E0,1.200849E0,1.6658796E0,7.0600014E0,1.9624093E0,1.1086853E0,1.8941934E0,1.3073295E0,1.7051882E0,1.32818165E1,1.6772231E0,4.133928E0],"tree_param":{"num_deleted":"0","num_feature":"3","num_nodes":"25","size_leaf_vector":"1"}},{"base_weights":[-1.7922465E-2,-6.784579E-2,3.1395808E-2,3.0341588E-2,-3.6268622E-1,-2.2642674E-1,2.0221497E-1,-6.754628E-1,1.470028E-1,-3.1270653E-3,-4.8134543E-2,3.9000534E-2,3.2664163E-3,-4.8882198E-2,-4.4772266E-3,3.4121394E-2,-2.9493785E-2],"categories":[],"categories_nodes":[],"categories_segments":[],"categories_sizes":[],"default_left":[0,0,0,0,0,0,0,0,0,0,0,0,0,0,0,0,0],"id":24,"left_children":[1,3,-1,5,7,9,11,13,15,-1,-1,-1,-1,-1,-1,-1,-1],"loss_changes":[1.3581452E0,1.1335684E0,0E0,1.3702669E0,1.6559325E0,1.448772E0,1.4127514E0,1.0154743E0,2.1916451E0,0E0,0E0,0E0,0E0,0E0,0E0,0E0,0E0],"parents":[2147483647,0,0,1,1,3,3,4,4,5,5,6,6,7,7,8,8],"right_children":[2,4,-1,6,8,10,12,14,16,-1,-1,-1,-1,-1,-1,-1,-1],"split_conditions":[1.3056862E-1,5.003143E-3,3.1395808E-2,-1.5417558E-1,6.641762E-2,-1.771853E-1,-1.1732702E-1,5.580997E0,1.02525495E-1,-3.1270653E-3,-4.8134543E-2,3.9000534E-2,3.2664163E-3,-4.8882198E-2,-4.4772266E-3,3.4121394E-2,-2.9493785E-2],"split_indices":[2,2,0,2,2,2,2,1,2,0,0,0,0,0,0,0,0],"split_type":[0,0,0,0,0,0,0,0,0,0,0,0,0,0,0,0,0],"sum_hessian":[3.9801655E1,3.777648E1,2.025173E0,2.9012026E1,8.764456E0,1.1505744E1,1.750628E1,5.2298517E0,3.534604E0,1.0298368E1,1.2073753E0,2.453191E0,1.5053091E1,3.0092802E0,2.2205715E0,2.089929E0,1.444675E0],"tree_param":{"num_deleted":"0","num_feature":"3","num_nodes":"17","size_leaf_vector":"1"}},{"base_weights":[-1.7716631E-2,8.921298E-2,-3.1880525E-1,-2.1937277E-2,6.2481016E-1,-4.826381E-1,1.778652E-1,1.2185855E-1,-4.611551E-2,4.513171E-2,2.2438996E-1,6.703517E-3,-6.530329E-1,-9.831484E-3,2.3919402E-2,-2.641665E-4,4.428729E-2,-2.1780696E-2,3.7873253E-2,-5.6282815E-2,-1.4015627E-2],"categories":[],"categories_nodes":[],"categories_segments":[],"categories_sizes":[],"default_left":[0,0,0,0,0,0,0,0,0,0,0,0,0,0,0,0,0,0,0,0,0],"id":25,"left_children":[1,3,5,7,9,11,13,15,-1,-1,17,-1,19,-1,-1,-1,-1,-1,-1,-1,-1],"loss_changes":[1.3378229E0,1.8468629E0,9.7092044E-1,3.539059E0,3.89956E-1,9.7534037E-1,4.7994396E-1,2.3069935E0,0E0,0E0,1.5657669E0,0E0,8.805258E-1,0E0,0E0,0E0,0E0,0E0,0E0,0E0,0E0],"parents":[2147483647,0,0,1,1,2,2,3,3,4,4,5,5,6,6,7,7,10,10,12,12],"right_children":[2,4,6,8,10,12,14,16,-1,-1,18,-1,20,-1,-1,-1,-1,-1,-1,-1,-1],"split_conditions":[5.1827292E0,6.641762E-2,6.171582E0,5.003143E-3,1.02525495E-1,4.6269054E1,3.1419086E1,4.6252456E0,-4.611551E-2,4.513171E-2,1.2807117E-1,6.703517E-3,5.481614E0,-9.831484E-3,2.3919402E-2,-2.641665E-4,4.428729E-2,-2.1780696E-2,3.7873253E-2,-5.6282815E-2,-1.4015627E-2],"split_indices":[1,2,1,2,2,0,0,1,0,0,2,0,1,0,0,0,0,0,0,0,0],"split_type":[0,0,0,0,0,0,0,0,0,0,0,0,0,0,0,0,0,0,0,0,0],"sum_hessian":[3.9669968E1,2.9792912E1,9.877054E0,2.5466911E1,4.3260007E0,7.448371E0,2.4286833E0,2.2705364E1,2.7615473E0,1.813512E0,2.5124886E0,1.6585984E0,5.7897725E0,1.2351793E0,1.1935041E0,2.031689E1,2.3884728E0,1.2042844E0,1.3082043E0,1.6620814E0,4.1276913E0],"tree_param":{"num_deleted":"0","num_feature":"3","num_nodes":"21","size_leaf_vector":"1"}},{"base_weights":[-1.6629763E-2,8.701643E-2,-3.0803797E-1,-2.0426357E-1,2.7765745E-1,-4.6693105E-1,1.7337447E-1,6.49888E-2,-7.9387623E-1,8.330772E-1,1.1479082E-1,6.495654E-3,-6.3218015E-1,-9.561246E-3,2.3324732E-2,-3.3003952E-2,1.4827472E-2,-5.4801792E-2,7.209388E-4,5.217206E-2,1.0081227E-2,-5.1227015E-2,1.6266055E-2,-5.482893E-2,-1.3452952E-2],"categories":[],"categories_nodes":[],"categories_segments":[],"categories_sizes":[],"default_left":[0,0,0,0,0,0,0,0,0,0,0,0,0,0,0,0,0,0,0,0,0,0,0,0,0],"id":26,"left_children":[1,3,5,7,9,11,13,15,17,19,21,-1,23,-1,-1,-1,-1,-1,-1,-1,-1,-1,-1,-1,-1],"loss_changes":[1.2512355E0,1.7605609E0,9.113784E-1,2.070007E0,1.6203231E0,9.1385627E-1,4.5504972E-1,1.8163825E0,1.0077591E0,3.3973336E-1,4.129861E0,0E0,8.474226E-1,0E0,0E0,0E0,0E0,0E0,0E0,0E0,0E0,0E0,0E0,0E0,0E0],"parents":[2147483647,0,0,1,1,2,2,3,3,4,4,5,5,6,6,7,7,8,8,9,9,10,10,12,12],"right_children":[2,4,6,8,10,12,14,16,18,20,22,-1,24,-1,-1,-1,-1,-1,-1,-1,-1,-1,-1,-1,-1],"split_conditions":[5.1827292E0,3.4275544E0,6.171582E0,3.3136177E0,3.5547438E0,4.6269054E1,3.1419086E1,2.8886638E0,-2.5816277E-2,-2.230856E-3,3.6651115E0,6.495654E-3,5.481614E0,-9.561246E-3,2.3324732E-2,-3.3003952E-2,1.4827472E-2,-5.4801792E-2,7.209388E-4,5.217206E-2,1.0081227E-2,-5.1227015E-2,1.6266055E-2,-5.482893E-2,-1.3452952E-2],"split_indices":[1,1,1,1,1,0,0,1,2,2,1,0,1,0,0,0,0,0,0,0,0,0,0,0,0],"split_type":[0,0,0,0,0,0,0,0,0,0,0,0,0,0,0,0,0,0,0,0,0,0,0,0,0],"sum_hessian":[3.9539577E1,2.9683378E1,9.8562E0,1.171405E1,1.7969328E1,7.4329805E0,2.4232192E0,8.6525545E0,3.061496E0,3.1413562E0,1.4827972E1,1.6581035E0,5.774877E0,1.2348571E0,1.1883622E0,1.6464831E0,7.006071E0,1.9693298E0,1.0921663E0,1.8669494E0,1.2744068E0,1.7096032E0,1.3118369E1,1.6477225E0,4.127155E0],"tree_param":{"num_deleted":"0","num_feature":"3","num_nodes":"25","size_leaf_vector":"1"}},{"base_weights":[-1.8119795E-2,-6.535717E-2,3.0039907E-2,2.7362611E-2,-3.4608835E-1,-1.2285888E-1,3.0742788E-1,-6.364863E-1,1.3098109E-1,1.9037931E-3,-4.3075696E-2,5.275475E-2,1.4592408E-3,1.7527174E-3,-4.2819094E-2,3.2537043E-2,-2.8105138E-2],"categories":[],"categories_nodes":[],"categories_segments":[],"categories_sizes":[],"default_left":[0,0,0,0,0,0,0,0,0,0,0,0,0,0,0,0,0],"id":27,"left_children":[1,3,-1,5,7,9,11,13,15,-1,-1,-1,-1,-1,-1,-1,-1],"loss_changes":[1.2212216E0,1.0106391E0,0E0,1.2932053E0,1.416514E0,2.4265857E0,2.19586E0,9.3853164E-1,1.9762101E0,0E0,0E0,0E0,0E0,0E0,0E0,0E0,0E0],"parents":[2147483647,0,0,1,1,3,3,4,4,5,5,6,6,7,7,8,8],"right_children":[2,4,-1,6,8,10,12,14,16,-1,-1,-1,-1,-1,-1,-1,-1],"split_conditions":[1.3056862E-1,5.003143E-3,3.0039907E-2,-9.081716E-2,6.641762E-2,-1.0600992E-1,-6.2286574E-2,5.1575527E1,1.02525495E-1,1.9037931E-3,-4.3075696E-2,5.275475E-2,1.4592408E-3,1.7527174E-3,-4.2819094E-2,3.2537043E-2,-2.8105138E-2],"split_indices":[2,2,0,2,2,2,2,0,2,0,0,0,0,0,0,0,0],"split_type":[0,0,0,0,0,0,0,0,0,0,0,0,0,0,0,0,0],"sum_hessian":[3.9427986E1,3.7463108E1,1.9648781E0,2.8840282E1,8.622827E0,1.913693E1,9.703352E0,5.1523623E0,3.4704642E0,1.649215E1,2.644781E0,1.8744707E0,7.8288817E0,1.4783138E0,3.6740484E0,2.0181215E0,1.4523429E0],"tree_param":{"num_deleted":"0","num_feature":"3","num_nodes":"17","size_leaf_vector":"1"}},{"base_weights":[-1.7074345E-2,-6.28149E-2,2.930191E-2,2.6477773E-2,-3.3471847E-1,-2.7298406E-2,9.6494876E-2,-6.153768E-1,1.2612835E-1,-1.0953961E-2,1.3198586E-2,-4.540698E-2,-3.3352037E-3,3.172884E-2,-2.72179E-2],"categories":[],"categories_nodes":[],"categories_segments":[],"categories_sizes":[],"default_left":[0,0,0,0,0,0,0,0,0,0,0,0,0,0,0],"id":28,"left_children":[1,3,-1,5,7,-1,9,11,13,-1,-1,-1,-1,-1,-1],"loss_changes":[1.1492394E0,9.408188E-1,0E0,1.2480036E0,1.314458E0,0E0,1.5071354E0,9.214115E-1,1.8622577E0,0E0,0E0,0E0,0E0,0E0,0E0],"parents":[2147483647,0,0,1,1,3,3,4,4,6,6,7,7,8,8],"right_children":[2,4,-1,6,8,-1,10,12,14,-1,-1,-1,-1,-1,-1],"split_conditions":[1.3056862E-1,5.003143E-3,2.930191E-2,-2.9964226E-1,6.641762E-2,-2.7298406E-2,3.3969607E0,5.580997E0,1.02525495E-1,-1.0953961E-2,1.3198586E-2,-4.540698E-2,-3.3352037E-3,3.172884E-2,-2.72179E-2],"split_indices":[2,2,0,2,2,0,1,1,2,0,0,0,0,0,0],"split_type":[0,0,0,0,0,0,0,0,0,0,0,0,0,0,0],"sum_hessian":[3.9324776E1,3.7385292E1,1.9394826E0,2.8822615E1,8.562677E0,2.400333E0,2.6422283E1,5.113319E0,3.449358E0,9.053948E0,1.7368334E1,2.9070225E0,2.2062964E0,1.9921856E0,1.4571724E0],"tree_param":{"num_deleted":"0","num_feature":"3","num_nodes":"15","size_leaf_vector":"1"}},{"base_weights":[-1.7255347E-2,8.4070906E-2,-3.0132982E-1,-1.8853197E-2,5.9058005E-1,-5.8846706E-1,-2.0749126E-2,1.1200631E-1,-4.278356E-2,4.2812087E-2,2.1044159E-1,-4.0081896E-2,-9.878916E-3,2.5441367E-2,-4.0078253E-1,-4.9643306E-4,4.250908E-2,-1.9815758E-2,3.593004E-2,-2.960054E-2,-4.788901E-4],"categories":[],"categories_nodes":[],"categories_segments":[],"categories_sizes":[],"default_left":[0,0,0,0,0,0,0,0,0,0,0,0,0,0,0,0,0,0,0,0,0],"id":29,"left_children":[1,3,5,7,9,11,13,15,-1,-1,17,-1,-1,-1,19,-1,-1,-1,-1,-1,-1],"loss_changes":[1.1827918E0,1.5970613E0,8.571065E-1,2.9706604E0,3.4178364E-1,2.829299E-1,1.5108844E0,2.131475E0,0E0,0E0,1.3491687E0,0E0,0E0,0E0,3.1901705E-1,0E0,0E0,0E0,0E0,0E0,0E0],"parents":[2147483647,0,0,1,1,2,2,3,3,4,4,5,5,6,6,7,7,10,10,14,14],"right_children":[2,4,6,8,10,12,14,16,-1,-1,18,-1,-1,-1,20,-1,-1,-1,-1,-1,-1],"split_conditions":[5.1827292E0,6.641762E-2,-9.614898E-2,5.003143E-3,1.02525495E-1,5.7446904E0,1.6304636E-2,4.6252456E0,-4.278356E-2,4.2812087E-2,1.2807117E-1,-4.0081896E-2,-9.878916E-3,2.5441367E-2,5.9121213E0,-4.9643306E-4,4.250908E-2,-1.9815758E-2,3.593004E-2,-2.960054E-2,-4.788901E-4],"split_indices":[1,2,2,2,2,1,2,1,0,0,2,0,0,0,1,0,0,0,0,0,0],"split_type":[0,0,0,0,0,0,0,0,0,0,0,0,0,0,0,0,0,0,0,0,0],"sum_hessian":[3.9211597E1,2.9421371E1,9.790228E0,2.5252724E1,4.1686473E0,4.2962575E0,5.49397E0,2.2586807E1,2.6659162E0,1.7165682E0,2.4520793E0,2.10014E0,2.1961176E0,2.1537783E0,3.3401916E0,2.0231441E1,2.3553667E0,1.217931E0,1.2341483E0,1.8987465E0,1.441445E0],"tree_param":{"num_deleted":"0","num_feature":"3","num_nodes":"21","size_leaf_vector":"1"}},{"base_weights":[-1.6346931E-2,8.211586E-2,-2.922658E-1,-1.7988583E-2,5.7893884E-1,-5.705538E-1,-2.046096E-2,1.08309366E-1,-8.327386E-1,7.4524623E-1,5.0354484E-3,-3.8970735E-2,-9.537976E-3,2.4661941E-2,-3.8804802E-1,-4.727449E-4,4.131474E-2,-1.3290824E-2,-4.8009716E-2,4.336309E-2,1.1859438E-2,-2.8672E-2,-4.6475045E-4],"categories":[],"categories_nodes":[],"categories_segments":[],"categories_sizes":[],"default_left":[0,0,0,0,0,0,0,0,0,0,0,0,0,0,0,0,0,0,0,0,0,0,0],"id":30,"left_children":[1,3,5,7,9,11,13,15,17,19,-1,-1,-1,-1,21,-1,-1,-1,-1,-1,-1,-1,-1],"loss_changes":[1.1124712E0,1.5177788E0,8.019432E-1,2.785751E0,3.3158755E-1,2.699635E-1,1.4147881E0,2.0002851E0,7.1167946E-3,1.9777775E-2,0E0,0E0,0E0,0E0,2.991451E-1,0E0,0E0,0E0,0E0,0E0,0E0,0E0,0E0],"parents":[2147483647,0,0,1,1,2,2,3,3,4,4,5,5,6,6,7,7,8,8,9,9,14,14],"right_children":[2,4,6,8,10,12,14,16,18,20,-1,-1,-1,-1,22,-1,-1,-1,-1,-1,-1,-1,-1],"split_conditions":[5.1827292E0,6.641762E-2,-9.614898E-2,5.003143E-3,4.1570745E0,5.7446904E0,1.6304636E-2,4.6252456E0,3.4545214E0,1.1845278E-1,5.0354484E-3,-3.8970735E-2,-9.537976E-3,2.4661941E-2,5.9121213E0,-4.727449E-4,4.131474E-2,-1.3290824E-2,-4.8009716E-2,4.336309E-2,1.1859438E-2,-2.8672E-2,-4.6475045E-4],"split_indices":[1,2,2,2,1,1,2,1,1,2,0,0,0,0,1,0,0,0,0,0,0,0,0],"split_type":[0,0,0,0,0,0,0,0,0,0,0,0,0,0,0,0,0,0,0,0,0,0,0],"sum_hessian":[3.9064854E1,2.9308416E1,9.756438E0,2.5195574E1,4.112842E0,4.2776384E0,5.4788E0,2.2564775E1,2.6307998E0,2.6373456E0,1.4754966E0,2.0810182E0,2.1966202E0,2.1426442E0,3.3361557E0,2.0232985E1,2.331791E0,1.0492597E0,1.5815401E0,1.5565159E0,1.0808297E0,1.8947113E0,1.4414443E0],"tree_param":{"num_deleted":"0","num_feature":"3","num_nodes":"23","size_leaf_vector":"1"}},{"base_weights":[-1.5900183E-2,-5.9745476E-2,2.8343817E-2,-3.136903E-2,-1.7351769E-2,6.365961E-1,-1.0073326E-1,3.8235504E-2,7.945937E-3,-4.5140218E-2,-1.1740677E-3],"categories":[],"categories_nodes":[],"categories_segments":[],"categories_sizes":[],"default_left":[0,0,0,0,0,0,0,0,0,0,0],"id":31,"left_children":[1,3,-1,-1,5,7,9,-1,-1,-1,-1],"loss_changes":[1.0544506E0,9.0478635E-1,0E0,0E0,2.0508437E0,1.3898611E-1,2.0345874E0,0E0,0E0,0E0,0E0],"parents":[2147483647,0,0,1,1,4,4,5,5,6,6],"right_children":[2,4,-1,-1,6,8,10,-1,-1,-1,-1],"split_conditions":[1.3056862E-1,2.8886638E0,2.8343817E-2,-3.136903E-2,3.120182E0,6.626697E1,-2.9964226E-1,3.8235504E-2,7.945937E-3,-4.5140218E-2,-1.1740677E-3],"split_indices":[2,1,0,0,1,0,2,0,0,0,0],"split_type":[0,0,0,0,0,0,0,0,0,0,0],"sum_hessian":[3.894138E1,3.70513E1,1.8900796E0,1.6159154E0,3.5435383E1,3.2569444E0,3.217844E1,2.0943446E0,1.1625998E0,1.8881495E0,3.0290289E1],"tree_param":{"num_deleted":"0","num_feature":"3","num_nodes":"11","size_leaf_vector":"1"}},{"base_weights":[-1.5198652E-2,7.963011E-2,-2.8112784E-1,-1.8707156E-1,2.5585032E-1,-6.812416E-1,-9.265957E-2,7.5007E-2,-7.6164216E-1,8.245121E-1,9.184141E-2,-7.608221E-3,-4.4774406E-2,-3.2187108E-2,1.7486069E-1,1.5617074E-2,-2.9666979E-2,-5.2060574E-2,6.657049E-4,5.0359692E-2,1.0884428E-2,-4.910797E-2,1.4738495E-2,3.685606E-2,-1.7084818E-2],"categories":[],"categories_nodes":[],"categories_segments":[],"categories_sizes":[],"default_left":[0,0,0,0,0,0,0,0,0,0,0,0,0,0,0,0,0,0,0,0,0,0,0,0,0],"id":32,"left_children":[1,3,5,7,9,11,13,15,17,19,21,-1,-1,-1,23,-1,-1,-1,-1,-1,-1,-1,-1,-1,-1],"loss_changes":[1.0280561E0,1.4660825E0,7.440097E-1,1.9519749E0,1.6583259E0,2.3439038E-1,1.3558874E0,1.7004864E0,8.8727856E-1,2.2822666E-1,3.6798658E0,0E0,0E0,0E0,2.129229E0,0E0,0E0,0E0,0E0,0E0,0E0,0E0,0E0,0E0,0E0],"parents":[2147483647,0,0,1,1,2,2,3,3,4,4,5,5,6,6,7,7,8,8,9,9,10,10,14,14],"right_children":[2,4,6,8,10,12,14,16,18,20,22,-1,-1,-1,24,-1,-1,-1,-1,-1,-1,-1,-1,-1,-1],"split_conditions":[5.1827292E0,3.4275544E0,5.481614E0,3.3136177E0,3.5547438E0,4.8230297E1,3.857595E1,6.722504E1,-2.5816277E-2,-2.230856E-3,3.6651115E0,-7.608221E-3,-4.4774406E-2,-3.2187108E-2,5.2907215E1,1.5617074E-2,-2.9666979E-2,-5.2060574E-2,6.657049E-4,5.0359692E-2,1.0884428E-2,-4.910797E-2,1.4738495E-2,3.685606E-2,-1.7084818E-2],"split_indices":[1,1,1,1,1,0,0,0,2,2,1,0,0,0,0,0,0,0,0,0,0,0,0,0,0],"split_type":[0,0,0,0,0,0,0,0,0,0,0,0,0,0,0,0,0,0,0,0,0,0,0,0,0],"sum_hessian":[3.8879475E1,2.9176035E1,9.703441E0,1.1583432E1,1.7592602E1,2.2698913E0,7.4335494E0,8.552048E0,3.0313852E0,3.036617E0,1.45559845E1,1.1471816E0,1.1227098E0,1.9697015E0,5.4638476E0,6.7040563E0,1.8479912E0,1.9752347E0,1.0561503E0,1.8268664E0,1.2097507E0,1.7029864E0,1.2852999E1,2.411738E0,3.05211E0],"tree_param":{"num_deleted":"0","num_feature":"3","num_nodes":"25","size_leaf_vector":"1"}},{"base_weights":[-1.7051753E-2,-5.9681118E-2,2.769883E-2,7.1467E-2,-2.3142098E-1,-1.0685138E-1,6.941967E-1,1.0185457E-2,-5.638379E-1,5.3765243E-3,-3.518803E-2,1.6292378E-2,4.689442E-2,-3.8937613E-2,1.1933572E-2,-4.289404E-2,2.3685088E-2],"categories":[],"categories_nodes":[],"categories_segments":[],"categories_sizes":[],"default_left":[0,0,0,0,0,0,0,0,0,0,0,0,0,0,0,0,0],"id":33,"left_children":[1,3,-1,5,7,9,11,13,15,-1,-1,-1,-1,-1,-1,-1,-1],"loss_changes":[1.0011783E0,8.7041026E-1,0E0,2.5459726E0,1.3430438E0,2.4009645E0,1.51155E-1,2.1011026E0,2.5499115E0,0E0,0E0,0E0,0E0,0E0,0E0,0E0,0E0],"parents":[2147483647,0,0,1,1,3,3,4,4,5,5,6,6,7,7,8,8],"right_children":[2,4,-1,6,8,10,12,14,16,-1,-1,-1,-1,-1,-1,-1,-1],"split_conditions":[1.3056862E-1,4.1570745E0,2.769883E-2,3.704833E0,-2.1080486E-2,6.722504E1,-4.6382815E-2,-2.9964226E-1,6.049925E0,5.3765243E-3,-3.518803E-2,1.6292378E-2,4.689442E-2,-3.8937613E-2,1.1933572E-2,-4.289404E-2,2.3685088E-2],"split_indices":[2,1,0,1,2,0,2,2,1,0,0,0,0,0,0,0,0],"split_type":[0,0,0,0,0,0,0,0,0,0,0,0,0,0,0,0,0],"sum_hessian":[3.87705E1,3.691048E1,1.8600183E0,2.1259588E1,1.5650892E1,1.7171074E1,4.088515E0,9.624787E0,6.026105E0,1.3236866E1,3.9342077E0,2.558451E0,1.5300639E0,1.6206251E0,8.004162E0,4.830329E0,1.195776E0],"tree_param":{"num_deleted":"0","num_feature":"3","num_nodes":"17","size_leaf_vector":"1"}},{"base_weights":[-1.584979E-2,-3.0434528E-2,2.509508E-2,6.234364E-1,-4.8149787E-2,3.818312E-2,9.275863E-3,-4.2474765E-2,2.280911E-2,-1.898643E-2,6.7820833E-3],"categories":[],"categories_nodes":[],"categories_segments":[],"categories_sizes":[],"default_left":[0,0,0,0,0,0,0,0,0,0,0],"id":34,"left_children":[1,-1,3,5,7,-1,-1,-1,9,-1,-1],"loss_changes":[9.7816163E-1,0E0,1.698254E0,1.1766493E-1,2.0005977E0,0E0,0E0,0E0,1.5495199E0,0E0,0E0],"parents":[2147483647,0,0,2,2,3,3,4,4,8,8],"right_children":[2,-1,4,6,8,-1,-1,-1,10,-1,-1],"split_conditions":[2.8886638E0,-3.0434528E-2,3.120182E0,-9.504974E-2,-2.9964226E-1,3.818312E-2,9.275863E-3,-4.2474765E-2,3.4275544E0,-1.898643E-2,6.7820833E-3],"split_indices":[1,0,1,2,2,0,0,0,1,0,0],"split_type":[0,0,0,0,0,0,0,0,0,0,0],"sum_hessian":[3.866775E1,1.6022773E0,3.7065475E1,3.2232113E0,3.3842262E1,1.8780107E0,1.3452004E0,1.8604437E0,3.198182E1,6.4840646E0,2.5497755E1],"tree_param":{"num_deleted":"0","num_feature":"3","num_nodes":"11","size_leaf_vector":"1"}},{"base_weights":[-1.6024202E-2,7.588634E-2,-2.7392608E-1,-2.0348873E-2,5.5834514E-1,-5.401432E-1,-1.5598162E-2,9.992284E-2,-8.01565E-1,4.151399E-2,1.7909013E-1,-7.463413E-3,-3.7300043E-2,2.3290357E-2,-3.6088285E-1,-7.4813544E-4,4.0221207E-2,-1.2296016E-2,-4.646849E-2,-1.9365465E-2,3.3953212E-2,-3.1197889E-2,-3.3458096E-3],"categories":[],"categories_nodes":[],"categories_segments":[],"categories_sizes":[],"default_left":[0,0,0,0,0,0,0,0,0,0,0,0,0,0,0,0,0,0,0,0,0,0,0],"id":35,"left_children":[1,3,5,7,9,11,13,15,17,-1,19,-1,-1,-1,21,-1,-1,-1,-1,-1,-1,-1,-1],"loss_changes":[9.598935E-1,1.4038713E0,7.223607E-1,2.5201106E0,3.6931252E-1,3.073442E-1,1.2357125E0,1.905449E0,2.5360346E-2,0E0,1.2180486E0,0E0,0E0,0E0,2.9107052E-1,0E0,0E0,0E0,0E0,0E0,0E0,0E0,0E0],"parents":[2147483647,0,0,1,1,2,2,3,3,4,4,5,5,6,6,7,7,8,8,10,10,14,14],"right_children":[2,4,6,8,10,12,14,16,18,-1,20,-1,-1,-1,22,-1,-1,-1,-1,-1,-1,-1,-1],"split_conditions":[5.1827292E0,6.641762E-2,-9.614898E-2,5.003143E-3,1.02525495E-1,-2.6181367E-1,1.6304636E-2,4.6252456E0,3.4545214E0,4.151399E-2,1.2807117E-1,-7.463413E-3,-3.7300043E-2,2.3290357E-2,5.580997E0,-7.4813544E-4,4.0221207E-2,-1.2296016E-2,-4.646849E-2,-1.9365465E-2,3.3953212E-2,-3.1197889E-2,-3.3458096E-3],"split_indices":[1,2,2,2,2,2,2,1,1,0,2,0,0,0,1,0,0,0,0,0,0,0,0],"split_type":[0,0,0,0,0,0,0,0,0,0,0,0,0,0,0,0,0,0,0,0,0,0,0],"sum_hessian":[3.8618217E1,2.89919E1,9.626318E0,2.4969166E1,4.022733E0,4.203512E0,5.422806E0,2.2393656E1,2.5755103E0,1.6502364E0,2.3724968E0,2.0452223E0,2.1582897E0,2.1191611E0,3.3036444E0,2.009539E1,2.2982662E0,1.0284411E0,1.5470692E0,1.2180083E0,1.1544886E0,1.1510276E0,2.1526167E0],"tree_param":{"num_deleted":"0","num_feature":"3","num_nodes":"23","size_leaf_vector":"1"}},{"base_weights":[-1.572973E-2,-2.9598175E-2,2.4035444E-2,6.0721624E-1,-4.7345553E-2,3.7149306E-2,9.096077E-3,-4.1553203E-2,2.1954415E-2,-1.8171666E-2,6.5278485E-3],"categories":[],"categories_nodes":[],"categories_segments":[],"categories_sizes":[],"default_left":[0,0,0,0,0,0,0,0,0,0,0],"id":36,"left_children":[1,-1,3,5,7,-1,-1,-1,9,-1,-1],"loss_changes":[9.191596E-1,0E0,1.6066195E0,1.07688546E-1,1.9027635E0,0E0,0E0,0E0,1.4225048E0,0E0,0E0],"parents":[2147483647,0,0,2,2,3,3,4,4,8,8],"right_children":[2,-1,4,6,8,-1,-1,-1,10,-1,-1],"split_conditions":[2.8886638E0,-2.9598175E-2,3.120182E0,-9.504974E-2,-2.9964226E-1,3.7149306E-2,9.096077E-3,-4.1553203E-2,3.4275544E0,-1.8171666E-2,6.5278485E-3],"split_indices":[1,0,1,2,2,0,0,0,1,0,0],"split_type":[0,0,0,0,0,0,0,0,0,0,0],"sum_hessian":[3.8492455E1,1.5884132E0,3.690404E1,3.2058272E0,3.3698215E1,1.8638315E0,1.3419957E0,1.8446507E0,3.1853563E1,6.4870663E0,2.5366499E1],"tree_param":{"num_deleted":"0","num_feature":"3","num_nodes":"11","size_leaf_vector":"1"}},{"base_weights":[-1.588808E-2,7.425285E-2,-2.6839828E-1,-1.9484226E-2,5.478175E-1,-6.49835E-1,-8.953093E-2,9.765828E-2,-7.8499866E-1,4.0751096E-2,1.758931E-1,-6.7303083E-3,-4.3203194E-2,-3.0959934E-2,1.6866626E-1,-6.908445E-4,3.9272014E-2,-1.1828475E-2,-4.5620445E-2,-1.8707678E-2,3.335431E-2,3.5543185E-2,-1.6524477E-2],"categories":[],"categories_nodes":[],"categories_segments":[],"categories_sizes":[],"default_left":[0,0,0,0,0,0,0,0,0,0,0,0,0,0,0,0,0,0,0,0,0,0,0],"id":37,"left_children":[1,3,5,7,9,11,13,15,17,-1,19,-1,-1,-1,21,-1,-1,-1,-1,-1,-1,-1,-1],"loss_changes":[9.1765416E-1,1.335653E0,6.6449416E-1,2.3976066E0,3.501892E-1,2.3928273E-1,1.2491994E0,1.8000656E0,3.190112E-2,0E0,1.1550927E0,0E0,0E0,0E0,1.9706535E0,0E0,0E0,0E0,0E0,0E0,0E0,0E0,0E0],"parents":[2147483647,0,0,1,1,2,2,3,3,4,4,5,5,6,6,7,7,8,8,10,10,14,14],"right_children":[2,4,6,8,10,12,14,16,18,-1,20,-1,-1,-1,22,-1,-1,-1,-1,-1,-1,-1,-1],"split_conditions":[5.1827292E0,6.641762E-2,5.481614E0,5.003143E-3,1.02525495E-1,4.8230297E1,3.857595E1,4.6252456E0,3.4545214E0,4.0751096E-2,1.2807117E-1,-6.7303083E-3,-4.3203194E-2,-3.0959934E-2,5.2907215E1,-6.908445E-4,3.9272014E-2,-1.1828475E-2,-4.5620445E-2,-1.8707678E-2,3.335431E-2,3.5543185E-2,-1.6524477E-2],"split_indices":[1,2,1,2,2,0,0,1,1,0,2,0,0,0,0,0,0,0,0,0,0,0,0],"split_type":[0,0,0,0,0,0,0,0,0,0,0,0,0,0,0,0,0,0,0,0,0,0,0],"sum_hessian":[3.8440483E1,2.884821E1,9.592274E0,2.4881948E1,3.9662602E0,2.2216098E0,7.370664E0,2.2336365E1,2.5455842E0,1.6147789E0,2.3514812E0,1.1306591E0,1.0909508E0,1.957294E0,5.41337E0,2.0064274E1,2.2720907E0,1.0184566E0,1.5271275E0,1.2216886E0,1.1297927E0,2.3915107E0,3.0218596E0],"tree_param":{"num_deleted":"0","num_feature":"3","num_nodes":"23","size_leaf_vector":"1"}},{"base_weights":[-1.576729E-2,-1.3176656E-1,1.7417805E-1,-6.8987315E-3,-8.7814546E-1,7.686503E-1,-1.2800507E-1,-1.6095081E-1,3.5258034E-1,6.5989704E-3,-7.086398E-2,8.426814E-3,5.5835392E-2,-3.3667994E-1,2.9418392E-2,-1.964595E-3,-4.7085803E-2,5.017599E-2,-9.5870544E-4,1.5068429E-2,-3.4746986E-2],"categories":[],"categories_nodes":[],"categories_segments":[],"categories_sizes":[],"default_left":[0,0,0,0,0,0,0,0,0,0,0,0,0,0,0,0,0,0,0,0,0],"id":38,"left_children":[1,3,5,7,9,11,13,15,17,-1,-1,-1,-1,19,-1,-1,-1,-1,-1,-1,-1],"loss_changes":[8.890277E-1,2.3214087E0,2.8529963E0,1.297332E0,2.1319323E0,9.210243E-1,1.8459923E0,1.5177685E0,1.7213185E0,0E0,0E0,0E0,0E0,2.3062336E0,0E0,0E0,0E0,0E0,0E0,0E0,0E0],"parents":[2147483647,0,0,1,1,2,2,3,3,4,4,5,5,6,6,7,7,8,8,13,13],"right_children":[2,4,6,8,10,12,14,16,18,-1,-1,-1,-1,20,-1,-1,-1,-1,-1,-1,-1],"split_conditions":[6.285097E1,6.1763725E1,6.494013E1,5.7275593E1,3.4876447E0,6.3953735E1,5.8262374E-2,5.5680244E1,5.8377033E1,6.5989704E-3,-7.086398E-2,8.426814E-3,5.5835392E-2,3.120182E0,2.9418392E-2,-1.964595E-3,-4.7085803E-2,5.017599E-2,-9.5870544E-4,1.5068429E-2,-3.4746986E-2],"split_indices":[0,0,0,0,1,0,2,0,0,0,0,0,0,1,0,0,0,0,0,0,0],"split_type":[0,0,0,0,0,0,0,0,0,0,0,0,0,0,0,0,0,0,0,0,0],"sum_hessian":[3.830724E1,2.3973166E1,1.4334075E1,2.1401909E1,2.571257E0,4.3105173E0,1.0023558E1,1.5368234E1,6.0336757E0,1.1575902E0,1.413667E0,2.1271486E0,2.1833687E0,8.1728735E0,1.8506846E0,1.4205116E1,1.1631176E0,1.5755254E0,4.45815E0,2.9959629E0,5.17691E0],"tree_param":{"num_deleted":"0","num_feature":"3","num_nodes":"21","size_leaf_vector":"1"}},{"base_weights":[-1.4700855E-2,-2.8882295E-2,2.4178132E-2,5.824238E-1,-4.4165425E-2,3.5140373E-2,7.0732385E-3,-4.0243123E-2,2.2860127E-2,-1.7227652E-2,6.3337493E-3],"categories":[],"categories_nodes":[],"categories_segments":[],"categories_sizes":[],"default_left":[0,0,0,0,0,0,0,0,0,0,0],"id":39,"left_children":[1,-1,3,5,7,-1,-1,-1,9,-1,-1],"loss_changes":[8.726808E-1,0E0,1.4625334E0,1.2236965E-1,1.7764806E0,0E0,0E0,0E0,1.2894621E0,0E0,0E0],"parents":[2147483647,0,0,2,2,3,3,4,4,8,8],"right_children":[2,-1,4,6,8,-1,-1,-1,10,-1,-1],"split_conditions":[2.8886638E0,-2.8882295E-2,3.120182E0,6.626697E1,-2.9964226E-1,3.5140373E-2,7.0732385E-3,-4.0243123E-2,3.4275544E0,-1.7227652E-2,6.3337493E-3],"split_indices":[1,0,1,0,2,0,0,0,1,0,0],"split_type":[0,0,0,0,0,0,0,0,0,0,0],"sum_hessian":[3.823447E1,1.5747967E0,3.665967E1,3.1781144E0,3.348156E1,2.0300786E0,1.1480356E0,1.8197922E0,3.1661766E1,6.464436E0,2.519733E1],"tree_param":{"num_deleted":"0","num_feature":"3","num_nodes":"11","size_leaf_vector":"1"}},{"base_weights":[-1.4948861E-2,1.14366025E-1,-1.8294986E-1,-7.013373E-2,7.0985514E-1,-5.5787325E-1,-3.597752E-2,1.22288905E-1,-5.999785E-1,3.0433995E-1,4.7882516E-2,-2.475388E-1,-4.0860053E-2,5.580707E-1,-2.6059404E-1,-9.705338E-3,2.703754E-2,2.8798848E-3,-4.071335E-2,2.8673543E-2,-7.4374923E-3,-3.498869E-2,2.2914043E-2,3.6971893E-2,1.3651982E-3,-1.9842997E-2,7.346853E-3],"categories":[],"categories_nodes":[],"categories_segments":[],"categories_sizes":[],"default_left":[0,0,0,0,0,0,0,0,0,0,0,0,0,0,0,0,0,0,0,0,0,0,0,0,0,0,0],"id":40,"left_children":[1,3,5,7,9,11,13,15,17,19,-1,21,-1,23,25,-1,-1,-1,-1,-1,-1,-1,-1,-1,-1,-1,-1],"loss_changes":[8.7200505E-1,2.5494504E0,9.400253E-1,1.9370923E0,2.58363E-1,1.8704545E-1,1.9582247E0,1.9904157E0,7.5700283E-1,5.1711714E-1,0E0,1.4815557E0,0E0,3.692782E-1,6.436245E-1,0E0,0E0,0E0,0E0,0E0,0E0,0E0,0E0,0E0,0E0,0E0,0E0],"parents":[2147483647,0,0,1,1,2,2,3,3,4,4,5,5,6,6,7,7,8,8,9,9,11,11,13,13,14,14],"right_children":[2,4,6,8,10,12,14,16,18,20,-1,22,-1,24,26,-1,-1,-1,-1,-1,-1,-1,-1,-1,-1,-1,-1],"split_conditions":[4.1570745E0,3.704833E0,4.6252456E0,6.722504E1,-4.6382815E-2,4.4121304E0,5.1827292E0,6.3761745E1,-1.201535E-1,-1.4466777E-1,4.7882516E-2,4.3105154E0,-4.0860053E-2,5.89348E1,6.171582E0,-9.705338E-3,2.703754E-2,2.8798848E-3,-4.071335E-2,2.8673543E-2,-7.4374923E-3,-3.498869E-2,2.2914043E-2,3.6971893E-2,1.3651982E-3,-1.9842997E-2,7.346853E-3],"split_indices":[1,1,1,0,2,1,1,0,2,2,0,1,0,0,1,0,0,0,0,0,0,0,0,0,0,0,0],"split_type":[0,0,0,0,0,0,0,0,0,0,0,0,0,0,0,0,0,0,0,0,0,0,0,0,0,0,0],"sum_hessian":[3.817517E1,2.175162E1,1.6423552E1,1.728E1,4.471619E0,3.837753E0,1.2585799E1,1.3240628E1,4.039373E0,2.5411825E0,1.9304366E0,2.63683E0,1.2009231E0,3.0458431E0,9.539956E0,7.8451304E0,5.3954973E0,1.1725235E0,2.8668494E0,1.4275454E0,1.1136371E0,1.6123353E0,1.0244946E0,1.9771014E0,1.0687416E0,7.1690354E0,2.3709207E0],"tree_param":{"num_deleted":"0","num_feature":"3","num_nodes":"27","size_leaf_vector":"1"}},{"base_weights":[-1.3640727E-2,-5.210287E-2,2.5627527E-2,7.389865E-2,-2.1769898E-1,-8.998217E-2,6.47715E-1,1.2861423E-2,-5.339097E-1,5.2764392E-3,-3.1774763E-2,1.4781654E-2,4.4517417E-2,1.2019883E-2,-3.2492917E-2,-4.04428E-2,2.1953978E-2],"categories":[],"categories_nodes":[],"categories_segments":[],"categories_sizes":[],"default_left":[0,0,0,0,0,0,0,0,0,0,0,0,0,0,0,0,0],"id":41,"left_children":[1,3,-1,5,7,9,11,13,15,-1,-1,-1,-1,-1,-1,-1,-1],"loss_changes":[8.1752694E-1,7.9480964E-1,0E0,2.1215637E0,1.2010787E0,1.9809464E0,1.6359496E-1,1.7319415E0,2.2092447E0,0E0,0E0,0E0,0E0,0E0,0E0,0E0,0E0],"parents":[2147483647,0,0,1,1,3,3,4,4,5,5,6,6,7,7,8,8],"right_children":[2,4,-1,6,8,10,12,14,16,-1,-1,-1,-1,-1,-1,-1,-1],"split_conditions":[1.3056862E-1,4.1570745E0,2.5627527E-2,3.704833E0,-2.1080486E-2,6.722504E1,-4.6382815E-2,5.861869E0,6.049925E0,5.2764392E-3,-3.1774763E-2,1.4781654E-2,4.4517417E-2,1.2019883E-2,-3.2492917E-2,-4.04428E-2,2.1953978E-2],"split_indices":[2,1,0,1,2,0,2,1,1,0,0,0,0,0,0,0,0],"split_type":[0,0,0,0,0,0,0,0,0,0,0,0,0,0,0,0,0],"sum_hessian":[3.8075214E1,3.6321278E1,1.7539364E0,2.0941048E1,1.5380232E1,1.6944826E1,3.9962225E0,9.449554E0,5.9306774E0,1.3067873E1,3.8769522E0,2.535471E0,1.4607517E0,7.508771E0,1.9407831E0,4.7555494E0,1.1751282E0],"tree_param":{"num_deleted":"0","num_feature":"3","num_nodes":"17","size_leaf_vector":"1"}},{"base_weights":[-1.2479094E-2,-2.784586E-2,2.500925E-2,5.6796044E-1,-4.128906E-2,3.5358638E-2,7.5564818E-3,-3.90637E-2,2.3757678E-2,-1.6077092E-2,6.09674E-3],"categories":[],"categories_nodes":[],"categories_segments":[],"categories_sizes":[],"default_left":[0,0,0,0,0,0,0,0,0,0,0],"id":42,"left_children":[1,-1,3,5,7,-1,-1,-1,9,-1,-1],"loss_changes":[8.093669E-1,0E0,1.3704195E0,1.3334441E-1,1.6685561E0,0E0,0E0,0E0,1.1403015E0,0E0,0E0],"parents":[2147483647,0,0,2,2,3,3,4,4,8,8],"right_children":[2,-1,4,6,8,-1,-1,-1,10,-1,-1],"split_conditions":[2.8886638E0,-2.784586E-2,3.120182E0,-9.504974E-2,-2.9964226E-1,3.5358638E-2,7.5564818E-3,-3.90637E-2,3.4275544E0,-1.6077092E-2,6.09674E-3],"split_indices":[1,0,1,2,2,0,0,0,1,0,0],"split_type":[0,0,0,0,0,0,0,0,0,0,0],"sum_hessian":[3.7972836E1,1.5536498E0,3.6419186E1,3.1397126E0,3.3279472E1,1.8314894E0,1.3082232E0,1.7993008E0,3.1480173E1,6.465432E0,2.501474E1],"tree_param":{"num_deleted":"0","num_feature":"3","num_nodes":"11","size_leaf_vector":"1"}},{"base_weights":[-1.2745596E-2,-1.2330004E-1,1.6939664E-1,-3.1557695E-3,-8.3557093E-1,7.308564E-1,-1.1662232E-1,-1.497014E-1,3.3941886E-1,6.958145E-3,-6.775693E-2,7.7055558E-3,5.3563036E-2,-3.1802073E-1,2.8868077E-2,-1.6610104E-3,-4.5086764E-2,4.9004134E-2,-1.263142E-3,1.4426622E-2,-3.2760717E-2],"categories":[],"categories_nodes":[],"categories_segments":[],"categories_sizes":[],"default_left":[0,0,0,0,0,0,0,0,0,0,0,0,0,0,0,0,0,0,0,0,0],"id":43,"left_children":[1,3,5,7,9,11,13,15,17,-1,-1,-1,-1,19,-1,-1,-1,-1,-1,-1,-1],"loss_changes":[8.045234E-1,2.119268E0,2.5133603E0,1.166355E0,1.9991262E0,8.637738E-1,1.7042269E0,1.3941307E0,1.6517308E0,0E0,0E0,0E0,0E0,2.0455902E0,0E0,0E0,0E0,0E0,0E0,0E0,0E0],"parents":[2147483647,0,0,1,1,2,2,3,3,4,4,5,5,6,6,7,7,8,8,13,13],"right_children":[2,4,6,8,10,12,14,16,18,-1,-1,-1,-1,20,-1,-1,-1,-1,-1,-1,-1],"split_conditions":[6.285097E1,6.1763725E1,6.494013E1,5.7275593E1,3.4876447E0,6.3953735E1,5.8262374E-2,5.5680244E1,5.8377033E1,6.958145E-3,-6.775693E-2,7.7055558E-3,5.3563036E-2,3.120182E0,2.8868077E-2,-1.6610104E-3,-4.5086764E-2,4.9004134E-2,-1.263142E-3,1.4426622E-2,-3.2760717E-2],"split_indices":[0,0,0,0,1,0,2,0,0,0,0,0,0,1,0,0,0,0,0,0,0],"split_type":[0,0,0,0,0,0,0,0,0,0,0,0,0,0,0,0,0,0,0,0,0],"sum_hessian":[3.7915977E1,2.3795773E1,1.4120207E1,2.1220736E1,2.5750358E0,4.2405896E0,9.879618E0,1.5257104E1,5.9636316E0,1.1499084E0,1.4251274E0,2.1131017E0,2.1274881E0,8.077286E0,1.8023319E0,1.4115026E1,1.1420778E0,1.5511348E0,4.4124966E0,2.9375148E0,5.139771E0],"tree_param":{"num_deleted":"0","num_feature":"3","num_nodes":"21","size_leaf_vector":"1"}},{"base_weights":[-1.1778231E-2,-2.7230432E-2,2.4846721E-2,5.438946E-1,-3.831158E-2,3.4131568E-2,6.8937675E-3,-3.782104E-2,2.4606701E-2,-1.5215458E-2,5.9042983E-3],"categories":[],"categories_nodes":[],"categories_segments":[],"categories_sizes":[],"default_left":[0,0,0,0,0,0,0,0,0,0,0],"id":44,"left_children":[1,-1,3,5,7,-1,-1,-1,9,-1,-1],"loss_changes":[7.7132064E-1,0E0,1.2432922E0,1.3745856E-1,1.5629015E0,0E0,0E0,0E0,1.0319537E0,0E0,0E0],"parents":[2147483647,0,0,2,2,3,3,4,4,8,8],"right_children":[2,-1,4,6,8,-1,-1,-1,10,-1,-1],"split_conditions":[2.8886638E0,-2.7230432E-2,3.120182E0,-9.504974E-2,-2.9964226E-1,3.4131568E-2,6.8937675E-3,-3.782104E-2,3.4275544E0,-1.5215458E-2,5.9042983E-3],"split_indices":[1,0,1,2,2,0,0,0,1,0,0],"split_type":[0,0,0,0,0,0,0,0,0,0,0],"sum_hessian":[3.783132E1,1.5410982E0,3.6290222E1,3.1110845E0,3.317914E1,1.8109908E0,1.3000938E0,1.7849203E0,3.1394218E1,6.448651E0,2.4945568E1],"tree_param":{"num_deleted":"0","num_feature":"3","num_nodes":"11","size_leaf_vector":"1"}},{"base_weights":[-1.2066771E-2,-1.2025927E-1,1.6674383E-1,-3.5575896E-3,-8.092302E-1,7.113334E-1,-1.1003403E-1,1.6073759E-1,-3.094175E-1,7.03307E-3,-6.5742664E-2,7.502137E-3,5.2285314E-2,-3.0544367E-1,2.8293366E-2,-2.258051E-2,1.3757278E-2,-2.38613E-2,1.9201072E-2,1.3637177E-2,-3.1232018E-2],"categories":[],"categories_nodes":[],"categories_segments":[],"categories_sizes":[],"default_left":[0,0,0,0,0,0,0,0,0,0,0,0,0,0,0,0,0,0,0,0,0],"id":45,"left_children":[1,3,5,7,9,11,13,15,17,-1,-1,-1,-1,19,-1,-1,-1,-1,-1,-1,-1],"loss_changes":[7.701457E-1,1.9861042E0,2.344539E0,1.1632313E0,1.9037948E0,8.191166E-1,1.6038789E0,1.1802621E0,1.124095E0,0E0,0E0,0E0,0E0,1.841393E0,0E0,0E0,0E0,0E0,0E0,0E0,0E0],"parents":[2147483647,0,0,1,1,2,2,3,3,4,4,5,5,6,6,7,7,8,8,13,13],"right_children":[2,4,6,8,10,12,14,16,18,-1,-1,-1,-1,20,-1,-1,-1,-1,-1,-1,-1],"split_conditions":[6.285097E1,6.1763725E1,6.494013E1,-1.0323707E-2,3.4876447E0,6.3953735E1,5.8262374E-2,-3.0103058E-1,6.049925E0,7.03307E-3,-6.5742664E-2,7.502137E-3,5.2285314E-2,3.120182E0,2.8293366E-2,-2.258051E-2,1.3757278E-2,-2.38613E-2,1.9201072E-2,1.3637177E-2,-3.1232018E-2],"split_indices":[0,0,0,2,1,0,2,2,1,0,0,0,0,1,0,0,0,0,0,0,0],"split_type":[0,0,0,0,0,0,0,0,0,0,0,0,0,0,0,0,0,0,0,0,0],"sum_hessian":[3.7772594E1,2.3737345E1,1.403525E1,2.1158556E1,2.5787888E0,4.2004232E0,9.834826E0,1.407339E1,7.0851655E0,1.1465749E0,1.4322139E0,2.1089654E0,2.091458E0,8.054335E0,1.7804922E0,1.7514902E0,1.2321899E1,5.955713E0,1.1294527E0,2.9166667E0,5.1376677E0],"tree_param":{"num_deleted":"0","num_feature":"3","num_nodes":"21","size_leaf_vector":"1"}},{"base_weights":[-1.1495155E-2,7.128302E-2,-2.4234366E-1,-1.6470093E-2,5.240726E-1,-5.0257033E-1,6.307561E-3,9.234057E-2,-3.713539E-2,3.938861E-2,1.5753779E-1,-4.2602727E-3,-3.674463E-2,2.2048168E-2,-3.1223577E-1,-6.0757017E-4,3.7212167E-2,-1.6918762E-2,3.1072805E-2,-2.9135019E-2,-1.2446671E-3],"categories":[],"categories_nodes":[],"categories_segments":[],"categories_sizes":[],"default_left":[0,0,0,0,0,0,0,0,0,0,0,0,0,0,0,0,0,0,0,0,0],"id":46,"left_children":[1,3,5,7,9,11,13,15,-1,-1,17,-1,-1,-1,19,-1,-1,-1,-1,-1,-1],"loss_changes":[7.5632167E-1,1.1704369E0,6.7837876E-1,2.080687E0,3.3764982E-1,4.3298602E-1,1.0132607E0,1.5780879E0,0E0,0E0,9.5773184E-1,0E0,0E0,0E0,3.146066E-1,0E0,0E0,0E0,0E0,0E0,0E0],"parents":[2147483647,0,0,1,1,2,2,3,3,4,4,5,5,6,6,7,7,10,10,14,14],"right_children":[2,4,6,8,10,12,14,16,-1,-1,18,-1,-1,-1,20,-1,-1,-1,-1,-1,-1],"split_conditions":[5.1827292E0,6.641762E-2,-9.614898E-2,5.003143E-3,1.02525495E-1,-2.6181367E-1,1.6304636E-2,4.6252456E0,-3.713539E-2,3.938861E-2,1.2807117E-1,-4.2602727E-3,-3.674463E-2,2.2048168E-2,5.580997E0,-6.0757017E-4,3.7212167E-2,-1.6918762E-2,3.1072805E-2,-2.9135019E-2,-1.2446671E-3],"split_indices":[1,2,2,2,2,2,2,1,0,0,2,0,0,0,1,0,0,0,0,0,0],"split_type":[0,0,0,0,0,0,0,0,0,0,0,0,0,0,0,0,0,0,0,0,0],"sum_hessian":[3.7674873E1,2.8239798E1,9.435077E0,2.4462461E1,3.7773347E0,4.1112504E0,5.3238263E0,2.2034004E1,2.428458E0,1.5284588E0,2.2488759E0,1.9588854E0,2.152365E0,2.089022E0,3.2348046E0,1.9835913E1,2.198092E0,1.2177533E0,1.0311226E0,1.1368423E0,2.0979624E0],"tree_param":{"num_deleted":"0","num_feature":"3","num_nodes":"21","size_leaf_vector":"1"}},{"base_weights":[-1.0841068E-2,1.0959099E-1,-1.6702253E-1,-6.239956E-2,6.682112E-1,-5.23419E-1,-2.651041E-2,7.895207E-2,-6.9762397E-1,2.7702397E-1,4.5914553E-2,-2.280573E-1,-3.8346656E-2,5.2974796E-1,-2.3541999E-1,-5.7262476E-3,3.9729383E-2,-5.54285E-2,1.2787611E-3,2.6510049E-2,-7.044226E-3,-3.1825624E-2,1.1391058E-2,3.53871E-2,8.4678986E-4,-2.4302136E-2,2.3497353E-4],"categories":[],"categories_nodes":[],"categories_segments":[],"categories_sizes":[],"default_left":[0,0,0,0,0,0,0,0,0,0,0,0,0,0,0,0,0,0,0,0,0,0,0,0,0,0,0],"id":47,"left_children":[1,3,5,7,9,11,13,15,17,19,-1,21,-1,23,25,-1,-1,-1,-1,-1,-1,-1,-1,-1,-1,-1,-1],"loss_changes":[7.432734E-1,2.1905706E0,8.463217E-1,1.672695E0,2.6904297E-1,1.706127E-1,1.6787902E0,2.2557669E0,1.0331234E0,4.4697997E-1,0E0,8.142436E-1,0E0,3.493725E-1,6.2901455E-1,0E0,0E0,0E0,0E0,0E0,0E0,0E0,0E0,0E0,0E0,0E0,0E0],"parents":[2147483647,0,0,1,1,2,2,3,3,4,4,5,5,6,6,7,7,8,8,9,9,11,11,13,13,14,14],"right_children":[2,4,6,8,10,12,14,16,18,20,-1,22,-1,24,26,-1,-1,-1,-1,-1,-1,-1,-1,-1,-1,-1,-1],"split_conditions":[4.1570745E0,3.704833E0,4.6252456E0,3.56015E0,-4.6382815E-2,4.4121304E0,5.1827292E0,3.4729521E0,3.6651115E0,-1.4466777E-1,4.5914553E-2,4.2339883E0,-3.8346656E-2,5.89348E1,-9.614898E-2,-5.7262476E-3,3.9729383E-2,-5.54285E-2,1.2787611E-3,2.6510049E-2,-7.044226E-3,-3.1825624E-2,1.1391058E-2,3.53871E-2,8.4678986E-4,-2.4302136E-2,2.3497353E-4],"split_indices":[1,1,1,1,2,1,1,1,1,2,0,1,0,0,2,0,0,0,0,0,0,0,0,0,0,0,0],"split_type":[0,0,0,0,0,0,0,0,0,0,0,0,0,0,0,0,0,0,0,0,0,0,0,0,0,0,0],"sum_hessian":[3.7543224E1,2.1366077E1,1.6177147E1,1.7015549E1,4.3505282E0,3.8038745E0,1.2373272E1,1.4634709E1,2.3808398E0,2.5185812E0,1.831947E0,2.5940456E0,1.209829E0,2.9589016E0,9.41437E0,1.2181362E1,2.4533474E0,1.178377E0,1.2024629E0,1.4010794E0,1.1175019E0,1.1591998E0,1.4348457E0,1.9143299E0,1.0445718E0,4.105313E0,5.3090568E0],"tree_param":{"num_deleted":"0","num_feature":"3","num_nodes":"27","size_leaf_vector":"1"}},{"base_weights":[-1.0317507E-2,-2.654992E-2,2.5575226E-2,5.271115E-1,-3.5729025E-2,3.3159126E-2,6.5461732E-3,-3.6241833E-2,2.4412047E-2,-2.59927E-2,3.8101915E-3],"categories":[],"categories_nodes":[],"categories_segments":[],"categories_sizes":[],"default_left":[0,0,0,0,0,0,0,0,0,0,0],"id":48,"left_children":[1,-1,3,5,7,-1,-1,-1,9,-1,-1],"loss_changes":[7.31772E-1,0E0,1.1535276E0,1.3329577E-1,1.4193987E0,0E0,0E0,0E0,9.437469E-1,0E0,0E0],"parents":[2147483647,0,0,2,2,3,3,4,4,8,8],"right_children":[2,-1,4,6,8,-1,-1,-1,10,-1,-1],"split_conditions":[2.8886638E0,-2.654992E-2,3.120182E0,-9.504974E-2,-2.9964226E-1,3.3159126E-2,6.5461732E-3,-3.6241833E-2,3.24E0,-2.59927E-2,3.8101915E-3],"split_indices":[1,0,1,2,2,0,0,0,1,0,0],"split_type":[0,0,0,0,0,0,0,0,0,0,0],"sum_hessian":[3.742927E1,1.5242064E0,3.5905064E1,3.0831573E0,3.2821907E1,1.7933289E0,1.2898285E0,1.7474159E0,3.1074492E1,1.9148161E0,2.9159676E1],"tree_param":{"num_deleted":"0","num_feature":"3","num_nodes":"11","size_leaf_vector":"1"}},{"base_weights":[-1.0996307E-2,-1.15610264E-1,1.6260943E-1,-2.7015684E-3,-7.757243E-1,6.8930817E-1,-1.0508023E-1,2.7695093E-1,-1.8993562E-1,7.011802E-3,-6.312003E-2,7.162423E-3,5.099354E-2,-2.8784043E-1,2.6931971E-2,-2.1327063E-2,2.4751993E-2,-1.7038641E-2,2.9627178E-2,1.3232182E-2,-2.9663363E-2],"categories":[],"categories_nodes":[],"categories_segments":[],"categories_sizes":[],"default_left":[0,0,0,0,0,0,0,0,0,0,0,0,0,0,0,0,0,0,0,0,0],"id":49,"left_children":[1,3,5,7,9,11,13,15,17,-1,-1,-1,-1,19,-1,-1,-1,-1,-1,-1,-1],"loss_changes":[7.1574605E-1,1.8261793E0,2.1654441E0,1.2019411E0,1.7726314E0,7.8074574E-1,1.415065E0,1.6241198E0,1.8237251E0,0E0,0E0,0E0,0E0,1.6746185E0,0E0,0E0,0E0,0E0,0E0,0E0,0E0],"parents":[2147483647,0,0,1,1,2,2,3,3,4,4,5,5,6,6,7,7,8,8,13,13],"right_children":[2,4,6,8,10,12,14,16,18,-1,-1,-1,-1,20,-1,-1,-1,-1,-1,-1,-1],"split_conditions":[6.285097E1,6.1763725E1,6.494013E1,-1.0696743E-1,3.4876447E0,6.3953735E1,5.8262374E-2,-3.0103058E-1,6.049925E0,7.011802E-3,-6.312003E-2,7.162423E-3,5.099354E-2,3.120182E0,2.6931971E-2,-2.1327063E-2,2.4751993E-2,-1.7038641E-2,2.9627178E-2,1.3232182E-2,-2.9663363E-2],"split_indices":[0,0,0,2,1,0,2,2,1,0,0,0,0,1,0,0,0,0,0,0,0],"split_type":[0,0,0,0,0,0,0,0,0,0,0,0,0,0,0,0,0,0,0,0,0],"sum_hessian":[3.737478E1,2.3529865E1,1.3844915E1,2.0950497E1,2.5793688E0,4.1346555E0,9.71026E0,8.209552E0,1.2740944E1,1.1419623E0,1.4374067E0,2.0996199E0,2.0350356E0,7.993618E0,1.7166419E0,1.7165716E0,6.49298E0,1.1155091E1,1.5858529E0,2.8933642E0,5.100254E0],"tree_param":{"num_deleted":"0","num_feature":"3","num_nodes":"21","size_leaf_vector":"1"}},{"base_weights":[-9.678834E-3,-2.6026675E-2,2.5476672E-2,5.0750417E-1,-3.327621E-2,3.1725384E-2,4.564423E-3,-3.4685384E-2,2.3980029E-2,-1.4160112E-2,5.592491E-3],"categories":[],"categories_nodes":[],"categories_segments":[],"categories_sizes":[],"default_left":[0,0,0,0,0,0,0,0,0,0,0],"id":50,"left_children":[1,-1,3,5,7,-1,-1,-1,9,-1,-1],"loss_changes":[7.0095676E-1,0E0,1.0585058E0,1.5655673E-1,1.2918004E0,0E0,0E0,0E0,8.9538014E-1,0E0,0E0],"parents":[2147483647,0,0,2,2,3,3,4,4,8,8],"right_children":[2,-1,4,6,8,-1,-1,-1,10,-1,-1],"split_conditions":[2.8886638E0,-2.6026675E-2,3.120182E0,6.626697E1,-2.9964226E-1,3.1725384E-2,4.564423E-3,-3.4685384E-2,3.4275544E0,-1.4160112E-2,5.592491E-3],"split_indices":[1,0,1,0,2,0,0,0,1,0,0],"split_type":[0,0,0,0,0,0,0,0,0,0,0],"sum_hessian":[3.7291763E1,1.5121199E0,3.577964E1,3.057444E0,3.27222E1,1.9407716E0,1.1166725E0,1.7237282E0,3.099847E1,6.400414E0,2.4598057E1],"tree_param":{"num_deleted":"0","num_feature":"3","num_nodes":"11","size_leaf_vector":"1"}},{"base_weights":[-1.0072677E-2,1.0666864E-1,-1.6101293E-1,-5.9070997E-2,6.464898E-1,-5.051286E-1,-2.4838544E-2,7.934165E-2,-6.778548E-1,2.595759E-1,4.5023765E-2,-2.2171926E-1,-3.6772653E-2,5.212831E-1,-2.2973283E-1,-5.3176144E-3,3.849828E-2,-5.3602893E-2,1.0109274E-3,2.508152E-2,-6.745126E-3,-3.0677537E-2,1.0901704E-2,3.4700528E-2,1.0565204E-3,-2.9648965E-2,-3.1598366E-3],"categories":[],"categories_nodes":[],"categories_segments":[],"categories_sizes":[],"default_left":[0,0,0,0,0,0,0,0,0,0,0,0,0,0,0,0,0,0,0,0,0,0,0,0,0,0,0],"id":51,"left_children":[1,3,5,7,9,11,13,15,17,19,-1,21,-1,23,25,-1,-1,-1,-1,-1,-1,-1,-1,-1,-1,-1,-1],"loss_changes":[6.907755E-1,2.0205765E0,7.8735626E-1,1.5841786E0,2.859645E-1,1.4948452E-1,1.6059797E0,2.0693538E0,9.4933987E-1,4.0194958E-1,0E0,7.503411E-1,0E0,3.2480884E-1,5.887864E-1,0E0,0E0,0E0,0E0,0E0,0E0,0E0,0E0,0E0,0E0,0E0,0E0],"parents":[2147483647,0,0,1,1,2,2,3,3,4,4,5,5,6,6,7,7,8,8,9,9,11,11,13,13,14,14],"right_children":[2,4,6,8,10,12,14,16,18,20,-1,22,-1,24,26,-1,-1,-1,-1,-1,-1,-1,-1,-1,-1,-1,-1],"split_conditions":[4.1570745E0,3.704833E0,4.6252456E0,3.56015E0,-4.6382815E-2,4.4121304E0,5.1827292E0,3.4729521E0,3.6651115E0,-1.4466777E-1,4.5023765E-2,4.2339883E0,-3.6772653E-2,5.89348E1,5.481614E0,-5.3176144E-3,3.849828E-2,-5.3602893E-2,1.0109274E-3,2.508152E-2,-6.745126E-3,-3.0677537E-2,1.0901704E-2,3.4700528E-2,1.0565204E-3,-2.9648965E-2,-3.1598366E-3],"split_indices":[1,1,1,1,2,1,1,1,1,2,0,1,0,0,1,0,0,0,0,0,0,0,0,0,0,0,0],"split_type":[0,0,0,0,0,0,0,0,0,0,0,0,0,0,0,0,0,0,0,0,0,0,0,0,0,0,0],"sum_hessian":[3.722722E1,2.115707E1,1.607015E1,1.6868546E1,4.2885246E0,3.7881038E0,1.2282047E1,1.4497459E1,2.371086E0,2.5008364E0,1.7876883E0,2.5782547E0,1.2098491E0,2.9295416E0,9.352506E0,1.2092146E1,2.405313E0,1.1729698E0,1.1981161E0,1.3815058E0,1.1193306E0,1.1544209E0,1.4238338E0,1.8894305E0,1.040111E0,2.1350014E0,7.217504E0],"tree_param":{"num_deleted":"0","num_feature":"3","num_nodes":"27","size_leaf_vector":"1"}},{"base_weights":[-9.806584E-3,-1.1176832E-1,1.6015676E-1,-2.782974E-3,-7.4686515E-1,6.693453E-1,-9.843549E-2,2.7021086E-1,-1.8480536E-1,6.882521E-3,-6.0725946E-2,6.996146E-3,4.967818E-2,-5.886555E-1,1.4113618E-1,2.9114557E-2,-1.0755108E-2,-1.6548408E-2,2.8802112E-2,1.2536115E-2,-5.5214297E-2,2.4154615E-2,-4.245705E-3],"categories":[],"categories_nodes":[],"categories_segments":[],"categories_sizes":[],"default_left":[0,0,0,0,0,0,0,0,0,0,0,0,0,0,0,0,0,0,0,0,0,0,0],"id":52,"left_children":[1,3,5,7,9,11,13,15,17,-1,-1,-1,-1,19,21,-1,-1,-1,-1,-1,-1,-1,-1],"loss_changes":[6.783757E-1,1.6875267E0,2.0016904E0,1.1351314E0,1.6445847E0,7.32918E-1,1.3305436E0,1.5099384E0,1.7137966E0,0E0,0E0,0E0,0E0,1.8697263E0,6.54901E-1,0E0,0E0,0E0,0E0,0E0,0E0,0E0,0E0],"parents":[2147483647,0,0,1,1,2,2,3,3,4,4,5,5,6,6,7,7,8,8,13,13,14,14],"right_children":[2,4,6,8,10,12,14,16,18,-1,-1,-1,-1,20,22,-1,-1,-1,-1,-1,-1,-1,-1],"split_conditions":[6.285097E1,6.1763725E1,6.494013E1,-1.0696743E-1,3.4876447E0,6.3953735E1,-1.6773368E-1,5.1705775E0,6.049925E0,6.882521E-3,-6.0725946E-2,6.996146E-3,4.967818E-2,-2.6072788E-1,6.723525E1,2.9114557E-2,-1.0755108E-2,-1.6548408E-2,2.8802112E-2,1.2536115E-2,-5.5214297E-2,2.4154615E-2,-4.245705E-3],"split_indices":[0,0,0,2,1,0,2,1,1,0,0,0,0,2,0,0,0,0,0,0,0,0,0],"split_type":[0,0,0,0,0,0,0,0,0,0,0,0,0,0,0,0,0,0,0,0,0,0,0],"sum_hessian":[3.711221E1,2.3410528E1,1.3701679E1,2.0838871E1,2.571658E0,4.0798035E0,9.621876E0,8.142463E0,1.2696407E1,1.1334741E0,1.4381837E0,2.0932555E0,1.9865481E0,2.680279E0,6.941597E0,4.8340826E0,3.30838E0,1.112436E1,1.5720475E0,1.2154479E0,1.4648311E0,2.310023E0,4.6315737E0],"tree_param":{"num_deleted":"0","num_feature":"3","num_nodes":"23","size_leaf_vector":"1"}},{"base_weights":[-9.018645E-3,-2.174631E-2,3.125294E-2,4.1403204E-1,-3.572769E-2,3.923514E-2,3.8158204E-2,-2.3384516E-1,1.4887698E-1,1.8038021E-2,-1.8559795E-2,-1.4556735E-3,-4.85463E-2,4.4631496E-2,8.6040626E-4],"categories":[],"categories_nodes":[],"categories_segments":[],"categories_sizes":[],"default_left":[0,0,0,0,0,0,0,0,0,0,0,0,0,0,0],"id":53,"left_children":[1,-1,3,5,7,9,-1,11,13,-1,-1,-1,-1,-1,-1],"loss_changes":[6.6559577E-1,0E0,9.2913383E-1,6.7542034E-1,1.178536E0,6.160937E-1,0E0,2.3066542E0,1.6297543E0,0E0,0E0,0E0,0E0,0E0,0E0],"parents":[2147483647,0,0,2,2,3,3,4,4,5,5,7,7,8,8],"right_children":[2,-1,4,6,8,10,-1,12,14,-1,-1,-1,-1,-1,-1],"split_conditions":[3.71217E1,-2.174631E-2,4.6269054E1,4.422633E1,-9.081716E-2,4.2359573E1,3.8158204E-2,-1.0600992E-1,-6.2286574E-2,1.8038021E-2,-1.8559795E-2,-1.4556735E-3,-4.85463E-2,4.4631496E-2,8.6040626E-4],"split_indices":[0,0,0,0,2,0,0,2,2,0,0,0,0,0,0],"split_type":[0,0,0,0,0,0,0,0,0,0,0,0,0,0,0],"sum_hessian":[3.7013306E1,2.350877E0,3.4662426E1,4.390477E0,3.027195E1,2.6538837E0,1.7365934E0,1.447291E1,1.579904E1,1.5559766E0,1.0979072E0,1.2140313E1,2.3325968E0,1.5070226E0,1.4292018E1],"tree_param":{"num_deleted":"0","num_feature":"3","num_nodes":"15","size_leaf_vector":"1"}},{"base_weights":[-8.24905E-3,-4.254298E-2,2.345655E-2,7.708684E-3,-3.9483836E-1,-3.82672E-2,2.759757E-2,-3.9506827E-2,1.9258431E-3,1.3108145E-3,-2.1542538E-2],"categories":[],"categories_nodes":[],"categories_segments":[],"categories_sizes":[],"default_left":[0,0,0,0,0,0,0,0,0,0,0],"id":54,"left_children":[1,3,-1,5,7,9,-1,-1,-1,-1,-1],"loss_changes":[6.417186E-1,6.465673E-1,0E0,8.416775E-1,8.110517E-1,8.0047023E-1,0E0,0E0,0E0,0E0,0E0],"parents":[2147483647,0,0,1,1,3,3,4,4,5,5],"right_children":[2,4,-1,6,8,10,-1,-1,-1,-1,-1],"split_conditions":[1.3056862E-1,5.9543815E0,2.345655E-2,5.7446904E0,6.171582E0,5.1705775E0,2.759757E-2,-3.9506827E-2,1.9258431E-3,1.3108145E-3,-2.1542538E-2],"split_indices":[2,1,0,1,1,1,0,0,0,0,0],"split_type":[0,0,0,0,0,0,0,0,0,0,0],"sum_hessian":[3.697883E1,3.5350227E1,1.6286E0,3.1793325E1,3.5569036E0,3.0174007E1,1.6193166E0,1.4295743E0,2.1273293E0,2.671859E1,3.455419E0],"tree_param":{"num_deleted":"0","num_feature":"3","num_nodes":"11","size_leaf_vector":"1"}},{"base_weights":[-8.023738E-3,-2.4833307E-2,2.554966E-2,4.9563184E-1,-3.1852577E-2,3.195276E-2,5.0727758E-3,-3.3937614E-2,2.4025356E-2,-2.4233287E-2,3.6459155E-3],"categories":[],"categories_nodes":[],"categories_segments":[],"categories_sizes":[],"default_left":[0,0,0,0,0,0,0,0,0,0,0],"id":55,"left_children":[1,-1,3,5,7,-1,-1,-1,9,-1,-1],"loss_changes":[6.350085E-1,0E0,9.992406E-1,1.628015E-1,1.2243382E0,0E0,0E0,0E0,8.2446575E-1,0E0,0E0],"parents":[2147483647,0,0,2,2,3,3,4,4,8,8],"right_children":[2,-1,4,6,8,-1,-1,-1,10,-1,-1],"split_conditions":[2.8886638E0,-2.4833307E-2,3.120182E0,-9.504974E-2,-2.9964226E-1,3.195276E-2,5.0727758E-3,-3.3937614E-2,3.24E0,-2.4233287E-2,3.6459155E-3],"split_indices":[1,0,1,2,2,0,0,0,1,0,0],"split_type":[0,0,0,0,0,0,0,0,0,0,0],"sum_hessian":[3.693381E1,1.4877007E0,3.544611E1,3.026547E0,3.2419563E1,1.7636065E0,1.2629405E0,1.6913797E0,3.0728184E1,1.9129295E0,2.8815254E1],"tree_param":{"num_deleted":"0","num_feature":"3","num_nodes":"11","size_leaf_vector":"1"}},{"base_weights":[-8.752787E-3,-2.1009563E-2,3.032163E-2,3.9691535E-1,-3.3709537E-2,3.0260768E-2,3.7115876E-2,-2.2428791E-1,1.4394283E-1,-1.4639531E-2,2.1622049E-2,-1.3236067E-3,-4.6745934E-2,4.3611027E-2,8.0807967E-4],"categories":[],"categories_nodes":[],"categories_segments":[],"categories_sizes":[],"default_left":[0,0,0,0,0,0,0,0,0,0,0,0,0,0,0],"id":56,"left_children":[1,-1,3,5,7,9,-1,11,13,-1,-1,-1,-1,-1,-1],"loss_changes":[6.217031E-1,0E0,8.4729415E-1,6.5644014E-1,1.0874333E0,5.999146E-1,0E0,2.1438122E0,1.5436069E0,0E0,0E0,0E0,0E0,0E0,0E0],"parents":[2147483647,0,0,2,2,3,3,4,4,5,5,7,7,8,8],"right_children":[2,-1,4,6,8,10,-1,12,14,-1,-1,-1,-1,-1,-1],"split_conditions":[3.71217E1,-2.1009563E-2,4.6269054E1,4.422633E1,-9.081716E-2,4.94691E0,3.7115876E-2,-1.0600992E-1,-6.2286574E-2,-1.4639531E-2,2.1622049E-2,-1.3236067E-3,-4.6745934E-2,4.3611027E-2,8.0807967E-4],"split_indices":[0,0,0,0,2,1,0,2,2,0,0,0,0,0,0],"split_type":[0,0,0,0,0,0,0,0,0,0,0,0,0,0,0],"sum_hessian":[3.687852E1,2.3526297E0,3.452589E1,4.360753E0,3.0165136E1,2.6428742E0,1.717879E0,1.4426477E1,1.573866E1,1.6164509E0,1.0264232E0,1.2096476E1,2.3300018E0,1.4796485E0,1.4259011E1],"tree_param":{"num_deleted":"0","num_feature":"3","num_nodes":"15","size_leaf_vector":"1"}},{"base_weights":[-7.7847657E-3,-4.0682662E-2,2.2661883E-2,1.1673903E-2,-3.5283932E-1,9.000265E-2,-2.757258E-1,-3.1773068E-2,2.10542E-3,-7.1098693E-3,1.2172826E-2,-2.955615E-2,4.774252E-3],"categories":[],"categories_nodes":[],"categories_segments":[],"categories_sizes":[],"default_left":[0,0,0,0,0,0,0,0,0,0,0,0,0],"id":57,"left_children":[1,3,-1,5,7,9,11,-1,-1,-1,-1,-1,-1],"loss_changes":[5.923372E-1,5.9635276E-1,0E0,7.451867E-1,6.113018E-1,9.574991E-1,8.876529E-1,0E0,0E0,0E0,0E0,0E0,0E0],"parents":[2147483647,0,0,1,1,3,3,4,4,5,5,6,6],"right_children":[2,4,-1,6,8,10,12,-1,-1,-1,-1,-1,-1],"split_conditions":[1.3056862E-1,5.861869E0,2.2661883E-2,5.003143E-3,6.171582E0,-1.5417558E-1,6.641762E-2,-3.1773068E-2,2.10542E-3,-7.1098693E-3,1.2172826E-2,-2.955615E-2,4.774252E-3],"split_indices":[2,1,0,2,1,2,2,0,0,0,0,0,0],"split_type":[0,0,0,0,0,0,0,0,0,0,0,0,0],"sum_hessian":[3.6839447E1,3.5236755E1,1.6026886E0,3.0999893E1,4.236863E0,2.4900326E1,6.0995684E0,2.1146545E0,2.1222088E0,9.937168E0,1.4963158E1,2.97741E0,3.1221585E0],"tree_param":{"num_deleted":"0","num_feature":"3","num_nodes":"13","size_leaf_vector":"1"}},{"base_weights":[-8.128821E-3,-2.4116065E-2,2.4407616E-2,4.8317757E-1,-3.1486563E-2,3.1212216E-2,4.83524E-3,-3.283615E-2,2.2403084E-2,-1.3377689E-2,5.3066066E-3],"categories":[],"categories_nodes":[],"categories_segments":[],"categories_sizes":[],"default_left":[0,0,0,0,0,0,0,0,0,0,0],"id":58,"left_children":[1,-1,3,5,7,-1,-1,-1,9,-1,-1],"loss_changes":[5.939726E-1,0E0,9.451208E-1,1.5768385E-1,1.1355227E0,0E0,0E0,0E0,7.9538125E-1,0E0,0E0],"parents":[2147483647,0,0,2,2,3,3,4,4,8,8],"right_children":[2,-1,4,6,8,-1,-1,-1,10,-1,-1],"split_conditions":[2.8886638E0,-2.4116065E-2,3.120182E0,-9.504974E-2,-2.9964226E-1,3.1212216E-2,4.83524E-3,-3.283615E-2,3.4275544E0,-1.3377689E-2,5.3066066E-3],"split_indices":[1,0,1,2,2,0,0,0,1,0,0],"split_type":[0,0,0,0,0,0,0,0,0,0,0],"sum_hessian":[3.67353E1,1.4711039E0,3.5264194E1,2.999587E0,3.2264606E1,1.7467641E0,1.2528231E0,1.6725835E0,3.0592024E1,6.3626065E0,2.4229418E1],"tree_param":{"num_deleted":"0","num_feature":"3","num_nodes":"11","size_leaf_vector":"1"}},{"base_weights":[-8.505022E-3,-2.0514995E-2,2.9854361E-2,3.8515162E-1,-3.2034885E-2,2.8810745E-2,3.6023848E-2,-2.1534847E-1,1.3942684E-1,1.728525E-2,-1.8558271E-2,-1.0822366E-3,-4.554261E-2,-5.6843353E-3,2.36278E-2],"categories":[],"categories_nodes":[],"categories_segments":[],"categories_sizes":[],"default_left":[0,0,0,0,0,0,0,0,0,0,0,0,0,0,0],"id":59,"left_children":[1,-1,3,5,7,9,-1,11,13,-1,-1,-1,-1,-1,-1],"loss_changes":[5.929255E-1,0E0,7.8908455E-1,6.145832E-1,1.0046171E0,5.8707654E-1,0E0,2.052118E0,1.4558269E0,0E0,0E0,0E0,0E0,0E0,0E0],"parents":[2147483647,0,0,2,2,3,3,4,4,5,5,7,7,8,8],"right_children":[2,-1,4,6,8,10,-1,12,14,-1,-1,-1,-1,-1,-1],"split_conditions":[3.71217E1,-2.0514995E-2,4.6269054E1,4.422633E1,-9.081716E-2,4.2359573E1,3.6023848E-2,-1.0600992E-1,6.2555027E1,1.728525E-2,-1.8558271E-2,-1.0822366E-3,-4.554261E-2,-5.6843353E-3,2.36278E-2],"split_indices":[0,0,0,0,2,0,0,2,0,0,0,0,0,0,0],"split_type":[0,0,0,0,0,0,0,0,0,0,0,0,0,0,0],"sum_hessian":[3.6675415E1,2.3512344E0,3.432418E1,4.3170986E0,3.0007082E1,2.619426E0,1.6976725E0,1.437862E1,1.5628462E1,1.5372083E0,1.0822177E0,1.2052904E1,2.325716E0,9.255107E0,6.3733554E0],"tree_param":{"num_deleted":"0","num_feature":"3","num_nodes":"15","size_leaf_vector":"1"}},{"base_weights":[-8.453178E-3,-2.3417609E-2,2.2990089E-2,4.697422E-1,-3.1286452E-2,2.9945945E-2,3.430694E-3,-3.20185E-2,2.1050533E-2,-2.3207836E-2,3.406455E-3],"categories":[],"categories_nodes":[],"categories_segments":[],"categories_sizes":[],"default_left":[0,0,0,0,0,0,0,0,0,0,0],"id":60,"left_children":[1,-1,3,5,7,-1,-1,-1,9,-1,-1],"loss_changes":[5.54969E-1,0E0,8.919457E-1,1.6521865E-1,1.0717002E0,0E0,0E0,0E0,7.520354E-1,0E0,0E0],"parents":[2147483647,0,0,2,2,3,3,4,4,8,8],"right_children":[2,-1,4,6,8,-1,-1,-1,10,-1,-1],"split_conditions":[2.8886638E0,-2.3417609E-2,3.120182E0,6.626697E1,-2.9964226E-1,2.9945945E-2,3.430694E-3,-3.20185E-2,3.24E0,-2.3207836E-2,3.406455E-3],"split_indices":[1,0,1,0,2,0,0,0,1,0,0],"split_type":[0,0,0,0,0,0,0,0,0,0,0],"sum_hessian":[3.663307E1,1.455105E0,3.5177967E1,2.9816113E0,3.2196354E1,1.8823471E0,1.0992641E0,1.6585923E0,3.0537762E1,1.9173832E0,2.8620378E1],"tree_param":{"num_deleted":"0","num_feature":"3","num_nodes":"11","size_leaf_vector":"1"}},{"base_weights":[-9.157129E-3,-1.99E-2,2.8128475E-2,3.7283847E-1,-3.1769913E-2,-1.8467112E-3,3.1785365E-2,-2.066086E-1,1.3195606E-1,-8.9280895E-4,-4.4256844E-2,4.2067315E-2,4.621565E-4],"categories":[],"categories_nodes":[],"categories_segments":[],"categories_sizes":[],"default_left":[0,0,0,0,0,0,0,0,0,0,0,0,0],"id":61,"left_children":[1,-1,3,5,7,-1,-1,9,11,-1,-1,-1,-1],"loss_changes":[5.5595195E-1,0E0,7.390591E-1,5.9357417E-1,9.125899E-1,0E0,0E0,1.949624E0,1.4356829E0,0E0,0E0,0E0,0E0],"parents":[2147483647,0,0,2,2,3,3,4,4,7,7,8,8],"right_children":[2,-1,4,6,8,-1,-1,10,12,-1,-1,-1,-1],"split_conditions":[3.71217E1,-1.99E-2,4.6269054E1,4.26947E1,-9.081716E-2,-1.8467112E-3,3.1785365E-2,-1.0600992E-1,-6.2286574E-2,-8.9280895E-4,-4.4256844E-2,4.2067315E-2,4.621565E-4],"split_indices":[0,0,0,0,2,0,0,2,2,0,0,0,0],"split_type":[0,0,0,0,0,0,0,0,0,0,0,0,0],"sum_hessian":[3.657399E1,2.3536773E0,3.422031E1,4.292549E0,2.9927763E1,2.0134232E0,2.2791262E0,1.4346062E1,1.5581701E1,1.2026778E1,2.319283E0,1.4342486E0,1.4147452E1],"tree_param":{"num_deleted":"0","num_feature":"3","num_nodes":"13","size_leaf_vector":"1"}},{"base_weights":[-8.490205E-3,-3.984876E-2,2.1707922E-2,1.8123822E-2,-3.091525E-1,-4.14531E-1,9.7676225E-2,-4.166339E-2,2.1286882E-2,3.2192857E-3,-4.701152E-2,3.6104027E-2,8.461798E-6,1.6877504E-2,-2.2054529E-2],"categories":[],"categories_nodes":[],"categories_segments":[],"categories_sizes":[],"default_left":[0,0,0,0,0,0,0,0,0,0,0,0,0,0,0],"id":62,"left_children":[1,3,-1,5,7,9,11,-1,13,-1,-1,-1,-1,-1,-1],"loss_changes":[5.382866E-1,5.671078E-1,0E0,1.0916198E0,1.130683E0,1.3027197E0,1.6197275E0,0E0,8.678318E-1,0E0,0E0,0E0,0E0,0E0,0E0],"parents":[2147483647,0,0,1,1,3,3,4,4,5,5,6,6,8,8],"right_children":[2,4,-1,6,8,10,12,-1,14,-1,-1,-1,-1,-1,-1],"split_conditions":[1.3056862E-1,3.1150421E-2,2.1707922E-2,4.26947E1,5.8262374E-2,-8.708694E-2,4.7727467E1,-4.166339E-2,1.02525495E-1,3.2192857E-3,-4.701152E-2,3.6104027E-2,8.461798E-6,1.6877504E-2,-2.2054529E-2],"split_indices":[2,2,0,0,2,2,0,0,2,0,0,0,0,0,0],"split_type":[0,0,0,0,0,0,0,0,0,0,0,0,0,0,0],"sum_hessian":[3.6532787E1,3.4965687E1,1.5670975E0,2.9539474E1,5.4262137E0,3.933872E0,2.5605602E1,1.5098E0,3.9164135E0,2.5177257E0,1.4161463E0,2.5933266E0,2.3012276E1,2.4859848E0,1.4304289E0],"tree_param":{"num_deleted":"0","num_feature":"3","num_nodes":"15","size_leaf_vector":"1"}},{"base_weights":[-8.952563E-3,-9.95612E-2,1.431283E-1,7.8032785E-3,-7.21534E-1,6.4496E-1,-1.11971594E-1,-1.3310862E-1,3.3702278E-1,6.9499724E-3,-5.8774263E-2,6.763091E-3,4.8157174E-2,-2.8167766E-1,2.4978263E-2,-1.1568129E-3,-4.225326E-2,4.592016E-2,-1.05222025E-4,1.1984515E-2,-2.8190434E-2],"categories":[],"categories_nodes":[],"categories_segments":[],"categories_sizes":[],"default_left":[0,0,0,0,0,0,0,0,0,0,0,0,0,0,0,0,0,0,0,0,0],"id":63,"left_children":[1,3,5,7,9,11,13,15,17,-1,-1,-1,-1,19,-1,-1,-1,-1,-1,-1,-1],"loss_changes":[5.304755E-1,1.6126693E0,1.9152677E0,1.0428289E0,1.5514678E0,6.806023E-1,1.2197272E0,1.2160459E0,1.3290169E0,0E0,0E0,0E0,0E0,1.4263184E0,0E0,0E0,0E0,0E0,0E0,0E0,0E0],"parents":[2147483647,0,0,1,1,2,2,3,3,4,4,5,5,6,6,7,7,8,8,13,13],"right_children":[2,4,6,8,10,12,14,16,18,-1,-1,-1,-1,20,-1,-1,-1,-1,-1,-1,-1],"split_conditions":[6.285097E1,6.1763725E1,6.494013E1,5.7275593E1,3.4876447E0,6.3953735E1,5.8262374E-2,5.5680244E1,5.8377033E1,6.9499724E-3,-5.8774263E-2,6.763091E-3,4.8157174E-2,3.120182E0,2.4978263E-2,-1.1568129E-3,-4.225326E-2,4.592016E-2,-1.05222025E-4,1.1984515E-2,-2.8190434E-2],"split_indices":[0,0,0,0,1,0,2,0,0,0,0,0,0,1,0,0,0,0,0,0,0],"split_type":[0,0,0,0,0,0,0,0,0,0,0,0,0,0,0,0,0,0,0,0,0],"sum_hessian":[3.6462364E1,2.3065472E1,1.3396894E1,2.0512136E1,2.5533357E0,3.9999473E0,9.396947E0,1.47812E1,5.730936E0,1.1213837E0,1.431952E0,2.0850353E0,1.914912E0,7.777912E0,1.6190349E0,1.3697858E1,1.0833426E0,1.4820524E0,4.2488837E0,2.7838628E0,4.994049E0],"tree_param":{"num_deleted":"0","num_feature":"3","num_nodes":"21","size_leaf_vector":"1"}},{"base_weights":[-8.1149535E-3,6.1888263E-2,-2.0210017E-1,-1.0545466E-2,5.212691E-1,-2.9651208E-2,-2.8411277E-2,9.384919E-2,-4.8517457E-1,3.4609366E-2,1.1426533E-3,-2.6520729E-2,2.125387E-1,-3.1404484E-3,3.0272532E-2,-9.747128E-3,-3.3720266E-2,3.4899354E-2,-1.2925148E-2],"categories":[],"categories_nodes":[],"categories_segments":[],"categories_sizes":[],"default_left":[0,0,0,0,0,0,0,0,0,0,0,0,0,0,0,0,0,0,0],"id":64,"left_children":[1,3,5,7,9,-1,11,13,15,-1,-1,-1,17,-1,-1,-1,-1,-1,-1],"loss_changes":[5.1978934E-1,9.443689E-1,6.716743E-1,1.3017406E0,3.132516E-1,0E0,1.089015E0,1.7707868E0,1.2847412E-1,0E0,0E0,0E0,1.5907476E0,0E0,0E0,0E0,0E0,0E0,0E0],"parents":[2147483647,0,0,1,1,2,2,3,3,4,4,6,6,7,7,8,8,12,12],"right_children":[2,4,6,8,10,-1,12,14,16,-1,-1,-1,18,-1,-1,-1,-1,-1,-1],"split_conditions":[5.1827292E0,4.6252456E0,5.481614E0,4.1570745E0,5.89348E1,-2.9651208E-2,3.857595E1,3.704833E0,6.110552E1,3.4609366E-2,1.1426533E-3,-2.6520729E-2,5.2907215E1,-3.1404484E-3,3.0272532E-2,-9.747128E-3,-3.3720266E-2,3.4899354E-2,-1.2925148E-2],"split_indices":[1,1,1,1,0,0,0,1,0,0,0,0,0,0,0,0,0,0,0],"split_type":[0,0,0,0,0,0,0,0,0,0,0,0,0,0,0,0,0,0,0],"sum_hessian":[3.635619E1,2.7215815E1,9.140375E0,2.435296E1,2.8628542E0,2.0691106E0,7.0712643E0,2.0619886E1,3.733075E0,1.84231E0,1.0205443E0,1.9036949E0,5.167569E0,1.645761E1,4.1622763E0,2.2745996E0,1.4584754E0,2.3075986E0,2.8599708E0],"tree_param":{"num_deleted":"0","num_feature":"3","num_nodes":"19","size_leaf_vector":"1"}},{"base_weights":[-8.097752E-3,-2.2639157E-2,2.2320349E-2,4.5795786E-1,-3.0686066E-2,3.019631E-2,3.6764094E-3,-3.0869588E-2,1.9614473E-2,-1.2554482E-2,4.9112784E-3],"categories":[],"categories_nodes":[],"categories_segments":[],"categories_sizes":[],"default_left":[0,0,0,0,0,0,0,0,0,0,0],"id":65,"left_children":[1,-1,3,5,7,-1,-1,-1,9,-1,-1],"loss_changes":[5.141778E-1,0E0,8.4148544E-1,1.7723566E-1,9.8253566E-1,0E0,0E0,0E0,6.897911E-1,0E0,0E0],"parents":[2147483647,0,0,2,2,3,3,4,4,8,8],"right_children":[2,-1,4,6,8,-1,-1,-1,10,-1,-1],"split_conditions":[2.8886638E0,-2.2639157E-2,3.120182E0,-9.504974E-2,-2.9964226E-1,3.019631E-2,3.6764094E-3,-3.0869588E-2,3.4275544E0,-1.2554482E-2,4.9112784E-3],"split_indices":[1,0,1,2,2,0,0,0,1,0,0],"split_type":[0,0,0,0,0,0,0,0,0,0,0],"sum_hessian":[3.626552E1,1.4328735E0,3.4832645E1,2.9498005E0,3.1882845E1,1.7241664E0,1.2256342E0,1.6273515E0,3.0255493E1,6.315038E0,2.3940454E1],"tree_param":{"num_deleted":"0","num_feature":"3","num_nodes":"11","size_leaf_vector":"1"}},{"base_weights":[-8.439514E-3,-9.7666785E-2,1.4161722E-1,6.0364925E-3,-6.95946E-1,6.270164E-1,-1.049389E-1,1.6157755E-1,-2.850705E-1,7.077593E-3,-5.7035178E-2,6.3291597E-3,4.718643E-2,-2.6895824E-1,2.4377236E-2,-1.7362166E-2,1.2556732E-2,-2.1441622E-2,1.607077E-2,1.1451164E-2,-2.6887486E-2],"categories":[],"categories_nodes":[],"categories_segments":[],"categories_sizes":[],"default_left":[0,0,0,0,0,0,0,0,0,0,0,0,0,0,0,0,0,0,0,0,0],"id":66,"left_children":[1,3,5,7,9,11,13,15,17,-1,-1,-1,-1,19,-1,-1,-1,-1,-1,-1,-1],"loss_changes":[5.1199687E-1,1.4885548E0,1.7750721E0,1.0141944E0,1.4811518E0,6.6576076E-1,1.1347883E0,7.5131196E-1,8.1857973E-1,0E0,0E0,0E0,0E0,1.2921246E0,0E0,0E0,0E0,0E0,0E0,0E0,0E0],"parents":[2147483647,0,0,1,1,2,2,3,3,4,4,5,5,6,6,7,7,8,8,13,13],"right_children":[2,4,6,8,10,12,14,16,18,-1,-1,-1,-1,20,-1,-1,-1,-1,-1,-1,-1],"split_conditions":[6.285097E1,6.1763725E1,6.494013E1,-1.0323707E-2,3.4876447E0,6.3953735E1,5.8262374E-2,-3.0103058E-1,6.049925E0,7.077593E-3,-5.7035178E-2,6.3291597E-3,4.718643E-2,3.120182E0,2.4377236E-2,-1.7362166E-2,1.2556732E-2,-2.1441622E-2,1.607077E-2,1.1451164E-2,-2.6887486E-2],"split_indices":[0,0,0,2,1,0,2,2,1,0,0,0,0,1,0,0,0,0,0,0,0],"split_type":[0,0,0,0,0,0,0,0,0,0,0,0,0,0,0,0,0,0,0,0,0],"sum_hessian":[3.6206654E1,2.2924398E1,1.3282252E1,2.038147E1,2.5429304E0,3.9542856E0,9.327967E0,1.3573814E1,6.807655E0,1.1184927E0,1.4244376E0,2.0751088E0,1.879177E0,7.733206E0,1.5947614E0,1.6009033E0,1.1972911E1,5.7399697E0,1.0676849E0,2.7627316E0,4.9704742E0],"tree_param":{"num_deleted":"0","num_feature":"3","num_nodes":"21","size_leaf_vector":"1"}},{"base_weights":[-7.954131E-3,-2.2293152E-2,2.2024762E-2,4.3859673E-1,-2.8512832E-2,2.9228372E-2,3.1449401E-3,-2.9621482E-2,1.952954E-2,-2.1695428E-2,3.2000323E-3],"categories":[],"categories_nodes":[],"categories_segments":[],"categories_sizes":[],"default_left":[0,0,0,0,0,0,0,0,0,0,0],"id":67,"left_children":[1,-1,3,5,7,-1,-1,-1,9,-1,-1],"loss_changes":[4.9677378E-1,0E0,7.634285E-1,1.7821568E-1,8.9879817E-1,0E0,0E0,0E0,6.558252E-1,0E0,0E0],"parents":[2147483647,0,0,2,2,3,3,4,4,8,8],"right_children":[2,-1,4,6,8,-1,-1,-1,10,-1,-1],"split_conditions":[2.8886638E0,-2.2293152E-2,3.120182E0,-9.504974E-2,-2.9964226E-1,2.9228372E-2,3.1449401E-3,-2.9621482E-2,3.24E0,-2.1695428E-2,3.2000323E-3],"split_indices":[1,0,1,2,2,0,0,0,1,0,0],"split_type":[0,0,0,0,0,0,0,0,0,0,0],"sum_hessian":[3.609269E1,1.4237063E0,3.4668983E1,2.9201455E0,3.1748838E1,1.7026578E0,1.2174877E0,1.6028885E0,3.014595E1,1.9103612E0,2.823559E1],"tree_param":{"num_deleted":"0","num_feature":"3","num_nodes":"11","size_leaf_vector":"1"}},{"base_weights":[-8.596201E-3,-1.886252E-2,2.7232055E-2,3.4575087E-1,-2.8122924E-2,-7.3988386E-3,5.1721495E-1,-2.0449263E-1,1.3741522E-1,4.3828845E-2,-3.4030308E-3,-8.8769116E-4,-4.3573063E-2,4.1004952E-2,9.298497E-4],"categories":[],"categories_nodes":[],"categories_segments":[],"categories_sizes":[],"default_left":[0,0,0,0,0,0,0,0,0,0,0,0,0,0,0],"id":68,"left_children":[1,-1,3,5,7,-1,9,11,13,-1,-1,-1,-1,-1,-1],"loss_changes":[4.994828E-1,0E0,6.2136596E-1,5.177123E-1,9.1795534E-1,0E0,9.1999984E-1,1.8725033E0,1.30857E0,0E0,0E0,0E0,0E0,0E0,0E0],"parents":[2147483647,0,0,2,2,3,3,4,4,6,6,7,7,8,8],"right_children":[2,-1,4,6,8,-1,10,12,14,-1,-1,-1,-1,-1,-1],"split_conditions":[3.71217E1,-1.886252E-2,4.6269054E1,-1.5417558E-1,-9.081716E-2,-7.3988386E-3,-5.944216E-2,-1.0600992E-1,-6.2286574E-2,4.3828845E-2,-3.4030308E-3,-8.8769116E-4,-4.3573063E-2,4.1004952E-2,9.298497E-4],"split_indices":[0,0,0,2,2,0,2,2,2,0,0,0,0,0,0],"split_type":[0,0,0,0,0,0,0,0,0,0,0,0,0,0,0],"sum_hessian":[3.6038216E1,2.348098E0,3.369012E1,4.211367E0,2.9478752E1,1.1208582E0,3.0905092E0,1.4158504E1,1.5320249E1,1.6064345E0,1.4840747E0,1.1863548E1,2.2949545E0,1.3961834E0,1.3924066E1],"tree_param":{"num_deleted":"0","num_feature":"3","num_nodes":"15","size_leaf_vector":"1"}},{"base_weights":[-7.833909E-3,-3.7870195E-2,2.0895995E-2,1.8089589E-2,-2.992939E-1,-4.03124E-1,9.602185E-2,-4.0405847E-2,1.9890476E-2,3.1830163E-3,-4.5477446E-2,-4.8420634E-3,1.929392E-2,1.640143E-2,-2.1357775E-2],"categories":[],"categories_nodes":[],"categories_segments":[],"categories_sizes":[],"default_left":[0,0,0,0,0,0,0,0,0,0,0,0,0,0,0],"id":69,"left_children":[1,3,-1,5,7,9,11,-1,13,-1,-1,-1,-1,-1,-1],"loss_changes":[4.8876467E-1,5.242032E-1,0E0,1.0285128E0,1.040807E0,1.2162634E0,1.5049665E0,0E0,8.0867445E-1,0E0,0E0,0E0,0E0,0E0,0E0],"parents":[2147483647,0,0,1,1,3,3,4,4,5,5,6,6,8,8],"right_children":[2,4,-1,6,8,10,12,-1,14,-1,-1,-1,-1,-1,-1],"split_conditions":[1.3056862E-1,3.1150421E-2,2.0895995E-2,4.26947E1,5.8262374E-2,-8.708694E-2,-9.081716E-2,-4.0405847E-2,1.02525495E-1,3.1830163E-3,-4.5477446E-2,-4.8420634E-3,1.929392E-2,1.640143E-2,-2.1357775E-2],"split_indices":[2,2,0,0,2,2,2,0,2,0,0,0,0,0,0],"split_type":[0,0,0,0,0,0,0,0,0,0,0,0,0,0,0],"sum_hessian":[3.598277E1,3.4462543E1,1.5202285E0,2.9152933E1,5.309609E0,3.9001873E0,2.5252745E1,1.4562814E0,3.8533278E0,2.4844775E0,1.4157096E0,1.5563254E1,9.689491E0,2.438653E0,1.4146748E0],"tree_param":{"num_deleted":"0","num_feature":"3","num_nodes":"15","size_leaf_vector":"1"}},{"base_weights":[-8.873162E-3,5.9152704E-2,-1.9725083E-1,-1.3387857E-2,5.198877E-1,-2.8908342E-2,-2.8146088E-2,8.658093E-2,-4.6514314E-1,3.421813E-2,1.5701177E-3,-2.512385E-2,2.0087835E-1,-3.1778743E-3,2.899817E-2,-9.950952E-3,-3.3887703E-2,3.3378597E-2,-1.2556518E-2],"categories":[],"categories_nodes":[],"categories_segments":[],"categories_sizes":[],"default_left":[0,0,0,0,0,0,0,0,0,0,0,0,0,0,0,0,0,0,0],"id":70,"left_children":[1,3,5,7,9,-1,11,13,15,-1,-1,-1,17,-1,-1,-1,-1,-1,-1],"loss_changes":[4.8461324E-1,9.389152E-1,6.2931603E-1,1.172303E0,2.8527617E-1,0E0,9.691522E-1,1.6196754E0,1.3097537E-1,0E0,0E0,0E0,1.4553212E0,0E0,0E0,0E0,0E0,0E0,0E0],"parents":[2147483647,0,0,1,1,2,2,3,3,4,4,6,6,7,7,8,8,12,12],"right_children":[2,4,6,8,10,-1,12,14,16,-1,-1,-1,18,-1,-1,-1,-1,-1,-1],"split_conditions":[5.1827292E0,4.6252456E0,5.481614E0,4.1570745E0,5.89348E1,-2.8908342E-2,3.857595E1,3.704833E0,4.4121304E0,3.421813E-2,1.5701177E-3,-2.512385E-2,5.2907215E1,-3.1778743E-3,2.899817E-2,-9.950952E-3,-3.3887703E-2,3.3378597E-2,-1.2556518E-2],"split_indices":[1,1,1,1,0,0,0,1,1,0,0,0,0,0,0,0,0,0,0],"split_type":[0,0,0,0,0,0,0,0,0,0,0,0,0,0,0,0,0,0,0],"sum_hessian":[3.590689E1,2.68845E1,9.022388E0,2.4066315E1,2.818186E0,2.030226E0,6.992162E0,2.0367535E1,3.69878E0,1.8083265E0,1.0098594E0,1.8879838E0,5.1041784E0,1.6283558E1,4.0839767E0,2.502493E0,1.1962872E0,2.276657E0,2.8275213E0],"tree_param":{"num_deleted":"0","num_feature":"3","num_nodes":"19","size_leaf_vector":"1"}},{"base_weights":[-8.84441E-3,-9.491874E-2,1.3631904E-1,6.9997255E-3,-6.7925996E-1,6.071313E-1,-1.0267723E-1,-1.321204E-1,3.318615E-1,6.7936964E-3,-5.5565145E-2,5.9680506E-3,4.6048906E-2,-2.6051334E-1,2.360077E-2,-1.2394954E-3,-4.1137014E-2,4.4875156E-2,-3.463853E-5,1.0974617E-2,-2.5948236E-2],"categories":[],"categories_nodes":[],"categories_segments":[],"categories_sizes":[],"default_left":[0,0,0,0,0,0,0,0,0,0,0,0,0,0,0,0,0,0,0,0,0],"id":71,"left_children":[1,3,5,7,9,11,13,15,17,-1,-1,-1,-1,19,-1,-1,-1,-1,-1,-1,-1],"loss_changes":[4.729407E-1,1.4162681E0,1.6505187E0,1.0006582E0,1.3942016E0,6.397339E-1,1.049751E0,1.1313694E0,1.2482593E0,0E0,0E0,0E0,0E0,1.1882746E0,0E0,0E0,0E0,0E0,0E0,0E0,0E0],"parents":[2147483647,0,0,1,1,2,2,3,3,4,4,5,5,6,6,7,7,8,8,13,13],"right_children":[2,4,6,8,10,12,14,16,18,-1,-1,-1,-1,20,-1,-1,-1,-1,-1,-1,-1],"split_conditions":[6.285097E1,6.1763725E1,6.494013E1,5.7275593E1,3.4876447E0,6.3953735E1,5.8262374E-2,5.5680244E1,5.8377033E1,6.7936964E-3,-5.5565145E-2,5.9680506E-3,4.6048906E-2,3.120182E0,2.360077E-2,-1.2394954E-3,-4.1137014E-2,4.4875156E-2,-3.463853E-5,1.0974617E-2,-2.5948236E-2],"split_indices":[0,0,0,0,1,0,2,0,0,0,0,0,0,1,0,0,0,0,0,0,0],"split_type":[0,0,0,0,0,0,0,0,0,0,0,0,0,0,0,0,0,0,0,0,0],"sum_hessian":[3.5815292E1,2.2700947E1,1.3114347E1,2.0170849E1,2.530098E0,3.89703E0,9.217318E0,1.4538238E1,5.632611E0,1.1139396E0,1.4161582E0,2.0661712E0,1.8308588E0,7.6601825E0,1.5571352E0,1.3479292E1,1.058946E0,1.456475E0,4.176136E0,2.7337322E0,4.9264503E0],"tree_param":{"num_deleted":"0","num_feature":"3","num_nodes":"21","size_leaf_vector":"1"}},{"base_weights":[-8.009987E-3,-2.1638302E-2,2.1136813E-2,4.272308E-1,-2.8244276E-2,2.8123481E-2,1.8931188E-3,-2.8463611E-2,1.7736306E-2,1.8009396E-2,-2.1383378E-3],"categories":[],"categories_nodes":[],"categories_segments":[],"categories_sizes":[],"default_left":[0,0,0,0,0,0,0,0,0,0,0],"id":72,"left_children":[1,-1,3,5,7,-1,-1,-1,9,-1,-1],"loss_changes":[4.6355227E-1,0E0,7.1996E-1,1.8349838E-1,8.163856E-1,0E0,0E0,0E0,6.5443707E-1,0E0,0E0],"parents":[2147483647,0,0,2,2,3,3,4,4,8,8],"right_children":[2,-1,4,6,8,-1,-1,-1,10,-1,-1],"split_conditions":[2.8886638E0,-2.1638302E-2,3.120182E0,6.626697E1,-2.9964226E-1,2.8123481E-2,1.8931188E-3,-2.8463611E-2,-2.1649985E-1,1.8009396E-2,-2.1383378E-3],"split_indices":[1,0,1,0,2,0,0,0,2,0,0],"split_type":[0,0,0,0,0,0,0,0,0,0,0],"sum_hessian":[3.5703934E1,1.4034638E0,3.4300472E1,2.88917E0,3.14113E1,1.8144058E0,1.0747641E0,1.5690032E0,2.9842299E1,3.7370594E0,2.6105238E1],